nep4_zbl 6 P Na F O C H 
zbl 0.8 1.6
cutoff 6.5 4 165 54
n_max 8 8
basis_size 8 8
l_max 4 2 0
ANN 50 0
 -8.5477877e-01
 -5.8592410e+00
 -4.8095312e+00
  5.9292078e-01
  8.6925703e-01
  5.2565441e+00
 -2.7068474e+00
 -3.1251450e+00
  2.4145584e+00
  6.6330290e-01
  1.6834795e-01
 -1.7821909e+00
  1.8145570e+00
  8.9499824e-02
 -9.8258013e-01
  9.3984407e-01
  2.6358860e+00
  3.9519644e+00
  9.3465644e-01
  5.6695020e-01
 -1.1283484e+00
 -3.1020744e+00
 -3.0280316e+00
  8.4851342e-01
  1.3076822e+00
  1.5107574e+00
 -2.8828239e+00
 -1.1661863e+00
 -5.1443677e+00
  2.7946451e-01
  1.0959365e+00
 -3.7503307e+00
 -1.3120146e+00
 -1.0884829e+00
  1.1629285e+00
 -2.8702776e+00
  8.3759475e-01
 -3.4004953e+00
 -2.4888661e+00
  3.2094431e-01
 -4.2308792e-01
  4.3480315e+00
  9.8754388e-01
 -2.7291787e+00
  2.3961577e+00
  3.8678047e-01
  1.1239783e+00
 -4.3115101e+00
 -2.3976183e+00
  1.1304001e+00
 -1.1694775e+00
  3.9560643e-01
  1.4205192e+00
  5.8823675e-01
  4.3670983e+00
 -7.8104258e-01
 -3.0959880e-01
  2.8615335e-01
  2.0193882e+00
 -1.0182907e-01
  5.4355173e+00
 -2.0758615e+00
 -6.6827321e+00
  3.6474121e+00
  4.8471103e+00
 -1.4378916e+00
  4.1185877e-01
  2.1707717e-01
  1.7820437e+00
 -2.3858385e+00
 -2.9222443e+00
 -2.3946665e-01
  3.1969881e+00
  4.3671932e+00
 -7.0204396e+00
 -4.9610019e+00
  7.2459304e-01
 -2.4058998e+00
 -2.5141661e+00
 -1.6918932e+00
  1.8913836e+00
 -5.0308293e-01
  4.0875053e+00
 -1.1962190e+00
 -1.6430186e+00
  2.0329967e+00
 -2.3244154e+00
  6.9335514e-01
 -1.5312437e+00
 -1.0923607e-01
  3.1833429e+00
 -1.8508773e+00
  1.6084930e+00
 -4.5969474e-01
  9.1947240e-01
 -9.0197212e-01
 -4.6403322e+00
 -3.4093505e-01
 -1.3424610e+00
  2.5861077e+00
 -3.8621886e+00
  1.4869773e+00
  2.9811988e+00
 -1.5354548e-01
  5.4010596e+00
 -2.7211268e+00
  1.3141681e+01
 -1.2663518e+00
 -4.5398221e+00
 -3.1643479e+00
  4.3103733e+00
  4.6237609e-01
 -7.9610515e-01
  2.4714680e+00
  7.1430016e+00
 -4.5772834e+00
  3.2822533e+00
 -7.2107190e-01
  6.3778210e-01
 -1.2435993e+00
 -4.0518904e+00
 -8.8339424e+00
  1.8183486e-01
 -3.6971929e+00
 -8.2407199e-02
  2.7554452e-02
  2.7829309e+00
 -2.6717737e+00
 -4.6489816e+00
 -1.1674178e-01
 -6.5336627e-01
  4.8681965e+00
 -2.4899931e+00
 -3.2601821e-01
  4.2636439e-01
 -6.9767255e-01
  1.3363914e+00
 -4.4840926e-01
  2.9844387e+00
  6.0624915e-01
  2.4907170e-01
 -9.0375322e-01
  1.7039042e+00
 -2.0697052e+00
 -5.9811753e-01
 -3.4326274e-02
 -4.8195097e-01
 -8.7517852e-01
  1.3514562e-01
 -1.0106897e+00
  5.0438541e-01
  1.0427030e+00
  1.8959408e-01
 -1.1771492e+00
  1.7901267e-01
  3.6623189e+00
 -2.3534322e+00
  4.7493878e-01
 -2.0136867e+00
 -3.0862052e+00
 -2.5412850e+00
 -2.1885190e+00
  1.0870714e+00
  1.0696647e+00
 -2.3492239e+00
 -7.8701717e-01
  4.2695752e-01
 -2.1810503e+00
 -2.4161923e+00
  2.9091411e+00
 -2.2896099e-01
  1.5581322e-03
 -1.2401700e+00
  4.0515590e+00
 -2.4536409e+00
 -4.4468236e+00
 -3.3356886e+00
  2.9744944e-01
  1.4321331e+00
 -1.8945636e+00
  1.8249809e+00
  1.2749903e+00
 -1.1208437e-01
 -1.0702561e+00
  1.8099588e-01
 -1.7079065e+00
  2.9887495e+00
 -3.1441071e+00
 -1.2733464e-01
  1.9908350e+00
 -1.2363935e+00
 -2.9283540e+00
  2.7554157e-01
  1.5816748e+00
 -3.0982623e-01
  2.6725459e-01
  1.7400945e+00
 -1.0786223e+00
  2.1334238e+00
  1.7927931e-01
 -1.9073014e+00
 -4.9909738e-01
  1.0685322e+00
 -1.3457655e+00
  2.4734205e-01
 -5.1924815e+00
 -1.3905759e+00
 -5.2178109e-01
 -1.5508617e+00
  1.0328875e+00
 -1.2654111e+00
  7.3414367e-01
  1.6045440e+00
 -1.2063289e+00
  3.5215578e+00
 -2.8867986e+00
  4.9484630e+00
  4.5477505e+00
  2.7924180e+00
  3.0012873e-01
 -2.8430305e+00
 -2.1420605e+00
 -4.4041581e+00
 -2.9182370e+00
 -7.1086365e-01
  1.0758256e+00
  2.6665564e+00
  1.6270721e+00
  2.6199911e+00
 -4.6723332e+00
 -2.0209296e-01
 -2.2424035e+00
  1.6903383e+00
 -6.9147879e-01
  8.9265233e-01
 -1.3495418e+00
  6.5713924e-01
  1.3097130e-02
 -6.1350269e+00
  3.0400038e+00
  4.1577244e+00
 -2.0536826e+00
 -1.6267256e+00
 -7.2908664e-01
  4.5631061e+00
 -3.2249291e+00
  1.3600446e+00
 -3.4730964e+00
 -9.8877227e-01
 -3.4770291e+00
 -1.0654113e-01
  1.6628732e-01
  3.8143315e+00
 -3.7574792e-01
 -2.6631434e+00
 -9.7250365e-02
  6.1912594e+00
  2.3782541e-01
  1.2875171e+00
  1.1129596e+00
 -3.3876452e-01
  2.9212420e+00
 -2.6194754e+00
 -1.6017719e-01
 -9.1492313e-01
  4.0356719e-01
 -2.1503017e+00
  3.9548102e-01
 -1.1236922e-01
  6.4342058e-01
  3.5392797e+00
 -3.0651989e+00
  3.4459910e+00
  2.5218272e-01
 -3.7175651e+00
  3.5999799e+00
  1.1947280e+00
  9.0813416e-01
  1.3608291e+00
  1.1563272e+00
  5.0267458e+00
  1.9215051e+00
  2.6520908e+00
  1.3293095e+00
 -8.4351387e+00
 -7.1238655e-01
 -2.2317224e+00
  2.5933337e+00
  2.4098704e+00
 -1.2880491e+00
  4.6964412e+00
 -1.4551789e+00
  1.5083128e+00
 -2.4844396e+00
  1.3582666e-01
  1.4256414e+00
  2.9442003e+00
  1.2708603e+00
  3.4159511e-01
  4.3689921e-01
 -5.9189576e-01
  2.2791762e+00
 -6.8482506e-01
 -4.3766556e+00
  7.3459673e-01
 -4.5512924e+00
 -2.6697183e+00
 -2.6954904e+00
  5.2425189e+00
  1.6782691e+00
  2.8428383e+00
  2.6225176e+00
  5.3843695e-01
  8.0378687e-01
 -2.9598422e+00
 -2.1711624e+00
  2.9756057e+00
  1.3291762e+00
 -5.7252512e+00
  1.1642720e+00
 -1.9896858e+00
  2.2446378e-01
 -4.3199363e-01
  3.5817604e+00
  1.2936705e+00
  2.7700466e-01
 -1.2333579e+00
  8.9459056e-01
  1.8286159e+00
 -2.1006504e-01
  3.8521068e+00
 -1.9752798e+00
  4.9858198e+00
 -1.7410008e+00
 -2.5057886e+00
 -2.7938337e+00
 -2.7737005e+00
 -2.0160301e+00
 -1.5171134e+00
  6.5532368e-01
 -1.1059022e+00
  3.2576163e+00
  1.1779254e-02
  1.1871406e+00
  1.6527809e+00
 -9.9165738e-01
  5.1078004e-01
  1.6095310e+00
  4.6754947e-01
  2.5065374e+00
  1.4337766e+00
 -1.7282984e+00
  7.3298544e-01
  4.2103583e-01
  4.1848481e-01
  3.7165551e+00
 -3.2244294e+00
  2.6220887e+00
 -1.7206748e+00
  2.1165414e+00
  1.1271791e+00
  9.6732986e-01
  2.7883162e+00
 -1.9261245e-01
  5.0261557e-01
  8.0282414e-01
  2.4148419e+00
  1.9302083e+00
 -3.6389225e+00
  3.0218716e+00
 -5.3462964e-01
 -6.5915072e-01
  2.6030443e+00
 -1.5963702e+00
 -3.5673228e-01
  1.6881217e+00
  6.3068986e+00
  5.2370095e+00
  2.9633987e+00
  2.5685484e+00
 -2.8886023e+00
  6.7082715e-01
  2.2321398e+00
  3.8694441e+00
 -5.5275664e+00
  3.3993554e+00
  1.3615718e+00
  2.3357322e+00
 -8.2513392e-01
  2.9274158e+00
 -1.1601614e+00
  1.2335359e+00
  3.5036030e-01
  6.0854888e-01
  4.4391918e-01
 -1.4269768e-01
 -2.3369641e+00
 -4.7607398e+00
 -1.5762603e+00
  5.1807151e+00
 -4.4047537e-01
  1.4436516e+00
 -1.0984116e+00
 -3.2392924e+00
  2.6592307e+00
  1.0776472e+00
  2.0765152e+00
 -4.3411529e-01
 -1.5730833e-01
 -5.1269168e-01
 -3.4942844e+00
  5.9389949e+00
  6.0637414e-01
 -2.3066840e+00
 -1.8901949e+00
  1.9182724e+00
 -1.3223910e+00
 -1.6710393e+00
 -6.2333661e-01
 -2.4209466e+00
  1.4402356e+00
  7.6824588e-01
 -3.4404674e+00
 -1.4696621e+00
  2.4428155e+00
 -2.5052335e+00
  1.0891016e+00
  2.2449095e+00
 -1.0167629e+00
 -1.8631312e-01
 -2.6269841e+00
 -2.4285612e+00
  2.1946607e+00
  1.3288474e+00
  1.4540840e+00
 -4.2940974e+00
 -1.4949653e+00
 -1.0018406e+00
 -1.2063172e+00
  4.1696329e+00
 -2.9253807e+00
  1.6807036e-02
 -5.1907384e-01
  5.0551324e+00
 -5.9496069e-01
 -2.8518679e+00
 -1.7753259e+00
  3.2592556e+00
 -3.0016521e-01
 -1.4169602e+00
 -2.3161962e+00
  2.8373005e+00
  1.2775313e+00
 -2.2159045e+00
  6.7390943e-01
 -3.5678327e-02
  4.9012947e+00
  9.3278736e-01
  2.0329118e+00
 -2.0802059e+00
 -2.1509013e+00
  1.4650351e+00
  1.4107607e-01
  1.0730013e-01
 -1.0491782e+00
  5.1440430e+00
  4.6063395e+00
  3.1597042e+00
  5.1159823e-01
  2.1144121e+00
  5.1229687e+00
 -1.6638956e+00
 -1.6050768e+00
 -1.7957708e+00
 -6.2184405e-01
  4.0873160e+00
 -8.6926818e-01
 -5.6759329e+00
 -7.7276582e-01
  2.4776399e+00
  3.3667700e+00
  2.6048181e+00
  9.4412035e-01
  1.2084883e+00
  1.8156140e+00
  1.3809927e+00
  9.4590259e-01
 -4.2675692e-01
 -7.8521519e+00
 -1.3203683e+00
  2.0780282e+00
 -2.2335525e+00
  1.4611963e+00
 -2.3910043e+00
  9.6468389e-01
 -2.8188665e+00
 -1.8884557e+00
  1.9847536e+00
 -2.8791656e+00
  1.1404449e+00
  3.2895837e+00
  1.3452791e+00
  2.1774786e+00
  5.4396331e-01
 -1.6618464e+00
 -7.9087293e-01
  6.7370778e-01
  4.5173049e-01
 -9.2094004e-01
  1.0432401e-02
 -1.9448609e+00
 -3.4453522e-02
  1.1210164e+00
  8.8801950e-01
  2.3909750e+00
 -2.8199184e-01
  5.2837753e-01
 -1.6415323e+00
  1.2986969e+00
 -1.6904728e+00
 -1.6125194e+00
  1.2652677e+00
  1.6094298e+00
 -9.3434024e-01
 -2.2261326e+00
  1.4329438e+00
  2.2742341e+00
  2.9129775e+00
 -8.5370916e-01
  2.3827152e+00
 -8.5655457e-01
 -2.5996587e+00
  7.3617560e-01
 -5.0424558e-01
 -4.8895243e-01
  1.7042049e+00
  1.6964055e+00
  2.0825193e+00
 -2.4062822e+00
  2.9344988e+00
  1.0648265e-01
  2.6702816e+00
 -7.9559636e-01
  4.5219755e+00
 -3.3534193e+00
  6.1818075e-01
  1.2210946e+00
 -2.3754070e+00
 -3.5697873e+00
 -1.9884697e+00
  2.7027843e+00
  2.2178552e+00
  8.6019373e-01
  2.6503263e+00
 -1.6925756e+00
 -1.2114809e+00
  3.9574400e-01
 -2.1585696e+00
  3.7933693e+00
 -2.3693192e+00
 -8.5745656e-01
  4.1710356e-01
 -9.6041870e-01
  2.9771123e+00
  1.0614808e+00
 -7.2554713e-01
 -2.5070074e+00
  7.7830219e-01
 -2.1317902e+00
 -3.8468723e+00
  1.2911658e+00
 -1.9840649e+00
  2.9871907e+00
 -2.5735695e+00
 -3.4156525e+00
  1.2403534e-02
  1.7025578e-01
 -5.2857804e-01
  4.8943868e+00
  1.7440805e+00
 -1.3050702e+00
 -1.2865762e+00
  8.0169976e-01
 -4.0357351e-01
 -2.2747390e+00
 -1.5204376e+00
 -8.0427498e-02
  1.3160419e-01
 -2.7897605e-01
  4.8387983e-01
 -1.4678445e+00
  1.5768588e+00
 -8.7270021e-01
  1.0658011e+00
 -3.4274839e-02
  3.2416160e+00
  4.1506267e+00
 -2.3504660e-01
 -1.2007048e+00
 -6.5482664e+00
 -2.7732747e+00
  1.0017444e+00
 -4.0519853e+00
 -1.9984022e+00
  2.8933790e+00
  1.8486643e-01
  5.7537050e+00
  6.8842039e+00
  3.4873514e+00
 -3.0686800e+00
  9.8317832e-01
 -6.8249214e-01
 -2.4103897e+00
  4.8591485e+00
  6.4140182e+00
  1.3333004e+00
  4.0353351e+00
  3.7666066e+00
 -1.8711348e-01
  2.5889499e+00
  1.9152915e+00
 -5.5404651e-01
 -1.5086541e+00
 -2.7667542e+00
 -6.8665713e-01
 -3.1143014e+00
 -4.0863419e+00
 -6.1966085e-01
 -7.4534422e-01
  1.0673349e-01
 -3.6960649e+00
 -1.6553609e+00
  2.8295269e+00
 -2.0701632e+00
  7.7426904e-01
  7.5358951e-01
 -1.5486601e-01
 -1.2185014e+00
  1.6752582e+00
  1.2861989e+00
  2.6976373e+00
 -2.1651430e+00
  2.0820620e+00
 -1.0723312e+00
 -2.0932999e+00
  2.5703318e+00
  4.9030384e-01
  3.0778010e+00
 -7.4764389e-01
  9.5796728e-01
  1.6404557e+00
 -1.9335312e+00
  2.2204642e+00
 -2.7960875e+00
  3.1473479e+00
  2.7607157e+00
 -2.2272722e-01
 -9.6548021e-01
 -2.7248010e-01
  2.9919598e+00
 -2.5718842e+00
  6.5616328e-01
  4.5145230e+00
  3.0395246e+00
  2.5108161e+00
  2.6026509e+00
  9.4563484e-01
 -2.2257888e+00
 -1.6217996e-01
 -1.8230096e-01
  1.3077279e+00
 -8.1889260e-01
  3.1177423e+00
 -3.3951035e-01
 -2.0426812e+00
  2.2063677e+00
  1.8425623e+00
  1.8745558e+00
 -5.3833616e-01
 -4.1067386e+00
 -1.5866567e+00
 -7.9541409e-01
  3.7421579e+00
 -1.9046296e+00
 -3.0270741e+00
  2.1573389e+00
  1.8744173e+00
  3.0457327e-01
  1.0825696e+00
  2.0442276e-01
  1.0807141e+00
 -3.3379431e+00
 -3.7348080e-01
 -9.4008946e-01
  5.6876552e-01
  3.1192322e+00
  1.0597601e+00
 -9.7403604e-01
 -2.6441071e+00
 -2.0288103e+00
  7.2362971e+00
 -1.1263385e+00
 -3.7691424e+00
 -2.1798162e+00
  4.0663190e+00
 -8.2910275e-01
 -8.2020503e-01
  2.2083254e+00
 -9.8145938e-01
 -3.1741980e-01
  2.0268559e+00
 -3.2181194e+00
 -3.5707994e+00
  6.2755637e+00
  2.4384296e-01
  2.5195167e+00
  7.2499454e-01
  1.0675693e+00
  1.2822214e+00
  3.4834516e+00
 -9.2366076e-01
  2.1053398e+00
 -3.4316165e+00
 -1.5716740e+00
 -9.7740352e-01
 -1.0256419e+00
  2.7236128e-01
  2.2772354e-01
  1.4122210e+00
  1.8349358e+00
 -1.3591573e+00
 -4.1670856e+00
  3.6870763e-01
  7.3366982e-01
  1.0990810e+00
  5.5979629e+00
  8.7584627e-01
  6.4228284e-01
  1.8894027e+00
 -2.9874966e+00
 -5.6149548e-01
 -2.5742519e+00
  3.8168690e-01
  3.1258523e+00
 -1.8706528e+00
  4.1459304e-01
 -7.3162532e-01
  2.0019298e+00
  3.2105021e+00
 -3.1734316e+00
 -9.9783319e-01
 -9.4453603e-01
  3.3791163e+00
 -1.4346284e+00
  2.3235352e+00
  4.8654885e+00
  1.2902076e+00
 -7.9554510e-01
  3.0994129e+00
 -1.7996702e+00
 -2.7537231e+00
 -1.3547709e+00
  3.2257662e+00
 -1.4841299e+00
  3.2035792e-01
 -7.2922033e-01
 -3.2521615e+00
  2.0785068e-01
 -2.8537605e+00
  2.0911901e+00
 -1.4642106e+00
 -2.5541531e-02
 -4.4366064e+00
 -1.3834151e+00
 -1.2412500e+00
 -1.8285210e+00
 -2.1710429e+00
  4.8659369e-01
  2.0977352e+00
 -1.0624168e+00
  2.9053388e+00
 -6.8104994e-01
 -8.0573291e-01
  6.5616101e-01
 -1.3686803e-01
  1.6178387e+00
  1.9221965e+00
  3.5440528e+00
 -8.6582881e-01
 -2.3733280e+00
 -3.3994317e-01
 -1.2224276e+00
  1.6952450e+00
 -3.5867605e-01
 -2.4042149e+00
  1.5072010e+00
  5.1408583e-01
  3.4789406e-02
  2.8200713e-01
 -2.8406501e+00
  2.9156888e+00
 -4.5962305e+00
  3.9133935e+00
  2.4975266e+00
 -1.6250675e+00
 -2.7098782e+00
 -3.1919558e+00
  3.8970575e+00
  3.0488620e+00
  3.8384407e+00
  2.5697899e+00
 -2.8975940e-01
  8.5646349e-01
  9.3248159e-01
 -1.4169906e+00
 -7.0518332e+00
 -4.4619718e-01
 -2.5956135e+00
  3.1091650e+00
 -3.7842314e+00
  6.5447974e-01
 -4.7348464e-01
  2.9439886e+00
  1.1924030e+00
 -2.0079458e+00
  1.2235023e+00
 -1.6401471e+00
  9.0003204e-01
  2.5706930e+00
 -2.7965307e+00
 -2.1301136e+00
 -2.7084014e+00
 -1.3973465e+00
 -4.3165779e+00
  2.0492649e+00
  4.9957168e-01
 -1.0528600e+00
 -5.5192716e-02
  1.8130605e-01
 -3.8533962e-01
 -2.2128944e+00
  2.0134161e+00
  8.7313169e-01
  2.3984392e+00
  1.3157109e+00
  1.3945603e-01
  3.2823520e+00
  8.3660203e-01
  1.2765722e+00
 -2.7425077e+00
  9.3027335e-01
  1.5430338e+00
 -1.8211265e+00
  1.0442914e+00
 -1.8401567e+00
  2.2845826e-01
 -3.4327571e+00
 -5.8735073e-01
 -1.1701860e+00
  9.5799339e-01
  2.9693882e+00
  7.2465402e-01
  3.5271730e-02
 -2.3531809e+00
  3.6750659e-01
  2.5368466e+00
 -2.4808455e+00
 -3.0562069e+00
  3.4485025e+00
 -4.2120752e-01
  1.5056113e+00
  1.0828601e+00
 -5.3207269e+00
  3.2780502e+00
  9.7371203e-01
 -3.1460160e-01
 -2.1039236e+00
  2.0679915e+00
 -4.7304225e+00
 -2.8033224e-01
  2.0099761e+00
  3.7878375e+00
  3.1590221e+00
  8.4270573e-01
  2.4618397e+00
 -3.5733919e+00
  9.9872082e-01
 -4.2296538e-01
  1.9969608e+00
  1.9771336e+00
  4.9420757e+00
  9.0487349e-01
 -3.2795894e+00
  9.4985813e-01
  2.7949674e+00
 -2.1919527e+00
 -2.0928543e+00
  1.2311741e+00
  2.7993567e+00
 -7.5232130e-01
  1.3456475e+00
  1.8016841e+00
  1.0690210e+00
 -2.5940230e-01
  6.8824613e-01
 -1.5704710e+00
  7.5484031e-01
  2.2506092e+00
 -2.1977031e+00
  2.7940612e+00
 -6.0055786e-01
  3.0348527e+00
  1.4107059e+00
  1.1065810e+00
 -1.5793141e+00
 -6.5622413e-01
  6.1264318e-01
 -5.9681171e-01
  9.2875457e-01
 -4.2331466e-01
 -4.2589455e+00
 -4.9685354e+00
 -3.4714127e-01
 -8.6246312e-01
 -7.5349647e-01
  2.7226179e+00
 -2.0753160e+00
 -5.4070315e+00
 -5.3190076e-01
 -2.3818643e+00
  1.6799110e+00
  7.0978856e+00
 -5.5646420e-01
 -2.5136769e+00
 -8.1300557e-01
  2.0391006e+00
 -5.5280023e+00
 -2.2196915e+00
  1.7880236e+00
 -6.1490607e-01
 -4.2176375e+00
  3.9613607e+00
 -8.3072978e-01
  5.2864325e-01
 -4.2565975e+00
  1.7287005e+00
 -7.3162979e-01
  1.4724420e+00
  2.9106370e-01
 -2.3132849e+00
  8.8985264e-01
 -3.3918223e+00
  2.4301598e+00
  2.5528479e+00
 -1.9909399e+00
  1.4635791e-02
 -3.0783334e+00
 -9.0938079e-01
  1.8195008e+00
  3.3348153e+00
 -9.0179825e-01
 -3.8304985e+00
  7.5566247e-02
  1.6297390e+00
 -2.2062292e+00
  2.1923242e+00
  1.2069852e+00
 -1.4835597e+00
  2.3282884e-01
 -3.7182198e+00
 -7.8770477e-01
 -1.6957234e+00
  1.8559641e+00
 -3.3156269e+00
 -3.0107765e+00
  2.0059662e+00
  5.1994795e-01
  3.0866134e+00
 -5.5695724e-01
 -3.7829074e-01
 -8.1392455e-01
  1.5852257e+00
 -1.7462437e+00
 -1.6233674e+00
 -1.9257002e-01
 -4.2989230e-01
  3.3879406e+00
  1.3445845e+00
 -1.9478106e+00
  2.8425866e-01
  4.0545840e+00
 -9.7448105e-01
 -8.0577457e-01
 -1.4251997e-01
  1.4729041e+00
 -2.0928698e+00
  2.8033844e-01
 -1.7882519e+00
 -1.9097836e+00
 -1.4520234e+00
 -1.7889837e+00
 -6.4171624e+00
 -1.6757416e+00
  3.5598347e-01
 -1.9112437e+00
 -1.8011174e+00
  2.8004375e+00
  3.2998541e-01
 -1.7259642e-01
  1.3218061e+00
  9.4917238e-01
  2.0733783e+00
 -3.8317734e-01
  1.8326900e+00
 -1.1771277e+00
  7.9785937e-01
  2.9553118e-01
  1.6468282e+00
 -6.7525399e-01
  5.3640872e-01
 -3.0949609e+00
 -1.4285401e+00
  5.1960057e-01
  1.0954195e+00
 -1.8387256e+00
 -2.0863445e-02
  2.7663589e+00
  3.2840645e+00
  1.0512178e+00
  3.3490896e+00
  5.5681294e-01
 -1.0985602e+00
  2.3643472e+00
 -7.1057367e-01
  2.2676916e+00
 -1.6985011e+00
 -3.0044158e+00
  2.1661966e+00
 -2.4198370e+00
 -4.5421100e+00
 -1.6053196e+00
  1.1132295e-02
 -3.1464222e-01
 -8.5959351e-01
 -2.1661948e-01
  2.2951800e-01
  2.6906660e+00
 -7.6591074e-01
  1.2861414e+00
  7.9253137e-01
 -2.3807018e+00
  1.1969728e+00
  1.6018674e-01
  1.1104178e+00
  1.2738603e+00
  3.1979177e-02
 -7.2035360e-01
  2.1800160e+00
  8.4025455e-01
 -1.3924233e+00
 -1.1108844e+00
 -5.8087432e-01
  3.4173450e+00
 -2.0467722e+00
 -7.0461357e-01
 -7.4517280e-01
  1.5060443e+00
 -7.4291980e-01
  1.4219194e-03
 -1.5827246e+00
 -2.1156042e+00
  6.1031801e-01
 -1.8576690e+00
  1.8040677e+00
  1.5557024e-01
 -3.3047860e+00
  1.4345793e+00
  2.0687792e+00
 -9.1065025e-01
  9.8731750e-01
  2.0704034e-01
 -3.1075430e+00
 -1.2638299e+00
  1.0124984e+00
  3.0149708e+00
 -1.6387551e+00
  2.8450364e-01
  2.3430674e+00
 -3.3708062e+00
 -2.1607633e+00
 -6.1518455e-01
 -3.1687860e+00
  2.2405195e-01
  2.6381342e+00
 -3.9863389e+00
 -5.1906520e-01
 -2.2321546e-01
  2.1861610e+00
  3.3107123e-01
  1.4654246e-01
  1.4588127e+00
  1.6348604e+00
 -1.0971199e+00
  2.1722169e+00
  5.5905391e-02
  1.3445666e+00
 -8.3231807e-01
 -8.4073269e-01
  1.5830058e+00
 -2.9810331e+00
  1.1117252e+00
 -1.5789243e+00
 -6.4024320e+00
  7.8357852e-01
 -3.8332331e+00
  1.7793666e+00
 -1.3344027e-01
  1.6319389e+00
  2.0982296e+00
 -6.8120676e-01
 -2.3252738e+00
 -3.3430676e+00
  1.3819995e+00
  5.8928281e-01
 -3.4552152e+00
  3.6999217e-01
  5.0980753e-01
  1.3865118e+00
  5.8804698e+00
 -4.2166549e-01
  4.3360865e-01
  2.4711746e-01
  1.6538103e+00
 -9.7399253e-01
 -5.0933439e-01
 -1.5146294e+00
 -1.1821196e+00
  5.6228528e+00
  1.3767465e+00
  2.5909030e+00
 -5.9111071e-01
 -3.5268171e+00
  1.5526434e+00
 -8.1605035e-01
  2.9747403e+00
 -1.2530916e+00
  3.0573266e+00
 -3.3320329e+00
  5.7374835e-01
  3.5893095e+00
  3.9252713e+00
  2.4529433e+00
 -2.4704549e+00
  1.7603498e+00
 -4.2685452e+00
  4.9924070e-01
 -3.7624688e+00
 -1.2778429e+00
 -6.8234366e-01
  7.2303581e-01
 -2.4856141e+00
  1.1424037e+00
  2.3280594e+00
 -3.0966778e+00
  2.0318966e-01
  2.2840948e+00
  2.1445403e+00
 -3.1409669e+00
 -8.0696702e-01
 -2.3991193e-01
 -1.7976775e+00
 -3.8710380e+00
  2.0549316e+00
  3.2134290e+00
  6.1353993e-01
  1.1023569e+00
 -6.1387950e-01
  3.5694554e+00
 -1.5706651e-01
  3.9241371e-01
 -7.7627921e-01
  3.8578638e-03
 -9.7578220e-02
 -6.1986204e-03
 -8.2535990e-02
 -3.3154413e-01
  2.9571958e+00
 -3.7283583e+00
 -3.4754643e+00
  3.0076711e+00
  5.8737969e+00
  1.8299554e-01
 -5.2747068e+00
  1.7946910e+00
  5.1134210e+00
  2.9428270e+00
  7.2951066e-01
 -1.6246021e-01
 -8.9567661e-01
  3.7285787e-01
  1.0612242e+00
 -2.7531197e+00
 -1.8848838e+00
 -1.8413173e+00
 -7.1105041e-02
 -1.7599589e+00
  1.0829628e+00
  1.4410638e+00
  1.1434486e+00
 -5.0579691e-01
 -1.0616536e+00
  2.2543011e+00
 -1.3000226e+00
  8.7582123e-01
 -1.4423816e+00
 -1.4024830e+00
  5.9110623e-02
 -1.2447248e+00
  3.6217511e+00
  4.5022503e-01
  1.1118510e+00
 -1.3315672e+00
  4.8208776e+00
  5.8640593e-01
 -2.2862275e+00
  1.0537970e+00
  1.5516660e-01
 -2.0153928e-01
  1.4629397e+00
 -4.0702791e+00
  1.9532555e-01
  3.7612262e-01
 -1.1767401e+00
  1.4020488e+00
 -2.0489242e+00
  4.8524370e+00
  1.2561138e+00
  1.8663706e+00
 -1.0770758e+00
 -3.6131153e+00
  1.5989235e-01
 -3.6866193e+00
 -4.1071262e+00
 -7.0939714e-01
 -7.9032147e-01
 -9.7329569e-01
  6.3498390e-01
  4.3194523e+00
 -2.7938013e+00
  3.1105378e+00
  2.8494034e+00
 -1.2776803e+00
 -1.8932250e+00
 -9.9617517e-01
  1.0362370e+00
  1.8691432e+00
  2.5023181e+00
  1.7654370e+00
  3.0461435e+00
 -9.6247572e-01
  2.9157019e-01
  1.1900431e+00
  1.1200172e+00
  1.5368131e+00
  1.5169337e+00
 -2.8706279e-01
  2.5970498e-01
  1.5998471e+00
  2.3241351e+00
 -1.8499075e+00
  3.8596421e-01
  6.9826680e-01
  1.1343557e-01
 -1.8061696e+00
  1.4080096e+00
  2.3878440e-01
 -3.3065033e+00
  1.1126235e+00
 -1.9786315e+00
  3.1110206e+00
 -2.3111176e+00
  3.4256494e+00
  1.6125804e-01
 -2.8144779e+00
 -5.1636167e+00
 -4.7136254e+00
  2.3330553e+00
 -2.7028015e+00
 -2.9299176e-01
  2.2073004e+00
  2.4147365e+00
  4.9090181e-02
  1.9766214e-01
 -2.6005569e-01
  1.1053692e+00
  6.7506039e-01
 -1.4431046e+00
 -3.5268829e+00
 -2.4464855e+00
  3.8977182e+00
 -1.0195018e+00
 -2.0120788e+00
 -1.8892579e+00
  7.8168160e-01
 -3.4717395e+00
  2.3135193e-01
  2.6258755e+00
 -1.6527584e+00
 -5.7977567e+00
  1.7993087e+00
  1.0350370e+00
 -6.5534371e-01
  1.4028984e-01
 -4.8518766e-02
  3.0134771e+00
  9.8490453e-01
 -2.0151952e-01
 -3.6321576e+00
  3.6318123e-01
 -4.7761729e-01
 -1.1399829e+00
  1.9775287e+00
 -1.8693904e+00
 -2.7110026e+00
  2.8814590e+00
 -1.1259384e+00
  1.7978139e-01
 -9.0989834e-01
 -5.5680156e-01
 -1.5027775e+00
 -2.3828015e-01
  2.2140586e+00
  1.7672857e+00
  4.9358096e+00
 -1.1089637e+00
 -9.8610359e-01
  9.8548430e-01
  4.5419297e-01
 -3.3869806e-01
  5.4867333e-01
  1.6964163e+00
  1.4574621e+00
 -4.8762831e-01
 -1.0173162e+00
  1.7803295e+00
 -2.0944475e-01
  1.8369409e-01
  7.6288742e-01
  2.6034267e+00
  3.2387233e+00
 -2.9611707e+00
  8.9925706e-02
  4.5977108e-02
 -2.0433209e+00
  2.4930947e+00
  4.5471144e+00
  3.6408083e+00
 -2.2663600e+00
  4.9007049e+00
 -1.8837260e+00
  2.8231139e+00
 -2.0652263e+00
  3.2456324e+00
 -9.2974873e+00
 -5.4344091e+00
 -1.8891299e+00
 -9.9502307e-01
  2.8637147e+00
  5.4726243e-01
 -3.7429598e-01
 -3.2018354e+00
  2.6182220e+00
  5.1004291e+00
 -3.9248731e+00
 -4.2472086e+00
  3.0847015e-03
 -1.6767353e-01
 -1.8118566e+00
 -2.6716745e+00
 -1.7240156e+00
  7.6318651e-01
  4.4986453e+00
  2.1397166e+00
 -5.4853144e+00
  8.6977953e-01
  4.8810892e+00
 -9.3591046e-01
 -2.2931242e+00
  9.1126800e-01
 -7.6053232e-01
  1.0202557e+00
 -1.4328030e+00
 -1.9392877e+00
 -2.2589002e+00
 -1.6176240e+00
  2.7169104e+00
  2.4685602e+00
 -3.5452315e-01
  1.3066683e+00
 -1.0506247e+00
  5.4402752e+00
  1.9284178e+00
 -1.0593117e+00
  7.2658086e-01
  3.1851463e+00
 -2.4471605e+00
 -1.0172129e+00
 -1.0171270e+00
 -2.9266641e+00
  3.6705554e-01
 -4.7137179e+00
  2.5275090e+00
 -1.6131754e+00
  2.7599676e+00
 -4.1776881e+00
  3.6947050e+00
  7.5817245e-01
 -1.8396457e+00
  1.6705077e+00
  6.0081005e+00
 -7.1552372e-01
 -8.8047546e-01
  6.6335827e-01
 -2.9178462e+00
  1.2680911e+00
  1.3000891e+00
 -7.8692842e-01
 -3.6517887e+00
  2.1151633e+00
 -4.7525468e+00
  2.7111285e+00
  3.7406454e+00
 -1.5601915e-01
 -4.6171975e+00
 -1.8156749e+00
 -4.3144908e+00
  5.8006269e-01
  8.8651115e-01
 -2.5589700e+00
 -2.6259941e-01
 -7.1964258e-01
  1.1564695e+00
 -6.2458411e-02
 -4.3368239e+00
 -2.8729908e+00
 -4.9164028e+00
 -2.8522115e+00
  9.8683518e-01
 -1.3870064e+00
  1.1791382e+00
  1.5601554e+00
 -1.3794378e+00
 -2.2880273e+00
  2.3653481e+00
  2.2187119e+00
  1.3538996e+00
  5.4635811e-01
 -3.5757921e+00
  4.1190724e+00
 -1.3478074e+00
  5.4012871e-01
  3.6983333e+00
 -2.3505895e+00
 -2.2966361e+00
 -1.5702274e+00
 -3.5931575e+00
  1.3615578e+00
  6.9577527e-01
  1.6206295e-04
  4.9595699e-01
  1.5891774e+00
  1.2209569e+00
  3.1506417e+00
 -4.2994847e+00
 -1.8616347e+00
 -1.2913350e+00
  8.5727453e-01
 -3.4444149e+00
  3.1616726e+00
 -3.3651766e-01
  8.2771289e-01
  1.2117677e+00
  1.9045498e+00
 -2.5078108e+00
 -3.3389740e+00
 -2.9130661e-01
 -2.1299982e-01
  2.2580941e-01
 -1.4019876e+00
  1.5354508e+00
  2.0276744e+00
 -6.3144761e-01
 -8.8071948e-01
  3.4780321e+00
 -1.1164618e-01
  7.5959024e+00
  1.1992029e+00
  2.0824943e+00
 -1.4799548e+00
 -3.5558522e-01
 -2.2832532e+00
  3.5860982e+00
  2.1124890e+00
  1.6537395e+00
  1.9128681e+00
  1.0571343e+00
 -2.5169661e+00
 -2.1224179e+00
 -6.2586513e+00
  4.4566151e-02
  5.8734846e-01
 -3.5547535e+00
  1.7873565e+00
 -1.2881305e+00
 -2.1755219e+00
 -4.4187055e+00
 -1.9550879e+00
  2.6142492e+00
 -4.7897887e+00
 -3.2013338e+00
 -8.7283713e-01
  1.4492612e+00
 -2.1905949e+00
  2.8069425e-01
 -3.4890337e+00
 -1.5432960e+00
 -3.5496054e+00
 -2.6078441e+00
 -3.0200851e+00
 -1.7404511e+00
 -1.0704594e+00
  1.4118667e+00
 -1.6210074e+00
  9.3591116e-02
 -1.4503100e+00
  6.5282488e+00
  1.8300841e+00
  8.4007096e-01
  5.5227180e+00
 -4.2933025e+00
  4.6884980e+00
 -5.9051812e-01
 -3.8934696e+00
  3.7629387e-01
  7.3542315e-01
  5.3761330e+00
 -8.0313021e-01
  8.4731883e-01
 -1.3542460e+00
  3.5371397e+00
  3.5016441e+00
  2.0897653e+00
  2.5587814e+00
 -3.4446836e+00
 -1.8703516e+00
 -2.8386474e+00
  2.8174803e+00
 -1.0055853e+00
 -4.5234615e-01
  6.4853340e-01
  2.0274069e+00
 -1.6758041e+00
 -1.8820903e-01
  3.6456144e-01
  1.8203456e+00
  5.3045624e-01
 -4.8709202e+00
 -2.0706656e+00
 -2.1318648e+00
  2.8097186e+00
 -2.3104360e+00
 -9.1631633e-01
  3.7121382e+00
 -1.7030703e+00
  1.0163043e+00
 -1.9473249e+00
  6.7076001e+00
 -1.7011665e+00
 -8.0650562e-01
 -6.1426420e+00
 -5.0434299e+00
  2.3322484e+00
 -9.9083245e-01
  1.8867578e-02
 -4.0295134e+00
 -3.2221131e+00
 -1.0048621e+00
 -9.6039176e-03
 -1.5570008e+00
  5.1750791e-01
 -1.5535861e+00
  3.1279166e+00
 -1.2090503e+00
  2.2174237e+00
 -4.2044420e+00
 -2.0601144e+00
 -1.2079837e+00
  1.9439200e+00
  9.7513908e-01
  5.4950128e+00
  2.6791925e+00
 -1.1559438e+00
  2.5656250e+00
 -3.4280384e+00
 -2.0822375e+00
  2.1213851e+00
  8.6183119e-01
 -2.0948129e+00
 -3.3585279e+00
  4.0549639e-01
  1.5345711e+00
 -3.2623475e+00
 -3.9104391e-02
  1.6091112e+00
  2.8802595e+00
  1.9801141e+00
  4.9296284e-01
  8.8434064e-01
 -4.5576163e-02
 -1.3799416e+00
 -1.9295815e+00
  9.2941302e-01
  3.9331236e-01
  1.5271360e+00
 -7.4439538e-01
  3.3542416e+00
 -8.5260355e-01
 -3.5752664e+00
  3.4360328e+00
 -4.1144042e+00
 -3.2172468e-01
 -3.2946312e+00
 -2.2105191e+00
  1.8468237e+00
  1.8026819e+00
 -6.9636364e+00
  3.6773736e+00
  3.2342806e+00
 -2.1804645e+00
 -2.9049182e+00
 -1.9554020e+00
 -3.0241678e+00
 -1.1851167e-01
  1.9443618e-01
 -1.8208593e+00
 -1.5910496e+00
 -1.5522833e+00
  2.1814284e+00
 -5.1106703e-01
  1.5944059e+00
 -1.0428169e+01
 -9.9367744e-01
  5.1574240e+00
 -2.7260616e+00
  7.2662807e-01
 -1.2349066e+00
 -2.6796135e-01
 -6.3161529e-03
 -1.3497177e-01
  8.7044895e-01
 -3.8741596e+00
 -1.4693761e+00
 -2.1084678e+00
  5.1041043e-01
 -1.1316161e+00
  2.3479378e+00
  4.4822392e-01
 -1.2172471e+00
  9.0387769e-02
  3.1615821e-01
 -4.6278934e+00
  6.7969310e-01
 -2.0625572e+00
  1.1714276e+00
 -2.8501289e+00
 -9.9165864e-02
  1.4350139e+00
  2.6616508e-01
  1.8274390e+00
  3.0309653e-01
 -1.6694379e+00
  1.5425141e-01
  4.6956072e+00
  1.4523543e+00
  1.2601880e+00
 -4.1604404e+00
  6.7141354e-01
 -1.2427694e+00
  1.8338073e+00
 -6.5549277e-03
 -1.3907502e+00
 -5.6216178e+00
  3.3267617e-01
 -1.2416916e+00
  3.3836889e+00
 -1.6094509e+00
 -4.6041451e+00
  1.5330406e+00
  5.3603396e+00
 -1.9846028e+00
  8.3138061e-01
  1.2839490e+00
 -4.9675851e+00
 -7.1503961e-01
  5.6994951e-01
 -2.9579601e+00
 -7.6097471e-01
 -2.5266085e+00
  2.6336520e+00
  1.6586390e+00
  2.6775149e-01
 -3.1334960e+00
  2.3087226e-01
 -3.2177866e-01
 -6.3009441e-01
 -2.1329196e-01
 -6.8647873e-01
 -2.1192141e+00
 -1.5106447e+00
 -2.2125001e+00
 -3.1296641e-02
 -1.7536515e-01
 -2.5018253e+00
 -1.3254246e+00
 -3.7959585e+00
 -3.7384972e-03
 -1.7557606e+00
  4.6643085e+00
 -2.2378390e+00
 -4.7593325e-01
 -3.0896602e+00
  7.9249853e-01
  4.6471610e+00
 -3.5348305e-01
 -3.8110404e+00
 -7.2102010e-01
  2.1280539e+00
 -1.7890710e-01
  3.1228414e+00
 -1.8673275e+00
 -2.1435621e+00
 -3.3849492e+00
  2.8956168e+00
  4.8004076e-01
  2.4358253e+00
  2.1783154e+00
  1.5744067e+00
  2.3674784e+00
 -2.0820746e+00
  2.0300012e+00
  2.4824398e+00
 -3.5975060e-01
 -3.1824100e+00
 -8.2112497e-01
  4.1005392e+00
 -1.7605129e+00
 -3.4402186e-01
 -2.1362574e-01
  4.1547756e+00
  3.8226964e+00
 -1.3468385e+00
 -4.0999928e+00
 -1.8878505e+00
  2.0742450e+00
  1.4074420e+00
  4.3117075e+00
 -2.8640721e+00
 -1.2404248e-02
 -9.2904174e-01
 -9.6008199e-01
  3.7766668e-01
 -9.7456360e-01
 -3.4936309e+00
  2.5759790e+00
 -9.9867451e-01
 -9.5631766e-01
 -9.6974701e-01
 -4.0451074e+00
 -4.1234798e+00
 -2.1923740e+00
 -2.4947329e+00
 -4.0265207e+00
  3.7994008e+00
 -1.5351510e+00
 -6.3509613e-01
 -7.9259276e-01
  1.5172645e+00
 -1.2874039e+00
 -5.1971602e-01
 -1.9420452e+00
  1.7426258e+00
 -2.7330391e+00
 -3.5710537e+00
 -5.2294068e+00
  9.1780049e-01
 -9.0630388e-01
 -1.7268491e+00
  6.1135685e-01
  1.8372318e-01
  1.1650555e+00
  1.3813503e+00
 -2.1151457e+00
 -1.9591769e+00
  1.8426888e+00
 -7.2594887e-01
 -7.4607837e-01
 -2.6045756e+00
 -4.3386114e-01
  2.0648915e-01
  8.0337727e-01
  5.6295920e-02
  2.5696180e+00
 -8.9231229e-01
  2.3916890e-01
 -2.2152987e+00
 -4.3063751e-01
  2.5371175e+00
  8.2441902e-01
  2.1716688e+00
  5.2212441e-01
  6.9488794e-01
 -1.5536052e+00
 -4.9607487e+00
 -1.2363582e+00
  3.0053658e+00
  2.3800957e-01
  8.9243746e-01
  3.2170007e+00
 -1.3652873e+00
  1.1225449e+00
 -1.5387460e+00
 -1.9534078e+00
 -2.5805485e+00
 -2.0084753e+00
 -2.0673616e+00
 -1.7608325e+00
  7.2757015e+00
  3.0524979e+00
  3.2319722e+00
  6.0335073e+00
  1.9478825e+00
 -3.0851953e+00
 -1.3123969e+00
  6.6268101e+00
 -8.0228364e-01
  2.3264418e+00
 -2.4835587e+00
 -3.4816465e+00
  8.0983019e-01
  6.9806981e+00
  7.3298705e-01
 -2.3658719e+00
  1.4217672e-01
 -1.8745185e+00
  2.5427678e+00
 -4.1152153e+00
  6.7125924e-02
 -5.1544797e-01
 -9.3517656e+00
 -2.4982688e+00
  2.3103287e+00
 -4.4361705e-01
 -2.9699636e+00
 -2.5474839e+00
  1.6049446e+00
  2.1046336e+00
 -3.0349076e+00
 -2.1891186e+00
  2.0295577e+00
  5.3155279e-01
 -2.2020540e+00
 -3.5499034e+00
 -3.6485645e-01
  2.6365438e-01
  2.7249682e+00
 -3.1306181e+00
 -3.3486052e+00
 -1.5336754e+00
  1.1267015e+00
  1.5755785e+00
  1.9059739e+00
 -3.8331692e+00
 -1.4999073e+00
 -3.9695818e+00
  2.9558461e+00
  3.6884360e+00
 -1.0224137e+00
  4.2805581e+00
 -5.8193970e+00
 -1.3699687e-01
  1.7153088e+00
  5.6930417e-01
 -2.7436774e+00
  3.3518592e-01
 -9.0106577e-01
  1.3961492e+00
 -1.6700311e+00
 -1.6097947e+00
  2.5480399e+00
 -4.5771928e+00
  2.3922487e-01
  2.4845575e-01
  2.3798545e-01
  5.1276331e+00
  2.6254911e+00
 -1.0110588e+00
 -9.3536001e-01
  1.8758318e+00
  1.8232816e-01
  3.6086318e-01
 -2.5132528e-01
  4.4776239e+00
  1.3350216e+00
 -4.5915151e-01
 -2.3997421e+00
  3.2873623e+00
 -3.0935863e-01
  5.9080839e-01
 -3.3277330e+00
  1.5030050e+00
 -1.0405707e+00
  1.9602463e+00
  7.1347976e-01
  9.7222847e-01
 -2.5929461e+00
  4.1551213e+00
  4.2430906e+00
  2.0128219e+00
  7.1120214e-01
 -1.4897600e+00
  3.4720323e+00
  1.1560218e+00
 -9.4474262e-01
  3.7554600e+00
 -2.9299232e-01
  1.8995818e+00
  8.2986194e-01
 -2.7391987e+00
  2.3066831e-01
 -5.7314676e-01
 -1.5226870e+00
 -1.9409226e+00
  3.2686312e+00
 -2.1435466e+00
 -4.1417345e-01
 -8.7522495e-01
 -6.0574615e-01
 -1.7044133e+00
 -2.3484836e+00
 -5.3336114e-01
  8.7134862e-01
 -2.6172936e+00
  7.9924685e-01
 -2.9757512e-01
  2.1790636e+00
  4.8752916e-01
 -4.9654417e+00
  1.4644192e-01
  1.5780669e+00
  2.0196164e+00
 -7.6205105e-01
  3.0186388e-01
 -3.5345399e-01
  9.6300113e-01
 -1.9000310e+00
  1.4013904e+00
  1.4446489e+00
  1.9546511e+00
  2.6614490e-01
  1.6869198e+00
  1.6766104e+00
  3.1692858e+00
  1.6784809e+00
  4.4808367e-01
 -3.3769495e+00
  1.4653858e+00
 -6.7368674e-01
  3.1296887e+00
  9.2374253e-01
  8.0645829e-01
  2.9432132e+00
 -1.1087295e+00
  4.6413711e-01
 -4.3061000e-01
 -2.9351892e-02
  1.4567016e+00
 -1.0142846e-01
 -3.5642028e-01
  1.4110302e+00
 -2.1853231e-02
 -2.5131557e+00
 -2.8578844e+00
  1.7080718e+00
 -7.8479141e-01
  1.1960807e+00
 -9.0552144e-02
 -1.1208757e+00
 -7.8076088e-01
  4.0364900e+00
  2.9868606e-02
 -1.2845564e-01
 -3.5847771e+00
  2.4783385e-01
  6.5152578e+00
  1.5835809e+00
 -1.0114083e+00
 -2.8763716e+00
 -1.1242663e-02
 -5.8066559e-01
 -1.6528034e+00
 -3.0919423e+00
 -5.5465770e+00
  1.7787427e-01
 -4.0480790e+00
 -9.4266552e-01
  6.5974107e+00
 -1.8863651e+00
 -5.0092316e-01
 -1.2592429e+00
 -3.6352842e+00
 -1.5997235e-02
  2.7264133e-01
  6.6693556e-01
 -6.0355371e-01
  3.9014459e+00
  8.7427419e-01
 -1.1597468e+00
  2.8189058e+00
 -5.9222794e-01
  1.4657108e+00
  3.1722898e+00
 -1.2572366e+00
  1.7246456e+00
 -1.7299300e+00
 -5.5273049e-02
 -8.9707643e-01
 -2.6398542e+00
  1.6792237e+00
 -4.4540462e-01
 -1.4670554e+00
  3.5615094e+00
 -8.6525404e-01
 -1.8803887e+00
 -4.5849447e+00
 -1.4693485e+00
 -1.4957994e+00
  2.8146551e+00
 -2.5988326e+00
  2.9224138e+00
  1.4326093e+00
 -1.6548715e+00
 -4.1451039e+00
 -1.0164458e+00
  2.6819912e-01
 -1.5660625e+00
 -7.5956571e-01
  3.6386864e+00
 -7.1780926e-01
  3.9554451e-02
  7.8402770e-01
  5.2528518e-01
 -6.9589722e-01
 -2.4120851e+00
  1.5759681e+00
  3.5773247e-01
 -2.1711843e+00
  2.3578272e+00
 -5.1054871e-01
  5.5123782e-01
 -1.3001347e+00
 -2.0309860e-01
  1.4872932e+00
  1.4644865e+00
  1.1917698e-02
 -1.1196029e+00
 -3.0587022e+00
 -3.0254345e+00
  1.2166872e+00
 -4.5709591e+00
 -1.2893375e+00
  3.7594742e-01
 -1.1295705e+00
  4.3811675e-02
  2.9341865e+00
  6.5243453e-01
  2.0513999e+00
  1.3265717e+00
 -1.1413069e+00
 -1.1368860e+00
  1.3560841e+00
 -2.7739813e+00
  4.1390884e-01
  9.1277468e-01
 -4.1578567e-01
  8.9641619e-01
 -1.4957559e+00
  4.4863439e-01
  1.8940840e+00
 -2.0887313e+00
  2.2804813e+00
 -4.7268042e-01
  2.2566516e+00
 -2.1335783e+00
  2.3643887e+00
  1.8461845e+00
  1.8091198e+00
 -7.8753686e-01
 -1.2018142e+00
 -2.9430604e+00
  1.7283003e+00
 -3.2709448e+00
  1.9164088e+00
 -5.2354646e-01
 -1.2945625e+00
 -9.3660313e-01
 -2.3812885e+00
 -1.8605329e+00
 -2.0576181e+00
 -4.7640982e+00
 -4.5848885e+00
 -1.3673254e+00
  2.1272750e+00
 -1.0684973e+00
  3.0919155e-01
 -7.0584065e-01
  2.5807674e+00
  7.1026802e-01
 -3.0360131e+00
  6.0585113e+00
  5.4985964e-01
 -2.1623819e+00
  1.2326920e+00
 -3.2112601e-01
 -4.3344150e+00
 -3.4437387e+00
 -1.0791664e+00
  5.5214125e-01
  2.8500936e+00
  3.4374855e+00
 -1.6706259e+00
 -8.3979440e-01
  1.2951739e+00
  1.1978528e+00
  2.8483251e-01
 -1.1641759e-01
  1.7893611e+00
 -1.3814359e+00
 -1.3892736e+00
 -2.1476202e+00
  3.4620538e+00
  1.1811266e+00
 -4.3398046e+00
 -2.9632590e+00
  2.3912265e+00
 -2.5276303e+00
  1.7953645e+00
 -7.5117356e-01
  9.4517553e-01
 -1.7554369e+00
 -2.6705539e+00
 -9.1564757e-01
 -3.7222400e+00
 -1.4253385e+00
  4.6320157e+00
 -4.0990968e+00
  7.8922766e-01
  2.5459220e+00
 -2.0293467e-01
  1.8596292e+00
  1.1717322e+00
 -2.4732885e+00
 -1.1975417e+00
 -3.3223627e+00
  7.3868591e-01
  4.9925694e+00
  6.3812256e-01
  9.9936920e-01
  1.0311188e+00
  2.2802749e+00
 -1.9513799e-01
  9.7653335e-01
  1.2923137e+00
  2.0773642e+00
 -4.1507077e-01
  1.0175131e+01
  6.9891316e-01
  4.2602932e-01
  7.1144468e-01
 -2.8765050e-01
 -1.8430679e+00
 -4.4153419e+00
  4.9566782e-01
 -3.6759970e+00
 -9.6905553e-01
 -1.0693755e+00
 -2.1754231e+00
 -3.1799734e+00
 -3.2593184e+00
 -1.3869973e+00
  1.1855260e+00
 -1.7382838e+00
  2.2400679e-01
  3.0002615e+00
  1.6230909e+00
 -1.7533882e+00
 -4.3701631e-01
 -2.3554289e+00
 -1.8908735e-01
  2.2060838e+00
 -3.0336139e+00
  3.5979118e+00
  7.6732296e-01
  2.5813620e+00
 -5.2917504e-01
 -2.0204995e+00
  2.2773454e+00
  6.1944610e-01
  1.4190027e+00
  2.5554278e-01
  1.9379599e+00
  2.5491946e+00
  1.2976191e+00
  2.3307543e+00
  2.0342288e+00
 -2.4120343e+00
  2.7688770e+00
  3.5844309e+00
  5.6613250e+00
  1.3850965e+00
 -2.8761730e+00
  1.7723511e+00
  4.1384435e-01
  7.6909506e-01
  5.7978206e+00
  2.3406243e+00
  6.8917365e+00
  4.7773760e-02
  1.4608697e+00
 -2.6994655e-01
 -2.3074536e+00
  3.3676708e+00
 -2.0860438e+00
 -6.2995701e+00
  1.5778023e+00
  1.0351149e+00
 -1.7593020e+00
  4.5704055e+00
  6.9214292e+00
  4.7165081e-01
  3.6435132e+00
 -4.4960335e-01
 -2.9361870e+00
 -4.4283718e-01
  1.7594039e+00
 -1.3839626e+00
  6.6840644e+00
  4.2172995e+00
  2.9673514e+00
  5.9510360e+00
  3.4482896e-01
  2.0120959e+00
 -3.4864163e+00
  6.1270352e-02
 -5.3347522e-01
  1.4502552e+00
  3.0504864e-01
  2.8514321e+00
 -8.5950762e-02
 -2.7068996e+00
  4.7021828e+00
 -6.9563255e+00
 -4.5158076e+00
 -2.2484529e+00
 -4.1185131e+00
 -3.7722173e-01
  4.2253351e+00
  1.3219386e+00
 -4.1843411e-01
 -1.5415620e+00
  4.2701864e+00
 -3.2033722e+00
 -4.2060070e+00
 -2.9216666e+00
  5.5880523e-01
  1.8442903e+00
  9.2846191e-01
 -1.9238703e+00
  4.2783961e+00
 -3.1483325e-01
 -4.5990801e-01
  4.1913352e+00
  9.0463287e-01
 -2.7769020e+00
 -3.3680761e+00
  4.4845033e+00
 -6.5286714e-01
 -1.0785996e+00
  3.4992003e+00
  3.1524673e+00
 -1.2674155e+00
  1.9972326e+00
 -9.3712324e-01
  3.7868252e+00
  8.5436696e-01
 -5.9957963e-01
 -1.4586492e+00
 -3.2813475e+00
  4.2753229e+00
 -2.0901432e+00
 -2.9058456e+00
  4.0293604e-01
  4.0702786e+00
  1.6888009e+00
 -3.9596355e-01
  2.8129516e+00
  2.6180398e+00
  1.6807790e+00
  9.0094991e-03
  2.7823934e-01
 -4.1416699e-01
 -6.2379193e-02
  1.7837818e+00
  2.9354208e+00
 -1.4506186e+00
  1.1277618e+00
 -2.0054426e+00
  1.3562107e+00
 -8.5395879e-01
 -3.1160953e+00
 -2.1319327e+00
  9.0272886e-01
  1.9723037e-01
 -3.9087555e+00
 -2.2341936e+00
 -1.8915032e+00
 -8.8627348e+00
 -5.2208893e-02
 -3.3240690e+00
 -5.2863777e-01
  9.4105995e-01
 -1.4019641e+00
  5.6860888e-01
 -5.3043467e-01
 -6.4973631e+00
  2.3865647e+00
 -1.9010601e+00
 -3.2234790e+00
  1.5563755e+00
 -2.0062897e+00
  8.9755285e-01
 -3.7259686e+00
  1.9986314e+00
 -2.9104774e+00
  1.4050149e+00
 -6.6254373e+00
  1.4052002e+00
 -2.5838926e+00
  3.9356310e+00
  1.0919819e+00
 -6.4840132e-01
 -2.4598222e+00
  2.7872748e+00
  9.9843007e-01
  1.2318226e+00
 -2.2969866e+00
  3.7876811e+00
  3.5516357e+00
  7.9608297e-01
  1.8606349e+00
 -3.5109138e-01
  2.4289335e-01
  2.7186859e+00
  2.5158095e+00
 -5.0744252e+00
 -5.2282774e-01
 -2.8687948e-01
 -1.1642917e+00
  3.5255134e-01
 -1.8007346e+00
 -1.7748353e+00
  3.3420258e+00
 -7.0385923e+00
  5.5399638e-01
 -1.7221804e+00
  5.5706525e-01
  2.4912920e+00
 -3.9374784e-01
 -5.5734611e-01
  2.1795657e+00
 -5.8491378e+00
 -1.9321530e+00
  3.5083678e+00
 -1.5796320e+00
 -1.8078086e+00
  2.4226677e+00
  5.9492087e-01
  1.2524518e+00
 -9.8317748e-01
  2.2947044e+00
  2.3672860e+00
  1.0358748e+00
 -3.5433161e+00
 -4.6274056e+00
  4.1757613e-01
  1.1870919e+00
 -1.1110913e+00
 -2.1070535e+00
  4.4720712e+00
  2.4385793e+00
 -1.5257052e+00
 -8.3964336e-01
 -3.0857059e-01
  7.1365279e-01
 -4.9258356e+00
  9.3553275e-01
  7.6037186e-01
  1.1840774e-01
  1.1376501e+00
 -1.9812429e+00
  3.3152516e+00
  2.8191698e+00
  2.1816895e+00
  2.6121669e+00
 -3.8156385e+00
 -1.9275348e+00
 -3.5685536e-01
 -1.8649722e+00
  1.1256660e+00
  3.9868456e-01
  1.2675862e+00
 -1.8055549e+00
 -1.1602653e+00
 -1.4037086e+00
 -2.2270441e+00
 -9.4754452e-01
  1.2092526e+00
 -3.8013873e+00
 -5.2854228e-01
 -1.7398489e+00
  1.5992099e+00
 -3.6340842e+00
 -3.6776367e-01
  1.1312658e-02
  7.3232045e+00
 -8.8643068e-01
 -2.0010293e+00
 -1.1954874e+00
  2.4486861e-01
 -2.9829619e+00
 -3.8973856e+00
  1.9767333e+00
 -3.6502063e-01
  2.2339196e+00
  1.8919289e+00
 -7.4164879e-01
  1.6690321e+00
 -7.1310097e-01
 -1.6623741e+00
 -4.0828099e+00
  1.4734792e+00
 -3.3912334e+00
 -6.1498008e+00
 -2.7517605e-01
 -4.7882447e+00
 -2.5630419e+00
 -2.4615076e+00
  3.2299705e+00
 -1.1932271e+00
  1.3126265e+00
 -9.9528533e-01
 -1.8075569e+00
  3.6613007e+00
  3.1784458e+00
  1.5056453e+00
 -1.4329185e+00
  1.1537198e+00
 -7.7809274e-01
 -2.5993140e+00
 -2.4931467e+00
  1.5227646e+00
 -5.5659566e+00
 -1.7032998e+00
 -5.3983480e-01
  1.3315352e+00
  1.5031343e+00
 -1.6112272e-01
  1.0601009e+00
  4.1244593e-01
 -4.0495384e-01
  3.1302471e+00
 -1.7877462e+00
  1.7488414e-01
 -2.0534432e+00
  1.9720592e+00
 -8.4704357e-01
 -1.0172946e+00
  3.8681754e-01
 -9.5136172e-01
  4.3299174e-01
 -1.5070107e+00
 -8.1621569e-01
  9.5350277e-01
 -1.0952282e+00
  2.8408940e+00
  2.0126918e-01
  2.3697493e+00
 -6.7891703e+00
  1.1716473e-01
 -1.1091791e+00
  2.7824063e+00
 -1.3453590e+00
 -5.5631361e+00
 -5.9291488e-01
 -3.9229171e+00
 -1.4316691e+00
  6.1015445e-01
  1.6102519e+00
  4.0124846e+00
  2.0398183e-01
  2.8009908e+00
  2.9720666e+00
 -7.5199419e-01
  2.6210804e+00
  1.6112647e+00
 -9.9885011e-01
 -4.8416480e-02
  9.9362403e-01
 -1.9098128e+00
 -4.8728776e-01
  4.1823530e+00
 -2.5473270e+00
 -1.0954114e+00
 -3.0892727e-01
  3.0967838e-01
  4.4291945e+00
  5.1639771e+00
  6.1267503e-02
 -2.5990000e+00
 -7.5985354e-01
  1.6621914e+00
  1.0235636e+00
  1.0135761e+00
 -2.6373044e-01
 -2.2850811e+00
 -6.7919439e-01
  3.3357137e-01
 -3.6202457e+00
 -1.3202965e+00
 -1.7863775e+00
 -1.7181134e-01
 -3.3076763e+00
 -1.8037257e+00
  1.2874907e+00
 -9.2189890e-01
 -3.5405884e+00
  3.9801364e+00
 -3.3401577e+00
  2.2441339e+00
  3.1063569e+00
 -3.1508040e+00
  3.1812739e+00
 -1.7304206e+00
 -1.6085764e+00
 -3.1582606e+00
  1.1319294e+00
  9.8563170e-01
  4.5292696e-01
  1.3315363e-01
  3.0345955e+00
 -2.7333584e+00
 -4.9093252e-01
  2.1938989e+00
  4.4302052e-01
 -1.6681681e+00
 -2.7663009e-03
  1.6219736e+00
 -7.4677038e+00
  4.1082677e-02
  2.1932216e+00
  1.7996701e+00
 -9.2052835e-01
 -9.6633238e-01
  1.6196170e+00
  3.4161980e+00
 -3.4328723e+00
 -2.1657331e+00
 -2.4272335e+00
 -4.7108725e-01
 -3.8712852e+00
  3.3849776e-02
  1.6686244e+00
 -1.4710629e+00
 -1.9261429e+00
 -3.1652565e+00
  7.1646297e-01
  2.2220469e+00
 -2.6764126e+00
 -4.5838183e-01
  8.7279963e-01
  1.6660690e+00
  1.7353904e+00
  3.2625899e-02
 -3.0857906e+00
 -2.3337360e-03
  5.7302308e-01
  5.8738023e-01
  2.8859451e+00
 -3.2898489e-01
  2.6781502e+00
  7.8940576e-01
  1.1219726e+00
  1.4935168e+00
 -5.9936827e-01
 -1.0684884e+00
  5.1856804e-01
  5.0503860e+00
  1.6974257e+00
 -1.9121383e+00
  2.2903881e+00
 -9.5731908e-01
  4.9852343e+00
 -2.5758817e+00
  8.4937751e-01
  1.3853636e-01
 -2.9659180e-02
 -9.2282927e-01
  8.7985176e-01
  1.9975265e+00
  3.0334063e+00
 -1.7088805e+00
 -2.6533227e+00
  2.3935785e+00
 -2.4450467e+00
 -4.0291828e-01
  4.9699287e+00
  2.3361969e+00
  1.0533441e+00
 -1.9633437e-03
 -1.0443777e+00
  1.0938990e+00
  6.5274328e-01
 -6.7844898e-01
 -1.4517342e+00
  2.7702761e+00
 -8.8233000e-01
  1.7412186e+00
 -4.2618241e+00
 -8.7835503e-01
 -3.5242972e-01
  6.3452597e+00
  2.7331641e+00
  8.7140435e-01
  4.1740012e-01
 -7.1926856e+00
  4.2082105e+00
  3.5240393e+00
 -1.5616879e+00
 -1.8390574e+00
 -2.0829961e+00
 -3.4935024e+00
  2.0507913e+00
 -1.2168700e+00
  1.2555388e+00
 -6.0455842e+00
 -1.3501136e+00
 -1.4803427e+00
 -5.6582314e-01
 -7.3759425e-01
  2.9544550e-01
 -9.7205257e-01
 -4.3252876e-01
  3.9993491e+00
  2.0153222e+00
 -1.8381085e-01
 -2.8825078e+00
 -5.1391816e-01
 -7.1725261e-01
  1.5966797e+00
  7.3853958e-01
 -1.0464541e+00
 -3.5712852e+00
 -2.2771914e+00
 -1.5799162e+00
  1.6602334e-01
  9.6556056e-01
  1.1056497e+00
 -2.2434559e+00
  4.0287834e-01
  1.7681102e+00
  2.3621044e+00
 -6.2142175e-01
  6.1822253e-01
 -7.4543089e-01
  1.9779409e+00
  5.4584640e-01
  1.1400527e+00
 -8.5949546e-01
  3.4631226e+00
  3.2320464e+00
 -9.7938854e-01
 -8.0346406e-02
  1.6876545e+00
  2.2886283e+00
  7.1145058e-01
  3.4476358e-01
 -8.2897693e-01
 -2.8080513e+00
  1.7197001e+00
 -6.3467866e-01
  2.5704023e-01
 -2.2233467e+00
  1.1004933e+00
  7.3881383e+00
 -4.0998564e+00
 -2.6469178e+00
  3.4247041e+00
  2.5891645e+00
 -1.0963387e+00
  1.0237870e+00
  1.3060942e+00
  9.9888808e-01
  1.1890075e+00
  9.9441215e-02
  3.7005227e+00
  2.8945007e+00
  4.7476449e+00
 -2.1497090e+00
  2.3584151e+00
 -3.8516632e-01
  1.6170644e+00
  3.7341731e+00
 -2.6659577e+00
  1.0722537e+00
  4.2569776e+00
 -3.0192504e+00
 -2.6275403e+00
  7.1725649e-01
 -1.0245395e+00
 -3.2382252e+00
  1.8606234e+00
  1.4591165e+00
  3.2468733e-01
  2.4423110e+00
 -1.1527599e+00
  1.0238457e+00
 -1.6932923e+00
 -2.0172532e+00
  5.6898484e+00
 -1.5073498e+00
  6.1935526e-01
  4.5773113e-01
 -2.1787964e-01
 -2.1608033e+00
 -1.8118685e-01
  9.9411227e-02
  1.1994681e+00
  7.8651929e-01
  6.8757093e-01
  5.1990920e-01
  1.0034338e-01
  7.8256470e-01
 -5.0347018e-01
  1.5559010e-01
 -6.3138419e-01
 -1.7662457e-01
  1.5974686e+00
 -2.3651226e-01
 -1.2592407e+00
 -1.4974211e-01
  1.4523023e-01
  3.1206315e+00
 -6.7768979e-01
 -1.8577391e+00
 -8.0517370e-01
  3.0588481e-01
 -1.3388327e+00
 -1.6544312e-01
  7.5076431e-01
  6.1540955e-01
 -4.9984881e-01
  1.0047332e+00
 -3.2273573e-01
  1.5549363e+00
  3.1855483e+00
 -4.7866011e-01
 -1.2142204e+00
  1.9122014e+00
 -2.2402675e-01
 -1.8266999e+00
  8.8996601e-01
  7.8541033e-02
 -8.5039926e-01
 -6.1653656e-01
 -4.8277059e-01
  1.4303775e+00
 -3.8703686e-01
 -3.5542688e+00
  1.3503451e+00
  2.6368546e-01
 -1.9241693e+00
 -4.9100128e-01
 -8.7668967e-01
  5.8521491e-02
  9.9124634e-01
  3.4418156e+00
 -1.9133076e-01
  1.9773102e+00
 -1.6900791e+00
 -2.2114244e+00
  7.3998314e-01
  7.3794597e-01
  1.8273646e+00
 -1.5225066e+00
  6.1371517e-01
  3.5107565e+00
  1.7639731e+00
  1.6175572e+00
 -1.6780166e-01
 -4.3948731e+00
  1.1670300e+00
  8.8093626e-01
  2.7948604e+00
  1.2487719e+00
 -1.3970695e+00
  2.3712754e+00
 -1.6022466e+00
 -2.7065182e+00
  2.9047527e+00
 -2.0171163e+00
  2.1817396e+00
 -2.1966231e+00
 -2.7807209e+00
  1.0551972e+00
  3.4445338e+00
 -1.0298817e+00
  2.2841120e+00
 -8.1828952e-01
 -4.9527556e-01
 -8.1462425e-01
  1.2398262e+00
 -4.3261914e+00
 -1.3054154e+00
 -1.3684448e+00
  2.0568749e-01
  5.3256845e-01
 -2.9758303e+00
  8.1092370e-01
  2.4966733e+00
  3.9753444e+00
 -1.4713088e-01
 -1.9348022e+00
 -3.1616280e+00
  4.5985407e-01
  7.7195001e-01
 -3.2150068e+00
  2.5948739e+00
  2.8325169e+00
  5.2102530e-01
 -1.9474851e+00
  1.7214003e+00
  1.2588449e+00
 -7.1022034e-02
 -4.6539745e-01
 -1.4371722e+00
 -3.1782168e-01
  1.4711066e+00
 -1.9989356e+00
  5.1157963e-01
  3.6039529e+00
  1.6053942e+00
 -1.8182966e+00
  6.7061979e-01
  1.2938566e+00
 -3.9687997e-01
  1.8079942e+00
  6.3062370e-01
 -2.2210629e+00
  2.9450822e-01
 -9.9060088e-01
  2.3835621e+00
 -3.8247213e+00
  1.2765579e+00
 -1.2613748e+00
  6.7556804e-01
 -3.9469097e-02
 -1.2269773e+00
  8.7869078e-01
  2.5463767e+00
 -4.5549932e+00
  1.0899665e-01
 -3.1040313e+00
  2.5309913e+00
  4.2732902e+00
 -2.1894012e-02
 -9.8216283e-01
 -5.0767584e+00
  2.3098009e+00
 -1.0476855e+00
 -1.2550842e+00
  1.0891252e+00
  3.6931047e+00
 -2.7316759e+00
 -5.0132036e+00
 -1.8427356e+00
  2.3324986e+00
 -3.6441512e+00
  1.8579910e+00
 -2.6679728e+00
 -5.0434232e+00
 -8.8570528e+00
  1.0179727e+00
 -7.1335757e-01
  3.1439207e+00
 -1.3527117e+00
  1.2198011e+00
  3.8956845e+00
 -1.1406120e+00
 -8.6857587e-01
  3.7125828e+00
  2.6598947e+00
 -1.1748489e-01
  2.5290070e+00
 -3.8501135e-01
  1.5261191e+00
 -3.0752609e+00
 -3.1863016e-01
  1.1215302e+00
  1.3039542e+00
 -1.9756272e-01
 -5.2652156e-01
 -4.7595707e-01
 -2.8303709e+00
  1.4608318e+00
  1.1893859e+00
 -4.4661803e+00
 -1.0438434e+00
 -1.3109154e+00
 -1.3348799e+00
 -1.1930596e+00
 -2.9768600e+00
  4.4346528e+00
 -8.4658384e-01
  1.2379553e-02
  1.2018788e+00
  2.4313045e+00
  1.8697221e+00
 -2.4701455e+00
 -5.1263934e-01
 -1.2484683e-01
  1.3943571e+00
  1.4267906e+00
 -2.7023871e+00
 -2.7438736e+00
 -3.3190830e+00
 -1.6735885e+00
 -4.9714631e-01
 -1.2451531e+00
 -1.7062808e+00
  2.0138192e+00
  3.7901071e-03
 -2.6847246e+00
  1.8770719e+00
  9.0094453e-01
 -2.5593975e+00
 -4.5511632e+00
 -3.0733504e+00
 -1.0472796e+01
 -9.0710002e-01
 -1.5430741e+00
  4.3519034e+00
 -1.2230731e+00
  2.9671202e+00
  6.9552094e-02
 -2.0522001e+00
 -4.3009692e-01
 -6.4702022e-01
  1.3221891e+00
 -1.2617790e+00
 -2.1298089e+00
  2.3216333e+00
  2.3507442e+00
  4.6390352e-01
  1.7729919e-02
 -2.8445983e+00
 -1.7074932e+00
 -1.7331783e+00
  2.8839374e-01
 -1.8119797e+00
  6.0481721e-01
  2.3780975e+00
 -6.9569570e-01
 -4.9317962e-01
  1.0908864e+00
  2.3558946e+00
  3.3435423e+00
 -8.2721430e-01
 -7.7402991e-01
  2.0429490e+00
  2.4462357e+00
 -1.6554580e+00
  2.2068613e+00
 -7.3228747e-01
  3.5600359e+00
 -1.2096778e+00
 -1.4210179e+00
  5.4425874e+00
  3.3890371e+00
 -3.5412240e+00
 -3.5493338e+00
  8.3305490e-01
 -3.3343276e-01
  1.1713690e+00
  7.5176126e-01
  5.7907076e+00
 -1.6350673e+00
 -1.8314018e+00
  2.1897902e+00
  1.3782604e+00
 -8.9500403e-01
 -2.9369190e+00
 -2.5860424e+00
  1.7338883e+00
 -9.9190938e-01
  4.1059557e-01
  1.8361765e+00
  5.1504426e+00
  1.6967214e+00
  4.2944661e-01
  1.0335975e+00
  2.3843148e+00
 -2.6239896e+00
 -1.9553730e+00
  4.9216485e+00
 -1.8910384e+00
 -1.2191954e-01
 -1.4657323e+00
  2.0517666e+00
  2.5409346e+00
  1.8279436e+00
 -1.1731501e+00
  1.9806238e+00
 -1.8765976e+00
  3.2532690e+00
 -1.2186639e+00
  8.1631309e-01
 -1.8136414e-02
  1.0771711e+00
 -1.8934801e-01
  2.6046741e+00
 -7.3366648e-01
 -8.8167107e-01
  3.7437277e+00
 -5.8904344e-01
  6.9097561e-01
 -2.9224329e+00
 -2.0792120e+00
  2.3992136e+00
 -7.5040042e-02
 -1.5694824e+00
 -2.1064739e+00
  2.5463853e+00
 -1.7681824e+00
 -2.2403131e-01
  3.7877746e+00
 -1.4136705e+00
  5.9820217e-01
 -9.4577104e-01
  2.3673766e+00
 -1.4396598e+00
 -1.4954231e+00
  2.4361331e+00
  1.0345551e-01
 -1.8069829e+00
 -8.8508964e-01
 -3.1215182e-01
  1.1908883e-01
  8.9745289e-01
 -3.0180755e+00
 -2.6913767e+00
 -4.7971225e+00
  2.4577183e-01
 -1.3503400e+00
  1.9939652e-01
 -1.6664512e+00
  4.0060598e-01
  1.9647688e-01
 -1.5754776e+00
 -3.6911336e-01
  3.2743242e-01
 -1.4546221e+00
  1.0952932e+00
  1.1068438e+00
  2.6708302e+00
 -3.9214668e-01
  4.9023585e+00
 -1.2940140e+00
  2.8829958e+00
 -3.3144546e+00
  3.8946190e+00
  7.0472229e-01
  3.1939909e+00
 -2.0523620e+00
 -5.6886852e-01
 -2.3547855e-01
  2.7023554e+00
  6.9603720e+00
 -1.1728729e-01
  2.2215502e+00
 -6.7911166e-01
  1.7850068e+00
  8.0201387e-01
  1.1336757e+00
 -6.0107571e-01
  1.1385787e+00
  4.2971307e-01
  1.3091078e+00
  9.4279277e-01
 -2.9356751e+00
 -2.8245106e+00
 -1.2474387e+00
 -5.1744801e-01
 -3.1977797e-01
  3.4577391e+00
 -1.0224186e+00
 -1.1556792e+00
 -4.6999335e+00
  3.2356620e-01
 -4.0609321e-01
 -1.8057890e+00
  9.9279058e-01
 -5.7691288e-01
  5.3318805e-01
 -1.5470537e+00
 -4.8316565e-01
 -3.6535725e-01
 -9.2475849e-01
 -6.4930314e-01
 -7.3839515e-01
  4.3019600e+00
 -4.1007419e+00
 -1.2302505e+00
  7.0652395e-01
 -8.0324066e-01
  4.8040769e-01
 -6.1707693e-01
 -1.2255472e+00
 -1.6402688e+00
  7.0373356e-01
 -1.7380633e+00
 -4.4427815e-01
 -3.0557520e+00
  4.2916293e+00
  2.4205511e+00
 -8.3832115e-01
 -6.4253157e-01
 -7.3913407e-01
  9.0555739e-01
  9.9967957e-01
 -8.2562327e-01
 -1.9427921e+00
 -6.0558152e-01
 -3.3365808e+00
 -8.2134622e-01
  1.9506541e+00
  3.3669438e+00
  2.2921643e+00
  8.5181779e-01
  5.5180615e-01
 -2.0885873e+00
  2.6595356e+00
  4.5825624e+00
 -1.0639474e+00
  4.9350560e-01
 -2.8550506e+00
 -3.0085605e-01
  3.6401540e-01
 -3.4559758e+00
 -3.9472610e-01
 -2.7866910e+00
 -1.8987695e+00
 -7.8883469e-01
 -2.2534015e+00
  3.8426578e+00
 -4.0281653e+00
  2.6894257e+00
 -1.1898996e+00
  5.8152646e-01
  2.0830524e-01
  2.8268120e+00
 -2.8911231e+00
 -2.5431278e+00
  1.4717575e+00
  2.5617278e-01
 -3.2534918e-01
  6.8014008e-01
 -4.3167577e+00
  1.0474014e+00
  2.3116984e+00
 -3.4470218e-01
  9.4377470e-01
  5.0215460e-03
  2.0858619e+00
 -2.2036014e+00
  9.0806478e-01
  2.8341320e+00
 -1.0187327e+00
 -1.8767908e+00
 -1.6506226e+00
 -9.2285895e-01
 -5.0342780e-01
  1.2744662e+00
  7.3244852e-01
  5.3015751e-01
  9.7140735e-01
  1.5366912e+00
 -4.1387591e-01
  3.1232710e+00
 -1.5292238e+00
  1.9230481e+00
 -3.8227561e+00
 -3.8595083e+00
 -5.9261429e-01
 -3.3556368e+00
  2.4335072e+00
  1.7845241e+00
 -1.0105014e+00
 -9.6658760e-01
 -1.7606057e-01
 -1.0410384e+00
  1.3378575e-01
  3.6789510e-01
 -1.6574233e+00
 -5.5852336e-01
 -1.9991039e+00
 -2.4480724e+00
  4.4491701e-02
  1.9385240e+00
 -2.4260149e+00
  2.7235813e+00
  1.4416177e+00
  2.1430700e-01
 -2.6314528e+00
  3.0320251e+00
  1.4245862e-01
  4.5348454e+00
 -6.6470437e+00
 -1.7276226e-01
  1.5623635e+00
 -6.3075456e-03
 -2.8408173e-01
 -3.7452126e+00
  3.7106817e+00
 -2.5310166e+00
 -1.2606932e+00
  2.4041762e+00
 -6.8617338e-01
  1.2373018e+00
  5.7087045e+00
  1.3990301e+00
  8.0061860e-02
 -1.6511865e+00
 -6.7552412e-01
  4.7332129e+00
 -1.0355748e-01
 -6.1781126e-01
  4.6797094e-01
  3.6778128e+00
  4.4141579e+00
  5.5256610e+00
 -2.9617071e+00
  1.9286745e+00
  1.4254750e+00
  1.3441561e+00
  3.6996114e-01
 -1.3223386e+00
 -1.9379950e+00
  2.6718149e-01
 -5.3874713e-01
 -2.5959339e+00
  1.6610410e+00
  1.5729932e+00
  2.4869406e+00
  1.4247935e+00
  8.6841828e-01
 -3.0592129e+00
  1.0548779e+00
 -1.4264883e+00
  1.5005670e-01
  3.6806016e+00
  8.0085769e-02
  1.1957851e-01
 -1.6841723e+00
  1.1013209e+00
  4.2871118e+00
  2.4843237e+00
  2.0975275e+00
 -1.1447967e+00
 -2.7527881e+00
  1.8677078e+00
  1.1541084e+00
 -2.0099943e+00
  3.7015957e-01
 -5.6229448e-01
 -2.7528092e-01
 -7.7731794e-01
 -7.2639573e-01
  2.4277346e+00
 -6.5714693e-01
  1.1460528e+00
  1.9498900e+00
 -1.2947592e+00
 -1.4055501e+00
 -2.8167704e-01
  3.0163541e+00
 -2.6461501e+00
  9.5404863e-02
 -1.0983281e+00
 -2.8243787e+00
 -5.2623391e-01
 -2.6223612e+00
 -2.3308597e+00
 -1.1045884e-01
  1.1539973e+00
 -1.7042710e+00
 -1.5741918e-02
  1.0651026e+00
 -1.2230147e+00
 -1.9226139e+00
 -1.5763104e+00
  1.1633146e+00
 -1.9966991e+00
 -1.2352293e+00
  2.9724148e-01
  3.7232428e+00
 -1.0490980e+00
  4.8688185e-01
  5.1003289e+00
 -2.6910201e-01
  1.6299961e-02
 -4.4897974e-01
  2.0491627e-01
 -5.4028106e-01
 -8.3495867e-01
  1.5287576e+00
  1.5289505e+00
 -3.5741124e-01
  4.3789525e+00
 -1.4237067e+00
 -1.7478995e+00
 -5.4676108e+00
 -7.3594069e-01
  5.9188038e-01
  1.0002630e+00
  2.0082431e+00
  1.9142172e-01
 -2.5373513e-01
  4.3283877e+00
 -1.6732717e+00
  1.3343184e+00
 -3.1550839e+00
  1.2407416e+00
 -6.8966478e-01
  1.0974643e+00
  6.4243698e-01
  5.7543266e-01
  1.5845511e+00
  3.4542155e-01
  8.9549786e-01
  2.1015780e+00
 -6.2114114e-01
  1.9670745e+00
 -1.2757479e+00
 -1.2670490e+00
  1.5304118e+00
  4.7157178e+00
 -6.8147349e+00
 -3.1163843e+00
  3.1454773e+00
 -5.3868541e-03
 -1.6711829e+00
 -1.6098015e+00
  4.5154712e-01
 -8.3977962e-01
  9.7787988e-01
 -2.6353920e+00
  3.2422409e+00
  4.3174344e-01
 -1.3399101e+00
 -4.0873103e+00
  9.8959500e-01
 -6.6802144e-01
 -9.0539467e-01
 -1.1032716e+00
 -2.9292557e-01
  1.5425483e+00
 -4.0302342e-01
  6.2551451e-01
  1.6625018e+00
 -2.3975067e+00
  1.0429011e-01
 -5.4623218e+00
 -5.9684491e+00
  2.4783068e+00
  2.6067879e+00
  1.1091616e+00
  4.1567945e-01
 -1.9125229e+00
  1.1397991e+00
  2.9584210e+00
  2.4377237e-01
  3.9874005e+00
  4.7321177e+00
  2.7086422e+00
 -2.8505306e+00
 -2.7539506e+00
 -4.2862368e+00
  4.3156114e+00
  6.1643612e-01
  3.8227314e-01
 -1.2465286e+00
 -2.7477166e-01
 -3.3108721e+00
 -3.9999728e+00
 -5.9978187e-01
  1.1933180e+00
 -3.6792042e+00
  1.7157558e+00
  1.1674232e+00
  2.2042832e+00
  4.7103434e+00
  3.1255057e+00
  8.0782555e-02
  3.0216351e+00
 -8.6637133e-01
  2.3937974e+00
 -1.6549985e+00
  3.2647765e+00
 -2.9742630e+00
 -5.1269059e+00
 -1.6027387e+00
  8.0496889e-01
  1.7037112e-01
  2.6733222e+00
 -1.6835353e+00
  2.4828801e+00
  9.9980307e-01
  1.6687284e+00
 -2.7928011e+00
  3.2678955e+00
  1.9033722e+00
  3.2543030e-01
 -1.1015598e+00
 -3.3287981e+00
  4.2907867e+00
  2.1623631e+00
 -1.3332285e+00
  1.4047752e-01
  7.3973125e-01
 -5.2308929e-01
 -1.4438183e+00
  1.5852959e+00
  1.3115733e+00
  1.7632078e-01
  1.2967857e+00
  2.5518770e+00
 -3.9589088e+00
 -2.4971292e+00
  1.3195248e+00
  2.7829037e+00
 -3.5110757e-01
  3.3570943e+00
  1.1552558e+00
  1.1247946e+00
 -2.6541886e+00
 -9.7088051e-01
 -6.3471749e-02
  7.1522987e-01
 -1.2167559e+00
  1.7355417e+00
 -5.8935237e-01
  9.3624246e-01
 -3.3594075e-01
 -2.6777904e+00
 -4.5578924e-01
  1.7090236e+00
  8.3366102e-01
  2.1989722e+00
  5.5722207e-01
  2.2444239e-01
 -2.5364022e+00
 -2.3961391e+00
 -1.5085348e+00
 -2.6380687e+00
 -1.5318626e-01
  4.2603037e-01
 -1.9509581e+00
  6.3636291e-01
 -3.4436795e-01
  2.9028852e+00
  1.5670669e+00
  4.6427387e-01
  2.0702293e+00
 -2.3261265e-01
  9.5760417e-01
 -1.4482045e+00
  1.2359568e+00
  1.5206577e+00
  1.3112932e+00
 -3.2998824e+00
 -3.3877891e-01
 -2.0255232e-01
 -2.5761266e+00
  1.9861276e-01
  2.4774740e+00
  1.5905915e+00
  3.0152336e-01
 -1.7346927e+00
  2.0889044e-02
 -4.9885127e-01
  2.8387327e+00
 -2.6078823e-01
 -2.2503823e-01
  3.0941730e+00
 -5.8075454e-02
 -1.7256972e+00
  1.6513050e+00
  5.1713195e-02
  5.1205027e-01
 -1.4131035e+00
  3.7588439e+00
  7.8077805e-01
 -3.0071938e+00
  1.1152536e+00
 -2.1422400e-01
  1.0420729e+00
  7.6931494e-01
 -2.7602735e+00
 -7.5499350e-01
  3.9426301e+00
  5.1639800e+00
  1.0446932e+00
 -2.2282226e+00
  7.5901449e-01
 -3.0223718e+00
  3.0570927e+00
  3.9974916e-01
  1.5872197e+00
 -1.6144772e+00
  1.7872113e-01
  4.1845655e+00
  1.6705434e+00
  3.2224150e+00
  2.2323992e+00
  1.5202827e+00
  1.0212290e+00
 -1.2727884e+00
  2.2521017e-01
  1.3229803e+00
 -1.7107974e+00
 -3.2971296e+00
  1.1729132e+00
  4.6767302e+00
 -8.0112982e-01
 -2.7861516e+00
 -3.4980910e+00
 -4.0361285e-01
  1.4645425e+00
  2.9531167e+00
 -2.4378593e+00
 -5.6080914e+00
 -1.9057519e+00
 -1.4218656e+00
  1.3830544e+00
  2.7862340e-01
 -7.6059121e-01
  1.2881700e+00
 -1.9784965e-02
 -1.0180289e+00
  5.9579903e-01
  1.1168246e+00
  2.4480226e+00
  2.7664526e+00
 -4.1035771e+00
  1.5235170e+00
 -1.9788266e+00
  2.2731762e+00
  3.3113825e-01
  1.4521772e-01
  1.0806811e+00
  1.0688316e+00
 -2.2642450e+00
  9.6889693e-01
 -1.0371287e+00
 -2.0612621e+00
 -2.7672491e+00
  7.5368088e-01
 -6.8310839e-01
 -4.2010856e-01
  1.8123177e+00
 -1.5843186e+00
 -2.3157885e+00
 -5.0636873e-02
  7.9486018e-01
  1.2043492e+00
  3.6680329e+00
 -1.1710850e+00
 -2.4033427e-01
  2.0314486e+00
 -3.6490166e-01
  2.8208790e+00
 -2.8418526e-01
  2.1646276e+00
  4.7332872e-02
  3.7679794e+00
 -3.7563944e+00
  2.5268426e+00
 -6.6846222e-01
  2.4302244e+00
  5.1290855e+00
  3.4299252e+00
 -8.1102449e-01
 -3.7509341e+00
 -9.7656286e-01
  8.7780327e-02
 -1.3862777e+00
  2.4975910e+00
 -1.8038251e+00
  1.1978933e+00
 -5.8908206e-01
  2.8214159e+00
  1.5268357e+00
 -4.3467865e+00
 -3.9959862e+00
 -6.1154324e-03
  1.6644416e+00
 -1.2761643e+00
 -9.5755196e-01
  7.5435501e-01
  1.1923149e+00
  1.1435622e+00
 -1.4478487e+00
  7.3852324e-01
  1.1390070e+00
 -8.1245285e-01
 -6.5937698e-01
 -2.6271267e+00
  2.9939609e+00
  1.8399626e-01
  2.7263348e+00
  1.7029383e+00
 -7.8760898e-01
  6.3551706e-01
  2.7750802e+00
 -5.1555470e-02
 -2.1498623e-01
 -1.9548759e-01
 -3.8027692e+00
  3.1740320e-01
 -2.0871830e+00
 -2.5480084e+00
 -2.3632333e+00
 -5.3091526e+00
 -1.4098845e+00
  2.4335129e+00
 -2.4789109e+00
 -3.2319534e+00
  1.6801146e+00
  1.8778689e+00
 -1.6084733e+00
 -3.7513573e+00
  2.6635125e+00
  2.1766291e+00
  6.7651973e+00
 -3.9299769e+00
 -3.6559925e+00
  1.8118402e+00
 -1.3278048e-01
 -1.0539498e+00
  1.0280314e-01
 -1.4603766e+00
 -2.0425224e+00
  1.5082568e-01
  1.3237152e+00
 -1.8178201e+00
  1.9585263e+00
  2.8767073e+00
 -1.0721474e+00
 -2.9091141e+00
 -1.1656046e+00
  6.4200550e-01
 -3.5429707e+00
  2.8650469e-01
 -3.2276673e+00
 -1.1675058e-01
  1.1009032e+00
 -1.3808680e+00
 -5.3824764e-01
 -2.4430580e+00
  6.0602117e-02
  1.1572806e+00
  5.9966665e-02
  9.8743826e-01
  1.6296674e+00
 -3.7694582e-01
 -1.5673598e+00
  1.0046395e+00
  1.9032626e+00
  1.4800091e+00
 -3.5423284e+00
  2.4792085e+00
 -5.7395542e-01
  2.1116030e-01
 -1.2681956e+00
  1.6830512e+00
 -1.8948926e+00
 -3.7486014e-01
  6.1648655e-01
  9.6461931e-03
 -2.0890091e-01
  6.7229378e-01
  7.2453207e-01
 -2.6865235e-01
  3.3889635e+00
  2.0690173e-01
 -9.3108863e-02
 -1.3581810e+00
  5.4116320e-02
 -8.3857381e-01
 -1.6885052e+00
 -1.1621538e+00
 -3.8453352e+00
 -1.6861193e+00
  4.3837643e+00
 -1.9725828e+00
  1.8029861e-01
  1.0429177e+00
 -2.9851792e+00
  2.6039186e-01
 -3.4620008e-01
 -9.3031985e-01
  1.2841116e+00
 -1.6254166e+00
 -2.9800808e+00
  3.1095881e+00
 -2.0782979e+00
 -2.0103881e+00
  1.6204526e+00
  7.3452663e-01
  1.0594453e-01
 -8.0921584e-01
 -2.8734870e+00
  9.8873055e-01
 -3.5833979e+00
 -1.0104012e+00
  2.7746239e+00
 -9.4145042e-01
 -1.4206444e+00
 -2.0275812e+00
  1.5626425e+00
  1.9111545e+00
  7.8680284e-02
  9.5465577e-01
 -1.7795703e+00
 -2.3962097e+00
  2.5612488e+00
  4.4668740e-01
 -2.1348271e+00
 -1.1963497e+00
  3.7040046e-01
  5.8756161e-01
  5.7513909e+00
  1.4630401e+00
 -4.2593570e+00
  3.7461605e+00
  1.9575552e+00
  5.2079862e-01
 -1.5104523e-01
  7.1697414e-01
  1.4182837e+00
  1.4267675e+00
  2.2559307e+00
 -1.4867860e+00
 -6.1967218e-01
 -1.1457313e+00
 -1.9661194e+00
 -8.7468636e-01
  2.7077770e+00
  1.5840247e+00
 -9.6550830e-02
  1.6985029e+00
  1.2009804e+00
 -9.4553673e-01
 -3.3062508e+00
 -4.8954740e-01
 -3.6995473e+00
 -2.0704622e+00
  2.4651601e+00
  2.1971171e+00
  9.8062128e-01
  4.6290025e-01
  1.9456660e+00
  1.5956284e+00
 -3.3527973e+00
 -7.1247000e-01
  1.6622577e+00
  9.4768524e-01
 -1.0736644e+00
 -1.4235809e+00
 -1.0892775e+00
  1.3529489e+00
 -4.5868750e+00
 -9.9918437e-01
  1.2028986e-01
 -1.2235436e+00
 -3.5127439e+00
  2.3959031e+00
 -1.2108032e+00
  1.3947085e+00
 -5.5783391e+00
  8.1006873e-01
  2.5093405e+00
 -1.3393734e+00
  1.7723331e+00
 -3.0440068e-01
  2.8641479e+00
  2.5139043e+00
  2.1519690e+00
  2.3507047e+00
 -4.9818611e-01
 -1.0213547e+00
 -3.3828478e+00
 -4.2799416e-01
 -7.5597835e-01
 -1.8117726e+00
 -6.3558429e-02
  1.0268493e+00
  2.9697652e+00
 -4.7163815e+00
  1.7616426e+00
  2.0757310e+00
 -6.2573008e-04
 -1.7929221e+00
  2.6018052e+00
  7.3486352e-01
 -5.9749800e-01
 -1.3481835e+00
  2.9091535e+00
 -1.7203583e+00
  2.5121067e+00
  1.2774379e+00
  2.3840911e+00
  1.8878918e+00
  2.7367613e+00
  1.0984330e+00
  2.9655530e+00
 -1.3690085e+00
  2.4353318e+00
 -3.3073308e+00
  1.7077739e+00
  4.6583905e+00
 -3.0174688e-01
  2.0450709e+00
  2.7432716e+00
  1.2589047e+00
  1.2324213e+00
  3.0002671e-01
 -9.6599025e-01
  4.1075677e-01
 -2.7752533e+00
  4.9647000e-01
  4.8625431e+00
 -3.0977197e+00
  4.8564342e-01
  8.2713865e-02
  7.1154451e-01
  1.8544980e+00
  2.2611282e+00
  4.3935463e-01
 -1.1382849e+00
 -3.1311265e-01
  1.9892215e+00
  5.4991536e-02
  4.4429502e+00
  5.5318886e-01
  6.5609485e-01
  2.2250810e+00
  3.4788179e-01
  3.7412515e+00
  2.4346366e+00
  2.3942358e+00
  1.8521068e+00
  6.0488400e+00
  1.0068177e-01
 -5.8106689e+00
  3.1112807e+00
 -1.2528527e+00
 -1.5822269e+00
 -5.9106749e-01
 -4.1648955e+00
 -1.5365644e+00
 -1.7845358e+00
  3.0984196e-01
 -3.5874593e-01
  6.5531266e-01
 -5.3385353e-01
  1.9191550e+00
  5.1333793e-02
 -1.7855610e-01
 -3.6347375e+00
  2.6702149e+00
 -1.7357870e+00
  9.0817697e-02
 -9.0533748e-02
 -1.5802031e-02
  2.1032689e+00
 -9.5852226e-01
 -2.1655838e+00
 -1.9960676e+00
 -3.0871296e+00
 -9.7420222e-01
  5.3449693e+00
 -1.9762373e+00
  6.3262630e-01
 -2.5485516e+00
 -1.6628343e-01
  1.8187692e+00
  1.7695308e+00
  7.5065100e-01
 -2.1287396e+00
  3.2337171e-01
  3.3991817e-01
 -2.9808013e+00
 -1.7700243e+00
  3.7580309e+00
  4.0104619e-01
 -7.2388220e-01
 -4.0297365e+00
  9.5953572e-01
  1.4607117e+00
  4.6548882e-01
 -1.1720271e+00
 -2.4773071e+00
 -2.9260051e+00
  1.9325447e+00
 -5.4607135e-01
  1.7777977e+00
 -9.2115611e-01
 -1.0127934e+00
 -2.0126090e+00
  1.2837757e+00
  5.6088280e-02
  1.5849216e+00
  3.4599221e+00
  6.4500147e-01
  1.4273778e+00
  1.1349189e+00
 -6.7246211e-01
  5.1764379e+00
  6.1743402e-01
  1.1627221e+00
 -1.6153339e+00
  1.9283739e-01
  7.4909633e-01
  1.1023192e+00
  2.6744859e+00
 -1.3031361e+00
  1.2562059e+00
 -5.0828958e-01
  3.5899727e+00
  4.5484620e-01
 -2.6531023e-01
 -1.7728381e-01
  2.6874247e+00
 -3.3559266e-01
  3.2478125e+00
  4.3617809e-01
  2.6720932e+00
  1.9190624e+00
  1.6246397e+00
  1.9821571e+00
  4.4351211e+00
  4.5679274e-01
 -1.0919156e+00
  3.3349910e-01
  3.0552616e+00
 -3.4735651e+00
 -3.6720483e+00
  9.9263120e-01
 -1.0435758e+00
 -3.8305466e+00
  4.5212784e-01
  3.4055076e+00
  3.8479891e-02
  5.9562140e+00
  2.3306526e-02
 -2.9306719e-01
 -2.2707007e+00
 -1.0567442e+00
 -2.1106575e+00
  5.8906150e-01
 -1.0381734e+00
  3.1606397e-01
  3.7789389e-01
  1.3210831e+00
 -1.7640123e+00
  7.0919043e-01
  8.4360969e-01
 -6.5329887e-02
 -3.8009274e-01
 -5.1531327e-01
 -1.2697012e+00
  5.4276662e+00
  2.3550589e+00
  2.0566165e+00
 -2.5660869e-01
  1.1501192e-01
  1.4860432e+00
 -2.4588817e-01
  3.6377652e+00
 -2.0841403e+00
  4.7012901e+00
  1.3399099e+00
 -5.4102125e+00
 -4.0087361e+00
 -3.0887640e-01
 -1.3780224e+00
 -6.9335759e-01
 -3.7890422e+00
 -1.1382064e+00
 -7.0786709e-01
 -1.8242424e+00
 -1.3103285e+00
  2.3086467e-01
  1.5889850e+00
 -1.8472490e+00
  2.0384281e+00
  4.6518731e-01
 -2.1253722e+00
 -5.6524854e+00
  1.3196456e+00
  2.5925035e+00
  7.6570516e+00
 -9.2426300e-01
 -4.2142291e+00
 -2.4766512e+00
  3.1677065e+00
  1.7199863e+00
  3.5042069e+00
  3.1419377e+00
  1.1934767e-01
  6.0882127e-01
  2.6356514e+00
 -2.3966534e+00
  1.1144391e+00
 -2.2031546e+00
  5.9543216e-01
  1.6811457e+00
 -2.2292409e+00
 -1.8098346e+00
 -1.6809274e+00
  1.0782765e+00
  1.3738680e-01
 -1.0471764e+00
 -2.4027197e+00
  1.8031168e+00
  3.1880329e+00
  1.6407902e+00
 -1.8377666e+00
 -1.2495683e+00
 -1.5353252e-01
  6.8838286e-01
  1.8557733e+00
 -2.5352404e+00
 -1.8843424e+00
 -7.6850300e+00
  7.3629105e-01
 -5.2919590e-01
 -3.5555906e+00
 -3.4313956e-01
 -3.2940803e+00
  1.3851793e+00
  3.9338475e-01
  2.7987802e+00
 -2.1886382e+00
 -1.0140440e+00
  2.0721905e+00
  2.6941762e+00
  1.1113465e+00
  1.4748951e+00
 -2.3577619e+00
  8.4764642e-01
  1.7442758e+00
 -2.3062413e+00
 -2.1725633e+00
 -7.3196359e-02
 -7.8696971e+00
  3.8405020e+00
  3.1074536e+00
 -9.4184291e-01
 -7.0729679e-01
 -8.5781926e-01
  3.4010646e-01
  1.6475551e+00
 -4.9441943e+00
 -4.5890266e-01
 -2.1756957e+00
  1.7876040e+00
 -1.8896515e+00
 -5.0494318e+00
  3.1396022e+00
 -4.4830804e+00
  8.3525705e-01
  1.2068697e+00
  3.3619738e+00
  7.3518043e+00
 -6.2709236e-01
  3.3251590e-01
  2.4810643e+00
 -2.5079696e+00
 -1.1817223e+00
  7.3203886e-01
 -6.6948299e+00
  2.9577663e+00
  1.4639899e+00
 -1.1077534e+00
 -6.8285549e-01
  3.3425736e+00
  6.2934083e-01
  4.9688414e-01
  9.1293228e-01
 -1.2604634e-01
 -6.5871531e-01
  2.3141842e+00
 -1.9788992e+00
 -4.6050000e+00
  1.7991791e+00
 -4.6211872e+00
  8.5280448e-01
  9.8792158e-02
  1.1201149e+00
  1.8314726e+00
 -1.4620428e+00
  3.1821404e+00
 -1.9516535e+00
 -3.5298645e+00
 -2.1104095e+00
  5.1036656e-01
  3.1787126e+00
  3.5891313e-02
  1.7235451e+00
 -3.6608553e+00
 -4.6917129e+00
 -5.3164020e+00
  1.4856048e+00
  8.1608033e-01
 -2.9192703e+00
 -3.6137462e-01
 -1.0285807e+00
  1.2756445e-01
  3.8472450e+00
 -2.9033828e+00
 -3.2627079e-01
 -2.7621601e+00
 -1.0743685e+00
  1.2656233e+00
  8.2638621e-01
  1.7770716e+00
  3.7373579e+00
 -6.5617099e-02
 -6.8278432e-01
  2.2578640e+00
  2.9120991e-01
 -2.9236836e+00
 -1.2544435e+00
  1.1568980e+00
  2.7529818e-01
  3.7337878e+00
  2.1426744e+00
 -2.9173362e-01
 -9.8989582e-01
  2.6510394e+00
  2.1388497e+00
 -5.9194815e-01
  1.7253752e+00
 -1.8066390e+00
  1.5641581e-01
  1.5835008e-01
 -1.8774414e+00
  5.7232833e-01
  1.6072290e+00
 -3.2196186e+00
 -7.7950960e-01
 -2.6811451e-01
  1.8781823e+00
 -2.3193214e+00
 -3.5105217e-01
 -2.1721566e+00
 -9.9947131e-01
 -7.9110014e-01
 -3.4338725e+00
  1.4002740e-01
  6.2460774e-01
  7.7667274e+00
 -1.8695071e+00
 -5.1075969e+00
  1.2414389e+00
  5.6494951e-01
 -2.8619242e-01
 -5.2583156e+00
  3.1197927e+00
  1.2203583e+00
 -1.2178489e+00
  4.1180811e+00
 -7.6045579e-01
  1.4984236e+00
 -7.2695690e-01
  1.4993259e+00
  2.7228923e+00
  6.2624115e-01
 -1.3543339e-01
  1.7279838e+00
  4.1621637e-01
 -1.5202950e+00
 -1.4751448e-01
  2.9294369e-01
 -3.2129161e+00
 -4.9314448e-01
  1.2586836e+00
  1.1708635e+00
 -1.7297750e+00
 -8.8257730e-01
  5.4870464e-02
  7.0199811e-01
  4.5442227e-02
 -2.7307858e+00
 -6.0082227e-01
  2.7274179e+00
  1.9870698e+00
  3.1340680e+00
  2.2325916e+00
 -2.9028838e+00
 -3.2865921e-01
  1.3297577e-01
  3.3838421e-01
  9.0820146e-01
  2.6287205e+00
 -9.9088639e-01
 -5.7543325e+00
  2.9442997e+00
  1.2337378e+00
 -7.3998563e-02
  2.9378045e-01
 -1.1920109e+00
 -2.9502496e-01
 -1.5687914e+00
  1.3369094e+00
 -5.6394947e-01
  8.4898174e-02
 -2.0711434e-01
  4.3973098e+00
  2.6533151e+00
 -3.2299858e-01
 -6.4121509e+00
 -2.6470799e+00
  1.4966595e+00
 -2.8013117e+00
  1.4256991e+00
  1.1754566e+00
 -4.1227278e-01
  1.2990451e+00
  3.8771283e-02
 -2.6161146e+00
 -3.7618423e-01
 -2.0541656e+00
 -2.0921431e+00
  1.2322289e+00
 -9.5206618e-01
 -1.8609042e+00
  6.6691571e-01
  3.8109377e-01
 -2.9185310e-01
  7.8949726e-01
  9.8259276e-01
 -1.1807379e+00
 -3.3336318e+00
  4.3366456e+00
  8.9825040e-01
 -2.6554091e+00
 -3.4159689e+00
 -2.0356989e+00
  1.8655600e-01
 -4.7532449e+00
 -1.4155856e+00
 -3.6632970e-01
 -6.5081525e-01
 -1.3515893e+00
  1.1732540e+00
 -9.1811335e-01
 -8.0704361e-01
 -2.7508180e+00
 -3.9064388e+00
  1.1970633e+00
  2.0995095e+00
  2.4685659e+00
 -5.6369882e+00
  1.2753695e+00
  2.1103759e+00
 -1.9113752e-01
  7.3648643e-01
  6.9117653e-01
 -2.1350989e+00
 -2.4588253e+00
  3.5931718e-01
 -3.4435370e+00
 -4.6323571e+00
 -1.5485857e+00
  5.8790827e-01
 -4.5333800e+00
 -7.3558098e-01
 -1.0806881e+00
  1.9988364e+00
  1.2249362e-01
 -2.0791261e+00
  7.2532851e-01
 -3.4008923e+00
 -1.0125237e+00
  5.5843830e+00
  7.1153545e-01
  3.3582859e+00
 -8.3775687e-01
  2.2794721e+00
 -1.0935267e+00
  4.1819806e+00
  8.7590384e-01
  4.1708503e+00
 -1.7273296e+00
 -3.0633271e+00
 -1.5433942e+00
 -9.3339449e-01
 -1.0269250e+00
  1.6669412e+00
  1.1990237e+00
 -1.9797442e+00
  5.7318301e+00
 -2.9579568e-01
  3.7290282e+00
  4.1458391e-02
  1.5868127e+00
  1.9733192e-01
 -1.7400661e+00
 -7.0261273e+00
  1.0588871e+00
  1.1359432e+00
  3.7154853e+00
  2.9455170e-01
 -5.4996943e-01
 -1.7429681e+00
 -2.8002717e+00
  3.9114473e+00
  6.1622375e-01
 -1.6298739e+00
  2.3624606e+00
  1.5942866e+00
  3.2263176e+00
 -3.5326943e+00
  2.2629397e+00
  9.2009671e-02
 -4.6882722e-01
 -3.1016772e+00
  2.1109688e+00
  2.5989146e+00
 -1.0806956e+00
  2.7280669e+00
  6.1082160e-01
  3.4824997e-01
 -1.6412594e+00
  3.3139455e+00
 -2.5177195e+00
  2.1365581e+00
  7.2777133e+00
  1.3669060e-01
  3.3678657e-01
 -4.4074683e+00
  1.4574413e+00
 -1.2527971e-01
  2.1878598e+00
  3.0872056e-01
  1.4535077e+00
  1.5671998e+00
  3.5136867e+00
  3.8205060e-01
  1.2424978e+00
  1.0082261e-01
 -1.4849830e+00
  1.0884974e-01
  4.4079199e+00
  3.4125640e+00
 -3.9207369e-01
 -5.1613700e-01
  4.8005586e+00
 -1.7363529e+00
  1.3877854e+00
 -1.0097178e+00
  1.6563994e+00
 -3.2180500e+00
  2.2966943e+00
 -1.4559156e+00
 -6.8650961e-02
  3.1821182e+00
  2.8145180e+00
 -1.5044203e+00
  6.2280935e-01
 -2.7456446e+00
 -4.5222507e+00
  1.8402070e+00
  1.7301196e+00
  1.6217552e+00
  4.0039825e+00
 -1.6699811e+00
 -3.7547901e+00
 -8.3896518e-01
  3.4721127e-01
 -1.0931058e+00
  5.9615439e-01
  1.2620561e+00
  8.6535627e-01
 -2.2215107e-01
 -2.2811604e-01
  2.0944395e+00
 -8.6558825e-01
  3.5017271e+00
  5.1426506e-01
 -2.1106648e+00
 -1.1700273e+00
 -1.7776736e+00
 -2.9589953e+00
 -1.4899839e+00
 -1.3347054e+00
 -2.2792754e+00
 -3.5362790e+00
 -4.7100705e-01
 -1.6753548e-01
 -2.4020317e+00
  1.4492538e+00
 -3.1421802e+00
 -3.4393695e-01
  2.6801119e+00
 -2.7941854e+00
  3.3286233e+00
 -1.1655433e+00
 -2.3138363e+00
 -1.1852330e+00
 -2.0156717e+00
 -4.4056697e+00
  2.5468047e+00
 -3.3534873e+00
 -4.1855133e-01
  1.3297770e+00
  3.7574301e+00
 -2.3648531e+00
 -2.3205447e+00
  3.1328156e+00
  2.6242632e-01
  2.0592480e+00
 -3.2758095e+00
 -1.9723777e+00
  7.2543063e+00
  1.9592468e+00
 -9.9317306e-01
 -2.5999382e+00
 -1.2293862e+00
  1.0421278e+00
  2.6024599e+00
 -2.7854464e+00
  2.9608798e+00
 -2.0564713e-01
 -5.9972596e-01
 -2.5917950e+00
 -3.2946980e+00
  5.4228973e+00
  9.4914937e-01
  2.1551949e-01
  4.8116341e-01
  6.8825150e-01
  1.6355952e+00
  1.1239442e+00
  1.2491068e-01
 -4.4023540e-02
 -1.1647403e+00
  1.3279591e+00
 -1.5595456e+00
  1.7850910e+00
  6.5848827e-01
 -9.6985132e-01
  3.0457351e+00
 -1.2373391e+00
 -2.2081504e+00
 -5.1931648e+00
 -9.0850908e-01
 -4.0437870e+00
  4.1609362e-01
  4.9997216e-01
 -1.9096640e+00
 -6.1428869e-01
  1.8368090e+00
  1.3783098e+00
  5.9371531e-01
 -6.6809696e-01
  1.9325787e-01
  6.3198781e-01
 -2.1499569e+00
 -8.4179008e-01
 -3.7507529e+00
 -1.8595129e+00
  2.6836121e+00
 -1.5852468e+00
  4.4985814e+00
  1.5147876e+00
 -2.8312807e+00
 -3.5575852e+00
 -3.7238858e+00
  2.3278275e+00
  8.5137808e-01
  2.6566138e+00
  3.1099418e-01
  1.0807482e-02
  1.9515239e+00
  1.8703418e+00
 -3.4220424e+00
  3.0702367e+00
 -8.8050276e-01
  5.2724516e-01
 -1.2738577e+00
 -2.8326828e+00
 -2.7935286e+00
 -2.4584095e+00
  1.5114284e+00
  1.2087626e+00
 -2.1855214e+00
  6.5844536e-01
  4.6951440e-01
 -8.2989198e-01
  5.0688577e-01
 -7.1567321e-01
  7.9442638e-01
 -2.7428710e+00
 -3.1096385e+00
  2.0685600e-01
  8.3602726e-01
 -1.1466570e+00
  2.3185909e+00
 -6.5708202e-01
  1.1396807e+00
  1.7123494e+00
  5.4715770e-01
 -2.7305442e-01
  9.1678178e-01
 -1.6282688e+00
 -6.0020190e-01
 -2.2274083e-01
 -1.2711926e+00
  3.0071976e+00
  7.2652769e-01
 -1.1379800e+00
  1.0683148e+00
  7.2977573e-01
  1.9518834e-02
 -1.0845091e+00
  1.6912636e+00
  1.6420573e+00
  1.6315991e+00
  6.7284024e-01
 -2.3815033e+00
  2.0241365e+00
 -2.1867416e+00
  3.3556263e+00
  3.1013298e+00
  1.0390317e+00
 -9.5583248e-01
 -2.9653721e+00
  1.1834985e+00
  4.5332249e-02
  1.3342725e+00
  1.4162244e-01
 -2.7748048e+00
  3.4975042e+00
 -2.8124284e-03
  7.5199747e-01
 -2.0843537e+00
 -1.0835321e+00
 -1.0324771e+00
  2.6828823e+00
 -3.6937320e+00
 -9.8680770e-01
  4.6576986e+00
  6.6415507e-01
 -2.9867113e+00
 -2.2116921e+00
  1.1751982e+00
 -1.1193751e+00
  2.1889844e+00
  2.1578667e+00
  1.2070234e-01
 -4.2372242e-01
 -1.0316744e+00
  3.9026615e-01
 -1.6861072e+00
 -1.1263826e+00
 -2.9194479e+00
 -3.4122355e+00
 -2.1393452e+00
  7.8813797e-01
  1.6320752e+00
  1.5302333e+00
  2.2307903e-01
 -1.7419270e+00
  3.7168956e+00
 -2.1987338e+00
 -3.4235954e+00
  4.9284998e-01
 -4.2338395e-01
  2.9703596e+00
  7.5666803e-01
 -2.9862211e+00
 -9.8045403e-01
 -5.0247371e-01
 -4.7522306e+00
 -1.4017571e+00
  5.3933758e-01
  1.0222297e+00
 -2.7158291e+00
 -1.3941945e+00
  3.7933153e-01
  1.6075097e+00
 -2.8673407e-01
  1.5816072e+00
  1.2630352e+00
  4.2406178e+00
  1.2299296e+00
  7.9271030e-01
  2.9429917e+00
  3.4992571e+00
 -4.2385292e+00
 -5.6306567e+00
 -3.2828562e+00
  1.2313972e+00
  1.1963044e+00
 -7.0472670e+00
 -2.3667376e+00
  1.4164284e+00
 -2.7092078e+00
  5.1071413e-02
 -2.8717551e+00
  3.2059331e+00
 -2.7578044e+00
 -9.2274106e-01
  1.9387953e+00
  3.0339828e+00
  2.7654657e+00
  1.7535331e+00
  5.0581139e-01
  8.5103446e-01
 -9.3699306e-01
 -4.7778268e+00
  2.1653008e+00
  8.9561355e-01
  1.2878468e+00
  2.4426830e+00
  1.3383566e+00
 -1.7189082e+00
 -4.5739107e+00
 -7.3399776e-01
 -3.4026148e+00
 -1.9281101e+00
  1.2037507e-01
 -5.3535134e-01
 -2.3584645e+00
 -4.4475198e+00
  1.5038418e+00
  2.1019082e+00
  5.8857697e-01
 -2.3386810e+00
 -4.7755662e-01
 -4.2012129e+00
 -1.1020000e+00
  2.5560084e-01
 -5.4253143e-01
 -5.0140648e+00
 -4.3729848e-01
  9.4645649e-01
 -1.0073569e+00
 -1.0120342e+00
 -6.5640652e-01
  2.3003054e+00
 -4.9686807e-01
 -3.2575107e+00
  8.7391287e-01
 -2.7327952e+00
  3.6066306e+00
 -1.2688088e+00
  5.3736466e-01
 -8.4492958e-01
 -2.0321524e+00
 -8.7428743e-01
 -1.3803929e+00
  1.0894597e+00
  5.2039463e-02
 -3.2828388e+00
  2.8550253e+00
  4.1597024e-02
 -2.4293246e+00
 -1.4052345e+00
 -1.5160930e+00
 -9.7960830e-01
  3.2593002e+00
  2.3587961e+00
 -1.7301773e+00
 -5.4426866e+00
  1.4662426e+00
  3.3180732e-01
  6.1302886e+00
  1.3948628e+00
  5.6284275e+00
  1.7824452e+00
 -1.2187098e+00
 -1.9695526e+00
  3.3537701e-01
  4.2487884e-01
 -3.6327848e+00
 -1.6243391e+00
 -8.4409907e-02
 -7.7747869e-01
  2.6213533e-01
 -3.4838650e+00
  4.2153606e+00
 -2.5723286e+00
  9.7961605e-02
 -2.6728947e+00
  2.8802741e+00
  1.9847410e+00
 -1.0400298e+00
  1.1151848e+00
 -3.8365774e+00
  2.9315600e+00
 -5.6287699e+00
 -3.0388520e+00
 -3.2456927e+00
  1.5873092e+00
  1.3481545e+00
 -1.5023237e-01
 -2.4770668e+00
 -3.4733930e+00
  4.4610581e+00
  2.0343528e+00
 -6.9206529e+00
  2.7202902e+00
 -1.6144723e+00
  6.1709690e-01
 -2.6647839e-01
  5.8925736e-01
  1.5142173e+00
  1.9525071e+00
 -4.2329922e+00
  5.5037584e+00
 -1.0569818e-01
 -1.3165315e+00
  2.8105426e+00
 -6.5358900e-02
  3.5120621e+00
  3.9929576e+00
 -2.6989982e+00
  1.8160768e+00
  1.2915695e-01
 -4.9935718e+00
 -8.8422102e-01
 -1.8682663e-01
  2.4466572e+00
 -2.4123707e+00
  1.2299221e+00
  2.9270971e+00
  9.1403812e-01
  4.0764680e+00
  3.9732283e-01
 -1.0285470e+00
 -3.6194786e-01
 -1.5715192e-01
  3.2876940e+00
  5.4477477e-01
  1.1024722e+00
  1.5627815e+00
 -2.2846329e+00
 -2.0838296e-01
 -5.0005317e+00
  2.4538839e+00
  1.8037562e+00
  1.5254232e+00
  2.0140557e+00
  4.0123420e+00
  1.2587655e+00
  1.0643728e+00
 -2.3809434e-01
 -1.1099943e+00
  4.2982697e+00
 -4.6554506e-01
 -1.2416004e+00
 -2.3907021e-01
 -2.2510810e+00
 -3.6978388e+00
 -5.2761455e+00
  2.9936440e+00
 -3.8839343e+00
  1.8496226e+00
  3.3524439e+00
  8.6040801e-01
  5.3224337e-01
  2.1678300e+00
 -6.1530104e+00
  1.0005048e-01
  1.2872983e+00
 -2.6254326e-02
  2.4758618e+00
  1.2392190e+00
  8.6508387e-01
 -3.5601866e+00
  2.5035779e+00
 -2.7784209e+00
  1.5416794e+00
 -6.0635513e-01
 -3.2953167e-01
  6.2847257e-02
  1.5732294e+00
 -7.2381127e-01
  2.8586438e+00
 -6.4066067e+00
  2.9249320e+00
  4.8525262e-01
  2.7062991e+00
 -3.2090576e+00
 -4.9675673e-01
 -1.2216988e+00
 -2.0397730e+00
  1.6136805e+00
 -1.1864511e+00
 -4.3930087e+00
  9.5460993e-01
 -2.9444425e+00
 -7.4419039e-01
  4.5943551e+00
 -3.0788171e+00
  5.9201617e+00
 -1.0911543e+00
 -1.4814941e-02
  2.7558489e+00
  3.2484300e+00
  2.2079184e+00
  1.9044942e+00
 -2.1732554e+00
 -2.3333859e+00
  1.1883644e+00
  3.5306094e+00
 -2.6108642e+00
  2.5107510e+00
 -1.3493447e+00
  9.1561824e-01
 -3.2186739e+00
 -1.5477009e+00
  2.5456598e+00
  3.0652297e+00
 -3.4384769e-01
  9.5856202e-01
  2.9247353e+00
  5.1818001e-01
  1.8402700e+00
 -1.6858515e+00
  2.8590692e-02
 -2.8970101e+00
  3.0717030e+00
 -3.4795225e+00
  3.5736352e-01
 -1.1634319e+00
 -1.4056937e+00
  5.4768467e+00
 -4.0354290e+00
  1.4367720e-01
  5.3686911e-01
 -1.4506013e+00
 -2.8538830e+00
 -2.3783894e+00
 -4.3214145e-01
  9.8802745e-01
  4.6163592e-01
  2.0996079e+00
 -1.5324740e-01
 -5.7308471e-01
 -1.1619792e+00
  2.0370982e+00
  9.0077400e-02
 -6.6834688e-01
 -1.6776047e+00
  3.2463577e-01
  2.8442421e+00
 -1.8060158e+00
 -4.3888301e-01
  6.2160749e-02
 -2.7959895e+00
  1.4729431e+00
  4.2126327e+00
 -1.7900331e+00
  2.6102859e-01
 -4.5510802e+00
 -8.1864148e-01
 -5.2229881e+00
  3.2128417e+00
 -3.0794678e+00
 -4.7878389e+00
 -4.4168624e-01
  1.2996778e+00
  2.7212830e+00
  1.1033032e+00
 -1.1075771e-01
  6.2795510e+00
 -2.5183761e+00
  1.4026338e+00
 -2.5554278e+00
  3.8264674e-01
  4.0510383e+00
  1.4854509e+00
 -4.6859857e-01
 -1.0905932e+00
  1.1506979e+00
  4.7508755e-01
  1.5954760e-01
  3.8864546e-02
  3.6845815e-01
 -1.8720210e+00
  1.5503497e-01
 -4.0596046e+00
 -1.3518487e+00
 -1.7804747e+00
  1.9133204e+00
 -8.9690275e-02
 -2.1022439e+00
 -1.7985917e+00
 -8.7375885e-01
  8.7349288e-02
  6.6772032e-01
  1.0323928e-01
  1.4115844e+00
  1.0881166e+00
  2.1182985e+00
  1.3045617e+00
  1.2613814e+00
  1.1461581e+00
 -1.3527771e+00
 -1.3307720e+00
  6.3586456e-01
  2.9454789e+00
 -2.3317304e-01
  4.7252730e-01
  1.2978872e+00
 -6.7890924e-01
  1.4832453e-01
  2.9204433e+00
 -2.3569739e+00
 -1.5349326e+00
  3.5946870e+00
 -2.0103066e+00
 -5.3311944e-01
  6.8250141e+00
  2.8220860e-02
 -6.6959476e-01
  1.9229579e+00
 -6.1240113e-01
 -8.7184310e-01
  4.8995438e-01
  3.9275577e+00
  1.6153164e+00
  1.1247542e+00
 -1.3260887e+00
 -2.8339297e-01
  1.5893005e-01
 -1.3192954e-02
 -3.5874641e-01
 -1.7932842e+00
  2.6106920e+00
 -2.7859041e-01
 -1.4668533e+00
 -1.6762254e+00
  8.2310933e-01
 -2.7419046e-01
 -3.0316298e+00
  3.1405008e-01
  2.0618310e+00
 -1.9072582e+00
 -7.1379709e-01
  1.4099410e+00
  2.6158226e+00
 -4.1504434e-01
 -3.5536416e+00
 -1.8201327e+00
 -5.3866954e+00
  1.6053268e+00
  3.8122287e-01
 -1.7680262e+00
  2.9480913e+00
 -2.6375758e-02
  5.4589885e-01
 -8.2569349e-01
  9.0741533e-01
 -6.5707219e-01
 -1.9342456e+00
 -7.8738672e-01
 -1.9577528e+00
  1.2903391e-01
  4.0174117e+00
 -4.6793761e+00
  1.2855983e+00
 -4.8101521e+00
 -1.1692687e+00
  1.6794854e-01
 -2.7309628e+00
  1.9733104e+00
 -8.7202668e-01
 -2.4285300e+00
  5.7378554e-01
 -2.4461250e+00
 -1.1133311e+00
 -2.8033209e+00
  1.2747221e+00
  2.3747065e+00
 -2.6762497e+00
  5.3129077e+00
  9.0632915e-01
  6.8313265e+00
  2.2099528e+00
  6.5965945e-01
 -5.2931457e+00
  2.0424054e+00
  2.5333636e+00
  1.5477452e+00
 -1.1339494e+00
  9.1253358e-01
 -9.1744304e-01
 -3.2425368e+00
 -1.8849450e+00
  2.0627782e+00
  1.8132434e+00
  2.5290427e+00
 -3.7669580e+00
  3.6913877e+00
  1.6566614e+00
  2.6754932e+00
  1.0207645e+00
 -1.2863216e+00
 -2.7693698e-01
 -1.3379400e+00
 -8.2286161e-01
 -2.5364220e+00
 -2.9849410e-01
 -5.0876203e+00
 -2.2307308e+00
  1.3463864e+00
  4.3626933e+00
  8.2712930e-01
 -1.5631303e-01
 -5.3006256e-01
 -2.1038084e+00
  4.4816491e-01
  2.5464243e-01
 -1.1150295e+00
 -9.2647684e-01
 -9.9091989e-01
  2.3282385e+00
  1.1006451e+00
 -2.3490012e+00
  3.7299266e+00
  2.5444487e-01
  2.0428048e-01
 -2.3354070e+00
  4.0057888e+00
  2.0134320e+00
  3.6198792e+00
  3.7881603e+00
 -2.8581550e+00
  1.2298607e+00
  3.7649277e-01
  1.3988177e+00
  3.0843768e+00
  2.9983699e+00
  3.2257612e+00
 -1.6112219e+00
  6.7618102e-01
 -1.2221326e+00
  1.5846400e+00
  9.7858295e-02
 -2.4885251e-01
  1.6554960e+00
 -1.0695187e+00
  2.1173289e+00
 -1.9231437e-01
  1.0301782e+00
 -8.5536581e-01
 -1.5596089e+00
  2.1878085e+00
 -2.4833229e+00
  1.4224563e+00
  7.8600872e-01
 -6.8930149e-01
  3.4718447e+00
  6.8191653e-01
 -4.9021137e-01
  4.0000882e+00
 -1.3020441e-01
  9.0454501e-01
  4.4459605e+00
  6.3809186e-01
  3.2084420e-01
 -2.8258190e+00
  7.2078639e-01
 -3.1398163e+00
 -1.3348002e+00
 -2.9972956e-01
  1.8437535e+00
 -1.0146308e+00
 -1.5019897e+00
 -2.7696843e+00
 -2.7520862e-01
  3.5198396e-01
  7.8164071e-01
  4.4552441e+00
 -1.1637696e-01
  4.1583771e-01
  2.2945669e+00
  3.1859827e-01
  1.4177904e+00
  1.8785356e+00
  9.2761785e-02
 -2.9855186e-01
 -8.0252296e-01
 -3.8161709e+00
  3.4099128e+00
 -2.0555408e+00
  6.6507792e-01
  1.8869592e+00
  5.8000666e-01
 -3.2026021e+00
 -1.3195733e+00
 -2.1203791e-01
  5.1854628e-01
  1.0079936e-01
  4.0376532e-01
  2.1361144e-01
 -3.4049504e+00
  7.0589155e-01
 -2.1408961e+00
 -1.1083481e+00
  1.0952610e+00
 -2.0083176e-01
  1.0743166e+00
 -1.8058649e+00
  7.3947531e-01
  1.6768545e-01
  7.9452354e-01
  1.6269526e+00
  1.1633563e+00
  1.6830183e+00
 -1.7016088e+00
  1.6597681e+00
  1.7306666e+00
 -1.6570737e+00
 -1.0082746e+00
 -9.1642039e-03
  2.9615295e-01
  2.2975676e-01
  2.5192790e+00
 -2.3377748e+00
 -1.9766963e+00
  2.1229429e+00
  5.5112976e-01
  3.1926126e+00
 -3.4962413e+00
 -2.7585132e+00
  1.5578867e+00
 -2.5316668e+00
  2.0521741e+00
 -1.2810940e+00
  1.3280528e+00
  1.0674591e+00
 -3.3767733e-01
  2.1628785e+00
 -3.1680856e+00
 -1.0118281e+00
  1.7763793e+00
  3.1112740e+00
  8.2777029e-01
 -5.2807248e-01
 -1.1459199e+00
 -8.9241433e-01
 -7.5335425e-01
  4.4439951e-01
  5.1002181e-01
  5.4120010e-01
  2.0481498e+00
  4.2605853e-01
  1.1560788e+00
 -3.9977281e+00
  3.5315030e+00
 -2.0969875e+00
  4.9559277e-01
  2.8493669e+00
 -8.0954885e-01
  1.2655919e+00
 -1.4660619e+00
 -1.4157901e+00
  7.3533165e-01
 -3.9682915e+00
  1.0331492e+00
  2.1662444e-02
 -1.5944377e+00
 -4.2167169e-01
 -9.1032505e-01
  1.8187929e+00
  1.3699634e+00
  1.7404078e+00
  2.6388116e+00
  4.4015595e-01
 -6.8852001e-01
 -1.2979813e+00
 -2.2124443e+00
  1.2075107e+00
  4.3125129e+00
 -8.1592417e-01
 -9.0775162e-01
  3.9996867e+00
  2.0732558e+00
 -3.8993695e-01
  9.5103097e-01
  1.2122344e+00
 -4.3581595e+00
  7.9853195e-01
  4.1109700e+00
  2.3729715e+00
  5.1452022e+00
 -1.3241927e-01
 -2.3729429e+00
 -3.8016570e-01
  8.2186586e-01
  2.7398007e+00
 -8.1048864e-01
 -1.8671097e-01
 -4.4761604e-01
  2.3004754e+00
 -4.2188099e-01
  6.7035139e-01
  4.5197282e+00
 -1.4982990e+00
 -8.0435967e-01
  6.8582110e-02
 -1.9843328e+00
 -2.8680024e+00
  1.2147590e+00
 -3.3577640e+00
 -5.1185908e+00
  1.8645450e+00
 -7.0944923e-01
  1.3209987e+00
 -3.9153475e-01
 -1.7876620e+00
 -2.9104590e-01
  2.9166031e-01
 -2.4617314e+00
  1.9802513e+00
 -2.4266047e+00
  9.9447042e-01
  2.3751947e-01
  1.2235122e+00
  6.6156330e+00
 -7.7839082e-01
 -1.5461330e+00
 -2.1467023e+00
  4.9208784e+00
 -3.9141375e-01
  4.0463319e+00
 -5.6933582e-01
 -6.3828951e-01
  1.3196039e+00
  4.9305487e-01
  1.5599816e+00
  1.3770173e-01
  1.5031929e-01
 -1.9523886e+00
 -1.3637484e+00
 -1.5190583e+00
 -1.8835385e-01
  1.2100867e+00
 -1.3655469e+00
 -1.4044487e-01
 -4.8035941e+00
  2.6873081e+00
  3.8928237e+00
  1.4746605e+00
 -1.2032789e+00
 -1.4126389e+00
  5.3497511e-01
  3.1236970e+00
  1.4432156e+00
 -2.5160923e+00
  5.2578920e-01
 -1.5540962e+00
 -2.3922017e+00
 -1.9674121e+00
 -4.0398827e+00
 -3.5612643e-01
  7.1862984e+00
 -2.5543335e-01
 -1.1326193e+00
 -5.7468843e+00
  2.3976479e+00
 -1.6282896e+00
  4.9648190e+00
 -2.3692689e+00
 -9.8871458e-01
 -1.8801813e-01
 -1.4822557e+00
  8.1803215e-01
 -3.2293608e+00
  6.5156412e-01
  3.9417567e+00
  3.5202038e+00
  3.7742090e+00
  4.2949471e+00
  1.7884675e+00
  1.0273663e+00
 -6.5016603e-01
 -5.3835057e-02
  1.6736411e+00
  9.5390856e-01
  3.4975374e+00
 -4.8040738e+00
  4.3807021e-01
  2.2575414e+00
  2.1577418e-02
  2.0429435e+00
 -1.6184798e+00
  6.2449384e-02
 -1.9602433e+00
 -6.3023882e+00
  3.5358021e+00
 -7.0087761e-01
  1.8857849e-01
 -9.9679649e-02
 -1.3790030e+00
 -9.6164572e-01
 -4.3965187e+00
 -2.2086136e+00
  2.3174417e+00
  4.0871739e+00
 -1.6412963e+00
  1.1162045e+00
 -1.7544682e+00
 -8.3966702e-01
 -6.0533398e-01
 -4.4390626e+00
 -5.0876278e-01
  7.8547525e-01
  2.3864021e+00
 -3.0682954e-01
  1.6779563e+00
  3.2913201e+00
  7.2764623e-01
 -2.4386210e+00
 -6.0901839e-01
 -1.3537255e-01
 -4.6531796e+00
  2.1656895e+00
 -8.6891276e-01
  4.2532101e+00
  1.1690698e-01
 -6.8092978e-01
 -6.3299477e-01
 -3.6994610e+00
 -1.1117865e+00
  4.7613922e-01
 -6.9884145e-01
 -1.1385174e+00
  9.0351665e-01
 -3.6608980e+00
 -1.5654540e-01
 -8.6016440e-01
  1.5777355e-01
  2.9435804e+00
 -8.2350355e-01
 -9.3431592e-01
 -2.5740416e+00
  1.4533867e+00
  1.2681046e+00
  4.3134904e-01
 -6.9597584e-01
  6.7726326e-01
 -2.1573386e+00
 -6.0926092e-01
  2.3768694e+00
  7.9940987e-01
  2.6664989e+00
 -5.2755588e-01
 -4.8958650e+00
 -1.6348736e+00
 -1.6379391e+00
  9.6604741e-01
 -2.1930982e-01
 -1.1650946e+00
  1.8832821e+00
  2.2306436e-01
 -1.3719238e+00
 -1.4004936e+00
 -1.2580732e+00
  2.8231546e-01
 -6.2155485e-01
 -2.7233109e+00
 -7.5806439e-01
 -3.6477015e+00
 -9.5294017e-01
  4.8549309e+00
 -7.1044898e-01
 -7.3615849e-01
  2.0425913e+00
 -2.9542015e+00
 -9.9878532e-01
 -3.9847541e-01
 -1.1770726e+00
 -1.7601061e+00
 -1.1459168e+00
  9.2663777e-01
 -2.3097048e+00
  1.3058405e+00
  3.1807091e+00
 -1.6042945e+00
  5.4298228e-01
 -4.4570655e-01
 -3.4297857e+00
 -4.0585804e-01
  1.9510608e+00
  1.0614687e+00
  4.2077184e-01
 -2.9771781e+00
  8.0943525e-01
  2.2258005e+00
 -1.4811189e+00
 -9.1271645e-01
  2.1677279e+00
 -1.4940457e+00
  5.9045391e+00
 -2.8621163e-02
 -8.4905028e-01
 -6.6581898e-04
 -1.2500331e+00
 -2.2818797e+00
 -4.1436996e+00
 -1.1394131e+00
  3.9716351e+00
  4.4897798e-01
  2.4399099e+00
  2.5370872e-01
 -1.7027222e+00
 -3.0182672e-01
 -8.6114979e+00
 -3.1529524e+00
 -2.0933957e+00
 -2.6379759e+00
  2.4822183e+00
  1.7897452e+00
 -1.7640523e+00
 -1.6060857e+00
  2.5410776e+00
  3.3746977e+00
 -3.3056333e+00
  1.7486573e+00
  2.0638171e-01
 -4.0022674e+00
 -1.4264073e+00
  6.7345065e-01
 -3.2075832e+00
  1.9617176e-01
  4.5805451e-01
  1.3631270e+00
 -7.5047541e-01
  5.4907572e-01
  2.9065194e+00
 -2.0632524e+00
 -6.5206685e+00
 -8.0025107e-01
  7.4555248e-02
  1.1517003e+00
 -2.9042811e+00
  2.3525600e+00
  1.4456134e+00
  1.7681597e+00
  2.0798566e+00
  1.2828454e+00
  1.0620551e-01
 -6.0458052e-01
  1.4354452e-01
  1.5690521e+00
  3.9043570e-01
  3.2320836e+00
 -9.9974430e-01
  1.6875538e+00
 -1.2084885e+00
  6.2934667e-01
  5.1021194e-01
  5.3636867e-01
  2.1683307e+00
 -6.9481415e-01
 -1.3964690e+00
 -1.5673243e-01
  5.6492168e-01
 -3.4763854e+00
 -5.4829925e-01
 -2.0452271e+00
  4.7307488e-01
 -1.5494300e+00
 -1.1579460e+00
  3.3438462e-01
 -3.7878606e+00
 -2.5205915e+00
  2.4777327e+00
  4.2407222e+00
  1.4285369e+00
  9.0467757e-01
  1.1149968e+00
 -1.2231442e-01
 -9.3438560e-01
 -4.0940192e-01
 -2.2268016e+00
 -2.5622342e+00
  2.0894899e+00
 -1.4935038e+00
  1.6115121e+00
  3.7051518e+00
 -1.5379655e+00
  6.0155606e-01
  2.5284013e-01
  4.8534375e-01
 -2.6359932e+00
 -2.9558434e+00
  2.0139511e+00
  6.5169233e-01
 -8.8533831e-01
 -1.5059869e+00
  9.4659343e-02
  1.4709494e-01
 -2.5276640e-01
 -1.9828852e-01
  1.7109619e-01
  2.9914817e-01
 -1.0032042e+00
 -4.5060134e-01
 -1.0031086e+00
  5.3294587e-01
  7.8670394e-01
  7.8173298e-01
  2.5206681e-02
 -8.5207766e-01
 -1.4953312e+00
  1.2898393e+00
  4.4458953e-01
 -8.0948550e-01
 -2.9556841e-01
 -7.7980913e-02
  3.8487270e-01
 -1.6574378e-01
  1.3222344e+00
 -1.0229883e-01
 -3.1892738e-01
 -8.2578450e-01
  1.7047562e-01
  8.5630082e-03
  2.3439971e-01
  2.6093689e-01
  1.0137795e+00
  1.8049391e-01
 -1.5145732e+00
 -7.0348680e-01
 -4.6156117e-01
 -7.0217437e-01
  1.7035974e+00
  7.0845360e-01
  2.0364778e+00
 -2.1714605e-01
 -9.4642472e-01
 -5.1607847e-02
 -8.1516974e-02
  5.4080099e-01
 -1.2883776e+00
  4.1148761e-01
 -1.7208985e+00
  7.8489417e-01
 -2.6845327e-01
 -5.4015440e-01
 -2.9865530e-01
  2.9566996e+00
  1.9732921e+00
  9.6081030e-01
  3.9057879e+00
  9.4309109e-01
  2.4229113e-02
  8.6206490e-01
  2.3459735e+00
  2.6585994e+00
  2.1680694e+00
  6.6118681e-01
  3.1318145e+00
  1.1593392e+00
  5.2746755e-01
  6.0727990e-01
 -8.0966413e-01
  1.4032860e-01
  1.8061912e+00
 -1.3568316e+00
 -1.2323161e+00
 -1.3484718e+00
 -2.9347842e+00
  9.7444379e-01
 -5.2646847e+00
 -2.6348929e+00
 -5.6656480e-01
  1.9216408e+00
  5.5657773e+00
  4.6623549e+00
 -1.2221210e+00
  2.2522361e+00
  1.9348636e+00
  5.6139445e-01
 -2.5587256e+00
 -1.8205512e+00
  8.3911562e-01
 -8.2177818e-01
 -2.9361026e+00
 -2.1996608e-01
  1.6245655e+00
 -9.6957332e-01
  5.9750602e-03
  1.4615497e-01
 -2.0558233e+00
  7.2337508e-01
 -1.7436459e+00
 -2.7582031e-01
 -1.4327661e+00
  3.2377768e+00
 -3.7527850e+00
  1.4792900e+00
  4.6519742e+00
  1.5677139e-01
  2.8802831e+00
 -7.3679584e-01
  2.5953453e+00
 -3.7958497e-01
 -8.0885816e-01
 -1.5975281e+00
 -4.5837957e-01
  1.1216082e-01
  1.8407807e+00
  5.4564871e-02
  2.6822248e+00
 -3.6879666e+00
  4.7309506e-01
 -2.2175193e+00
 -4.1510463e+00
  7.8543371e-01
  6.1050230e-01
 -1.2891207e+00
  1.2934092e+00
  4.7697835e+00
 -2.8111672e+00
  2.5770447e-01
 -2.5638866e+00
 -5.7336373e+00
 -1.4260909e-01
 -2.4546378e+00
 -8.1977314e-01
  5.8812457e-01
 -9.6259266e-01
 -3.4986258e+00
 -2.4634299e+00
 -1.3060308e+00
 -1.3944430e+00
  1.2575546e-01
  2.3515846e-01
  3.4273779e+00
 -5.7673821e+00
 -1.8875934e+00
 -3.6385567e+00
  4.7344546e+00
 -1.0993302e+00
 -2.3865054e+00
  2.8295743e+00
  8.4221852e-01
  1.8740152e+00
  7.9096919e-01
  1.0955393e+00
  3.1124661e+00
  7.2281557e-01
 -3.5188749e-01
 -1.7445942e+00
 -2.2553988e+00
  1.4640370e-01
 -1.9215847e+00
 -3.2673905e+00
 -1.5121722e+00
 -7.4085002e+00
 -2.5548584e+00
  5.1490241e-01
 -3.0348334e+00
 -1.3453321e+00
 -6.9063509e-01
 -1.1201175e+00
  6.6230168e+00
  1.6289087e-01
 -8.6372352e-01
  6.9872320e-01
  1.9614772e+00
  2.1195071e+00
  1.2668023e-01
  2.2034786e+00
  4.0093884e-03
  7.7664977e-01
  4.8153643e-02
  1.3933473e+00
 -1.5944049e-02
  2.2578316e+00
 -1.6228538e+00
  1.7939258e+00
  3.2493308e+00
 -9.9611610e-01
  5.9302282e-01
 -1.0352592e+00
  8.3386344e-01
  8.4803617e-03
  4.7740426e+00
  3.8313305e-01
 -8.2002199e-01
  4.2238955e+00
 -3.8048227e+00
  2.0200968e+00
  5.7107544e-01
  3.4518635e-01
  3.4636121e+00
 -2.9312599e-01
 -1.5890141e+00
 -2.3343446e+00
 -2.2504742e+00
 -2.2091806e+00
  1.2099144e+00
 -4.3420085e-01
  7.8829402e-01
  3.1263688e+00
  9.3049091e-01
 -2.9868934e+00
 -4.2642651e+00
  1.6161507e-01
 -4.7914791e+00
  1.2135493e+00
  1.5692819e+00
 -2.6604464e-02
 -7.9658675e-01
  8.8627660e-01
  1.1996616e-01
 -1.7705300e-01
 -1.2573855e+00
 -3.9367092e-01
 -3.4129411e-02
 -1.5783241e-01
 -2.6940534e+00
 -5.0236940e+00
 -1.2216989e+00
  4.9704270e+00
 -4.6288629e+00
 -1.1386945e+00
 -6.4289933e-01
  1.3803638e+00
 -5.5909055e-01
 -3.3555479e+00
 -6.8295088e+00
  3.0014324e+00
  1.8461879e+00
 -4.4237251e+00
  1.8043113e+00
  1.4334665e-01
  2.7525043e+00
 -4.4351454e+00
 -3.7514892e+00
 -3.3878007e+00
  2.8127978e+00
  1.7489156e+00
 -4.7591546e-01
  3.7397902e+00
 -6.6208756e-01
  1.1982290e+01
  2.0257032e+00
 -2.1610558e+00
 -5.0609002e+00
 -2.9194946e+00
  3.9440536e+00
 -6.2152805e+00
  1.9683833e+00
  5.1459041e+00
  6.9170451e+00
  5.3858858e-01
 -2.9864700e+00
 -9.0514594e-01
  5.3094238e-01
 -1.1375523e+00
 -5.6473551e+00
  3.1862183e+00
 -9.0399832e-02
 -5.5786600e+00
 -6.6396415e-01
 -3.9103701e+00
  1.3412554e+00
  5.7566056e+00
 -3.7834570e-01
 -3.7732932e-01
  1.4943349e+00
 -5.4396162e+00
 -5.0132833e+00
  3.1913472e-03
 -1.0075350e+00
  2.2807460e+00
  2.7441204e-01
  1.9131562e+00
 -2.0056686e+00
 -3.2550423e+00
 -1.9792852e+00
  1.6212021e-01
 -1.6782919e+00
 -1.5879343e+00
 -2.0879829e+00
  5.4739337e+00
  2.3465016e+00
  5.2076607e+00
 -2.3931026e-01
  1.5271349e+00
  2.0230525e+00
  1.2895881e+00
  3.4381516e+00
  4.4277911e+00
 -7.9253465e-01
 -1.9215001e+00
 -3.4339135e+00
 -1.9834517e+00
 -9.2609185e-01
 -5.0594425e+00
  2.5185901e-01
  2.4022231e+00
 -1.4491659e+00
  1.3673331e+00
  1.4112487e+00
  3.9774745e+00
 -2.3544037e-01
  3.1339676e+00
 -2.4040747e+00
  2.9165096e+00
 -1.8125759e+00
 -2.2670956e+00
 -2.6759067e+00
  3.6575828e+00
  1.4180334e+00
  2.7811449e+00
  6.6051853e-01
 -1.4505700e+00
 -7.9747993e-01
 -8.9286059e-01
 -7.9029745e-01
  2.6258750e+00
  1.3938425e-01
  1.7440300e+00
 -9.8324949e-01
 -1.8661877e+00
  1.7245083e+00
  2.9705188e+00
 -1.0477113e+00
  1.2431188e-01
  7.9965457e-02
 -3.9249687e+00
 -1.2137348e-01
 -4.0534243e-01
 -1.9626019e+00
  3.3118275e-01
 -6.7886791e+00
 -2.7884824e+00
 -9.6039110e-01
  2.9246027e+00
 -9.0235019e-01
 -2.0755670e+00
 -5.4220610e+00
 -5.9354097e-01
  1.0852208e+00
 -1.7303814e+00
 -1.2257582e-01
 -2.4220352e+00
  3.5951455e+00
  2.0674479e+00
  2.5787485e+00
  1.4627901e+00
 -1.3107023e+00
  1.1139064e-01
 -3.0072924e-01
  1.6979409e+00
  2.7468948e+00
 -5.6758845e-01
 -4.9817000e-02
  9.0579742e-01
 -8.1320739e-01
 -1.5036380e-02
  1.2913767e+00
  2.8165889e-01
  1.0458039e+00
 -7.7219450e-01
  6.7497530e+00
 -4.6116529e+00
 -2.3730075e+00
  7.2045934e-01
  3.8552895e+00
  1.8061786e+00
 -5.5115229e-01
 -1.8206817e+00
 -9.6280706e-01
  2.9865663e+00
 -2.1939695e+00
 -2.0848615e+00
 -1.8886309e+00
 -2.3653710e+00
  5.9694724e+00
 -9.2887104e-01
  1.5900654e+00
 -2.6730105e-01
  1.0080658e-01
 -5.1543075e-01
 -1.6666479e+00
 -2.8504407e+00
  4.3416154e-01
  1.1047049e+00
  1.2978561e+00
 -2.4065838e+00
  4.1605896e-01
  4.6711140e+00
  8.8438666e-01
  2.3727047e+00
 -2.9522567e+00
 -5.1642036e+00
  1.5367087e+00
 -2.9346082e+00
  3.9349183e-01
  1.7450840e+00
 -7.0042104e-02
 -2.8763566e+00
 -3.2290182e+00
 -2.9084783e+00
  1.6824833e+00
 -3.6551791e-01
  1.9158461e+00
  1.2072624e+00
  2.8069196e+00
 -2.3085039e+00
  3.1496475e+00
  2.1500385e+00
 -2.0409358e+00
 -1.1504411e+00
 -2.5327916e+00
 -3.6890597e+00
 -3.4275613e+00
 -2.0028644e+00
  2.3278399e+00
 -1.0094555e-01
  9.9519499e-02
  8.6811393e-01
  4.4764142e+00
  4.5532742e+00
 -2.2134638e+00
  1.3803756e+00
  2.7225704e+00
 -3.2503145e+00
  3.2760081e-01
  1.0213355e+00
 -1.2741981e-01
 -2.3116557e-01
  4.3666534e+00
 -1.9103479e+00
 -2.5122783e+00
  7.7476293e-01
  1.9646113e+00
 -8.7233961e-01
 -3.0078375e+00
  6.0066209e+00
 -1.4262025e+00
 -3.5819633e+00
 -1.4734424e+00
 -1.1674774e+00
 -1.4068960e+00
  2.6480088e+00
 -2.3363595e+00
  2.7554646e+00
  3.8885379e+00
 -2.0662270e+00
  1.0642250e+00
 -1.7828439e+00
  4.1984777e+00
 -9.2794460e-01
 -1.9612978e+00
  2.6327816e-01
 -4.2102382e-02
 -3.4331648e+00
 -9.7185278e-01
  5.3153634e+00
  1.4138010e-01
  2.3815606e+00
 -4.8731247e-01
 -1.0905480e+00
 -1.9243803e-02
  3.6676953e+00
 -3.6636715e+00
 -1.5872457e+00
  4.8379487e-01
  2.3230860e+00
  3.3767397e+00
 -6.5288413e-01
  2.4538403e+00
 -2.0663192e+00
 -4.5003080e+00
  1.7904915e+00
 -1.8790193e-02
  2.8377607e-02
 -2.4805586e+00
 -2.5591382e-01
  3.7545066e+00
  2.5693355e+00
  5.4675875e+00
  6.8982911e+00
 -5.0471048e+00
  8.3781853e+00
  5.2058439e+00
 -8.4537458e+00
  7.9007047e-01
 -9.0173060e-01
  2.1239119e+00
  3.9191597e+00
  2.8425634e-01
  2.0257549e+00
 -3.3947506e+00
 -1.4120444e+00
  1.0039102e+00
  3.0818923e+00
 -1.9748518e+00
  5.2496042e+00
  1.1285033e+00
 -1.5525898e+00
  3.4960184e+00
  5.3088439e-01
 -3.0292819e+00
  2.0697575e+00
 -4.3792562e+00
 -2.8981093e-01
 -2.6688540e+00
 -2.7831912e-01
  3.2738295e+00
  3.2260346e+00
  2.4203088e+00
  2.9370649e+00
  2.3251285e-01
 -3.7585568e+00
 -1.8075889e+00
 -1.6451053e-01
  3.0107549e-01
  3.4778636e+00
  4.6329398e+00
  8.7489784e-01
  1.1854385e+00
  5.8596146e-01
  2.4158292e-01
  2.4221870e-01
 -9.7798747e-01
 -3.1546223e+00
  5.1787370e-01
  9.0609139e-01
  6.7911732e-01
  8.9379084e-01
 -8.2295960e-01
  1.3217652e-01
  5.6471901e+00
  5.1407714e+00
 -4.0927744e+00
 -1.2142940e+00
 -2.5296769e-01
 -1.1662433e+00
  9.8549604e-01
 -4.3995619e+00
 -4.7277355e+00
  1.0319440e+00
 -2.4758154e-01
 -1.6202900e+00
 -5.0923103e-01
  2.6950688e+00
  9.7711873e-01
  2.3649116e+00
  8.1535316e-01
 -3.4489710e+00
 -1.4579974e+00
  1.3245522e+00
 -1.8113717e-01
 -2.2296021e+00
 -5.2067316e-01
  1.4496024e+00
 -2.3810575e+00
 -5.7883370e-01
 -9.6911544e-01
  1.5854620e+00
  9.3212134e-01
 -3.2046690e+00
 -2.1043319e-01
 -6.5026703e+00
  2.1327789e+00
 -3.6700361e+00
 -3.6734874e+00
  1.7473595e+00
  3.4390919e+00
  2.4729953e+00
  4.7841373e-01
 -2.9125164e+00
  4.4615301e-01
  1.5811210e+00
 -3.0717232e+00
 -2.7122092e+00
  8.0639005e-01
  1.0575644e+00
 -2.1360867e+00
 -3.6411443e+00
  4.2470398e+00
  1.2872800e-01
  5.8125120e-01
 -2.1505839e-01
  1.5326056e+00
 -1.6877213e+00
 -8.7386389e+00
 -4.0444150e+00
  1.0302004e+00
  7.7780895e+00
  1.7100184e+00
  5.0580659e+00
  3.1414711e+00
  1.2874157e+00
 -1.3327779e+00
  1.7884836e+00
 -2.3110867e-01
 -2.2404516e+00
 -3.8480532e-01
 -1.6881312e+00
 -1.4214336e+00
 -2.8837328e+00
  5.7391578e-01
  9.2474961e-01
 -5.6652701e-01
  1.9322168e-02
  9.9529123e-01
 -4.6473765e+00
 -4.3187432e+00
  5.2224779e+00
  2.0381877e+00
 -2.5690975e+00
  3.2708606e-01
 -1.5513567e+00
 -9.4813389e-01
 -1.6716599e+00
 -3.0970554e+00
 -3.8611186e+00
 -1.3308154e+00
 -1.0653419e+00
  3.1634290e+00
 -1.2665730e+00
  9.9698818e-01
 -4.0071740e+00
  1.7318534e+00
  1.8182192e+00
  1.2782412e+00
  1.1320473e+00
  3.0622869e+00
  1.3475769e+00
  1.2116839e-01
  7.5544524e-01
  3.7031543e-01
  1.3141171e+00
 -2.1099186e-02
 -7.7963218e-02
  2.4101484e+00
  3.8633659e+00
 -9.6636993e-01
  3.2649705e+00
 -1.6156801e+00
  1.6380025e+00
 -8.0854058e-01
  9.9451179e-03
  3.6533089e+00
 -3.2155085e-01
  2.3883445e+00
  1.3127161e+00
 -1.1408035e+00
  8.4099472e-01
 -5.1681179e-01
 -1.1665885e+00
  3.6527631e-01
  1.7700343e+00
 -2.6144978e-01
  2.4297371e+00
  1.5671220e+00
 -3.2495465e+00
  3.6154959e-01
  8.2613122e-01
  1.0550648e-01
 -4.6918678e-01
  1.7350808e-01
 -1.9211595e+00
  6.3235539e-01
  5.5993623e-01
  1.6212237e+00
  8.9117908e-01
 -1.6348535e+00
 -3.2684932e+00
  1.6566420e-01
 -8.8074349e-02
 -1.6185703e+00
  7.1979767e-01
 -2.3174496e+00
 -1.2471399e+00
 -2.4097161e+00
  9.4918579e-02
  4.8582619e-01
  3.6425787e-01
  9.8018914e-01
 -4.3256431e+00
 -2.4533571e-01
 -3.0292480e+00
  3.4196365e-01
  1.6286515e+00
  2.7900162e-01
