nep4_zbl 6 P Na F O C H 
zbl 0.8 1.6
cutoff 6.5 4 165 54
n_max 8 8
basis_size 8 8
l_max 4 2 0
ANN 50 0
 -3.4350395e-01
 -6.1664834e+00
 -4.8075309e+00
  5.9291822e-01
  1.5143300e+00
  5.3265014e+00
 -2.4218583e+00
 -3.1039093e+00
  2.3557453e+00
  6.6482955e-01
  1.0548174e+00
 -3.8077143e-01
  1.0988675e+00
  1.7881099e+00
 -6.8569541e-01
  2.3487537e-01
  2.6628091e+00
  3.7513759e+00
  2.2171018e+00
  7.6211298e-01
 -1.6086128e+00
 -3.0793006e+00
 -3.8387587e+00
  2.0581491e-01
  1.2510195e+00
  1.9079579e+00
 -3.5994089e+00
  5.1015174e-01
 -5.2654614e+00
  2.6369709e-01
  1.1809697e+00
 -3.7273991e+00
 -2.7571893e+00
 -1.0762224e+00
  1.1279583e+00
  9.6105266e-01
  7.1986449e-01
 -3.7343616e+00
 -2.4588139e+00
 -1.7184179e-01
 -5.6819004e-01
  4.2575250e+00
 -1.2938085e-01
  6.0788071e-01
  2.4035382e+00
  1.7120878e-01
  2.4735222e+00
 -3.7113140e+00
 -3.5925326e+00
  1.9550643e+00
  2.2499540e+00
  1.5570863e-01
  1.8427324e+00
  3.7189287e-01
  3.6727312e+00
 -7.6347500e-01
 -3.9995329e+00
 -1.1693447e+00
  2.8155022e+00
 -8.2830280e-01
  4.3923960e+00
 -3.1013410e+00
 -7.3739815e+00
  3.2346561e+00
  5.4364314e+00
 -6.3197750e-01
 -1.2412438e+00
  2.2242935e-01
  1.8449093e+00
 -2.2352324e+00
 -2.5802062e+00
 -2.1204868e-01
  8.8018650e-01
  1.5500163e+00
 -7.0214705e+00
 -5.1030922e+00
 -5.1148079e-02
 -2.7132597e+00
 -3.4198883e+00
 -1.5799793e+00
  1.0376432e+00
  6.4070266e-01
  4.0748272e+00
  2.8511009e+00
  1.3136311e-03
  2.2740331e+00
 -2.3245695e+00
  1.3011762e+00
 -1.9199823e+00
 -8.0116808e-01
  3.3803186e+00
 -2.0113320e+00
  1.2940725e+00
 -3.8794273e-01
  9.2317706e-01
  1.0102750e+00
 -4.3857684e+00
 -7.1916234e-01
  1.5948988e+00
  2.3032918e+00
  3.3197384e+00
  1.4874988e+00
  2.8721507e+00
 -4.0779397e-01
  5.3112998e+00
  1.9902368e+00
  1.2950641e+01
 -2.8247013e+00
 -4.5611143e+00
 -3.1041455e+00
  4.1378560e+00
  8.1281906e-01
 -8.8602257e-01
  2.5471144e+00
  6.7588224e+00
 -4.4394326e+00
  3.2476583e+00
 -7.0570344e-01
  5.9737617e-01
 -1.2508359e+00
 -4.0380239e+00
 -9.0321999e+00
  1.3426700e-01
 -3.7135499e+00
 -2.7442476e-02
 -3.0963111e-01
  2.4978497e+00
 -2.5154042e+00
 -4.6921530e+00
  2.4246590e-01
 -7.6491624e-01
  4.8014941e+00
 -1.0749619e+00
 -3.1418568e-01
 -4.6954420e-01
 -1.1032782e+00
  1.8214059e+00
 -1.1151999e-01
  2.2882302e+00
  6.8068939e-01
  2.3113559e-01
 -2.2975047e+00
  3.1624029e+00
 -3.0635748e+00
 -6.0770833e-01
  2.9932712e-03
 -5.7357180e-01
 -8.9882523e-01
  1.5957434e-01
 -5.8562696e-01
  5.4595006e-01
  1.0512226e+00
  9.5434278e-02
 -2.7237964e-01
  1.3018799e+00
  3.6644163e+00
 -1.8944539e+00
  7.3047197e-01
 -2.0818474e+00
 -2.4734881e+00
 -3.0343924e+00
  1.8439074e+00
  4.9348584e-01
  5.2172625e-01
 -2.4538608e+00
  5.1177341e-01
  8.6719847e-01
 -2.4433331e+00
 -8.1661659e-01
  4.9855061e+00
 -3.0228740e-01
  4.7364691e-01
 -1.2166587e-01
  1.4399104e+00
 -6.3633865e-01
 -4.9898610e+00
 -3.2906067e+00
 -2.7553422e+00
  8.2488924e-01
 -1.2485331e+00
  1.3366051e+00
  1.2659286e+00
 -2.3824146e+00
  4.2764422e-01
  2.2909726e-01
 -1.7185515e+00
  2.2509167e+00
 -2.3269932e+00
 -1.4778488e+00
  1.9277469e+00
 -1.4121640e+00
 -3.0733380e+00
  3.4731534e-01
 -1.2952489e-01
 -1.0784806e-01
 -5.9407692e-02
  1.7531596e+00
  6.7740315e-01
  1.3214791e+00
 -8.3846807e-01
 -3.9943643e+00
 -1.4701211e+00
  1.0463339e+00
 -1.4412606e+00
  4.2637092e-01
 -5.5359311e+00
 -3.8540408e-01
 -2.8226502e+00
 -1.0305640e+00
  1.4354830e+00
  2.6886957e+00
  7.5985187e-01
  2.2271597e+00
 -4.0751979e-01
  1.8834003e+00
 -2.9896796e+00
  5.9903252e-01
  4.4582825e+00
  2.7382967e+00
 -8.7230720e-02
 -1.5760005e+00
 -2.1308634e+00
 -4.3081293e+00
 -2.3394926e+00
 -6.8001163e-01
  1.1740915e+00
  1.1737756e+00
  6.9548905e-01
  8.9321715e-01
 -4.5284896e+00
  7.2803426e-01
 -2.3833966e+00
  1.7830840e+00
  5.8387595e-01
  4.7213850e+00
 -5.8454525e-01
  1.2019223e+00
 -2.3260493e+00
 -5.8581457e+00
  2.7581244e+00
  2.3234797e+00
 -6.3134801e-01
 -1.5324429e+00
  3.4598380e-01
  4.7736011e+00
 -3.2857921e+00
  1.7766538e+00
 -3.3688080e+00
 -3.0750432e+00
 -1.3855950e+00
 -1.3716546e+00
  3.1423174e-02
  4.4571161e+00
 -3.7583178e-01
 -3.2738535e+00
  7.8415591e-01
  6.7935319e+00
  4.5893386e-01
  8.0677164e-01
  2.2400227e+00
 -3.4715331e-01
  3.2014825e+00
 -2.4493005e+00
  5.0107002e-01
 -1.0078795e+00
 -6.5785521e-01
 -1.0107677e+00
 -6.6668741e-02
 -1.5951551e+00
  7.5802481e-01
  3.5569143e+00
 -2.9571967e+00
  2.9968200e+00
  2.9045375e-02
 -3.7894776e+00
  3.6422005e+00
  1.6354178e+00
  9.2085457e-01
  1.4968593e+00
  1.1608852e+00
  5.1696434e+00
  2.6437557e+00
  3.1594329e+00
  1.4313509e+00
 -8.4405012e+00
 -5.4926056e-01
 -2.2221930e+00
  2.9584720e+00
 -5.8060002e-01
 -1.1966155e+00
  4.7849455e+00
 -1.2022097e+00
  2.0913656e+00
 -2.1040592e+00
 -9.3654811e-01
  1.3849543e+00
  2.7784016e+00
  1.8957058e+00
  2.3594329e-01
  9.1020083e-01
 -1.3633827e+00
  2.1648583e+00
  3.5909435e-01
 -4.3788557e+00
  5.8816767e-01
 -4.7581019e+00
 -1.9162474e+00
 -1.1858292e+00
  5.3840055e+00
  1.6660486e+00
  1.6351995e+00
  2.6222649e+00
  6.1557281e-01
  9.6408367e-01
 -2.3995719e+00
 -1.2032562e+00
  2.8828409e+00
  2.3351634e+00
 -4.2223740e+00
  1.3420252e+00
 -5.3605514e+00
 -3.2196350e+00
 -3.3245478e+00
  2.8055301e+00
  1.5182421e+00
  3.1596544e-01
 -1.2827439e+00
  1.4905902e+00
  1.7645738e+00
 -1.1096208e+00
  3.6044939e+00
 -1.8565120e+00
  5.0531240e+00
 -3.6028883e+00
 -2.2621157e+00
 -2.8277416e+00
 -2.3427756e+00
 -2.4798872e+00
 -7.6887298e-01
 -7.7864148e-02
 -8.0747247e-01
  3.3465400e+00
 -1.3729726e-01
  8.0799341e-01
  5.2080564e+00
 -1.0049050e+00
  1.4078928e+00
  1.9943738e+00
 -5.3263563e-01
  5.0225000e+00
 -1.3956018e-01
 -1.3466665e+00
  3.3875027e-01
  1.1238823e+00
  8.0978572e-01
  3.4965353e+00
 -2.8536651e+00
  2.0533011e+00
 -1.8319623e+00
  2.0302262e+00
  1.1979123e+00
  1.0149859e+00
  2.3953779e+00
 -2.0412721e-01
  9.7564197e-01
  7.9822165e-01
  1.7031409e+00
  1.9345014e+00
 -3.3301687e+00
  2.6784186e+00
 -1.0201113e+00
  6.4408445e+00
  1.9309452e+00
  1.0645784e+00
  1.2413337e+00
  1.8792895e+00
  5.7545924e+00
  5.4788160e+00
  3.2138190e+00
  2.3939283e+00
 -3.2769175e+00
  6.4397514e-01
  2.4340940e+00
  4.1137066e+00
 -5.5860519e+00
  3.5178044e+00
  1.4587966e+00
  3.7530639e+00
 -7.4756622e-01
  1.8516175e+00
 -7.3100471e-01
  1.2818240e+00
 -2.9838345e+00
 -1.6074054e+00
  1.5403634e+00
  4.0460384e-01
  6.2950701e-03
 -4.6002579e+00
 -1.3628968e+00
  4.7993402e+00
 -4.5387495e-01
  1.3778563e+00
 -2.0815051e-01
 -3.0910671e+00
  1.2425936e+00
  3.1586049e+00
  2.7095230e+00
  6.3067394e-01
 -4.9785182e-01
 -1.0638688e+00
 -3.0815043e+00
  5.9686399e+00
  5.7586187e-01
 -2.6876664e+00
 -1.3941971e+00
  1.9775361e+00
 -1.9876570e+00
  5.5732536e-01
 -6.2899429e-01
 -2.1504841e+00
  1.6623024e+00
  8.4141278e-01
 -3.0621283e+00
 -1.0700815e+00
  5.9661655e+00
 -2.6442869e+00
  8.3990586e-01
  1.5533358e+00
  7.2867781e-01
  1.3420235e-01
 -2.5533342e+00
 -2.5792913e+00
  2.4641097e+00
  1.7168781e+00
  1.4047177e+00
 -4.2089424e+00
 -1.8556490e+00
 -9.4125611e-01
 -5.3342059e-03
  4.1383452e+00
 -2.9832587e+00
  1.4832718e+00
 -2.3390026e+00
  4.9286194e+00
 -1.0039473e+00
 -2.4818366e+00
 -2.4621232e+00
  2.0123551e+00
 -2.1359785e+00
  2.0355592e+00
 -2.4058981e+00
  2.0621486e+00
  2.9314952e+00
 -2.5303090e+00
 -5.1261050e-01
 -1.4436439e+00
  4.2786994e+00
  1.1646084e+00
  1.8113953e+00
 -2.7655094e+00
  2.7807054e-01
  3.7200437e+00
  8.1986928e-01
 -2.8761917e-01
 -8.0106783e-01
  5.1965189e+00
  6.0971937e+00
  2.7615483e+00
 -1.4351703e+00
  2.0593984e+00
  5.1683798e+00
 -1.6919415e+00
 -1.5046370e+00
 -1.8370383e+00
 -6.5366310e-01
  4.3433938e+00
 -8.5893726e-01
 -5.6765666e+00
 -2.3505016e-01
  7.4746376e-01
  7.9723066e-01
  2.6527531e+00
  8.8688493e-01
  1.3723428e+00
  1.9018681e+00
 -2.0478709e+00
  5.2102184e-01
 -1.2761517e-01
 -7.7289710e+00
 -1.3856572e+00
  2.0625069e+00
 -2.2983422e+00
  1.2001116e-02
 -2.0896149e+00
  8.2090813e-01
 -2.8190639e+00
 -8.2554913e-01
  4.2846584e-01
 -2.8971775e+00
  3.6762503e-01
  3.4057326e+00
  2.7538624e+00
  2.1402576e+00
  9.8471291e-02
 -1.9421177e+00
 -2.6928904e+00
  8.3423603e-01
  5.9788096e-01
 -9.5324266e-01
  3.6849752e-01
 -6.4447248e-01
  1.1840682e-01
 -2.7907476e-02
  2.1940243e+00
  4.3974180e+00
  3.4416834e-01
  5.0058371e-01
 -3.4224540e-01
 -1.8813379e+00
 -1.4568372e+00
 -7.0863026e-01
  1.3059818e+00
  1.6039463e+00
 -3.0531880e-01
 -2.0889289e+00
  1.4353468e+00
  2.1902306e+00
  2.7994473e+00
  6.9578230e-01
  3.0617421e+00
 -8.2760149e-01
 -2.5689890e+00
  9.4984806e-01
  1.1980598e+00
 -1.2912801e-01
  1.1296496e+00
  5.1004672e-01
  2.1867566e+00
 -1.8773971e+00
  2.6647193e+00
  6.1409515e-01
  2.6253321e+00
  2.6088601e-01
  4.9432173e+00
 -3.3061860e+00
  3.0629570e+00
  6.3479477e-01
 -2.8970854e+00
 -3.7629223e+00
 -1.9272509e+00
  2.5830448e+00
  1.0586629e+00
 -5.2711107e-02
  1.7022979e+00
 -1.9074581e+00
 -1.6018058e+00
  1.5816206e+00
 -2.1680119e+00
  3.7227507e+00
 -6.3057070e+00
 -8.5194528e-01
  7.1081114e-01
 -1.3466284e+00
  3.7983768e+00
 -2.7297729e-01
  3.7238300e-01
 -6.4861774e+00
 -2.9296184e+00
 -3.1993093e+00
 -4.1420822e+00
  2.0417576e+00
 -1.9768341e+00
  2.7494938e+00
 -2.6717749e+00
 -3.5376785e+00
 -1.1865168e+00
 -1.7339171e-01
 -2.7359736e+00
  5.0531750e+00
  1.7318192e+00
 -1.3001115e+00
 -1.3558398e+00
  1.7956452e+00
 -7.1294218e-01
 -2.3788040e+00
 -1.5152347e+00
  1.7023404e-01
  1.8617926e+00
 -7.7071197e-02
 -8.0912131e-01
 -9.9076651e-02
  1.7862819e+00
  4.8184383e-01
 -3.9166951e-01
  5.2409524e-01
  3.1415904e+00
  5.5524135e+00
 -3.4260026e-01
 -1.1260707e+00
 -6.3704920e+00
 -2.5731471e+00
  9.8800391e-01
 -3.6252825e+00
  2.9942074e-01
  2.5343702e+00
  3.7450328e+00
  6.0835776e+00
  6.8893309e+00
  3.4765785e+00
 -2.9098482e+00
  9.8037136e-01
 -1.2191707e+00
 -2.2739542e+00
  5.1938033e+00
  7.5095344e+00
 -2.3243283e-01
  2.7661166e+00
  3.1537349e+00
 -3.1394941e-01
  1.7961206e+00
  2.3684139e+00
  3.0663505e+00
 -7.1419340e-01
 -2.3397217e+00
 -9.7678995e-01
 -3.1488342e+00
 -2.7700007e+00
 -6.2139201e-01
  2.4039657e-01
 -2.0543528e-03
 -3.4153249e+00
 -1.7309195e+00
  2.8502367e+00
 -1.0368276e+00
  7.4133104e-01
  7.9306203e-01
 -1.3057771e-01
 -1.2590462e+00
  1.7335182e+00
 -6.2237483e-01
  3.8291085e+00
  1.9636297e-01
  2.6112704e+00
 -9.7009879e-01
 -1.6296514e+00
  2.5946727e+00
  1.0423739e+00
  3.1736715e+00
 -4.4033394e+00
 -2.6812631e-01
  2.0419626e+00
 -2.0442665e+00
  2.1170955e+00
 -2.9550986e+00
 -2.6687536e-01
  2.4047058e+00
 -1.8496561e+00
  1.0832961e+00
 -2.0718887e+00
  2.8940628e+00
 -7.7099311e-01
  3.9610150e-01
  6.1412115e+00
  1.8053222e+00
  1.9039583e+00
  2.5748689e+00
  4.4527909e-01
 -2.2262149e+00
 -1.5786703e-01
  8.6279921e-02
  1.3406262e+00
 -9.5168310e-01
  3.0725849e+00
 -4.6303216e-01
 -2.4448910e+00
  1.0165485e-01
  2.6015620e+00
  2.3786519e+00
  9.4680333e-01
 -4.0481567e+00
 -1.6524823e-01
 -5.0898904e-01
  9.7754097e-01
 -1.9057510e+00
 -2.8268142e+00
  1.7653199e+00
  3.4692090e+00
  4.3022045e-01
  1.2441950e+00
 -7.6167889e-02
  2.1459916e+00
 -3.7083657e+00
 -7.1440399e-01
  3.9909544e+00
  2.1536858e-01
  3.2485846e-01
 -5.3510255e-01
 -4.3990932e+00
 -4.0648384e+00
 -2.1694574e+00
  7.2481875e+00
  4.8941153e-01
  2.4654183e+00
 -3.1851244e+00
  3.7745039e+00
 -7.8516227e-01
  9.4055557e-01
  2.2338986e+00
 -1.1582100e+00
 -3.7564486e-01
  2.0592201e+00
 -3.0924764e+00
 -3.5785191e+00
  6.2064624e+00
 -2.2507890e-01
 -6.2368107e-01
  1.5800831e+00
 -1.6415720e-01
  1.1994632e+00
  4.4332318e+00
 -7.9050213e-01
  2.8274610e+00
 -4.7787108e+00
 -1.0316484e-01
 -2.1868832e+00
 -9.0762627e-01
  6.6776264e-01
  5.9013322e-02
  1.2782255e+00
  2.3700960e+00
  4.8334256e-01
 -4.1786079e+00
  2.7576149e-01
  9.1029447e-01
  1.6228044e+00
  5.6660743e+00
  1.1356993e+00
  1.9772336e+00
  9.8137993e-01
 -1.8965967e+00
 -1.0203633e+00
 -3.8658659e+00
 -1.0912372e+00
  2.6777990e+00
  2.8919190e-01
 -7.6978290e-01
  3.6860585e-01
  1.7948699e+00
  2.1625214e+00
 -3.0680594e+00
 -1.0047665e+00
 -2.7133009e+00
  3.0815294e+00
 -2.2710469e+00
  3.5257652e+00
  6.4407320e+00
  1.2401611e+00
  4.5268393e-01
  3.3215003e+00
 -1.3212206e+00
 -1.7573910e+00
  2.3549409e+00
  8.5662007e-01
 -1.4732001e+00
  1.1510984e+00
  1.7544574e+00
 -3.2178276e+00
 -4.6710840e-01
  4.9703770e+00
  2.3022687e-01
 -3.9127865e-01
 -3.4505689e-01
 -3.3474188e+00
 -3.8978038e+00
 -5.9803736e-01
 -1.8725039e+00
 -2.7480099e+00
 -2.8714702e+00
  1.2144448e+00
 -1.1687204e+00
  2.7044232e+00
 -1.3234848e+00
 -5.9910500e-01
  9.8419094e-01
 -4.3144125e-01
  1.6891370e+00
  1.9209633e+00
  3.5496893e+00
 -1.1198026e+00
 -1.2443827e+00
 -1.7347523e+00
  6.3790005e-01
  1.3150346e+00
 -2.7185491e-01
 -2.3305216e+00
  1.5299580e+00
  1.4278346e+00
 -2.3154268e+00
 -3.6099322e+00
 -3.3792503e+00
  2.8495204e+00
 -4.7051892e+00
  3.8324125e+00
  2.4801595e+00
 -2.5429978e+00
 -2.5314381e+00
 -3.3269744e+00
  3.7094014e+00
  3.5454760e+00
 -1.3599120e+00
  2.5825119e+00
 -3.0485484e-01
  3.3993202e-01
  9.2909783e-01
 -7.4897075e-01
 -6.7131224e+00
 -2.4664276e+00
 -2.5280011e+00
  3.3103888e+00
 -3.3436375e+00
  5.9675014e-01
 -8.5778248e-01
  3.5828445e+00
  2.4259137e-01
 -3.4669498e-01
  1.6824605e+00
 -1.6554153e+00
 -8.2129735e-01
  3.2541096e+00
 -3.7440081e+00
 -2.1505027e+00
 -2.5833402e+00
 -1.4029714e+00
 -5.3452530e+00
  2.0798154e-01
  1.2675555e+00
 -8.8813335e-01
  2.2225226e-01
 -1.2595595e+00
 -7.0402175e-01
  2.2927408e-01
  1.2655075e+00
  8.9512336e-01
  1.6842809e+00
  2.0126739e+00
 -2.8619442e+00
  3.2847893e+00
  7.7713096e-01
  1.4228005e+00
 -2.1523595e+00
  1.3824519e+00
 -7.2515506e-01
 -1.1966658e+00
  1.3541954e+00
 -1.7035167e+00
  1.6601084e+00
 -3.5314941e+00
 -3.0811563e-01
 -9.7129136e-01
  1.7729458e+00
  3.1241524e+00
 -2.5822937e+00
  1.2190042e-01
 -2.3004284e+00
  6.4115024e-01
  2.7105308e+00
 -2.0765913e+00
 -2.3838081e+00
  4.2661347e+00
 -1.0510678e+00
  1.4153504e+00
  1.1183236e+00
 -5.5506349e+00
  2.3286660e+00
  9.0969849e-01
  1.8937733e+00
 -1.8611103e+00
  2.0202985e+00
 -4.7290130e+00
 -2.1106215e+00
  2.3435225e+00
  3.6994436e+00
  2.5440347e+00
  1.1320626e+00
  1.7140779e+00
 -4.1036553e+00
 -2.1942049e-01
  1.1349635e+00
  1.8750184e+00
  4.0532961e+00
  3.0187297e+00
  1.1118060e+00
 -3.3438215e+00
  1.3715956e+00
  9.7280031e-01
 -4.0487413e+00
  1.0847490e+00
  1.8429683e+00
  2.8843849e+00
 -7.1290779e-01
  1.9302446e+00
  1.6048362e+00
  3.2667210e+00
 -3.6225429e+00
  3.6730272e-01
 -1.1372945e+00
  6.6669106e-01
  2.1039975e+00
 -2.0840437e+00
  3.0549436e+00
  4.3157950e-02
  2.8770955e+00
  2.0671830e+00
  6.1579973e-01
 -1.5095029e+00
 -9.0935969e-01
  1.2392519e+00
 -5.5616486e-01
  1.2559952e+00
 -3.6834937e-01
 -3.7730663e+00
 -4.8246274e+00
 -2.4945578e-01
 -8.1994581e-01
  1.7593648e-01
  3.1614289e+00
 -1.8598266e+00
 -4.9159236e+00
  7.1597552e-01
 -9.2071122e-01
  3.8266449e+00
  7.6450100e+00
  1.1357980e+00
 -3.1723838e+00
  4.1350003e-02
  9.3774050e-01
 -6.1427202e+00
 -2.2805350e+00
  1.0013213e+00
 -6.2438053e-01
 -4.6617880e+00
  5.8424811e+00
  2.7926502e+00
  2.1489811e+00
 -5.3040280e+00
  1.7268765e+00
  3.1610516e-01
  1.4716293e+00
  3.4884128e-01
 -2.3270509e+00
  8.7864566e-01
 -3.5004301e+00
  2.4214997e+00
  2.8405426e+00
  5.4166150e-01
  2.9526120e-01
 -3.1476099e+00
 -7.2802782e-01
  1.7239437e+00
  2.6900003e+00
 -6.7443991e-01
 -4.1369929e+00
 -6.3696933e-01
  9.2833108e-01
 -2.0557387e+00
  2.3115754e+00
  6.3445151e-01
 -1.5726497e+00
  1.7829220e+00
 -3.7418246e+00
  1.1192510e+00
 -2.1584454e+00
  3.2212222e+00
 -4.0719752e+00
 -3.3256879e+00
  4.0022084e-01
  1.2678638e+00
  3.2790704e+00
 -1.0343657e+00
 -3.6905912e-01
 -7.9848164e-01
 -1.6138046e+00
 -1.1549548e+00
 -1.2584517e+00
 -4.6150188e+00
  2.1039865e+00
  1.5664698e-01
  2.2784886e+00
 -1.6996214e+00
  6.5384978e-01
  5.1629472e+00
 -2.4726293e+00
 -1.0538474e+00
 -1.4786130e-01
  1.3723553e+00
 -1.9834576e+00
 -4.9406415e-01
 -1.4843688e+00
 -2.0580919e+00
 -1.4089521e+00
 -1.6268271e+00
 -7.0524802e+00
  1.3858883e+00
 -1.9125041e-01
 -1.9726692e+00
 -1.3508691e+00
  3.0349166e+00
  3.1392193e-01
 -2.3134232e-01
 -3.8229785e+00
  3.1671436e+00
  1.7265775e+00
 -8.5990572e-01
  5.5438077e-01
 -5.3569311e-01
 -1.2708311e+00
  3.2481635e+00
 -1.1919003e-01
 -4.0612262e-01
  2.0432701e+00
 -1.4581555e+00
 -1.4611706e+00
  1.4132819e-01
  9.9288440e-01
 -7.6329994e-01
 -2.8001661e+00
  4.1425571e+00
  3.0938804e+00
  1.5481739e+00
  2.4816084e+00
  9.1255271e-01
 -6.5354717e-01
  2.2961118e+00
 -4.3483791e-01
  1.9629651e+00
 -1.9699591e+00
 -3.0796618e+00
  1.6210754e+00
 -2.4144702e+00
 -5.0296392e+00
 -2.5222523e+00
 -7.3847795e-01
 -2.1918070e-01
 -3.0255098e+00
  1.3549336e+00
  7.3122203e-01
  4.1370978e+00
 -2.6668990e+00
  1.2793660e+00
  2.3864512e+00
 -2.3124399e+00
 -5.1444250e-01
 -9.2009373e-02
  7.9244906e-01
  9.1824335e-01
 -1.7847768e+00
 -2.1498647e+00
  2.5055549e+00
  8.3550739e-01
 -1.6776917e+00
  9.0231329e-01
 -1.7854567e-01
  3.4038062e+00
 -2.1799300e+00
 -6.8296164e-01
 -1.0173450e-01
  1.5171512e+00
 -8.4802824e-01
  2.4836435e+00
  3.3359728e+00
 -2.0671608e+00
  5.2366990e-01
 -1.7901434e-01
  2.0514762e+00
 -4.8382044e+00
 -2.9822555e-01
  1.4383632e+00
  1.6255090e+00
 -1.3084223e+00
 -5.4370409e-01
  3.6806875e-01
 -4.5759659e+00
 -1.6581935e+00
  8.3932614e-01
  5.0208479e-01
 -2.0343139e+00
  2.7781740e-01
  1.9940059e+00
 -3.3632879e+00
  7.5508320e-01
 -6.1050445e-01
 -3.1685901e+00
  6.0273343e-01
  3.0938666e+00
 -4.0781350e+00
  1.6511568e+00
  5.1843856e-02
 -4.8486790e-01
  1.2314294e-01
  1.4471426e+00
 -4.1227075e-01
  7.8568804e-01
 -1.1246812e+00
  1.3902424e-01
  2.8366330e-01
  2.7393277e+00
 -8.0357373e-01
 -1.5866246e+00
  1.8759668e-01
 -3.2796335e+00
  2.3267748e+00
 -1.2483823e+00
 -2.1439593e+00
  7.0203409e+00
 -3.7824559e+00
 -1.3752949e+00
  2.0771849e+00
  9.4718695e-01
  1.9239355e+00
 -2.2208383e+00
 -3.0321293e+00
  6.5809429e-02
  2.5455065e+00
 -6.8132263e-01
 -1.5942488e+00
  3.3125737e-01
  1.5609150e+00
 -1.7309943e+00
  5.8970160e+00
  6.4725322e-01
  9.0519741e-02
 -7.5934112e-01
 -2.3599515e+00
  4.1106200e-01
 -1.4635302e+00
 -1.4348898e+00
 -2.0948207e+00
  5.1397781e+00
  1.4501275e+00
  2.6294389e+00
 -1.4817324e-01
 -3.5201039e+00
  1.5856103e+00
 -8.2405394e-01
  3.1591849e+00
 -1.3735532e+00
  2.6124787e+00
 -3.4252579e+00
 -1.9479477e+00
  3.5054388e+00
  4.3686113e+00
  5.2884583e+00
 -3.6130352e+00
  1.7402071e+00
 -4.2745738e+00
  5.0316745e-01
 -5.9356980e+00
 -3.2919054e+00
 -4.6610901e-01
  3.5268971e-01
 -2.1624000e+00
  1.0248587e+00
  2.3021390e+00
 -2.8681943e+00
  1.8532993e-01
  2.1995363e+00
  2.2432501e+00
 -3.9725647e+00
  6.8221748e-01
 -8.5659200e-01
 -1.8193231e+00
 -4.1269679e+00
  1.9720882e+00
  3.2994294e+00
  6.0997331e-01
  1.4940292e+00
 -3.2087964e-01
  3.6730304e+00
 -1.7522274e-01
 -1.3120133e+00
 -4.6884906e-01
 -2.4740438e+00
 -8.3695576e-02
  1.5191071e+00
 -3.4371457e+00
 -1.2878971e-01
  6.2926972e-01
 -3.8644090e+00
 -3.2153752e+00
  2.2339637e+00
  5.8928075e+00
  1.9099259e+00
 -5.7631540e+00
  2.4174888e+00
  3.5568089e+00
  3.1170886e+00
  1.4917690e-01
 -1.8416276e+00
 -2.2470353e+00
 -2.4644606e-01
  1.1109432e+00
 -2.7394068e+00
 -1.9506483e+00
 -1.6237825e+00
 -1.1605834e-01
 -4.3648415e+00
  1.0748125e+00
  3.1016977e+00
  1.4694644e+00
 -9.6225375e-01
 -1.3279145e+00
  2.4986794e+00
 -1.3027118e+00
 -8.1090266e-01
  2.6384497e-02
 -1.9297129e+00
  2.9146436e-01
 -1.2268338e+00
  2.4215698e+00
  3.8933352e-01
  9.2673743e-01
 -2.5057471e+00
  4.1943603e+00
  1.6747556e+00
 -1.1888142e-01
  7.1712613e-01
  1.5824291e-01
 -9.3018430e-01
  1.3901821e+00
 -3.4006524e+00
 -5.2407461e-01
  9.3588424e-01
 -1.6676627e+00
  2.9562895e+00
 -2.1592133e+00
  5.2353897e+00
  2.5214150e+00
  1.8477480e+00
 -2.1181199e-01
 -4.6716409e+00
 -1.2486641e+00
 -4.9449286e-01
 -4.7210994e+00
 -2.5449982e+00
  1.3229860e-01
  1.1368474e+00
 -3.9137569e-01
  3.4542654e+00
 -2.7082844e+00
  3.2116683e+00
  1.0453804e+00
 -1.6594974e+00
 -1.8979197e+00
 -9.7092247e-01
  1.2561198e+00
  1.7299255e+00
  2.5444927e+00
  1.0919704e+00
 -1.1761374e+00
 -7.7833939e-01
  1.6524653e-01
  1.2112480e+00
  5.4299569e-01
  1.4718689e+00
  9.5295614e-01
 -2.6462531e-01
 -6.4363277e-01
 -3.1144631e+00
  5.7544643e-01
 -1.6074139e+00
  1.8923889e-01
  2.9724870e+00
 -1.6967990e+00
  1.5985674e+00
  4.2601042e+00
  1.1615188e+00
 -3.2006502e+00
  9.4417900e-01
 -1.9574131e+00
  2.9853015e+00
 -2.6018116e+00
  3.3337481e+00
 -4.3900999e-01
 -2.6638963e+00
 -5.4320836e+00
 -5.4997873e+00
  4.0696816e+00
 -2.9970675e+00
 -3.1845313e-01
  2.0702939e+00
 -1.9710487e+00
 -4.8280142e-02
 -8.9096487e-01
 -6.7487252e-01
 -5.0943512e-01
  2.1498740e+00
 -1.9833603e+00
 -5.6402183e+00
 -2.3173256e+00
  3.8945062e+00
 -1.1556389e+00
 -2.4895968e+00
 -2.3483939e+00
  2.2268500e+00
 -1.7528979e+00
 -6.3208599e+00
  2.4758942e+00
  1.4062943e-01
 -5.7748432e+00
 -1.1477855e+00
  1.0813535e+00
 -1.9560282e-01
 -1.8020232e-01
 -1.8752604e+00
  3.0213311e+00
  8.3487076e-01
  2.6867950e+00
 -3.9212143e+00
  3.7133563e-01
 -1.3662236e+00
  2.4050966e-01
  2.9158628e+00
 -1.3146530e+00
 -3.2599196e+00
  2.9367459e+00
 -1.8626896e-01
  1.1794134e-01
 -6.4809597e-01
 -4.8715189e-01
 -2.2106760e+00
  3.9450726e-01
  1.8242005e+00
  1.3898226e+00
  5.1334400e+00
 -2.6061327e+00
 -2.7924516e+00
  7.8879356e-01
 -6.9959134e-01
 -4.5428902e-01
  1.5487574e+00
  2.0942926e+00
  1.6964395e+00
 -7.9686917e-02
  2.0299475e-01
  1.9042925e+00
  6.7084301e-01
 -1.8202914e-01
  1.6451111e+00
  4.0315666e+00
  3.2401745e+00
 -3.7444913e+00
  9.4837248e-02
  6.2393397e-02
 -1.5772148e+00
  1.8780241e+00
  4.9371018e+00
  2.7123120e+00
 -2.0049891e+00
  4.9769158e+00
 -2.6904454e+00
  5.2881206e-04
 -9.2620188e-01
  2.7105367e+00
 -1.1345570e+01
 -5.3957539e+00
 -2.8614190e+00
  6.9958627e-01
  2.8662114e+00
  1.6847008e-01
  1.4863927e+00
  4.2088372e-01
  3.6987627e+00
  5.1382174e+00
 -3.8905518e+00
 -3.7736681e+00
 -1.7259057e-01
 -1.5660253e+00
 -1.1746528e+00
 -2.6384628e+00
 -1.5015750e+00
  6.8335646e-01
  4.7469349e+00
  2.1391876e+00
 -5.5616832e+00
 -2.1803558e+00
  4.8799496e+00
 -4.9200961e-01
 -4.8351951e+00
  7.0982122e-01
 -6.9847536e-01
  1.0488169e+00
 -1.4512286e+00
 -1.5260439e+00
 -6.3932705e-01
 -1.6130732e+00
  1.5561497e+00
  2.0712118e+00
 -2.3767629e+00
  3.4636679e+00
 -3.1130893e+00
  4.6800575e+00
 -1.5551598e-02
 -1.7420428e+00
  7.3536742e-01
  4.4603243e+00
 -1.4195089e+00
  7.9635851e-02
 -1.1268138e+00
 -2.1650112e+00
 -4.5022240e-01
 -4.0945621e+00
  3.2647631e+00
 -9.6216792e-01
  4.1689415e+00
 -4.1663599e+00
  1.9145352e+00
 -3.1570697e-01
 -1.2257222e+00
  1.0729252e+00
  7.1685195e+00
 -8.8410020e-01
 -1.9383084e+00
 -1.5006816e+00
 -2.9253938e+00
  1.2573627e+00
  6.9197464e-01
 -1.4491656e-01
 -2.9002664e+00
  1.7582203e+00
 -2.6600277e+00
  1.0648159e+00
  3.7461569e+00
  3.6303288e-01
 -2.6995921e-01
  1.7849185e+00
 -2.9345505e+00
  1.9284903e-01
 -2.1793455e-01
  9.5668834e-01
 -5.1865635e+00
 -8.7102795e-01
  6.0892975e-01
 -6.5783411e-01
 -2.1402199e+00
 -2.9301710e+00
 -4.7844691e+00
 -6.2991114e+00
  3.3325286e+00
 -2.3236578e+00
  6.4172232e-01
  1.4841199e+00
 -1.4516482e+00
 -2.5081844e+00
 -1.3873451e+00
  1.3161795e+00
  2.1503060e+00
  1.3865968e+00
 -1.1010497e+00
  4.3560824e+00
 -1.1348834e+00
  6.0265493e-01
  8.2289433e-01
 -2.1971011e+00
 -1.3137969e+00
  9.1330737e-01
 -3.6910579e+00
  2.3584020e+00
  7.0173079e-01
 -7.8824866e-01
  9.6385159e-02
  4.3338089e+00
  1.2039508e+00
  3.8019524e+00
 -4.3987799e+00
 -2.6967576e+00
 -1.2445034e+00
  8.1539744e-01
 -3.4580076e+00
 -1.2985573e+00
  3.1876316e+00
  8.5578674e-01
  8.9401692e-01
  1.1473159e+00
 -2.3053122e+00
 -2.8560884e+00
 -3.6694796e+00
 -1.4871451e+00
  2.0032682e-01
 -2.1885192e+00
  1.2106603e+00
  2.2625811e+00
 -2.6304724e+00
 -9.0961868e-01
  3.4724646e+00
 -1.3160100e+00
  7.5336905e+00
  1.0284405e+00
  2.5061994e+00
 -4.3372064e+00
  2.3801725e+00
  4.6569499e-01
  3.6031809e+00
  3.4711752e+00
 -8.5293424e-01
 -1.5903465e+00
  1.2203673e+00
 -2.4873247e+00
 -2.2699349e+00
 -6.6550121e+00
 -2.1479728e+00
  7.6620960e-01
 -4.1103625e+00
  1.5887493e+00
 -1.2578650e+00
 -2.2001953e+00
 -3.6253366e+00
 -2.2275786e+00
  3.5634930e+00
 -5.3208175e+00
 -2.9648383e+00
 -1.0548213e+00
  2.7817876e+00
 -3.8071561e+00
  5.5129182e-01
 -3.0850420e+00
 -1.9080813e+00
 -4.5874033e+00
 -1.9709878e+00
 -3.4809935e+00
 -2.7450509e+00
 -9.4499934e-01
  2.8803096e+00
 -1.4977551e+00
 -8.0657601e-01
 -1.7398158e+00
  6.1671095e+00
  2.5699265e+00
 -1.1915206e+00
  5.6313376e+00
 -4.3271799e+00
  4.5151639e+00
 -2.9976386e-01
 -3.8939888e+00
  3.6355653e-01
  7.9933858e-01
  6.2615609e+00
 -6.8119502e-01
  1.1693938e+00
  4.1846338e-01
  4.0095148e+00
  3.6909292e+00
  1.7409053e+00
  2.4179630e+00
 -3.9892898e+00
 -1.8662534e+00
 -2.5454426e+00
  1.9485712e+00
 -4.6074748e+00
  1.6736318e-01
  2.2232108e+00
  9.1197884e-01
 -3.6655061e+00
  8.9995652e-01
  1.7855339e-01
  2.1597140e+00
  7.6620728e-01
 -4.2870545e+00
 -1.9632738e+00
 -1.9540060e+00
  2.3737605e+00
 -3.2555282e+00
 -9.5231706e-01
  3.9806855e+00
 -1.6629364e+00
  9.8922795e-01
 -1.0834688e+00
  6.4497814e+00
 -1.8776791e+00
 -8.7365818e-01
 -6.4946561e+00
 -4.9972029e+00
  2.3210974e+00
 -1.2633289e+00
  4.4285461e-01
 -4.6218019e+00
  7.3903972e-01
 -1.2551030e+00
  3.5196702e+00
 -3.7368939e+00
  2.7775118e-01
 -3.9552662e+00
  3.5554640e+00
 -1.1640084e+00
  2.3001239e+00
 -4.4607463e+00
 -2.4725080e+00
 -2.1429050e+00
  1.6671323e+00
  2.1855505e+00
  5.4569554e+00
  1.8065751e-01
  4.5881203e-01
  2.4307323e+00
 -6.3375359e+00
 -2.1139984e+00
  1.2498175e+00
  8.2963687e-01
 -1.7376143e+00
 -3.3546760e+00
  3.7001160e-01
  1.4619800e+00
 -3.2916417e+00
 -7.7621110e-02
  1.7915211e+00
  1.7792721e+00
  2.0289516e+00
  1.0171714e+00
  8.9594483e-01
 -1.4483531e+00
 -6.2026215e-01
 -1.9193686e+00
  9.8580575e-01
 -2.1819067e+00
  1.5214401e+00
 -7.2358131e-01
  3.3727894e+00
 -4.2829007e-01
 -2.8449275e+00
  3.3668652e+00
 -4.3023992e+00
  9.8568583e-01
 -4.8865833e+00
 -2.3094642e+00
  1.3112541e+00
  2.3104751e+00
 -7.2157664e+00
  3.8494515e+00
  2.1718578e+00
 -7.5972432e-01
 -2.9284916e+00
 -2.0489824e+00
 -1.6050934e+00
 -1.7499003e-01
 -2.0658467e+00
 -2.4819005e+00
 -1.2401395e+00
 -2.3788621e+00
  1.0374489e+00
 -1.2080183e+00
  4.5043260e-01
 -9.5356503e+00
 -2.6542015e+00
  5.8554139e+00
 -1.5797347e-01
  4.8914784e-01
 -2.5305817e+00
  6.8441117e-01
  1.8271893e+00
  7.6383334e-01
 -1.8506616e+00
 -3.8770330e+00
 -2.5999398e+00
 -1.7891068e+00
  6.8502140e-01
 -3.7050791e+00
  1.4886167e+00
  1.0478082e+00
 -1.3843226e+00
  3.4876776e-01
 -6.6344517e-01
 -4.0933280e+00
 -1.3849321e-01
 -2.2845345e+00
  2.3695032e-01
 -3.7628489e+00
 -1.1060616e-01
  1.6635268e+00
  8.1533536e-02
  1.8084452e+00
 -2.0493286e-02
 -2.2533228e-01
  2.0165542e-01
  5.5220356e+00
  1.5670173e+00
 -6.5551275e-01
 -3.8825290e+00
  9.5149958e-01
 -7.1292800e-01
  2.1226618e+00
 -2.2386706e-01
 -2.0789564e+00
 -7.0420761e+00
 -9.8129809e-02
 -5.7866168e+00
  3.2785475e+00
 -1.0875355e+00
 -4.6779885e+00
  2.0290306e+00
  5.3498712e+00
 -3.6717987e+00
  8.3493167e-01
  1.4480172e+00
 -5.6023817e+00
  6.6802448e-01
  2.2341623e+00
 -2.9672904e+00
 -9.9897878e-03
 -2.3767104e+00
  3.0301635e+00
  1.6434563e+00
 -1.0604765e-01
 -3.6611660e+00
 -1.1459455e-01
 -3.1960940e-01
 -7.3937553e-01
 -6.8527585e-01
 -6.5987599e-01
 -2.1367760e+00
 -1.9004244e+00
  8.5639125e-01
  4.0437933e-02
 -1.4522867e-01
 -2.7924109e+00
 -1.0880837e+00
 -3.1556401e+00
 -4.4249696e-01
 -3.2603796e+00
 -6.4738137e-01
 -2.2462800e+00
 -2.6593667e-01
 -2.9379470e+00
  1.1705345e+00
  4.5623736e+00
 -4.6120673e-01
 -2.7621863e+00
 -5.7619536e-01
  2.1062863e+00
 -6.7020613e-01
  2.8921409e+00
 -2.1736448e+00
 -2.6277256e+00
 -3.4792457e+00
  2.8428228e+00
 -1.9965078e+00
  1.7499677e+00
  2.2776399e+00
  1.7561355e+00
  2.4296587e+00
 -2.0376379e+00
  2.7598159e+00
  2.4219766e+00
  5.6435161e+00
 -8.6859655e-01
 -7.1372920e-01
  2.6088111e+00
 -8.2203132e-01
 -4.8826700e-01
 -8.4262498e-02
  4.5126219e+00
  4.0714431e+00
 -3.1435483e+00
 -6.5187025e+00
 -2.2513955e+00
  1.9619093e+00
  1.4774657e+00
  3.4395978e+00
 -2.2185767e+00
  6.4031601e-01
 -1.1115087e+00
 -1.8988048e+00
 -4.5090310e-02
 -9.0469074e-01
 -3.6227450e+00
  2.2976999e+00
 -1.5934201e+00
  2.9237390e+00
  1.5699558e+00
 -4.9212470e+00
 -3.2931640e+00
 -2.3128641e+00
 -2.3024232e+00
 -4.2196093e+00
  3.9120600e+00
  4.1678354e-01
 -2.4195683e-01
  3.0274987e+00
  4.0327325e-01
 -1.3062422e+00
 -7.4724895e-01
 -3.2891030e+00
  1.6400046e+00
 -3.5377138e+00
 -1.1192248e+00
 -4.7649202e+00
  9.1494793e-01
  4.0350113e+00
 -2.6877663e+00
  5.2931780e-01
  4.4722646e-01
  7.8488010e-01
  2.6997797e+00
 -3.0064304e+00
 -2.5257034e+00
  8.1009459e-01
 -1.0236802e+00
 -7.4011052e-01
 -2.5637393e+00
  1.1268274e+00
  5.9348341e-02
 -1.2110898e+00
  2.2640543e-01
  2.3257229e+00
 -9.0993387e-01
  1.8653262e+00
 -1.9628232e+00
 -1.0263953e+00
  2.4681003e+00
  3.7140778e-01
  5.7795429e-01
  1.9098287e+00
  2.0766370e+00
 -1.9450310e+00
 -5.2255225e+00
 -1.2094603e+00
  2.9651377e+00
  2.3478386e-01
 -2.1751850e+00
  3.2056940e+00
 -1.6321715e+00
 -3.2163217e+00
 -1.7817919e+00
  5.6889641e-01
 -2.4953990e+00
 -3.9386508e+00
 -8.5955119e-01
  1.7279518e+00
  2.8246415e+00
  3.5692728e+00
  2.2693884e+00
  3.4734674e+00
  2.2373757e+00
 -3.2913456e+00
  2.8496030e-01
  6.2849588e+00
 -1.1163378e+00
  1.8036871e-01
 -2.5900309e+00
 -3.3885987e+00
  3.6123278e+00
  6.9380789e+00
 -9.2795217e-01
 -2.5802705e+00
  5.1881784e-01
  5.0602895e-01
  2.5888472e+00
 -4.7187304e+00
 -8.4785640e-01
 -5.1016116e-01
 -8.8138609e+00
 -7.9574525e-01
  7.9991204e-01
 -8.3271140e-01
 -3.6469641e+00
 -2.5633140e+00
  1.6134064e+00
  2.3236969e+00
 -3.0194960e+00
 -1.6665428e+00
  8.2897156e-01
 -4.4033498e-01
 -2.0232739e+00
 -2.9628475e+00
 -5.4264599e-01
 -8.8574129e-01
  1.6857432e+00
 -2.5672441e+00
 -3.3432467e+00
  1.2298490e+00
 -2.3539725e-01
  6.5039402e-01
  1.8025137e+00
 -3.8301263e+00
  5.9780401e-01
 -1.0008260e+00
  1.3091435e+00
  3.6851938e+00
 -1.0054132e+00
  4.6267409e+00
 -5.6549435e+00
  2.0744519e+00
  1.6629695e+00
  1.8237989e-01
 -4.4402828e+00
 -8.4203351e-01
 -9.4671321e-01
  1.4543587e+00
 -3.1303477e+00
 -1.7862966e+00
  8.0017537e-01
 -4.5159302e+00
 -1.5388075e+00
  1.9798332e+00
  3.1998017e-01
  5.9346571e+00
  2.2403061e+00
 -2.9328485e+00
 -4.8660949e-01
  4.1599110e-01
 -4.9060029e-01
  2.4233878e+00
  5.5665416e-01
  4.9219689e+00
  1.3687251e+00
 -3.4427767e+00
 -1.6552299e+00
  4.9241763e-01
 -3.6480126e-01
  1.4965233e+00
 -1.2784823e+00
  8.6942858e-01
  4.1072559e-01
  1.9921823e+00
  4.0332909e+00
 -4.2592111e-01
 -8.1175518e-01
  3.2646878e+00
  5.0543222e+00
  1.9002143e+00
  7.7922094e-01
 -1.5233400e+00
  3.6738629e+00
  9.9507725e-01
  2.0038559e+00
  1.0413539e+00
 -3.5173076e-01
  1.3868941e+00
  1.1134024e+00
 -2.7489204e+00
 -3.6390930e-02
 -4.5285559e-01
 -2.3722993e-01
 -1.9647577e+00
  4.0845761e+00
 -2.7425325e+00
 -4.0318534e-01
 -1.0482373e+00
 -6.2784618e-01
 -1.6614989e+00
 -2.3009145e+00
 -4.9641493e-01
  1.0948924e+00
 -2.4805753e+00
  7.7660137e-01
 -1.5274195e-02
  3.3509874e+00
  9.7458237e-01
 -5.3585057e+00
  2.1077408e-01
  1.3824531e+00
  2.0624135e+00
 -6.9113201e-01
  9.3166643e-01
  9.9789357e-01
  6.7300922e-01
 -2.5892615e-01
  1.4621477e+00
  1.5082548e+00
  1.2018474e+00
 -7.8220107e-02
  1.6935240e+00
  1.8444017e+00
  3.0894039e+00
  1.9037875e+00
  4.2140785e-01
 -3.3125367e+00
  1.4614894e+00
 -6.8722171e-01
  3.1682873e+00
  8.8055986e-01
  9.5609230e-01
  3.0818920e+00
 -1.6907246e+00
  6.0660452e-01
 -3.4048951e-01
 -5.7750706e-02
  1.7819853e+00
  2.7389559e-01
 -3.5978389e-01
  1.3942732e+00
  1.3514420e-01
 -2.5390007e+00
 -3.0340540e+00
  9.5055473e-01
 -8.3358401e-01
 -1.6935349e+00
 -1.0611141e-01
 -1.0654755e-01
 -2.9570518e+00
  4.0933480e+00
 -2.6409957e-01
  1.9083568e-01
 -2.7411268e+00
  3.8102716e-01
  6.7208710e+00
  1.4348570e+00
 -1.0710275e+00
 -2.3694775e+00
  7.6573330e-01
  6.5338475e-01
 -2.1771767e+00
 -4.4810481e+00
 -4.4658451e+00
 -4.6632433e-04
 -4.5617614e+00
  2.0826678e+00
  6.5912127e+00
 -1.8775362e+00
 -5.1702809e-01
  9.0562332e-01
 -3.7120526e+00
 -3.0207826e-02
 -6.6274983e-01
  1.3611687e+00
 -2.0026689e+00
  3.8958600e+00
  1.9550160e+00
 -1.1950616e+00
  1.2101030e+00
 -8.6825781e-02
  1.6241945e+00
  8.7487692e-01
  4.8900864e-01
  1.6231385e+00
 -1.9091556e+00
  2.5563079e-03
 -1.0344560e+00
 -2.8137596e+00
  1.2644674e+00
 -3.9908460e-01
 -8.1103498e-01
  3.5468204e+00
 -5.1014894e-01
 -1.8371050e+00
  4.0691227e-01
 -1.4254546e+00
  2.5424999e-01
  6.6041034e-01
 -7.2864109e-01
  2.1990843e+00
 -1.8460910e+00
 -1.6813164e+00
 -1.3683999e+00
 -9.0922028e-01
  3.3697036e-01
 -1.3210669e+00
 -9.9468321e-01
  3.6929052e+00
 -2.0807555e+00
  2.7549264e-01
  1.7919753e-01
  8.9344400e-01
 -7.6050687e-01
 -7.4707448e-01
 -1.4007189e+00
  5.8090603e-01
  9.7654456e-01
  3.2259384e-01
  1.9952850e+00
 -2.1080747e+00
 -1.2818120e+00
 -2.2700538e-01
  1.6101274e+00
  1.2860935e+00
  7.3563792e-03
 -1.5692307e+00
 -3.0413885e+00
 -3.0585685e+00
 -2.9269138e-01
 -4.6868496e+00
 -1.4007691e+00
  2.7149299e-01
 -7.4383831e-01
 -3.7282157e-01
  3.0168867e+00
 -8.3796307e-02
  2.0592971e+00
 -4.6202093e-01
 -1.6081641e+00
 -8.3260226e-01
  3.8507295e+00
 -4.6605520e+00
  7.1116465e-01
  7.8041393e-01
 -2.6555702e-01
 -3.4398866e-01
 -1.6059910e+00
  1.0610343e+00
 -1.6066896e+00
 -1.3050464e+00
  2.2867227e+00
  2.6507831e-01
  2.3467884e+00
 -2.1123328e+00
  1.7086538e+00
 -1.3869056e+00
 -6.9866854e-01
  1.1537308e-01
 -1.5933001e+00
 -2.1785185e+00
  2.5712769e+00
 -2.7558293e+00
  1.0626369e+00
 -6.5033913e-01
 -3.5960636e-01
 -1.0073857e+00
 -1.1472163e+00
 -1.4763501e+00
  3.1467479e-01
 -5.2253799e+00
 -6.3491087e+00
 -1.3207197e+00
  1.7418540e+00
 -9.2060864e-01
 -4.1007861e-01
 -5.8660012e-01
  2.9065473e+00
  2.0209179e+00
 -5.3964510e+00
  4.0729532e+00
 -1.1191859e+00
 -1.8935883e+00
  2.3155940e+00
  9.6727407e-01
 -2.1785276e+00
 -1.0020646e+00
  6.0654134e-01
  6.9119847e-01
  2.3339529e+00
  4.3146439e+00
 -1.0641492e-01
 -2.8783243e+00
  1.8400544e-01
  1.6447788e+00
 -4.7000921e-01
  4.8240852e-03
  1.0156823e+00
 -8.3688235e-01
 -2.1155515e+00
 -2.6453986e+00
  3.5780654e+00
  1.7552090e+00
 -3.5708756e+00
 -1.1348112e+00
  1.2619874e+00
 -2.6586425e+00
  1.4305440e+00
 -1.2446364e+00
  4.5024955e-01
 -1.9360976e+00
 -2.5948246e+00
 -9.0661800e-01
 -1.7164891e+00
 -1.4751551e+00
  3.2402194e+00
 -4.9947867e+00
  7.8531170e-01
  3.1838403e+00
 -2.8392023e-01
  1.8545460e+00
 -2.5407299e-01
 -2.2917392e+00
 -1.7308501e+00
 -2.0085616e+00
  3.6822346e-01
  3.0692420e+00
  2.3583218e-01
  2.8456005e-01
  1.0138856e+00
  2.1708832e+00
 -5.0702864e-01
 -3.1155424e+00
  1.2736926e+00
  1.9168613e+00
 -2.4283867e+00
  1.0110349e+01
 -1.8727380e+00
 -5.7846177e-01
  2.4226688e-01
 -2.9299388e+00
  4.3549118e+00
 -6.2660408e+00
  4.9445134e-01
 -2.5997114e+00
 -9.6878427e-01
 -1.4624546e-01
 -1.8513110e+00
 -3.2516088e+00
  1.8155309e+00
 -6.2685198e-01
  3.3527713e-02
 -1.6786535e+00
  2.6594806e-01
  3.0337374e+00
  1.9181908e+00
  8.1706822e-02
  1.3891008e+00
 -3.0805154e+00
 -1.2826585e+00
  2.2141900e+00
 -3.1109571e+00
  3.6002455e+00
  8.3696675e-01
  2.0840425e+00
 -1.3478028e+00
 -2.0219312e+00
  2.1581728e+00
  5.7834983e-01
  1.4994923e+00
  4.8252627e-01
  1.9380286e+00
  2.2956831e+00
  1.2865868e+00
  2.3216248e+00
  2.1605372e+00
 -2.3729196e+00
  2.7685449e+00
  1.9545140e+00
  5.5166774e+00
  1.8395289e+00
 -2.9476886e+00
  1.8131795e+00
 -9.7944178e-02
  7.5622523e-01
  4.2186465e+00
  4.9523420e+00
  6.7826557e+00
  6.0566384e-01
  1.7123687e-01
  4.6685569e-02
 -2.1588426e+00
  3.1066782e+00
 -2.7049606e+00
 -6.3133979e+00
  3.9666265e-01
  1.0697217e+00
 -1.8658603e+00
  4.5789757e+00
  6.9476347e+00
  3.3993030e-01
  3.7349524e+00
 -1.3682351e-01
 -3.2869971e+00
 -4.1774195e-01
  2.1415753e+00
 -1.3694779e+00
  6.7448716e+00
  4.3447700e+00
  2.5027170e+00
  5.8704152e+00
  3.6310056e-01
  2.1354744e+00
 -3.4393120e+00
 -1.9737022e-01
 -8.6715668e-01
 -3.5552114e-01
  7.7075511e-01
  2.7999892e+00
 -4.2566037e-01
 -2.5340846e+00
  4.6964006e+00
 -7.2844024e+00
 -5.5380006e+00
 -1.9873625e+00
 -4.6953311e+00
  1.6279449e-01
  4.3737364e+00
  1.2706022e+00
 -4.9792796e-01
 -2.3393986e+00
  4.2136493e+00
 -2.6362312e+00
 -4.6707058e+00
 -3.6793439e+00
 -2.0237162e+00
  2.3554313e+00
  9.0274680e-01
 -5.5099154e-01
  4.6297402e+00
 -5.9607768e-01
 -2.6702965e-02
  4.5399661e+00
 -1.3424863e+00
 -2.5073652e+00
 -2.7449849e+00
  4.2199974e+00
  7.8371614e-01
 -1.4010868e+00
  2.4476821e+00
  4.1100049e+00
 -1.2566011e+00
  1.9972390e+00
  2.1848829e-01
  1.1498921e+00
  8.3591056e-01
 -9.8230369e-02
 -1.6298959e+00
 -3.5645430e+00
  4.4989300e+00
 -7.4260646e-01
 -2.6809845e+00
  3.0649480e-01
  3.8798203e+00
  1.6535369e+00
 -3.4213305e-01
  2.8259246e+00
  2.6207449e+00
  2.1542053e+00
 -5.0162990e-02
  2.8262475e-01
 -3.9427176e-01
  1.1864864e-02
 -2.0868745e+00
  2.8322508e+00
 -1.3374698e+00
  1.3462027e+00
 -1.7564707e+00
  1.3714412e+00
 -1.0672293e+00
 -3.1649935e+00
 -2.1844630e+00
  1.0100442e+00
 -7.6598436e-02
 -4.0465198e+00
 -2.5460927e+00
 -2.2797039e+00
 -9.4955196e+00
 -2.7388618e+00
 -2.3227749e+00
 -1.3384355e+00
  2.3105795e+00
 -7.6825941e-01
 -4.4542742e-01
  9.1137193e-02
 -6.5553484e+00
  1.2790296e+00
 -2.7756302e+00
 -3.1200719e+00
  2.2932513e+00
 -2.5260916e+00
  2.0214005e+00
 -3.0781095e+00
  2.1489534e+00
 -2.4499907e+00
  1.1636229e+00
 -6.8246040e+00
  1.5455147e+00
 -2.1592753e+00
  4.1811562e+00
  2.3621159e+00
 -6.3279562e-02
 -2.4378934e+00
  2.7523093e+00
  1.0126550e+00
  1.6983074e+00
 -2.2843890e+00
  3.9593010e+00
  3.5573735e+00
 -2.3307560e-01
  1.8894411e+00
 -1.1260190e+00
  1.0501981e-01
  1.1767588e+00
  4.2245479e+00
 -5.0708013e+00
 -5.5032611e-01
  8.0990449e-02
 -1.5153722e+00
  2.0787583e-01
 -1.8025196e+00
 -1.9783483e+00
  3.3874147e+00
 -7.1101418e+00
  1.3979088e-01
 -3.0561805e+00
  1.1667578e-01
  8.5301197e-01
  1.0220004e+00
 -3.4448974e+00
  2.2369366e+00
 -6.6542878e+00
 -2.0061884e+00
  1.2075489e+00
 -7.1926934e-01
 -3.4490380e+00
  4.0292583e+00
  3.0672061e-01
  4.7873759e+00
 -2.8663368e+00
  2.2789779e+00
  3.0197372e+00
  1.4283882e+00
 -3.0861232e+00
 -3.8191259e+00
  6.9770944e-01
 -1.4200510e+00
 -1.1114712e+00
 -2.0424879e+00
  4.3349962e+00
  3.7451956e+00
 -2.2070334e+00
 -8.3240521e-01
 -7.2819762e-02
 -1.3261055e+00
 -4.8689570e+00
  6.7079949e-01
  2.9491857e-01
  3.1466854e-01
  1.0913849e+00
 -1.9757497e+00
  2.6487813e+00
  1.0367554e+00
 -1.2734772e+00
  2.6013784e+00
 -4.1070967e+00
  9.4953966e-01
 -3.4230021e-01
  6.3819027e-01
 -4.9278617e-01
 -7.1530992e-01
 -6.1818099e-01
 -2.0680299e+00
 -6.5317076e-01
 -1.4891355e+00
 -2.3726771e+00
 -1.1779764e+00
  1.2261556e+00
 -3.9993856e+00
 -5.1882118e-01
 -1.7358832e+00
  1.6046513e+00
 -1.7475599e+00
 -1.7992660e+00
 -1.6468878e-01
  7.3657346e+00
 -1.1468008e+00
 -1.7340020e+00
 -1.6211197e-01
 -9.7812727e-02
 -1.8853647e+00
 -2.1935797e+00
  1.4423983e+00
 -3.6831817e-01
  2.4305782e+00
  2.9134705e+00
 -9.2829472e-01
  1.6335173e+00
  8.9173871e-01
 -1.4559846e+00
 -4.1936836e+00
  1.3069960e+00
 -4.9905953e+00
 -6.4830947e+00
  1.0245605e+00
 -7.6606607e+00
 -3.0108945e+00
 -2.2984951e+00
  3.2737167e+00
 -1.3304702e+00
  1.1573272e+00
 -1.2863690e+00
 -1.7340319e+00
  3.7371447e+00
  3.5707450e+00
  1.6836149e+00
 -1.5845492e+00
  1.1509054e+00
 -2.3355036e+00
 -2.3992546e+00
 -2.4633214e+00
  3.2750058e+00
 -6.0000930e+00
 -1.5880417e+00
  2.4530786e-01
  9.1538322e-01
  1.5205119e+00
 -3.5943827e-01
  1.0456104e+00
  3.4487820e-01
 -3.6570051e-01
  3.1337626e+00
 -1.5550864e+00
  4.6189636e-01
 -2.1107788e+00
  1.7655152e+00
 -1.0038601e-02
 -7.6047313e-01
  3.8311386e-01
 -1.0810368e+00
  2.1758096e+00
 -1.6603812e+00
 -1.8027496e-01
  1.1013495e+00
  1.7944489e+00
  2.5445259e+00
  1.5713563e+00
  1.8759204e+00
 -6.7202115e+00
 -3.8059449e+00
 -2.3695538e+00
  2.8090274e+00
 -9.1983902e-01
 -5.1996002e+00
 -6.8680936e-01
 -2.9717147e+00
  9.4610500e-01
  7.4417531e-01
 -8.3130693e-01
  4.1163058e+00
  3.1490531e+00
  3.0550647e+00
  2.9722669e+00
 -2.1493898e-01
  3.2051027e+00
  1.6218452e+00
 -9.7024751e-01
  8.7751500e-02
  1.0036581e+00
 -1.4989654e+00
 -4.7879326e-01
  4.2960887e+00
  3.4631798e-01
  7.4189395e-01
 -1.9610902e+00
 -1.6421692e+00
  4.2871151e+00
  5.1008511e+00
 -1.1673394e+00
 -2.5157936e+00
 -1.5708030e+00
  1.6531466e+00
  1.2361075e+00
  3.1578174e+00
  2.1706975e-01
 -3.1340001e+00
 -2.3193330e-01
  3.1899646e-01
 -3.6593516e+00
 -1.2182090e+00
  1.4739202e+00
  9.0124905e-01
 -3.7872443e+00
  3.0198827e+00
  2.1138520e+00
 -3.0015111e-01
 -3.8637166e+00
  3.0920058e-01
  2.7960541e+00
  4.4938245e-01
  2.5800104e+00
 -1.6392089e+00
  3.9824598e+00
 -2.1009340e+00
 -1.2864499e+00
 -3.1856389e+00
  2.2996635e+00
  8.9938515e-01
 -2.4685051e+00
  6.9696152e-01
  1.5780689e-01
 -4.4064846e+00
  8.3592933e-01
  1.3331330e+00
  1.1141641e+00
 -1.4562649e+00
  2.4013242e-02
  5.0520360e-01
 -6.8607922e+00
  1.8340054e+00
  2.2278740e+00
  1.8032972e+00
  1.7854695e+00
 -9.4851744e-01
  7.5686413e-01
  3.1957636e+00
 -3.7458806e+00
 -2.2100458e+00
 -2.4127555e+00
  6.4772236e-01
 -3.8790009e+00
 -2.7717045e-01
  1.6726019e+00
 -9.2273116e-01
 -2.7430201e+00
 -2.9921253e+00
  2.3706654e-01
  2.3864326e+00
 -1.7321841e+00
 -8.2673532e-01
  7.6441735e-01
  1.4829401e+00
  1.8721144e+00
  2.4657488e-01
 -3.4099252e+00
  4.3136768e+00
  5.8970094e-01
  1.1577598e+00
  1.8710700e+00
 -1.5568630e+00
  2.3334928e+00
  7.7429742e-01
  1.1778233e+00
  1.9188370e+00
  5.9293125e-02
 -1.6028941e+00
  3.0445214e-02
  1.0039414e+00
  4.2587319e-01
 -1.3216093e+00
  4.0679326e+00
  4.7155488e-01
  4.8003154e+00
 -2.7059939e+00
  9.2105025e-01
  9.2271358e-01
 -2.8623661e-01
 -7.7247781e-01
  2.1694744e+00
  1.9152834e+00
  5.2541280e+00
 -1.0250711e+00
 -3.0707555e+00
  2.1390154e+00
 -2.4742644e+00
 -1.8979520e+00
  5.1660571e+00
 -2.3477860e-01
  1.0823030e+00
  7.4900168e-01
 -1.4543958e+00
  4.4771308e-01
  1.7603223e+00
 -1.0682707e+00
 -1.5229969e+00
 -7.1967930e-02
 -2.9880896e-01
  7.2917682e-01
 -4.4800577e+00
 -6.1282951e-01
 -6.8558913e-01
  6.0847883e+00
  2.9651926e+00
  8.5019338e-01
  4.3515384e-02
 -7.1459861e+00
  4.2757335e+00
  3.5122712e+00
 -1.3155767e+00
 -6.3092732e-01
 -2.0393295e+00
 -4.0059662e+00
  2.1977458e+00
 -1.2588218e+00
  1.2512476e+00
 -6.0659814e+00
 -1.5947684e+00
 -1.5942611e+00
 -1.6508093e+00
 -7.1586716e-01
  9.9161603e-02
 -1.8151594e+00
 -6.9131851e-01
  1.8514718e+00
  1.7736869e+00
 -3.9818570e-01
 -4.2583547e+00
  1.4689480e-02
 -1.4528551e+00
  1.5480468e+00
 -2.2203778e-01
 -9.1991639e-01
 -1.0643629e+00
 -1.2063463e+00
 -1.9440649e+00
  1.1135651e-01
  9.3566549e-01
  9.9002427e-01
 -2.2124977e+00
 -9.7459638e-01
  2.7221630e+00
  2.3618100e+00
 -3.6949557e-01
  6.5000439e-01
 -1.0949051e-02
  3.8420339e+00
  6.4875734e-01
 -9.8589873e-01
 -4.6232596e-01
  1.7463436e+00
  9.7361195e-01
 -3.4468067e+00
 -7.2340362e-02
  1.8526454e+00
  2.1211920e+00
  6.3889307e-01
  4.3818912e-01
 -8.2930690e-01
 -2.8187683e+00
  1.8814913e+00
 -7.2054428e-01
  3.4682280e-01
 -2.3504212e+00
  1.0980861e+00
  6.9048328e+00
 -6.1048784e+00
 -3.1627107e+00
  5.2145777e+00
  2.6536863e+00
 -1.0955002e+00
  9.6071291e-01
  1.3052912e+00
  1.7869368e+00
  1.1854860e+00
  1.1146758e-01
  3.9437003e+00
  2.9411099e+00
  4.7714891e+00
 -2.1409049e+00
  1.9040210e+00
 -3.3372191e-01
  1.6053201e+00
  4.2867961e+00
 -2.8549924e+00
  1.1122926e+00
  3.8990715e+00
 -2.4789739e+00
 -3.1092486e+00
  6.3060284e-01
 -9.8750949e-01
 -3.9888356e+00
  1.8578839e+00
  1.4821531e+00
  3.3033407e-01
  2.3438656e+00
 -1.2129706e+00
  9.6876591e-01
 -1.7165661e+00
 -1.9309254e+00
  5.7879710e+00
 -1.5049516e+00
  5.9544462e-01
  4.5318672e-01
 -2.1779869e-01
 -2.1414673e+00
 -1.4775673e-01
  9.9225484e-02
  1.1930870e+00
  7.7427316e-01
  6.7069048e-01
  5.2342176e-01
  1.0035474e-01
  7.0936900e-01
 -5.0268775e-01
  1.5456675e-01
 -6.3449788e-01
 -1.9544281e-01
  1.6200042e+00
 -2.3800318e-01
 -1.3502942e+00
 -1.4499407e-01
  1.4462242e-01
  3.1242902e+00
 -6.7171663e-01
 -1.8610698e+00
 -8.0675733e-01
  3.3756238e-01
 -1.3014090e+00
 -1.1872431e-01
  8.3372414e-01
  5.6136638e-01
 -4.9635264e-01
  1.0017202e+00
 -2.8617558e-01
  1.5708057e+00
  3.2442253e+00
 -4.7496179e-01
 -1.2554460e+00
  1.9204787e+00
 -2.2491853e-01
 -1.8403770e+00
  9.9622482e-01
  1.4399722e-01
 -8.7372857e-01
 -6.1751461e-01
 -4.4853309e-01
  1.4426105e+00
 -3.3512279e-01
 -3.5515802e+00
  1.3769672e+00
  2.0241828e-01
 -1.9303041e+00
 -3.2770726e-01
 -8.1396496e-01
 -1.7811678e-01
  1.2732744e+00
  3.5962241e+00
 -1.5634879e+00
  2.3182797e+00
 -1.7825371e+00
 -3.2299364e+00
  9.9494392e-01
  1.2128972e+00
  1.5570276e+00
 -5.1775169e-01
 -1.0235291e+00
  2.9446743e+00
 -2.9244435e+00
 -5.1244491e-01
 -4.1251266e-01
 -5.0435929e+00
  1.1088049e+00
  6.5396279e-01
  1.8267529e-01
  2.1335471e+00
 -1.0366951e+00
  2.6667507e+00
 -1.5525833e+00
 -2.9565852e+00
 -1.4190426e+00
  2.6435471e+00
  6.7085999e-01
 -2.1080945e+00
 -3.7632854e+00
 -4.1982904e-01
  3.4868882e+00
 -1.0980670e+00
  2.7541845e+00
 -1.0396645e+00
 -6.7092937e-01
 -2.4362729e+00
  1.5187156e+00
 -4.3635173e+00
 -2.5924840e+00
 -1.5283234e+00
 -8.0181673e-02
 -1.4060502e+00
 -3.9934382e-01
  1.7766599e-01
  3.4242802e+00
  3.3506632e+00
 -2.1759348e-02
  9.8661679e-01
 -2.3345056e+00
 -8.3559740e-01
  7.3462814e-01
 -2.9720442e+00
  2.2371123e+00
  2.7302763e+00
  6.0217458e-01
 -1.8795462e+00
  1.5742810e+00
  1.2560724e+00
 -1.3831723e-01
 -3.1511855e-01
 -1.4277236e+00
 -9.6735173e-01
  1.0132880e+00
 -2.7313411e+00
 -5.2376974e-01
  1.9628069e+00
  2.4075739e+00
  2.6356285e+00
  1.0090021e+00
  1.3765706e+00
 -5.8116281e-01
  1.4292986e+00
  2.2628331e+00
 -2.2405710e+00
  3.7497938e-01
 -1.1057067e+00
  1.5200974e+00
 -3.8334310e+00
  1.1841923e+00
 -3.1590533e+00
  9.2999101e-01
 -9.9633336e-01
 -1.2664835e+00
  8.9997965e-01
  3.3291774e+00
 -4.5380483e+00
 -7.4146891e-01
  3.8375370e-02
  1.8904927e+00
  3.6626689e+00
  1.0992428e-01
 -5.6896150e-01
 -8.2069740e+00
  2.4330690e+00
 -9.9146420e-01
 -5.0730246e-01
  1.7949374e+00
  3.6817765e+00
 -2.5418797e+00
 -4.9932289e+00
 -1.7487022e+00
  1.8280358e+00
 -1.5402542e+00
  4.0391896e-02
 -3.6932993e+00
 -5.5890260e+00
 -9.6155758e+00
  1.0274928e+00
 -2.0061940e-01
  3.4487886e+00
 -1.5470997e+00
  6.7253011e-01
  3.9463580e+00
 -1.5321155e+00
  2.6195660e-01
  3.7260337e+00
  2.0113487e+00
 -2.6855382e-01
  2.5377054e+00
  6.5499693e-01
  1.1907544e+00
 -3.0613370e+00
 -1.6676087e+00
  1.2462574e+00
  1.6350079e+00
 -1.0320596e+00
 -5.5959123e-01
 -4.6772283e-01
 -3.0343323e+00
  1.4573966e+00
  1.7123222e+00
 -5.1552830e+00
 -6.0658067e-01
 -1.2943398e+00
 -1.7089875e+00
 -1.0143068e+00
 -4.2983713e+00
  5.3565979e+00
 -1.2612563e+00
 -2.5718515e+00
  2.8741625e-01
  1.0048868e-01
  1.8762553e+00
 -1.8903178e+00
 -1.2523835e+00
  1.2069426e+00
 -2.3395534e+00
  1.4431858e+00
 -2.2300761e+00
  3.6936173e-01
 -1.2198871e+00
 -1.4737700e+00
 -1.3615657e+00
  6.8053728e-01
 -1.9816862e+00
 -3.6458864e+00
 -5.9894770e-01
 -2.5193782e+00
 -1.6542480e+00
  9.1570562e-01
 -2.0175433e+00
 -4.4889569e+00
 -2.7865047e+00
 -1.0428549e+01
 -9.0335608e-01
 -1.5001473e+00
  4.2840252e+00
 -1.6912957e+00
  5.6113138e+00
  9.4582760e-01
 -2.2562273e+00
 -2.7227886e+00
 -1.8355116e+00
  1.3805799e+00
 -1.7970088e+00
 -2.0993099e+00
  2.1648939e+00
  1.2451085e+00
  7.0395285e-01
  2.2336546e-01
 -7.5495511e-01
 -1.9841827e+00
  2.2514334e+00
  2.9087976e-01
 -1.8097610e+00
  2.3842716e+00
  2.5452485e+00
 -3.4914878e-01
 -8.5170016e-02
  5.9317601e-01
  4.2854958e+00
  1.9354300e+00
  2.2797465e+00
 -1.4011227e+00
 -1.7800457e+00
  5.2339506e-01
 -1.7483653e+00
  2.2742867e+00
 -4.7446015e-01
  3.7087111e+00
 -1.1439259e+00
  2.8240234e-01
  4.9913354e+00
  5.8382998e+00
 -3.8240492e+00
 -3.5547612e+00
  3.3988926e+00
  4.2488325e-01
 -1.7436547e+00
  4.4887727e-01
  5.6605229e+00
 -3.6885941e+00
 -2.4027987e+00
  2.2240162e+00
  1.5458924e+00
 -9.1476667e-01
 -2.7750311e+00
 -2.5677285e+00
  1.4539495e+00
 -1.0232338e+00
  2.9147041e-01
  1.8594967e+00
  4.3134937e+00
  1.7987370e+00
  4.8139435e-01
  1.5001863e+00
  4.3775883e+00
 -3.2219112e+00
 -2.2145836e+00
  5.2025290e+00
 -1.9338545e+00
 -2.9144639e-01
 -9.0733433e-01
  2.1015909e+00
  3.0902629e+00
  4.5394021e-01
 -1.6717079e+00
  1.6883904e+00
 -1.4557588e+00
  1.6953363e+00
  1.8161633e+00
  1.3543094e+00
 -1.7723280e+00
  1.3567306e+00
 -1.9811144e-01
  2.6758454e+00
 -1.1157780e+00
  3.4874856e-01
  3.7667832e+00
 -6.3555682e-01
 -5.4039252e-01
 -2.5999882e+00
 -1.5683388e+00
  2.8548028e+00
 -1.8735623e-03
 -1.3476636e+00
 -2.0930438e+00
  6.5671176e-01
 -1.7619504e+00
  1.0290934e+00
  3.7284305e+00
 -4.0986052e+00
  8.5670024e-02
 -5.9810567e-01
  2.1893642e+00
 -1.0566931e+00
 -3.4191215e+00
  2.6774681e+00
  1.1945841e+00
 -1.8429551e+00
 -1.1549884e+00
  4.4841102e-01
 -4.8124999e-01
  8.4459519e-01
 -3.1778049e+00
 -2.0430574e+00
 -4.7192283e+00
 -1.3839654e-02
 -1.2371671e+00
  1.2036485e-01
 -2.9711876e+00
 -7.3493415e-01
 -3.9255664e-01
  4.2684966e-01
 -2.8278857e-01
 -1.9548086e+00
  1.6983665e+00
 -3.6948183e-01
  2.0958676e+00
  3.0896306e+00
  1.1453867e+00
  3.7317171e+00
 -2.3502686e+00
  2.6937897e+00
  6.5575808e-01
  3.9196632e+00
  1.6179423e+00
  2.4295824e+00
 -4.0409794e+00
 -1.9055181e+00
 -2.1145182e-02
  2.9558172e+00
  6.7165275e+00
  1.3050246e-01
  1.6987339e+00
 -9.8540956e-01
  2.0227237e+00
 -1.0735239e+00
  1.0787983e+00
  6.9226927e-01
  5.6146401e-01
  3.6059904e-01
 -1.5918225e+00
 -3.3125028e-01
 -3.1289837e+00
 -2.8250668e+00
  7.2730100e-01
 -1.7880523e-01
 -2.9883707e-01
  3.4602618e+00
 -9.2505074e-01
 -1.0232753e+00
 -4.9460611e+00
  3.0341250e-01
 -4.1911069e-01
 -1.8360115e+00
  7.1939361e-01
 -5.9640050e-01
  8.6834872e-01
 -1.5492549e+00
  6.6649699e-01
  7.8069782e-01
 -2.1920435e+00
  1.1512437e+00
 -8.3558178e-01
  4.2917237e+00
 -2.3308103e+00
 -1.3439343e+00
  3.4283471e+00
 -7.8005981e-01
 -2.6090100e-01
  8.6475974e-01
 -1.2276455e+00
  6.1490268e-01
  5.4224241e-01
 -1.7494512e+00
 -4.5479298e-01
 -2.5179646e+00
  3.4282606e+00
  2.8473029e+00
 -3.5442445e+00
 -3.7085348e-01
  4.6851704e-01
 -9.9256200e-01
  8.8435280e-01
 -9.9821091e-01
 -4.6086626e+00
 -8.9475584e-01
 -2.7003467e+00
  3.8848278e-01
  2.1322162e+00
  5.1859984e+00
  2.2906983e+00
  9.9444211e-01
  3.3512083e-01
 -1.9088030e+00
  1.7948657e+00
  4.1283588e+00
 -5.3027725e-01
 -7.2479695e-01
 -2.9000149e+00
  2.2585557e+00
 -4.2153349e+00
 -3.4318919e+00
  1.3016651e+00
 -2.4514291e+00
 -1.5887897e+00
 -7.3019534e-01
 -2.1456034e+00
  4.0804701e+00
 -4.5863147e+00
  1.9968593e+00
 -1.3079576e+00
  5.7144034e-01
  2.4512462e-01
  3.0340273e+00
 -1.0430824e+00
 -2.5421784e+00
  1.4326108e+00
  3.2072777e-01
  1.0174133e+00
  6.0674429e-01
 -3.7667410e+00
 -4.8941794e-01
  4.1073399e+00
 -1.3296317e+00
  1.6872449e+00
  1.0114688e-01
  6.9083786e-01
  3.1770601e+00
  9.1038024e-01
  1.9308957e+00
 -7.0701432e-01
 -2.9487057e+00
 -6.7460465e-01
  2.1588454e+00
 -3.9308175e-01
  1.4787838e+00
  3.5219202e+00
  6.7426682e-01
  9.4747317e-01
  1.7051668e+00
  2.0248120e+00
  2.7591891e+00
 -6.8830238e-03
 -2.6659378e-01
 -1.8877064e+00
 -4.4876070e+00
 -1.8048173e+00
 -2.8324134e+00
  2.4324191e+00
  1.9807043e+00
 -1.3661392e+00
 -1.7019337e+00
 -2.7570095e+00
  2.2402675e+00
  3.3702080e-03
  1.9012331e+00
 -3.1405480e+00
 -5.0028819e-01
 -2.0053809e+00
 -2.5121396e+00
  1.0401856e-01
  2.1854999e+00
 -2.4262264e+00
  2.7319512e+00
  1.5392635e+00
  9.0059805e-01
 -2.5299597e-01
  2.8537900e+00
  1.5793209e-01
  5.1998177e+00
 -6.7000146e+00
  2.3849848e-01
  1.5806452e+00
 -5.5979306e-01
  8.2207918e-02
 -4.7460113e+00
  3.7768939e+00
 -2.3294535e+00
 -5.1683629e-01
  1.8620734e+00
 -2.0677872e+00
  1.2078705e+00
  6.1814089e+00
  5.1696676e-01
 -1.9957857e-01
 -1.3679694e+00
 -1.0769213e+00
  4.7989001e+00
 -1.4468592e+00
 -3.3519211e-01
  4.2521366e-01
  3.7651353e+00
  4.2076058e+00
  5.5266566e+00
 -2.9380510e+00
  1.8719125e+00
  1.9516863e+00
  1.5477353e+00
  3.7870088e-01
 -1.0887708e-01
 -2.7965784e+00
  1.5420569e+00
  3.6931235e-01
 -2.7028084e+00
  1.4764309e+00
  1.0462865e+00
  2.5005765e+00
 -5.2817756e-01
  1.1218016e+00
 -7.6786858e-01
  1.0607755e+00
 -7.0976698e-01
  4.7448877e-01
  2.8410604e+00
  9.8484397e-02
  6.2177420e-01
 -1.7178831e+00
  1.8184839e+00
  4.7040524e+00
  2.2453337e+00
  4.5290163e-01
 -2.5774131e+00
 -2.5342617e+00
  2.1356263e+00
 -1.6187503e+00
  4.1487017e+00
  4.8360822e-01
 -1.0063272e+00
  9.8606336e-01
 -3.3621579e-01
 -6.4487261e-01
  2.6282392e+00
 -8.8459611e-01
 -9.2403626e-01
  2.0750430e+00
 -1.2321368e+00
 -1.2849715e+00
 -9.8243022e-01
  2.4854653e+00
 -3.0700734e+00
  5.0375767e-02
 -8.7740088e-01
  8.0548801e-02
  4.0734679e-01
  5.2964158e-02
  2.5749737e-01
 -1.3096234e-01
  1.3172524e+00
 -3.0245641e-01
 -1.1407852e-02
  1.0141129e+00
 -8.6736858e-01
 -2.4989460e+00
 -6.1374146e-01
 -2.6865449e+00
  1.7026678e+00
 -1.4958773e+00
  6.9483507e-01
  2.3407552e+00
 -5.0468600e-01
  5.8523148e-01
  4.9331932e+00
 -1.9427096e+00
  8.8816863e-01
 -5.4075187e-01
  2.8729817e-01
 -2.7237025e-01
 -9.0269017e-01
  1.5269253e+00
  1.5435302e+00
  5.3342485e-01
  4.6258597e+00
 -1.1713635e+00
 -4.0527396e+00
 -5.3944116e+00
 -6.9809169e-01
  9.1509074e-01
  2.4779525e-01
 -3.3030683e-01
  6.6833538e-01
 -2.4478593e-01
  4.5218329e+00
 -1.7167917e+00
 -1.9069132e+00
  1.7022239e+00
  1.2393310e+00
 -9.2082667e-01
  2.1844490e+00
 -2.4263258e-01
  1.0248352e+00
 -1.6183739e+00
  3.4692159e-01
  6.1417651e-01
  2.3520174e+00
 -1.8006338e+00
  2.4404428e+00
  1.0872734e+00
 -3.4343004e+00
  2.1468737e+00
  4.7523255e+00
 -6.8992491e+00
 -4.5340376e+00
 -4.2320389e-01
 -6.8279684e-02
 -4.1290655e+00
 -1.8874944e+00
 -9.3094712e-01
  2.7423733e-01
  1.0831922e+00
 -3.0396461e+00
  3.1991670e+00
  1.9889097e+00
 -4.8841786e-01
 -3.3158989e+00
 -3.6451440e+00
 -2.2914214e+00
 -6.7545004e-02
 -1.9932415e+00
 -1.8445039e+00
  1.5797307e+00
 -1.8266212e+00
  1.2999177e+00
  1.7115041e+00
 -3.5543185e-01
 -1.2032696e+00
 -5.3910451e+00
 -4.9337683e+00
  2.1381469e+00
  2.1925673e+00
  1.0971932e+00
 -2.4283332e-01
  2.0992696e+00
 -4.9769977e-01
  2.4164290e+00
 -7.0741624e-01
  2.4086952e+00
  5.3144093e+00
  2.6704471e+00
 -1.9552599e-01
 -2.5055008e+00
 -4.4819989e+00
  4.5448246e+00
 -1.6218526e-02
  4.1878784e-01
 -1.1163433e+00
  1.0004941e+00
 -3.5638046e+00
 -4.1095471e+00
  1.5210675e+00
 -1.1110955e+00
  2.3060474e+00
  1.9509052e+00
  1.1658676e+00
 -3.3105743e+00
  4.7737956e+00
 -2.6334739e+00
  7.0014137e-01
  2.0664361e+00
  4.0886766e-01
  2.6542010e+00
 -2.0115891e+00
  3.3918197e+00
 -3.5992212e+00
 -5.0304093e+00
  1.7190883e+00
  2.8095394e-01
  1.1976831e-01
  3.1787939e+00
  1.2349200e+00
  3.4843221e+00
 -9.7259778e-01
 -1.2230101e+00
 -4.2487955e+00
  3.0697024e+00
  2.0724814e+00
  2.7439433e-01
 -1.1315675e+00
 -3.3206446e+00
  4.5902047e+00
  2.1097777e+00
 -1.3174716e+00
  6.1377507e-02
  1.6637343e+00
 -1.1496938e+00
 -1.6677854e+00
  1.4584702e+00
  1.1500949e+00
 -6.3940281e-01
  1.8192184e+00
  2.3735158e+00
 -3.9626126e+00
 -1.7099924e+00
  1.3132758e+00
  2.7664468e+00
  6.3169527e-01
  1.3466158e+00
 -3.5905746e-01
  1.5848356e+00
 -4.1622242e-01
 -2.9732242e+00
 -1.8478157e-01
  6.6123658e-01
 -1.7095956e-01
  1.0850531e+00
  4.2384535e-01
  8.1526190e-01
  1.3936529e-01
 -5.1136518e-01
  7.9353362e-01
  2.3778305e+00
 -1.4903339e+00
  7.3981553e-01
 -9.3203974e-01
 -2.8516257e-01
 -1.2403517e+00
 -2.5623181e+00
 -1.3750744e+00
  3.8973677e+00
  2.8299659e-01
  4.1616747e-01
 -9.8628372e-01
  5.3706425e-01
 -6.9679928e-01
  2.1214399e-01
  1.7116299e+00
 -5.9770805e-01
  1.9492966e+00
 -1.2389832e-01
  6.1983699e-01
 -1.4822341e+00
  1.1810404e+00
  1.4289377e+00
  1.1280545e+00
 -2.9210625e+00
 -4.3527070e-01
 -2.1400285e-01
 -3.8939884e+00
  2.0238526e-01
  2.3801825e+00
  2.3489392e+00
  6.6726065e-01
 -1.8640411e+00
 -4.1707852e-01
 -5.0394785e-01
  3.3638752e+00
 -2.6037163e-01
 -2.2800198e-01
  3.4591711e+00
  6.0753590e-01
 -5.3585827e-01
  2.6844916e+00
  4.8457938e-01
  1.1357256e+00
 -1.4664072e+00
  3.7267179e+00
  1.1184227e+00
 -3.0856545e+00
 -1.3036953e+00
  5.7240129e-01
  3.5224563e-01
  5.8167738e-01
 -2.7873287e+00
 -3.6547425e-01
  3.3694885e+00
  5.1722369e+00
  1.1041600e+00
 -7.2380674e-01
  5.1406813e-01
 -2.7212565e+00
  3.0182505e+00
  7.4888200e-01
  7.2655000e-02
 -2.5274060e+00
  9.5006716e-01
  4.4937859e+00
  2.6784232e+00
  1.4926158e+00
  2.3103206e+00
  4.1206855e-01
  2.5636725e+00
  6.8149877e-01
  2.6454785e-01
  1.1815400e+00
 -1.7125916e+00
 -3.2907410e+00
  1.1357988e+00
  4.6806378e+00
 -6.3387829e-01
 -2.7342966e+00
 -3.5651696e+00
 -4.7008249e-01
  1.4317905e+00
  2.8510132e+00
 -7.9652864e-01
 -5.7319837e+00
 -2.7279186e+00
 -1.3447957e-01
  1.3896956e+00
  2.6212722e-01
 -2.0694730e+00
  1.2811724e+00
 -1.5974857e-01
 -7.9775476e-01
  6.3303196e-01
  1.1706265e+00
 -7.8894085e-01
  3.5069430e+00
 -1.5423411e+00
  1.9498520e+00
 -1.9664925e+00
  2.2489743e+00
  2.9818308e-01
  2.8524818e+00
  1.2453021e+00
  1.5520554e+00
 -2.2104156e+00
  2.7580890e-01
  7.7158391e-01
 -5.6239738e+00
 -2.7041113e+00
 -7.7971298e-01
 -6.7808968e-01
  3.6761856e-01
  2.2080755e+00
 -1.1046673e+00
 -2.3155277e+00
 -8.1300288e-02
  7.1771079e-01
  2.6156214e-01
  3.6798460e+00
 -1.1495316e+00
  1.8780902e-01
 -1.2057707e-01
 -1.6104217e+00
  2.9030290e+00
 -3.1743523e-01
  1.6409379e+00
 -4.1031080e-01
  3.7540126e+00
 -3.7620444e+00
  2.7882166e+00
  3.2237840e-01
  2.4362144e+00
  3.3824813e+00
 -3.3281326e-01
 -5.1903570e-01
 -3.8832352e+00
 -8.3719647e-01
  8.5322388e-02
 -1.4822699e+00
  8.7226975e-01
  3.7628439e-01
 -7.5823493e-02
  9.3970269e-01
  3.0000677e+00
 -2.8047142e+00
 -4.4246874e+00
 -2.3365500e+00
  2.6246142e-01
  1.1279932e+00
 -1.6796762e+00
 -2.6024463e+00
  1.9054800e+00
  2.3094485e+00
  1.1541289e+00
 -1.3002104e+00
  7.7332067e-01
 -3.2905230e-01
 -1.3046577e+00
  1.3629580e+00
 -2.8852422e+00
  5.3071456e+00
 -5.0542210e-03
  2.7587883e+00
  1.9452349e+00
 -1.8154831e+00
 -1.1372281e+00
  2.5766308e+00
 -1.0768178e-01
 -1.1564484e+00
 -1.1923373e+00
 -2.9237373e+00
  6.2805837e-01
  1.4642178e-01
 -1.3000778e+00
 -2.4580574e+00
 -4.6964130e+00
 -1.2849814e+00
  3.1291637e+00
 -2.5223300e+00
 -3.3357089e+00
  1.8325384e+00
  1.9789572e+00
 -1.2550162e+00
 -4.0829949e+00
  2.6810503e+00
  2.2389536e+00
  6.8839178e+00
 -1.0558215e+00
 -3.6411791e+00
  1.8460299e+00
 -1.8260260e-01
 -1.0967233e+00
  1.1601647e+00
 -8.8051879e-01
 -2.1456480e+00
  1.5806356e-01
  1.8649383e+00
 -3.9952605e+00
 -9.0248302e-02
  2.8844967e+00
 -9.1214967e-01
 -5.1842155e+00
 -2.9603701e+00
  6.7328852e-01
 -2.9212005e+00
  2.1508780e+00
 -3.2241559e+00
  1.3128576e+00
  8.7130004e-01
  3.5421070e-02
 -1.5331365e-04
 -4.8739166e+00
 -2.7175114e-02
  1.0057844e+00
 -3.7706017e-01
  1.2434009e+00
  2.2833743e+00
 -3.3916613e-01
 -1.5502827e+00
  1.0153853e+00
  2.1919856e+00
  2.4602346e+00
 -4.9497671e+00
  2.4794338e+00
  7.6069668e-02
  1.3194104e+00
 -1.2695363e+00
  2.5593150e+00
 -2.5310688e+00
 -1.5508447e+00
  4.5397794e-01
 -2.5009978e+00
 -2.3658384e-01
  6.6422850e-01
  6.0605067e-01
 -2.1670726e-01
  3.3881233e+00
  1.0871197e-01
 -7.2178565e-02
 -1.3545991e+00
  3.2684219e-01
  1.5876853e+00
  1.1204440e-01
 -1.8333755e+00
 -4.2637391e+00
 -1.9420484e+00
  1.6526877e+00
 -3.2625525e+00
  1.4563187e+00
  1.0548114e+00
 -2.9868472e+00
  7.6891494e-01
 -3.0322289e+00
 -1.8624530e+00
  1.5651618e+00
 -1.2233120e+00
 -1.4426968e+00
  2.9352627e+00
 -1.6155617e+00
 -2.0146511e+00
  2.2744131e+00
  9.4128340e-01
  1.0311909e+00
 -7.9143482e-01
 -3.1007001e+00
  1.0308919e+00
 -1.3387607e+00
 -9.6336532e-01
  2.7822526e+00
 -8.3139783e-01
 -1.5161902e+00
  4.3659028e-02
  1.0686805e+00
  1.7267684e+00
  1.3129976e+00
  2.4761336e-01
 -3.1003418e+00
 -2.9873390e+00
  3.2902520e+00
  2.1274142e+00
 -2.2879603e+00
 -2.2673097e+00
 -1.9348317e+00
  6.2696487e-01
  6.0041146e+00
  2.4193456e+00
 -4.7659554e+00
  3.8605852e+00
  1.7714541e+00
  5.3741539e-01
  9.0188348e-01
  1.8539128e+00
  1.8299050e+00
  1.6527665e+00
  2.5652368e+00
 -1.1597070e+00
 -2.4491336e+00
 -1.9311836e+00
  1.8047940e+00
 -2.7422512e+00
 -1.5085040e-01
  1.5845388e+00
 -7.0979989e-01
 -7.5084233e-01
  1.1586542e+00
 -9.5275623e-01
 -2.7560663e+00
  9.7595051e-02
 -3.6676743e+00
 -2.0878961e+00
  5.3613329e+00
  1.1358124e+00
  8.9009792e-01
  1.6256157e+00
 -2.2960909e-01
  7.0249498e-01
 -3.9189932e+00
 -2.3347044e+00
  1.5644243e+00
 -8.2770699e-01
 -4.8801804e-01
 -9.5582783e-01
  2.8239744e+00
 -1.3540148e+00
 -4.8222613e+00
 -1.1682414e+00
 -1.3463503e-01
 -1.3304843e+00
 -3.5459454e+00
  1.8037295e+00
  6.8388867e-01
  2.3578107e+00
 -5.6064062e+00
  9.2364782e-01
  2.8193450e+00
 -1.3566333e+00
  1.7956063e+00
 -4.3625781e-01
  3.5301378e+00
  1.2155412e-03
  2.1601110e+00
  2.3889949e+00
 -4.5505178e-01
 -9.9601066e-01
 -3.4271452e+00
 -3.0587757e-01
 -7.5595200e-01
 -1.8361359e+00
 -2.7478936e-01
  1.0206040e+00
  1.6665879e+00
 -4.7973423e+00
  1.7733769e+00
  1.1263285e+00
  4.2349136e-01
 -1.2714268e+00
  2.4178388e+00
 -9.9430531e-01
  3.7813030e-02
 -8.8196284e-01
  1.6889206e+00
 -2.4287515e+00
  2.3389146e+00
  1.6975977e+00
  4.9779075e-01
 -1.0543437e-01
  6.8355006e-01
  3.2505473e-01
  5.8112512e+00
 -4.1960749e-01
  2.7959762e+00
 -3.1257491e+00
  1.6154740e+00
  4.9698200e+00
 -1.0983639e+00
 -4.1303035e-02
  2.7433946e+00
  3.2100403e+00
  1.0668328e+00
 -1.0177956e+00
 -4.2316175e-01
  5.7504451e-01
 -2.5010076e+00
  5.2807927e-01
  4.8700557e+00
 -3.0173187e+00
  1.1283748e+00
  9.0641326e-01
  4.8728406e-01
  2.9027190e+00
 -4.6474705e+00
 -1.5350645e+00
 -2.1112192e+00
 -1.4289730e+00
  2.0429535e+00
  1.2842931e-01
  3.9801989e+00
  5.5461615e-01
  3.5694039e-01
  2.3533218e+00
  3.5630298e-01
  3.7026465e+00
  2.4081886e+00
  3.0318735e+00
  6.1003846e-01
  5.9035268e+00
  1.1891986e+00
 -5.6652031e+00
  2.7163606e+00
 -3.3331051e+00
 -2.2803504e+00
  1.1969875e+00
 -4.2472544e+00
 -1.7199448e+00
 -1.9198743e+00
  8.4218997e-01
 -1.0022964e-01
 -7.9739714e-01
 -3.4703088e+00
  1.9002401e+00
  1.3784306e-01
 -3.6728688e-02
 -2.9359996e+00
  1.4741895e+00
 -1.1088167e+00
  2.2660349e-01
 -2.1003680e+00
  3.4896340e-02
  7.4146651e-02
 -1.0011330e+00
  3.4810296e-01
 -2.4266341e+00
 -3.1812170e+00
  2.9752719e-01
  5.2785010e+00
 -4.6365137e+00
  1.0125347e+00
 -2.5923257e+00
 -3.7620297e-01
 -2.7809560e+00
  2.7514412e+00
 -9.0282720e-01
 -1.8541361e+00
  1.3035049e+00
  1.7219509e-01
 -3.0826473e+00
 -1.3544880e+00
  3.0948396e+00
  4.9693625e-02
 -7.2492278e-01
 -3.7823131e+00
  8.4575385e-01
  1.4591106e+00
  4.7118494e-01
 -1.1147585e+00
 -2.4767261e+00
 -2.9655306e+00
  2.1503055e+00
  5.8865058e-01
  1.5002257e+00
  3.6704373e+00
  1.3441198e+00
 -1.8976321e+00
  2.5251350e-01
  2.4962051e+00
  3.1583586e+00
  3.4396255e+00
  6.3186640e-01
  2.6155307e+00
  2.0972536e+00
 -8.3297901e-02
  4.9837794e+00
  1.6163117e+00
  9.1624993e-01
 -2.7901440e+00
  1.8287666e+00
  2.4231285e-02
  1.3579404e+00
 -8.9767468e-01
 -1.4825071e+00
  1.8846426e+00
 -1.8647898e+00
  3.5512540e+00
  8.7812923e-02
 -1.0058441e+00
  1.6905506e-01
  1.0941786e+00
 -3.0445772e-01
  3.0563669e+00
  4.7483641e-01
  1.9279795e+00
  2.3618979e+00
  2.2089598e+00
  4.5952746e-01
  4.2038074e+00
 -4.2785725e-01
 -8.3648098e-01
  1.9589524e-01
  3.0744050e+00
 -3.3862364e+00
 -3.8347242e+00
  1.1319817e+00
 -1.5272560e+00
 -3.8498333e+00
  6.5383947e-01
  3.3848665e+00
 -5.8293229e-01
  5.8119459e+00
  8.1026983e-01
 -2.3883927e-01
 -2.2071047e+00
 -2.1320050e+00
 -1.9652907e+00
  1.3025922e+00
  4.3848139e-01
 -3.0504851e+00
 -2.0963497e+00
  1.3489220e+00
 -3.6337609e+00
 -1.4363394e+00
  8.6878085e-01
  1.3371006e-02
  1.7412969e+00
 -6.8131679e-01
  9.6130663e-01
  5.6411467e+00
  1.7431101e+00
  1.5515141e+00
 -8.0819929e-01
  1.5536755e-01
  2.0552297e+00
 -3.8450998e-01
  3.6551726e+00
  4.2805200e+00
  4.5119076e+00
 -3.8422289e-01
 -5.3767104e+00
 -3.5484655e+00
  1.7091095e-01
 -1.1433549e+00
 -2.0560973e+00
 -3.9504750e+00
  7.6242596e-02
 -3.5891709e+00
  6.2701732e-01
 -9.6358794e-01
 -3.3653325e-01
  9.3821281e-01
 -1.5130612e+00
  1.4832643e+00
  5.5341113e-01
 -1.1381650e+00
 -5.7293210e+00
  1.3182112e+00
  2.5856102e+00
  7.8956542e+00
 -2.6357105e+00
 -4.2121301e+00
 -2.5337355e+00
  3.2091997e+00
 -2.8566054e-01
  3.8629827e+00
  4.2347016e+00
  1.9485603e-01
  1.1089879e+00
  2.2854006e+00
 -8.0658382e-01
  1.0086665e+00
 -3.3124218e+00
  2.5819457e+00
  1.7173189e+00
 -3.6793303e+00
 -1.9201870e+00
 -3.2340407e+00
  3.6827762e+00
 -2.2889030e+00
 -6.0607189e-01
 -2.6591537e+00
  7.2602534e-01
  2.3998256e+00
  1.2073523e+00
 -1.7125769e+00
 -2.0772765e+00
 -2.4861312e+00
  1.0767031e+00
  4.8089373e-01
 -2.4868674e+00
 -3.4612877e+00
 -8.0514612e+00
  2.3146105e+00
 -1.1281569e+00
 -3.6095686e+00
 -5.7245684e-01
 -3.3323305e+00
 -1.4617811e-01
 -7.8151083e-01
  2.7518492e+00
 -7.2029257e-01
  8.5728401e-01
  1.2573119e+00
  3.2010162e+00
  8.3725649e-01
 -1.6643022e+00
 -1.4404204e+00
  6.4692833e-03
  4.8422647e+00
 -2.2680621e+00
 -1.6405969e+00
 -1.7596236e+00
 -8.7308912e+00
  3.7252588e+00
  4.6622210e+00
 -1.5624243e+00
 -3.6528566e-01
 -1.0127232e+00
 -4.1960084e-01
  1.6079307e+00
 -4.9335427e+00
  1.4791515e+00
 -2.4559519e+00
  1.7916702e+00
 -7.0556693e-02
 -2.8650801e+00
  2.9836304e+00
 -1.0997932e+00
  1.1113752e+00
  1.2005776e+00
  4.0359387e+00
  7.3611741e+00
 -2.4389119e+00
 -1.6914859e+00
  2.2685430e+00
 -2.5201371e+00
  1.3965721e+00
  1.3828022e+00
 -6.7004743e+00
  2.2456849e+00
  2.9249814e+00
 -1.0559464e+00
 -6.1475098e-01
  2.3188791e+00
 -1.5899106e+00
  4.9837327e-01
  9.8272097e-01
  1.7572524e-01
 -1.3245544e+00
  1.6044457e+00
 -2.6979630e+00
 -4.6716127e+00
  1.3149954e+00
 -8.0348217e-01
  2.9265680e+00
 -3.6268985e-01
  1.0206074e+00
  1.9942482e+00
 -1.8104135e+00
  3.0532758e+00
 -3.5952365e+00
 -3.5658693e+00
 -2.3227262e+00
  5.8308244e-01
  3.0648563e+00
 -1.5295985e-01
 -1.6010743e+00
 -3.9304080e+00
 -4.4324036e+00
 -5.4408350e+00
  1.6389987e+00
  8.5484493e-01
 -2.9695227e+00
 -5.3905511e-01
 -1.1260089e+00
  2.5798015e-02
  3.7936819e+00
 -3.4619510e-01
  7.0563227e-01
 -2.1650453e+00
 -1.0238708e+00
  4.5546740e-01
  6.9206756e-01
  2.1454287e+00
  3.3207393e+00
  1.6040951e+00
 -7.8533995e-01
  3.9752290e+00
 -2.1718943e+00
 -1.9464976e+00
  1.1689057e+00
 -2.3479332e-01
 -1.8560091e+00
  4.9458833e+00
  1.9871043e+00
 -7.9629582e-01
 -3.8672680e-01
  1.4334508e+00
  3.4797232e+00
 -3.4426582e-01
  2.4412282e+00
 -1.9026549e+00
  1.3135844e+00
 -1.4678589e-02
 -1.8771071e+00
 -1.7233850e-01
  1.5335009e+00
 -3.3300750e+00
 -6.0701597e-01
  7.6199830e-01
  2.9242775e+00
 -2.3431485e+00
 -3.5016525e-01
  3.0363047e+00
  9.2250007e-01
 -2.6705635e-01
 -3.4383521e+00
 -4.3211379e+00
  4.8948658e-01
  7.1346555e+00
 -1.9288557e+00
 -5.6477895e+00
 -3.2725516e-01
  5.8071309e-01
 -6.2644646e-02
 -5.4074888e+00
  4.0926127e+00
  1.0599747e+00
 -7.7705193e-01
  3.6481643e-01
 -1.7431242e+00
  1.3945448e+00
 -2.3859563e+00
  1.2378223e+00
  2.6557145e+00
  1.3985438e+00
 -2.1969481e-01
  1.6897980e+00
  5.8983362e-01
  6.0961622e-01
 -1.8690257e-01
  3.0907419e-01
 -3.2076514e+00
 -2.0838802e-01
  1.3411249e+00
  1.0270612e+00
  1.1837357e+00
 -8.3417290e-01
 -1.0776110e+00
  1.5463859e+00
  4.0244184e-02
 -4.4541454e+00
  1.0800018e+00
  3.0033872e+00
  6.8938690e-01
  3.0319030e+00
  2.3790946e+00
 -2.7481816e+00
 -3.1558162e-01
  1.3429652e-01
  2.1419129e-01
  1.5009692e+00
 -3.2576916e-01
 -9.3095791e-01
 -5.8045235e+00
  2.4512694e+00
  1.1475719e-01
 -5.2696031e-01
  2.1433349e-01
  1.2678950e-01
  1.9668365e+00
  2.1983225e+00
  9.9379766e-01
  7.8389859e-01
  3.9323568e+00
 -4.9750113e-01
  4.0768762e+00
  2.6111999e+00
 -2.0400152e-01
 -6.2067227e+00
 -2.7703149e+00
  1.4014584e+00
 -1.6354671e+00
  1.0579721e+00
  7.3261595e-01
  8.5874349e-01
 -1.8139223e+00
  3.6019108e+00
 -1.6508466e+00
 -4.2194816e-01
 -2.5095534e+00
 -2.1201677e+00
  3.6153975e+00
 -1.0815721e+00
 -2.3359666e+00
 -1.8474369e-01
  4.4572017e-01
  2.3795311e+00
  8.2117188e-01
  2.4563794e+00
 -1.3420460e+00
 -3.3415167e+00
  2.8885517e+00
  9.7149903e-01
  3.5843772e-01
 -2.8107800e+00
  8.3481991e-01
  6.9425476e-01
 -4.7813945e+00
 -2.3531458e+00
  1.6982387e+00
 -3.5265324e+00
 -1.8401933e+00
 -1.0108538e+00
 -5.9083807e-01
 -2.5900158e-01
 -2.6113119e+00
 -1.9721131e+00
  3.6447999e-01
  2.2096863e+00
  2.4742990e+00
 -5.4802918e+00
  2.0803709e+00
  2.5243962e+00
 -2.0459521e-01
  7.7391058e-01
 -4.7190076e-01
 -2.2709143e+00
 -4.9325953e+00
  3.4735093e-01
 -3.5933757e+00
 -4.7758451e+00
 -1.5233130e+00
  5.7778770e-01
 -4.4941983e+00
 -7.8910869e-01
 -9.9845904e-01
  1.9980961e+00
 -1.3253701e-02
 -2.5648737e+00
  7.0684493e-01
 -1.2758074e+00
 -1.4534663e+00
  5.3591919e+00
  1.1594124e+00
  3.3581097e+00
  1.3140534e+00
 -1.4992955e+00
  3.7813820e-02
  5.7094297e+00
  9.5768553e-01
  4.1699924e+00
 -1.6829330e+00
 -2.8584430e+00
 -1.6540070e+00
  1.4775409e+00
 -1.7262174e+00
 -1.9625419e+00
  2.5365114e-01
 -1.7801124e+00
  5.6576619e+00
 -5.2823806e-01
  4.4834118e+00
 -9.3674999e-01
  1.5648167e+00
 -1.3701980e-01
 -2.4548812e+00
 -7.3736606e+00
  4.7704592e-01
  3.0601342e+00
  3.7205899e+00
  1.9506036e+00
 -1.4213864e+00
 -3.0906010e+00
 -1.4836137e+00
  5.1075554e+00
  1.6766036e+00
 -1.5894819e+00
  4.6113309e-01
 -1.0843657e+00
  5.3120542e+00
 -3.6353035e+00
  2.2676187e+00
 -5.0586981e-01
 -4.0760425e-01
 -3.1082447e+00
  2.1138299e+00
  2.5432904e+00
 -9.3887222e-01
  3.0380349e+00
  7.5630236e-01
  3.4542114e-01
 -1.5114955e+00
  2.5366077e+00
 -1.5106878e+00
  3.2380636e+00
  7.3152418e+00
 -1.7939806e-01
  3.1159937e-01
 -2.4024658e+00
  2.9161890e+00
  1.1406145e+00
  2.6386443e-01
  1.7844681e-01
  1.6647838e+00
  8.9108443e-01
  3.1270764e+00
  3.7840351e-01
  1.3182467e+00
  5.2615589e-01
 -7.8301316e-01
  1.7167346e-01
  4.6014919e+00
  3.4540684e+00
 -1.2767249e+00
 -5.5617267e-01
  4.8302722e+00
 -4.7806242e-01
  1.1399362e+00
  2.9113197e-01
  9.7951877e-01
 -5.2349372e+00
  2.0669191e+00
 -1.8127025e+00
  2.1466720e+00
  3.3665359e+00
  3.2266128e+00
 -9.4487101e-01
  2.9722583e+00
 -2.7642295e+00
 -5.4064288e+00
  1.5007485e+00
  4.2634044e+00
  1.3873432e+00
  4.0066953e+00
 -1.9987164e+00
 -3.7681823e+00
  1.7169990e-01
  5.8521968e-01
 -7.3389482e-01
  6.1140615e-01
  1.5171871e+00
  7.3248219e-01
 -6.2277037e-01
 -4.2540211e-02
  1.8710053e+00
 -2.6961255e+00
  3.5026975e+00
  1.2967037e+00
 -2.7663071e+00
 -1.4170753e+00
 -4.9249024e+00
 -2.9005282e+00
 -2.1534200e+00
 -1.9553684e+00
 -2.2305148e+00
 -5.2414459e-01
  2.6855505e+00
  4.2925200e+00
 -2.4561360e+00
  1.3899037e+00
 -1.2907621e+00
 -1.0890113e+00
  2.5299597e+00
 -3.1688638e+00
  3.3742745e+00
 -1.1503791e+00
 -3.3235579e+00
  3.3927917e-02
 -1.1685891e+00
 -4.3640270e+00
  3.0533211e+00
 -3.4102924e+00
 -4.0801844e-01
  8.7135124e-01
  3.6608839e+00
 -4.2416682e+00
 -2.3321564e+00
  1.6246121e+00
  1.6716217e-01
  4.0229430e+00
 -4.4446216e+00
 -1.3069006e+00
  7.2013850e+00
  1.8763976e+00
 -1.4274551e+00
 -2.5483451e+00
 -1.1587532e+00
  8.6813343e-01
  2.6512928e+00
 -2.7910264e+00
  2.9132595e+00
 -5.7574922e-01
 -1.1510228e-01
 -2.8085842e+00
 -3.8059127e+00
  5.4917240e+00
  1.6589712e+00
 -3.2485121e-01
  4.3658304e-01
  2.9669994e-01
 -9.3861468e-02
  2.2989151e+00
  1.5539654e+00
 -2.4823182e+00
 -1.1717514e+00
  1.2188199e-01
 -4.2045507e+00
  1.7537827e+00
  9.0695602e-01
 -2.7087159e+00
  1.6158712e+00
  8.8662654e-01
 -2.2047987e+00
 -5.5532150e+00
 -8.8893533e-01
 -3.4290884e+00
  9.7829020e-01
  8.3069521e-01
 -1.7560625e+00
  6.9773489e-01
  1.9687096e+00
  5.7906806e-01
 -7.9010898e-01
 -1.1577866e+00
 -1.5977467e+00
 -1.3493302e+00
  1.5894064e+00
 -2.1973479e+00
 -2.4798906e+00
 -1.1287441e+00
  2.6074877e+00
 -1.4479823e+00
  6.0370607e+00
  3.8279824e+00
 -4.5532823e+00
 -3.9312241e+00
 -4.2124405e+00
 -5.3009790e-01
 -1.0438904e-01
  2.6568029e+00
 -1.0806791e-01
  4.1850778e-01
  1.7501963e+00
  2.5377371e+00
 -3.0586042e+00
  3.3641701e+00
 -1.0123373e+00
  5.1802522e-01
 -9.1357774e-01
 -2.7268057e+00
 -2.9022112e+00
 -2.2857380e+00
  1.6073066e+00
  1.1176529e+00
 -2.2029879e+00
  1.4209946e+00
  1.2173647e+00
 -1.4091718e+00
  2.5150305e-01
 -2.5055695e+00
 -5.3087331e-02
 -1.4058720e-01
 -2.9598198e+00
  1.4277065e-01
  1.3810619e+00
 -1.8278828e+00
  1.7390639e-01
 -8.7830263e-01
  1.8444303e+00
  1.7949978e+00
 -2.0657113e+00
 -3.2507498e+00
  6.7025816e-01
  1.6660649e+00
 -3.8145709e-01
  9.9341887e-01
  1.1612445e+00
  3.0245340e+00
  6.2573189e-01
 -1.2694052e+00
 -1.4508502e+00
 -4.5438415e-01
 -2.3038468e+00
 -5.9183997e-01
  1.3775077e+00
  2.5784113e+00
  2.5143526e+00
 -2.8885591e-01
 -2.3417358e+00
  7.9551154e-01
 -1.6675003e+00
  3.4924426e+00
  2.2293844e+00
  2.1891682e+00
 -9.0624136e-01
 -2.4983306e+00
  1.2117980e+00
  4.6568888e-01
  1.3252736e+00
 -4.6268955e-01
 -3.5922513e+00
  3.3874393e+00
  5.2332544e-01
  5.4879135e-01
 -2.1239216e+00
 -9.5592123e-01
 -1.0249410e+00
  3.0915413e+00
 -2.7631257e+00
  7.2862130e-01
  4.6434531e+00
  2.7449238e-01
 -4.8883014e+00
 -2.7446079e+00
  1.4679136e+00
 -2.9650438e+00
  2.0603623e+00
  5.9216076e-01
  2.0016357e-01
 -4.4760031e-01
 -2.6723249e+00
 -1.7613596e+00
 -1.3792957e+00
 -1.0845889e+00
  6.8654042e-01
 -3.3620453e+00
 -1.8708762e+00
  1.5723102e+00
 -1.5102153e+00
  1.3390222e+00
 -3.3003478e+00
 -2.0198021e+00
  3.7150590e+00
 -1.9893392e+00
 -2.9551444e+00
  1.7076095e+00
 -5.2627361e-01
  3.3049631e+00
 -1.0224730e+00
 -2.4656396e+00
  1.6435796e+00
 -1.1182871e+00
 -5.3065052e+00
 -7.9121590e-01
  1.4957818e+00
 -1.9536121e+00
 -2.7811222e+00
 -1.4049947e+00
  1.8525696e+00
 -1.7962871e+00
  1.7175615e-01
  7.8829849e-01
  8.9662814e-01
  4.1901150e+00
  1.1778924e+00
  8.2545489e-01
  3.7624843e+00
  3.3522270e+00
 -4.3704195e+00
 -5.6950192e+00
 -3.2766078e+00
  1.1994411e+00
  1.1199746e+00
 -5.7843060e+00
  1.5348942e+00
  4.2135744e+00
 -2.8302679e+00
 -4.1210464e-01
 -2.4528522e+00
  3.4776452e+00
 -3.0535347e+00
 -8.6455905e-01
  2.4114551e-01
  3.0300748e+00
 -9.1037291e-01
  2.0517935e-01
  4.7087979e-01
  9.2699635e-01
 -6.0074407e-01
 -4.8210282e+00
  9.2158371e-01
 -1.5078554e-01
 -4.4861421e-01
  2.5637255e+00
  1.3201854e+00
 -1.9428322e+00
  7.4603295e-01
 -7.2272867e-01
 -3.2672274e+00
 -1.9348562e+00
  1.3366249e-01
  1.8581603e-01
 -2.1518440e+00
 -4.4503856e+00
  2.2847068e+00
  2.7161832e+00
 -5.2156287e-01
 -2.3283062e+00
 -1.5589556e+00
 -4.2291932e+00
 -8.3413851e-01
  2.2593960e-01
 -9.4588631e-01
 -4.9448266e+00
 -9.6011466e-01
 -5.7152086e-01
 -1.0921221e+00
 -1.1928788e+00
 -8.3581668e-01
  2.3399904e+00
 -3.6519814e-01
 -3.1643815e+00
  1.0955596e+00
 -2.7498012e+00
  3.5473356e+00
 -1.3885623e+00
  1.2057389e+00
 -8.4781331e-01
 -2.4837346e+00
  1.1073898e+00
 -1.4309381e+00
  1.0722891e+00
 -5.6128472e-01
 -4.6637063e+00
  3.2592363e+00
  5.4191597e-02
 -3.7744482e+00
 -1.1810000e+00
  3.2586005e-01
 -1.8233724e-01
  2.9126124e+00
  1.3002416e+00
 -2.1334984e+00
 -5.5754700e+00
  1.4486371e+00
  5.2225924e-01
  6.1272483e+00
  1.3681666e+00
  5.9299188e+00
  2.1586213e+00
 -2.4784777e+00
  6.7521733e-01
  2.1143685e-01
  3.4308200e+00
 -3.6434875e+00
 -1.7934818e+00
 -7.5644474e-03
 -2.0734525e+00
  1.8853098e-02
 -2.5106633e+00
  4.3082728e+00
  3.0288005e+00
  1.1323928e+00
 -4.3540192e+00
 -1.2962432e+00
  1.9755781e+00
 -4.9608579e-01
  1.6582211e+00
 -3.9502456e+00
 -3.1799064e+00
 -5.6007318e+00
 -3.3294475e+00
 -3.3028936e+00
  1.4393766e+00
  1.5308262e+00
 -2.6070851e-01
 -2.2908041e+00
 -2.6935198e+00
  5.3271322e+00
  1.5161408e+00
 -7.5726871e+00
  3.7507660e+00
 -1.4291092e+00
  1.6761702e+00
 -3.8043838e-02
  6.6660684e-01
 -1.3304305e+00
  2.0277019e+00
 -2.4001141e+00
  5.5738130e+00
 -5.8774877e-04
 -1.3373148e+00
  2.5437248e+00
 -1.7346789e+00
  4.9830031e+00
  3.5448172e+00
 -1.4708620e+00
 -1.6896373e+00
  6.0166103e-01
 -4.6096983e+00
 -2.2994585e+00
 -3.5035989e-01
  2.4439614e+00
 -2.6945529e+00
  3.1258688e+00
  2.6325715e+00
 -2.6144941e+00
  3.2646573e+00
  4.0451607e-01
  1.4482638e+00
 -5.8086169e-01
  2.1565782e-01
  3.2937963e+00
  5.0036108e-01
 -1.1520716e+00
 -1.7951232e+00
 -2.6187000e+00
  5.4317266e-02
 -4.8742504e+00
  6.7836873e-02
  1.6147403e+00
  1.6167769e+00
  2.0976834e+00
  5.3098102e+00
  1.4906808e+00
  1.0684257e+00
 -2.7870074e-01
 -1.1183476e+00
  4.3329859e+00
 -1.0173920e+00
 -1.3288560e+00
 -2.6392740e-01
 -2.0482762e+00
 -2.3236475e+00
 -1.8280814e+00
  2.5623565e+00
 -3.6745596e+00
  3.1793816e+00
  2.9617622e+00
  1.2287433e+00
 -3.9246753e-02
  5.2084321e-01
 -7.1335058e+00
 -3.2784691e+00
  1.1848557e+00
  2.2968946e-01
  3.1649942e+00
  1.3380126e+00
 -1.8224485e+00
 -3.5619957e+00
  2.5659692e+00
 -2.7482784e+00
  1.5715345e+00
  5.7349849e-01
 -9.1005814e-01
  1.2019403e+00
  2.3835590e+00
 -2.6417854e+00
  3.1540232e+00
 -6.3131413e+00
  2.8604059e+00
  5.0717241e-01
  3.1216612e+00
 -3.5608671e+00
 -6.7709935e-01
 -1.2957668e+00
 -7.4812049e-01
  1.2675134e-02
 -6.9309139e-01
 -3.6021006e+00
  9.6037102e-01
 -2.9230480e+00
 -6.6814452e-01
  4.6486163e+00
 -4.2804132e+00
  5.7409883e+00
 -6.2053457e-02
  5.3488046e-01
  2.8153875e+00
  3.2879927e+00
  3.6248639e+00
  1.6290114e+00
 -1.8977414e+00
 -1.7216101e+00
  1.0563890e+00
  2.6882606e+00
 -1.2060384e+00
  2.6231923e+00
 -1.3599489e+00
  5.5750227e-01
 -2.7639766e+00
 -3.1406491e+00
  3.9687269e+00
  2.0219171e+00
 -1.1518754e+00
  9.5525837e-01
  2.9218779e+00
 -7.2631294e-01
  1.6998144e+00
 -1.3430048e+00
 -9.4923005e-02
  4.0102589e-01
  2.4351737e+00
 -3.0850234e+00
 -1.6201565e+00
 -1.1716543e+00
 -9.8185354e-01
  5.6103606e+00
 -3.4322052e+00
  5.6290513e-01
  2.2920496e+00
 -2.8220019e+00
  1.2844054e+00
 -2.2937260e+00
  3.1890604e-01
  3.9923804e+00
 -1.5095189e+00
  1.7179022e+00
  7.9727745e-01
  1.1630455e+00
 -7.9859823e-01
  6.5755445e-01
  1.2237198e+00
 -1.0038377e+00
 -2.4969547e+00
  5.5308318e-01
  2.6448834e+00
 -2.4170663e+00
  2.5487330e+00
 -1.9184674e+00
 -2.7573806e-01
  6.1680031e-01
  4.1354566e+00
 -1.6922194e+00
  9.3810928e-01
 -4.5158825e+00
 -2.2707934e+00
 -4.7481318e+00
  3.0925183e+00
 -3.0635097e+00
 -4.8048649e+00
 -4.6591723e-01
  1.3010497e+00
  2.7791657e+00
 -1.3367963e-01
 -5.8330035e-01
  6.6523871e+00
 -2.6197925e+00
  3.1759577e+00
 -2.7194278e+00
  1.3778254e+00
  4.8407216e+00
  7.2841549e-01
 -2.7336786e+00
 -3.6685870e+00
 -2.4469544e-01
  6.5907788e-01
  3.7702131e-01
  6.1931515e-01
  1.2252700e+00
 -2.4046381e+00
 -2.6347368e+00
 -4.0747166e+00
 -1.3687904e+00
 -1.6657275e+00
 -7.4004704e-01
 -1.5157946e+00
  1.0288031e+00
 -1.8702321e+00
  2.7595940e-01
 -1.8230911e-01
  1.2029066e+00
 -3.1859657e-01
  2.8654222e+00
  1.7477943e+00
  2.1749382e+00
  1.1998081e+00
 -1.0234351e+00
  2.5331225e+00
 -1.2355715e+00
 -2.4988315e+00
  1.6633915e+00
  2.9627299e+00
  2.2413211e+00
  3.4113672e-01
  1.1009505e+00
 -1.7534801e+00
 -1.9547984e-01
 -1.5430448e+00
 -2.3533316e+00
 -9.7590286e-01
  4.6162567e+00
 -1.9391304e+00
 -3.1779411e-01
  6.7373056e+00
  1.7748778e-01
 -1.6188004e+00
  1.9383616e+00
 -8.3252668e-02
 -4.3912601e-01
  1.6240729e+00
  5.6776676e+00
 -4.9547586e+00
  3.2139850e+00
 -2.7828007e+00
 -1.0515825e+00
 -2.2037758e-01
 -3.3571139e-01
  1.9498791e+00
 -1.7261693e+00
  2.6245308e+00
  2.4931625e-01
 -2.1207128e+00
 -1.6743126e+00
  8.2225430e-01
  8.3558625e-01
 -4.4455032e+00
  3.0917910e-01
  2.7377586e+00
 -2.3161759e+00
 -6.1606836e-01
 -8.4113961e-01
  2.7872036e+00
 -2.4495416e+00
 -2.5412164e+00
 -3.1319818e+00
 -5.4217176e+00
  8.2476598e-01
  3.8425556e-01
 -2.2148829e+00
  2.7398419e+00
 -5.7567388e-02
 -5.4151434e-01
  1.6342093e-01
  1.3766593e+00
 -2.0634017e+00
 -2.0388949e+00
 -8.8075238e-01
 -1.9951224e+00
 -1.2383527e+00
  3.6887486e+00
 -4.4299173e+00
  1.5087074e+00
 -4.7668839e+00
 -1.1590255e+00
 -9.1763902e-01
 -2.4473336e+00
  2.5179884e+00
 -9.6156555e-01
 -2.5330217e+00
 -1.5665597e+00
 -1.7383776e+00
  1.4425578e+00
 -1.5645835e+00
  1.2596397e+00
  2.3649731e+00
 -2.6865780e+00
  5.9007521e+00
  9.8084420e-01
  6.7921162e+00
  1.5782185e+00
  1.7000495e+00
 -4.9441152e+00
  1.1757410e-01
  2.1812143e+00
  1.5837382e+00
 -9.1640556e-01
  9.4408512e-01
  1.0878040e+00
 -4.0052443e+00
 -2.5102773e+00
  2.1243980e+00
  5.9977931e-01
  3.1435997e+00
 -3.0585015e+00
  2.7449415e+00
  1.6434703e+00
 -7.5471169e-01
  1.6065793e+00
 -1.3998566e+00
 -1.4184092e-01
  5.8066183e-01
 -7.9550308e-01
 -2.8108666e+00
 -3.5365248e-01
 -5.0860744e+00
 -4.7820992e+00
  6.1403906e-01
  4.3463264e+00
  1.0151635e+00
  8.9781725e-01
  8.6843222e-01
 -1.6492602e+00
 -4.2722237e-01
  3.0571637e-01
 -1.1153972e+00
 -8.9206684e-01
 -7.7332383e-01
  2.3525732e+00
  1.0991365e+00
 -2.3434639e+00
  3.7131546e+00
  3.3893621e-01
  2.2360015e-01
 -2.3535321e+00
  2.3662190e+00
  2.1527626e-01
  3.6980584e+00
  3.9897320e+00
 -3.4797122e+00
  1.1439720e+00
  2.6525466e+00
  1.1729140e+00
  1.9709619e+00
  3.1970358e+00
  4.0579357e+00
 -1.2682602e+00
  6.9174409e-01
 -8.5283720e-01
  1.6968904e+00
 -1.2185953e+00
  6.5065837e-01
  1.0656726e+00
 -1.1172920e+00
  2.1898928e+00
 -5.6650591e-01
  1.2125994e+00
 -7.7092952e-01
 -1.5844221e+00
  2.2123327e+00
 -2.8483870e+00
  1.7111081e+00
  1.3939675e+00
 -1.7599378e+00
  3.6402752e+00
  6.8125731e-01
 -9.6163636e-01
  3.7380996e+00
  8.7971918e-02
  5.2078182e-01
  2.1744924e+00
  5.8557242e-01
  2.2512624e-01
 -2.5602593e+00
  7.2842598e-01
 -3.1361330e+00
 -3.7759361e-01
 -2.1793373e+00
  2.1253638e+00
  2.0648723e+00
 -1.5071108e+00
 -3.6131470e+00
 -2.7654889e-01
 -5.2162766e-01
 -1.6078472e-01
  4.9292588e+00
  2.6802459e-01
  5.9415829e-01
  5.8826184e-01
  1.5000756e+00
  1.3813831e+00
  2.0753944e+00
  1.5646379e+00
 -1.8770564e+00
 -1.0711266e+00
 -1.4756274e+00
  1.9013393e+00
 -2.0140913e+00
  1.0862272e+00
  9.3389422e-01
  6.4478290e-01
 -1.6008083e+00
 -4.8522869e-01
 -2.4518175e+00
 -1.3528466e+00
  3.1378357e+00
 -1.9725597e+00
  7.0529652e-01
 -2.8527329e+00
  2.2793671e-01
 -3.0979304e+00
 -1.5964745e+00
  1.1572435e+00
  4.3429407e-01
  1.9535608e+00
  4.9043965e-01
  3.1496792e+00
  2.2577055e+00
  1.4484351e+00
  2.2134295e+00
  1.1586380e+00
  2.0062623e+00
 -1.6969959e+00
  1.2243264e+00
  1.7291961e+00
  1.5064716e-01
  3.2421679e+00
 -2.1800761e-01
  3.3603194e-01
  2.2103870e+00
 -5.5117643e-01
  3.4936652e-01
 -1.9879894e+00
  6.7614627e-01
  4.6009164e-02
  3.4777727e+00
 -3.7308867e+00
 -2.6753983e+00
  2.7457011e+00
 -2.4568386e+00
  2.6835046e+00
 -1.0463527e+00
 -1.9465891e-01
  1.0471208e+00
  2.2316129e+00
  2.0675447e+00
 -3.1423597e+00
  1.0955721e+00
  2.9167161e+00
  2.9303219e+00
  2.5218608e+00
 -5.3896314e-01
 -8.1921357e-01
  3.4680748e+00
  4.9179596e-01
  3.7551600e-02
  1.9672084e+00
  1.2849711e+00
  2.2157094e+00
 -1.3609854e+00
  4.9881378e-01
 -3.9946423e+00
  3.3489585e+00
 -2.4825774e-01
  3.8162801e-01
  2.8582535e+00
  2.7898926e-01
  1.3597329e+00
 -6.7295307e-01
 -3.9740975e+00
  1.3506263e-01
 -3.9351103e+00
  1.1883922e+00
 -5.5234951e-01
 -1.5624607e+00
 -4.8724449e-01
 -1.8137149e+00
  2.0778215e+00
 -5.9458315e-01
  2.4142547e+00
  1.2769722e+00
  4.6808285e-01
  5.6964010e-01
 -2.1506381e+00
 -7.4857320e-03
  1.9524781e+00
  4.7684588e+00
 -3.7300692e+00
 -9.1829967e-01
  4.6976080e+00
  2.0596480e+00
 -2.5463421e+00
  1.0907170e+00
  3.6208987e+00
 -4.3381662e+00
 -1.9446841e-01
  2.4625561e+00
 -3.6303166e-01
  4.1959143e+00
  2.8889287e+00
 -2.3248258e+00
  5.9107578e-01
 -1.8139871e+00
  4.4324045e+00
 -8.0580342e-01
 -2.4928305e+00
  3.8095772e-01
  8.1335223e-01
 -3.6178151e-01
  9.8343015e-01
  4.1187501e+00
 -9.8729956e-01
 -2.6958687e+00
 -1.7728505e+00
 -1.5772870e+00
 -2.4021749e+00
  5.3484446e-01
 -3.1407077e+00
 -5.1647525e+00
  2.2380545e+00
 -6.9607735e-01
  8.6177766e-01
  3.2069930e-01
 -3.5248549e+00
  2.2848952e+00
  3.2334486e-01
 -2.6040673e+00
  2.2448580e+00
 -2.3879871e+00
  7.4258089e-01
 -2.5955135e-01
  2.0217803e+00
  6.5863333e+00
 -1.9389297e-01
 -1.3411684e+00
 -2.3780746e+00
  5.5544286e+00
  6.0787368e-01
  1.5124108e+00
  3.5237832e+00
 -5.0881797e-01
  1.3397142e+00
  3.1238818e-01
  1.7976809e+00
  9.9896476e-02
 -5.2046925e-01
 -1.4381390e+00
 -1.4793031e+00
 -1.2623165e+00
 -9.6382815e-01
  3.2415643e-02
 -1.0962371e+00
 -4.0993223e-01
 -4.5951772e+00
  2.4863408e+00
  3.5222306e+00
 -1.1709387e-01
  1.1840529e+00
 -1.3763411e+00
  1.6838443e-01
  3.0116284e+00
  1.4400769e+00
 -1.2773062e+00
  8.8106179e-01
  8.1254500e-01
 -4.2784858e+00
 -2.1014299e+00
 -3.5486286e+00
 -3.0870521e-01
  7.1870894e+00
 -1.0619818e+00
 -1.3993632e+00
 -5.7696385e+00
  2.6804769e+00
 -1.7992941e+00
  4.7010088e+00
 -1.8120125e-01
 -7.5307947e-01
  3.7523502e-01
  1.3168197e+00
  1.6378307e+00
 -2.5105674e+00
  1.3987625e+00
  3.9398210e+00
  3.5231409e+00
  3.7806735e+00
  4.3087420e+00
 -2.8713183e+00
  6.8382776e-01
  3.1995873e+00
  1.9659193e+00
  5.0818219e+00
  3.6892304e-01
  3.4061086e+00
 -4.8271284e+00
  2.9072583e-01
  2.1578515e+00
  3.1783368e-02
  1.9901813e+00
 -1.7318439e+00
  5.3513963e-03
 -1.9442430e+00
 -6.4022870e+00
  3.1160142e+00
 -2.8704315e-01
  8.2078302e-01
 -4.1887304e-01
 -1.3881824e+00
 -9.1040261e-02
 -3.7558951e+00
 -2.3607395e+00
  2.5157139e+00
  4.1817093e+00
 -3.7031206e-01
  6.1012113e-01
 -5.3285617e-01
 -7.6490253e-01
 -7.7852923e-01
 -4.1019206e+00
 -2.3706967e-01
  8.1019098e-01
  2.3797171e+00
  6.0750759e-01
  1.5737438e+00
  2.7384779e+00
 -2.1220279e-01
 -1.6878622e+00
 -1.7249860e+00
  3.0305532e-01
 -5.6429701e+00
  2.0266278e+00
 -3.1925864e+00
  4.5713797e+00
  6.2511575e-01
 -1.3047528e+00
  4.2959923e-01
 -3.7525473e+00
 -1.0900220e+00
  4.8806596e-01
 -1.9744948e-01
 -1.4416637e+00
  1.8722224e+00
 -3.6905835e+00
  1.0883084e-01
 -3.5842085e-01
  4.3606403e-01
  2.7458208e+00
 -2.2847154e+00
 -6.6469628e-01
 -2.5737562e+00
  1.4671918e+00
  1.2719017e+00
  4.4078469e-01
 -3.0831265e-01
  6.7368603e-01
 -2.1332912e+00
 -4.7067475e-01
  2.3055840e+00
  1.8377500e+00
  2.6725676e+00
 -4.9986383e-01
 -2.4797602e+00
 -1.7857648e+00
 -1.1639843e+00
  2.4159207e+00
 -1.9889452e-01
 -1.2078319e+00
  1.3870736e+00
  1.5462968e-01
 -2.1258798e-01
  1.5005831e+00
 -1.3534093e+00
  3.7127960e-01
 -1.1228927e+00
 -2.7131898e+00
 -8.3680159e-01
 -3.0359871e+00
  1.2231991e+00
  4.0556560e+00
 -4.2776093e-01
 -7.6020026e-01
  2.0551331e+00
 -4.7733059e+00
 -7.1610045e-01
 -4.2853376e-01
 -1.2175400e+00
 -1.7520707e+00
 -2.0302434e+00
  1.6153305e+00
 -2.0174172e+00
  1.2065103e+00
  3.0322499e+00
 -8.5985929e-01
  2.3631471e-01
 -8.8709265e-01
 -2.6838427e+00
  1.0143710e+00
  1.9363651e+00
  7.7739608e-01
  3.0995387e-01
 -2.9043510e+00
  9.3224359e-01
  2.2122788e+00
 -1.2572806e+00
 -1.1415342e+00
  2.1491148e+00
 -1.6424350e+00
  5.9052391e+00
 -2.4969420e-01
 -1.0017481e+00
 -7.5415246e-02
 -1.2100487e+00
 -1.8447479e+00
 -3.7064292e+00
 -1.1856813e+00
  2.0109959e+00
  4.4346720e-01
  2.4947991e+00
  2.3871617e-01
 -2.0601809e+00
 -4.7261444e-01
 -8.6859627e+00
 -2.5908232e+00
 -2.0509827e+00
 -2.5515451e+00
  2.4823115e+00
 -1.1285731e+00
 -4.6542707e-01
 -3.7908449e+00
  2.7406797e+00
  3.3855431e+00
 -3.5968835e+00
  1.6418525e+00
 -7.4537152e-01
 -3.5549159e+00
 -6.9221532e-01
  7.4431813e-01
 -9.3693370e-01
  5.2602643e-01
  4.5640746e-01
 -2.7584696e+00
 -9.5118886e-01
  1.5847534e+00
  3.2050917e+00
 -2.1172972e+00
 -6.8588877e+00
 -7.9585874e-01
 -1.5453591e+00
  5.8999276e-01
 -4.0651293e+00
  6.6288531e-01
  1.9000213e+00
  1.8119555e+00
  1.8754427e+00
  2.1499918e+00
  1.0461136e+00
 -6.0264570e-01
  1.2598702e-01
  1.3518616e+00
  4.0183008e-01
  3.2314684e+00
 -1.1427828e+00
  1.6902392e+00
 -1.2139443e+00
  6.6662669e-01
  6.4490938e-01
  6.9888812e-01
  2.1718044e+00
 -7.4012876e-01
 -1.3901403e+00
 -1.2915511e-01
  5.8175933e-01
 -3.4785008e+00
 -5.5047512e-01
 -2.1149209e+00
  4.7263250e-01
 -1.5250512e+00
 -1.1396165e+00
  3.3575833e-01
 -3.7999802e+00
 -3.5709503e+00
  2.6238613e+00
  4.0987997e+00
  1.4325964e+00
  8.9460516e-01
  1.0952066e+00
 -1.2675111e-01
 -1.0413164e+00
 -5.8981603e-01
 -2.4651828e+00
 -2.9646153e+00
  2.2465239e+00
 -1.2852591e+00
  1.6752478e+00
  1.8766447e+00
 -1.5377543e+00
  4.0714717e-01
  1.2372005e-01
  4.8559949e-01
 -2.5726576e+00
 -2.7259712e+00
  1.8724374e+00
  7.2899419e-01
 -9.5007509e-01
 -1.5097871e+00
  9.1000415e-02
  1.4942935e-01
 -2.2681715e-01
 -1.9837861e-01
  1.6923650e-01
  2.9834828e-01
 -1.0126996e+00
 -4.4203073e-01
 -1.0174824e+00
  5.4487169e-01
  7.8784418e-01
  7.8116882e-01
  3.6080435e-02
 -8.5280132e-01
 -1.4957948e+00
  1.2888366e+00
  4.4744307e-01
 -8.0965084e-01
 -2.9331121e-01
 -1.0118983e-01
  3.9059019e-01
 -1.7558888e-01
  1.3174489e+00
 -1.0066052e-01
 -3.2005602e-01
 -8.2781684e-01
  1.7013812e-01
  9.4743883e-03
  2.3370127e-01
  2.5928852e-01
  1.0117626e+00
  1.6131815e-01
 -1.5226890e+00
 -7.0376611e-01
 -4.5869935e-01
 -7.6290214e-01
  1.7044193e+00
  7.0953554e-01
  2.0542238e+00
 -2.1820334e-01
 -9.7354752e-01
 -6.0346555e-02
 -1.2852848e-01
  5.4099828e-01
 -1.2895706e+00
  4.0779594e-01
 -1.7195340e+00
  8.2656085e-01
 -2.6873779e-01
 -5.5596656e-01
 -2.9791346e-01
  2.9222908e+00
  1.7994081e+00
 -9.3704480e-01
  3.9757433e+00
  1.7967416e+00
 -9.0931678e-01
  9.5894134e-01
  2.1647010e+00
  2.6532469e+00
  4.9489599e-01
  6.5724742e-01
  3.1989262e+00
  4.8202591e+00
  1.7585738e+00
  1.1309482e+00
 -7.8209120e-01
  3.2270069e+00
  1.8135632e+00
 -4.1726356e+00
  4.4318318e-02
 -1.6527444e+00
 -4.4700732e+00
  1.1075852e+00
 -5.2797399e+00
 -5.6009336e+00
 -4.8142031e-01
  2.4670229e+00
  5.5222712e+00
  4.5430980e+00
 -4.5736203e+00
 -1.4050493e+00
  2.1743455e+00
 -1.1698161e+00
 -2.7501013e+00
 -1.3199693e+00
  8.6840719e-01
 -8.1438333e-01
 -3.0916760e+00
  1.5247974e+00
  1.7000389e+00
 -1.1309450e+00
 -1.4305041e+00
  7.6850489e-02
 -1.5448859e+00
  8.0656821e-01
 -3.0363402e+00
 -5.5656016e-01
 -1.2885822e+00
  3.6439810e+00
 -3.7177691e+00
 -2.4854519e+00
  4.4318209e+00
  2.6946571e+00
  2.9596486e+00
  1.6316819e-01
  3.8537738e+00
 -4.0591776e-01
  4.6431635e-02
 -1.6022872e+00
 -6.2133253e-01
 -1.7263893e+00
 -9.8773819e-01
  7.6904196e-01
  2.6558478e+00
 -3.7911808e+00
  2.5023806e+00
 -9.0899771e-01
 -4.1834459e+00
  8.3495247e-01
 -1.4782593e+00
  1.5708062e-01
  1.8806014e+00
  4.6709137e+00
 -2.5042837e+00
  2.4493593e-01
 -2.3321266e+00
 -6.3293505e+00
 -6.1201401e-02
 -2.6243370e+00
 -7.1641999e-01
 -4.4695449e-01
  4.4119444e-01
 -8.1275856e-01
 -3.2205813e+00
 -1.3438052e+00
 -1.4846140e+00
 -7.0852600e-02
 -1.3512882e+00
  2.6529384e+00
 -5.7613630e+00
 -1.0984205e-03
 -3.6939409e+00
  3.1120055e+00
  1.8220785e+00
 -2.4725986e+00
  2.4695666e+00
 -1.6056615e+00
  1.1330850e+00
  2.1523838e+00
  1.4167360e+00
 -7.5592172e-01
  7.7795488e-01
  1.5650002e+00
 -1.9232354e+00
  1.9227070e+00
 -6.9216454e-01
 -3.9902990e+00
 -3.1426773e+00
 -1.7533754e+00
 -8.9482307e+00
 -2.5565381e+00
  5.1539010e-01
 -2.9483960e+00
 -1.4398646e+00
 -4.7904170e-01
 -1.1263275e+00
  6.6112990e+00
  1.7063335e-01
 -2.8244271e+00
 -6.0655361e-01
  1.9411968e+00
  1.0317149e-01
 -6.5469158e-01
  1.2044395e+00
  1.2867789e-01
  1.0917968e+00
  1.5443785e+00
  6.2191182e-01
 -5.9573066e-01
  5.1862472e-01
 -2.4160038e-01
  9.8718613e-01
  3.9654045e+00
 -2.0474384e+00
 -2.4134755e+00
 -1.2826638e+00
  8.3279312e-01
 -9.4004267e-01
  4.4565377e+00
  1.0889972e+00
 -8.2873482e-01
  3.8780258e+00
 -4.0068531e+00
  1.9719294e+00
 -2.8928185e+00
  8.2300790e-02
  3.5374353e+00
  3.1875929e-01
  1.9849014e-01
 -1.3291044e+00
 -1.5330735e+00
 -3.4373000e+00
 -1.1199730e-01
 -7.2568476e-02
  8.4635037e-01
  3.1298072e+00
 -4.9345067e-01
 -2.4591994e+00
 -3.4594424e+00
 -2.2370489e-01
 -4.7522783e+00
  4.2734094e-02
  1.5523298e+00
 -1.7721528e-02
 -7.5352681e-01
  7.7026641e-01
  1.1352310e-01
 -3.7566724e-01
 -1.2625219e+00
 -4.0535733e-01
  1.9878490e-02
 -2.2954418e-01
 -2.0435066e+00
 -5.7616158e+00
 -9.3146676e-01
  4.8582196e+00
 -4.6003656e+00
 -1.5696005e+00
 -6.4650208e-01
  1.6005322e+00
 -9.1938806e-01
 -3.3588076e+00
 -6.8745995e+00
  3.1804516e+00
  1.5131264e+00
 -4.4739861e+00
  1.9991423e+00
 -6.8171702e-02
  2.1127412e+00
 -4.4517894e+00
 -4.4284124e+00
 -3.5433531e+00
  2.7336316e+00
  2.0219641e+00
 -4.6204114e-01
  4.0237088e+00
  2.7059737e-01
  1.2019610e+01
  2.0376849e+00
 -3.1306586e+00
 -6.4022527e+00
 -3.1154389e+00
  4.1009698e+00
 -6.2169690e+00
  1.8579942e+00
  5.2226233e+00
  6.8841352e+00
  3.1567821e-01
  3.1391346e+00
 -1.2000250e+00
 -1.8621252e-01
  9.1101892e-02
 -4.4815850e+00
  3.0763681e+00
 -1.0692050e+00
 -5.3589411e+00
 -9.1617727e-01
 -3.9311855e+00
  1.3378398e+00
  5.8348980e+00
 -3.9155677e-01
 -9.5962542e-01
  1.7821851e+00
 -6.3892851e+00
 -5.0730762e+00
  8.6493093e-01
 -7.4239546e-01
  2.3692994e+00
  2.4276523e-01
  1.8364888e+00
 -2.0155354e+00
 -4.3827791e+00
 -2.1170027e+00
  2.3135082e-01
 -1.3707364e+00
 -1.7921379e+00
 -1.8791443e+00
  5.5212936e+00
  2.2392552e+00
  5.1757193e+00
 -4.3331537e-01
  1.5345306e+00
  2.1578865e+00
  7.1769136e-01
  1.0806454e+00
  4.4283094e+00
 -1.4728234e+00
 -2.7353411e+00
 -4.1310310e+00
 -1.8605369e+00
  2.8861409e-01
 -5.0006247e+00
  2.0722321e-01
  1.8731251e+00
  1.6400715e+00
  4.6945662e+00
  6.1387873e-01
  3.9793942e+00
  3.7083726e-03
  1.2599943e+00
 -2.4920363e+00
  1.2798222e+00
 -1.7750413e+00
 -2.4200163e+00
 -2.4774964e+00
  1.8808347e+00
  1.1683217e+00
  2.4787641e+00
  3.0199006e-01
 -1.5088100e+00
 -8.5262495e-01
 -4.9411815e-01
 -1.3866922e-01
  3.1458528e+00
  1.2684488e-01
  1.6119835e+00
  2.4595658e-01
  8.5304803e-01
  3.3962920e-01
  1.7394496e+00
 -3.7061603e+00
  1.0624472e+00
  8.1564307e-02
 -2.9322357e+00
 -4.5987666e-01
 -3.3124869e+00
 -1.9199636e+00
 -5.8783621e-01
 -6.8266916e+00
 -1.1493231e+00
 -8.6604053e-01
  2.0729365e+00
 -1.2850503e+00
 -1.7658516e+00
 -5.5123792e+00
 -3.1676128e+00
  1.6238300e+00
 -1.7173169e+00
 -8.7405449e-01
 -1.0418605e+00
  3.0235450e+00
  1.3995122e+00
  2.7362463e+00
  1.1499361e+00
 -1.5787326e+00
  1.2542710e-01
 -2.0138544e-01
  1.7059423e+00
  2.0129602e+00
 -1.3807589e+00
  7.2548187e-01
  1.6789649e+00
  2.6024606e-02
 -1.0158060e-01
  2.3980968e+00
 -1.1285207e+00
  9.7395688e-01
 -1.1495234e+00
  6.7516942e+00
  1.1022249e+00
 -3.8393373e+00
  1.1008761e+00
  3.4582617e+00
  2.8451846e+00
  9.5496202e-01
 -2.5839746e+00
 -9.5035976e-01
  3.1646767e+00
 -2.8422561e+00
 -1.9071301e+00
 -1.4144428e+00
 -2.4526811e+00
  5.4441419e+00
 -1.8473715e+00
  7.3857325e-01
  7.9704720e-01
  5.8024872e-02
  4.3191138e-01
 -1.9007179e+00
 -2.8481870e+00
  3.6771393e-01
  1.0622419e+00
 -4.6272621e+00
 -2.3794749e+00
  1.5087479e+00
  4.6604433e+00
  4.9538054e+00
  2.2750502e+00
 -2.7765467e+00
 -7.4073052e+00
  1.6456521e+00
 -3.8411133e+00
  1.0613108e+00
 -3.7901688e-01
  1.2222836e+00
 -2.4096377e+00
 -6.2987483e-01
 -3.3519542e+00
  3.2684824e+00
 -2.9399994e-01
 -1.4413823e+00
 -1.4386495e+00
  4.9685512e+00
  9.9146360e-01
  3.3092299e+00
  3.0631962e+00
 -2.0141358e+00
 -1.9600879e+00
 -1.2388613e+00
 -4.7353349e+00
 -2.4390366e+00
 -1.9908491e+00
  1.8489751e+00
 -1.6901627e+00
  2.7497652e-01
  9.9095297e-01
 -7.8985560e-01
  4.4430141e+00
 -1.7699118e+00
  1.3685937e+00
  2.7432473e+00
 -3.0686302e+00
  3.3338118e-01
  1.0093201e+00
 -1.0690857e-01
 -4.7754985e-01
  4.3903966e+00
 -8.9256614e-01
 -2.6941602e+00
  7.7930540e-01
  1.6715819e+00
 -8.9652902e-01
 -3.0857308e+00
  6.0284052e+00
 -2.9649427e+00
 -3.4193537e+00
 -2.3944874e+00
 -1.0092348e+00
 -1.5364593e+00
  1.3353029e+00
 -2.8470747e+00
  3.3896601e+00
  3.5384858e+00
 -2.2473233e+00
  8.2359248e-01
 -3.5606542e-01
  4.2451081e+00
 -8.9081126e-01
 -1.9775805e+00
 -2.2750588e-01
  7.4147809e-01
 -3.3948195e+00
 -1.7016135e+00
  5.3469024e+00
  1.1215293e+00
  2.5929730e+00
 -8.2756197e-01
 -6.9157350e-01
  5.4015571e-01
  3.4009521e+00
 -3.6557701e+00
 -1.5869070e+00
  4.5633349e-01
  6.2017518e-01
  6.3803828e-01
 -4.0808183e-01
  2.4246013e+00
 -1.7861671e+00
 -5.2833877e+00
  7.3394495e-01
 -1.8430230e-01
  1.6364397e-01
 -2.5690479e+00
 -7.8131467e-02
  3.7360303e+00
  2.4822953e+00
  5.4466324e+00
  6.6745882e+00
 -5.1240697e+00
  5.4669018e+00
  5.2221475e+00
 -7.5052781e+00
  1.9270741e+00
 -2.5782671e+00
  2.0775375e+00
  4.1813993e+00
  2.5791916e-01
  2.6193645e+00
 -1.8465004e+00
 -1.5697001e+00
  4.1374883e-01
  3.2193043e+00
 -2.4661996e+00
  5.0658469e+00
 -4.1410065e+00
 -1.7514390e+00
  4.6723752e+00
  4.3189660e-01
 -2.6059399e+00
  3.1147041e+00
 -4.3860025e+00
 -3.7871727e-01
 -3.0822623e+00
 -3.3853152e-01
  3.3088295e+00
  2.8918705e+00
  3.2158978e+00
  3.2343223e+00
  2.3310826e+00
 -6.1990819e+00
 -3.4709244e+00
 -1.2852079e+00
  2.4153942e-01
  5.5654521e+00
  5.0259423e+00
  8.7183541e-01
  1.6683165e+00
  5.8264637e-01
  5.9062278e-01
  1.9311804e+00
  1.8946515e+00
 -3.1370335e+00
 -1.2862709e+00
  1.2984531e+00
  4.5749152e-01
  1.2689304e+00
 -8.7970179e-01
 -1.0143750e+00
  5.6557784e+00
  5.6543012e+00
 -2.7530363e+00
  5.2370548e-02
 -2.4031734e-01
  1.6397322e+00
  7.8728223e-01
 -3.1268971e+00
 -4.7385340e+00
  2.8253546e-01
 -9.7540873e-01
 -3.3845189e+00
 -2.8891053e+00
  9.8055166e-01
 -2.8093059e+00
  2.1303697e+00
  4.3654263e-01
 -3.3509004e+00
 -3.5999471e-01
  1.2321384e+00
  5.1449704e+00
 -3.1309927e+00
 -5.1832289e-01
  1.4554992e+00
 -1.4181886e+00
 -9.7914004e-01
  3.5189846e+00
  2.5716703e+00
  3.7813237e-01
 -3.2145078e+00
 -3.9139393e-01
 -2.2737067e+00
  2.3604295e+00
 -3.6463974e+00
 -4.3075562e+00
  1.7353035e+00
  3.6442194e+00
  2.4096022e+00
  4.3493447e-01
 -3.0639026e+00
  8.7610090e-01
  1.7140303e+00
 -2.6869252e+00
 -4.1061502e+00
  1.7013243e-01
  9.3583930e-01
 -2.1259439e+00
 -3.7575352e+00
  4.2127957e+00
  4.8257265e+00
  2.4544821e+00
 -3.2728988e-01
  1.4851160e+00
 -1.8054004e+00
 -8.7697353e+00
 -4.1517034e+00
  1.0500207e+00
  5.6401758e+00
  1.7628570e+00
  4.7662277e+00
  3.4834580e+00
  2.2886206e-01
 -1.5290573e+00
  1.8700439e+00
 -2.8900061e+00
 -2.0255382e+00
 -4.6317667e-01
 -1.6233855e+00
  3.3777463e+00
 -1.7484107e+00
  5.8028662e-01
  9.1097879e-01
 -5.8041990e-01
  5.9764457e-01
  1.0249711e+00
 -4.9047265e+00
 -5.0100393e+00
  5.1886320e+00
 -3.1561077e-01
 -1.7594478e+00
 -4.3290752e-01
 -2.6289127e+00
 -1.2209280e+00
 -1.7642828e+00
 -3.6055970e+00
 -4.0232735e+00
 -1.5040842e+00
 -2.7835066e+00
  2.6931860e+00
  9.5005804e-01
 -5.2563637e-01
 -4.0177088e+00
 -2.5411606e+00
  2.4727180e+00
  1.5335913e+00
  4.2855725e-01
  3.5785048e+00
 -6.2668365e-01
  1.0683608e+00
  2.7975669e+00
  1.4228894e+00
  1.2915186e+00
  5.7441875e-02
 -8.3091062e-01
 -3.1740570e-01
  3.8268900e+00
  7.1687418e-01
  2.6508899e+00
 -1.8761725e+00
  2.3293736e+00
 -4.1640359e-01
 -2.9599705e-01
  3.6432202e+00
  4.4242418e-01
  2.4340296e+00
 -1.3253921e+00
 -6.5336239e-01
  1.7201720e+00
 -1.1168182e+00
  9.0380031e-01
  7.2441244e-01
  1.7563787e+00
 -2.4271495e+00
  2.7094929e+00
  1.4317540e+00
 -3.0343249e+00
  4.5285997e+00
  2.6101518e-01
  5.9405487e-02
 -3.6851639e-01
 -3.2790811e+00
 -2.8184569e+00
  1.4396954e+00
  2.7088265e+00
  2.1226580e+00
 -2.1437427e-02
 -1.9329216e+00
 -3.0255930e+00
  2.0828643e-01
 -5.0140035e-01
 -9.8020828e-01
  8.2854265e-01
 -2.4878757e+00
  5.5694056e-01
 -2.4298267e+00
  4.3537951e+00
 -1.0405651e-01
  1.0504653e+00
  6.0822850e-01
 -4.3175263e+00
 -9.3963712e-01
 -1.4386581e+00
  8.6865538e-01
  1.2688205e+00
  6.1943609e-01
