nep4_zbl 6 P Na F O C H 
zbl 0.8 1.6
cutoff 6.5 4 165 54
n_max 8 8
basis_size 8 8
l_max 4 2 0
ANN 50 0
  1.5743431e+00
 -5.2864609e+00
 -5.7044840e+00
  1.2525030e+00
  2.8384578e+00
  4.9117365e+00
 -2.1573918e+00
 -3.1568666e+00
  2.9958179e+00
  6.6301125e-01
  1.7600732e+00
 -3.0839261e-02
 -1.7600878e+00
  2.1813734e+00
 -2.5227633e+00
  4.6992931e+00
  3.7005887e+00
  4.5748105e+00
  1.1747867e+00
 -4.3468456e+00
 -2.9906857e+00
 -2.9675667e+00
 -4.5356565e+00
  1.1752092e+00
  1.5240906e+00
  1.9606210e+00
 -1.9442867e+00
  1.0366647e+00
 -5.5710058e+00
  1.3069625e-02
  3.0807955e+00
 -3.6701899e+00
 -3.6326792e+00
 -1.1223707e+00
  9.2202181e-01
 -2.6372044e+00
 -1.0229760e+00
 -4.6914711e+00
 -1.9791178e+00
 -7.8705627e-01
 -4.5202461e-01
  6.4240174e+00
 -2.5015748e-01
  5.1551264e-02
  3.2668288e+00
 -3.0972487e-01
  6.5264004e-01
 -3.6736434e+00
  3.9943774e+00
  1.6363000e+00
 -2.0469530e+00
  2.6349640e-01
 -1.3337919e+00
 -3.3155782e+00
  3.0475507e+00
 -9.3680489e-01
 -3.3062725e+00
 -1.1310961e+00
  3.2234213e+00
  2.6736599e-01
 -3.8715336e-01
 -3.9031978e+00
 -6.0216947e+00
  2.6915410e+00
  2.8770955e+00
  1.6005044e+00
 -2.5081670e+00
  6.7704445e-01
  1.9152418e+00
 -2.3019423e+00
  1.7946291e+00
 -4.5513785e-01
 -3.2019176e+00
  2.4789982e+00
 -7.0097532e+00
 -5.0599680e+00
  8.6965019e-01
  8.3253348e-01
 -9.0537113e-01
 -2.0735059e+00
 -8.6533995e+00
  1.8672241e+00
  1.8952034e+00
  3.1959856e+00
 -1.5136065e-01
  2.3466578e+00
  4.6328616e-01
  4.9002290e+00
  2.9399323e+00
  2.6224604e+00
  2.6730068e+00
 -2.0097814e+00
  1.7261932e+00
  2.2483430e+00
  8.3315051e-01
 -1.7851672e+00
 -3.0556290e+00
  1.1876479e+00
  1.4088695e+00
  4.0680981e+00
 -4.1890359e+00
  1.5147395e+00
  2.9048367e+00
  1.2967405e+00
  4.9380069e+00
  2.8245544e+00
  1.2852180e+01
 -3.7596557e+00
 -4.1970515e+00
 -2.9582098e+00
  3.9172585e+00
  1.1461062e+00
 -5.8618981e-01
  2.6679363e+00
  6.8492694e+00
 -4.5292373e+00
  3.2335391e+00
 -2.2204962e+00
  1.8865362e-01
 -1.0399468e+00
 -4.0199695e+00
 -8.8517685e+00
 -1.4193258e+00
 -3.8282957e+00
 -1.0505264e+00
 -4.2787753e-02
 -2.9773745e-01
 -3.3728309e+00
 -3.5902634e+00
  3.9854565e+00
 -1.2663285e+00
  4.0699868e+00
 -1.6654235e+00
 -4.6029869e-01
 -4.8862153e-01
 -1.9018503e+00
  2.0612714e+00
  3.8606930e-01
  2.9854176e+00
  8.6688477e-01
  4.4949365e-01
 -3.1582224e+00
 -4.9109977e-01
 -7.9342133e-01
 -6.3550925e-01
 -2.4699595e-02
 -3.6073655e-01
 -9.6997947e-01
  1.7672014e-01
 -9.0943456e-01
  1.0601984e+00
  1.0394747e+00
  6.6480643e-01
 -1.4333501e-01
  1.3815715e+00
  3.6611896e+00
 -1.5137018e+00
  8.5448700e-01
 -2.2821503e+00
 -1.1498990e+00
 -3.5355415e+00
 -2.2459717e+00
  2.1829563e-01
  5.8231777e-01
  3.1214654e+00
  1.1807653e+00
  3.3247605e-01
 -5.9344244e-01
  1.3628095e+00
  2.7721379e+00
 -2.5274989e-01
 -2.4378960e+00
  1.9942662e+00
  4.1225724e+00
 -2.7481773e+00
 -2.0308673e+00
 -2.2841671e+00
 -1.5235312e+00
  1.6956946e+00
 -3.1978042e+00
  1.8283802e+00
  1.2885747e+00
 -1.0754858e+00
  9.3961221e-01
  2.7450490e-01
 -8.4961921e-01
  1.3513838e+00
  2.1013598e+00
 -3.2470891e+00
  1.9503280e+00
 -3.3272982e-01
 -4.0178704e+00
  2.4238172e+00
 -2.2028277e+00
  1.2015704e+00
 -4.0634516e-01
  1.6174808e+00
  1.7231661e+00
  1.2799927e+00
 -4.2283912e+00
 -3.1369421e+00
 -1.0870621e+01
  2.1147468e+00
 -1.1902474e+00
 -3.7478527e-01
 -6.7896380e+00
  4.1372013e+00
 -4.7704196e+00
  3.4040225e-01
 -5.2003155e-04
  5.0913558e+00
  2.4050071e+00
  3.4421568e+00
 -3.5119257e+00
 -3.0072329e+00
 -3.5978878e-01
 -4.8591614e-01
  4.3722882e+00
  2.5080047e+00
 -6.0088885e-01
  2.2100189e+00
 -2.1345417e+00
 -2.8502667e+00
 -1.5598140e+00
 -2.0823066e+00
  1.9628991e+00
  7.5456566e-01
  3.3026502e+00
  9.7796780e-01
 -4.5486469e+00
  3.6982861e-01
  3.6586609e-01
  3.8241727e+00
  4.8167677e+00
  3.6389315e+00
  2.7356718e+00
 -3.3439608e+00
 -3.2971473e+00
 -1.9970595e+00
  2.3651721e+00
  4.4111176e+00
 -3.0160296e+00
 -1.6466455e+00
 -1.4960694e+00
  4.6464510e+00
 -3.6473227e+00
  5.4850227e-01
 -2.6655121e+00
 -8.5393173e-01
 -1.2141391e+00
  4.6968217e+00
  2.0187528e+00
  2.6101313e+00
  1.3111117e+00
 -3.0391948e+00
  3.7331471e+00
  6.1579299e+00
  1.0613741e+00
  1.8500901e+00
  1.9009572e-01
 -9.9413544e-01
  2.8316078e-01
 -3.0574472e+00
  8.8688350e-01
 -2.9340773e+00
  4.0716000e+00
  1.1216043e-01
  4.9911618e-01
  4.0896254e+00
 -5.0917029e-01
  3.8895278e+00
 -3.0835783e+00
  2.8550401e+00
  1.0299638e-01
 -3.1579998e+00
  4.2485757e+00
  6.8700981e-01
  6.0140109e-01
  2.0628107e+00
  9.3628567e-01
  5.5581155e+00
  3.5161731e+00
  5.0347929e+00
  7.2334456e-01
 -8.5594225e+00
 -8.2523018e-01
 -2.9827340e+00
  2.8484032e+00
 -1.4613334e+00
  8.5673386e-01
  4.9461889e+00
 -1.4786797e+00
  4.9604039e+00
  2.5739284e+00
 -1.2774165e+00
  2.9531391e+00
  3.0991933e+00
  2.1546416e+00
  3.2561140e+00
  1.5540111e+00
 -1.8642552e+00
  5.9315901e+00
 -3.7349984e-01
 -4.4642544e+00
  6.5323204e-01
 -4.6807308e+00
 -3.9435036e+00
 -1.6546252e+00
  6.1891208e+00
  2.0926156e+00
  2.4725323e+00
 -1.8175650e+00
  1.9865104e+00
 -9.9752426e-02
 -2.5221536e+00
 -6.4938612e+00
  2.6745980e+00
  2.6753175e+00
 -3.1356180e+00
 -3.3467841e+00
 -5.4571476e+00
 -4.7797112e+00
 -1.7757469e+00
  1.9584086e+00
  4.2390633e-01
  3.7362331e-01
 -1.2356330e+00
  6.0813659e-01
  2.1843619e+00
 -2.4245021e+00
 -3.4840354e-01
 -1.8828189e+00
  5.7413082e+00
  3.9293799e+00
 -2.2751441e+00
 -1.5256580e+00
 -2.2941926e+00
 -2.1112428e+00
 -1.1488191e-03
  1.1385344e+00
 -1.0545734e+00
  2.9353840e+00
 -3.3207169e-01
 -1.6083682e+00
  4.4152341e+00
 -1.4369466e+00
  4.7495728e+00
 -4.5146248e-01
  3.0597937e+00
  9.1789742e+00
  4.0398309e-01
 -1.0024452e+01
  6.0153377e-01
  1.4386931e-01
 -6.3219649e-01
  3.8807261e+00
  1.0400549e+00
 -2.3062374e-02
 -1.9834348e+00
  4.7624593e+00
 -1.8082833e+00
  2.5910211e+00
  1.8818243e+00
  1.0558517e-01
  6.9677329e-01
  8.4316552e-01
  1.3353032e+00
  1.9272597e+00
 -1.0651379e+00
  3.8290925e+00
 -1.1395835e+00
  4.6647272e+00
  5.3993764e+00
  9.9666220e-01
 -1.3009312e+00
 -1.2240878e+00
  4.5190258e+00
  5.5904450e+00
  2.7485161e+00
  1.9484098e+00
 -3.1269765e+00
  1.5989681e-01
  1.8512681e+00
  3.5417399e+00
 -4.8220930e+00
  3.4828961e+00
  1.5334556e+00
  8.2955551e-01
 -1.2505391e+00
  1.1349170e+00
 -1.9767059e-01
  1.5204993e+00
 -3.5157595e+00
  1.8462757e+00
 -1.8472743e-01
 -1.3197274e+00
  2.8239933e-01
 -4.3133736e+00
 -4.4156000e-01
  3.5889757e+00
 -2.7015030e+00
  1.1662909e+00
 -3.0173521e+00
 -3.1267533e+00
  2.7713504e+00
  2.0516715e+00
  3.9534509e+00
 -9.5458037e-01
 -2.0300825e+00
 -4.3123034e-01
 -1.3592287e+00
  5.6092858e+00
  1.5107744e+00
 -1.3342513e+00
 -1.3113303e+00
  2.0737135e+00
  3.5287067e-01
  1.2615665e+00
 -5.3219754e-01
 -9.3827075e-01
  1.4042083e+00
  9.6861070e-01
 -3.8338146e+00
 -3.3173289e+00
  6.1723995e+00
 -2.3906989e-01
 -5.2430296e+00
  4.1476026e+00
  6.3697898e-01
 -3.7398010e-01
 -8.2266712e-01
 -8.4764916e-01
  1.0043405e+00
  2.1744995e+00
  9.7819442e-01
 -4.8582506e+00
 -2.0202289e+00
 -1.3476560e+00
 -3.6346281e-01
  4.2017531e+00
 -3.1224091e+00
 -1.0775766e+00
  5.1890188e-01
  6.2642918e+00
 -2.2186646e+00
 -2.0217834e+00
 -1.9421591e+00
  4.4051032e+00
 -3.2271805e+00
 -1.0442247e+00
  1.5548096e+00
  1.8350933e+00
  5.0544128e+00
  1.8426653e+00
 -4.5248368e-01
 -1.7014809e+00
  2.9054732e+00
  3.2074528e+00
 -2.2738914e-01
 -1.5670564e+00
  1.7080790e+00
  4.2631946e+00
 -4.3683684e-01
  1.9622253e-01
 -1.4450970e-02
 -1.2137501e+00
  5.8266091e+00
  4.3586912e+00
  3.2660270e-01
  3.3542421e+00
  4.4943576e+00
 -2.6545677e+00
 -1.2667298e+00
 -4.1264000e+00
  1.2097938e+00
  3.9833720e+00
 -7.6700795e-01
 -5.6554332e+00
 -2.3283409e-02
 -1.9717304e+00
  5.2278674e-01
  2.7026052e+00
  2.2169580e+00
  8.5841632e-01
 -2.4518076e-01
 -5.8782840e+00
  6.6942626e-01
 -3.5272429e+00
 -8.7829447e+00
 -4.1031494e+00
  2.0175803e+00
 -2.2629156e+00
  2.7415937e-01
 -3.0373776e+00
  1.4668274e-01
 -2.8581123e+00
  1.2817388e+00
  4.9186716e+00
 -2.2622597e+00
  2.0556576e+00
  4.1615973e+00
  2.5358448e+00
  2.4204345e+00
  3.8980365e+00
 -8.1064010e-01
  3.1717733e-01
  3.3891118e+00
  2.5046833e+00
  2.0396385e+00
  1.4946901e+00
  1.3951337e+00
  9.1495550e-01
  3.9019864e-02
  4.9820232e+00
 -5.4456675e-01
  1.8998672e+00
 -5.1523185e+00
 -1.9596670e+00
  2.5695179e+00
 -1.3295931e+00
  2.0319345e+00
  1.2113973e+00
  1.7170143e+00
  2.8249307e+00
 -6.0983884e-01
  1.4659499e+00
  2.3111455e+00
  4.2581716e+00
 -5.5780478e+00
  3.7838142e+00
 -1.0454288e+00
 -2.8929715e+00
 -2.1628227e+00
 -7.6821186e-02
  2.7447205e+00
  1.4906132e+00
  1.0079025e+00
  4.6047020e+00
 -9.0479410e-01
  2.5689800e+00
  3.5143149e+00
  3.8944061e+00
 -1.8588141e+00
  4.6027579e+00
  1.2540138e+00
 -2.2257831e+00
  1.6468899e+00
 -2.1258366e+00
 -6.1802721e-01
 -3.4922988e+00
  1.4911306e+00
 -1.9221534e+00
  1.2871704e+00
  2.9848192e+00
  4.5733657e-01
 -1.6236631e+00
  1.4969808e+00
  5.4385182e-02
  2.0540824e+00
 -5.7751918e+00
 -7.6333517e-01
  8.0498034e-01
  1.8186547e-01
  8.1876993e-01
 -1.1022769e+00
 -3.3265080e+00
 -5.1711130e+00
  3.9353821e+00
 -3.8714867e+00
 -5.8325076e+00
  2.9840009e+00
 -2.0586977e+00
  1.7316489e+00
 -3.1238320e+00
 -4.1916103e+00
 -3.2392952e+00
  1.0621430e+00
  2.0169263e+00
  4.8272734e+00
  3.5929358e-01
 -1.2711982e+00
 -4.1653609e+00
  2.2936797e+00
 -3.4959897e-01
 -2.7725828e+00
 -1.2378404e+00
 -1.9552034e+00
  2.4529393e+00
 -3.9680696e+00
  6.8488073e-01
 -4.1040727e-01
  1.1720233e+00
  1.9812690e-01
 -5.7249365e+00
 -8.9431697e-01
  3.1097019e+00
  5.2206287e+00
 -1.0201592e+00
 -1.2058260e+00
 -5.0904841e+00
 -1.8525217e+00
  4.3565613e-01
 -3.4846570e+00
  1.3932612e+00
  2.6135292e+00
  6.9322330e-01
  6.3799868e+00
  7.1724467e+00
  3.4640565e+00
 -1.9674865e+00
  1.1552489e+00
  3.9578268e-01
 -3.9882076e+00
  6.1366739e+00
  1.3561685e+00
 -1.3018068e+00
  2.6836650e+00
  5.4884863e+00
 -8.4162064e-02
  1.7349095e+00
 -1.7505438e+00
  8.8520080e-01
  9.9067116e-01
  1.9726759e+00
 -1.0025339e+00
 -1.8949356e+00
 -4.0561719e+00
 -1.1246554e+00
  1.1467032e+00
 -5.5364184e-02
 -3.6421528e+00
 -4.0936399e-01
  2.9360440e+00
  9.9291259e-01
  6.7507517e-01
  6.5769440e-01
  3.9776185e-01
 -1.9198589e+00
  1.0686705e+00
 -1.0146142e+00
  2.5072534e+00
 -3.3671463e+00
  4.7983599e+00
  2.1278143e+00
 -2.2970679e+00
  3.4499133e+00
  6.9981390e-01
  1.5906981e+00
 -1.2884054e+00
 -4.4869728e+00
 -1.5289898e+00
  3.0497794e+00
  8.0304706e-01
 -1.3079890e+00
 -6.1352831e-01
  2.8705144e-01
  1.5426378e+00
  1.2405750e+00
  9.3864334e-01
  2.1696050e+00
 -2.6236227e-01
  1.0539548e+00
  8.4849625e+00
  1.1844977e+00
  8.9994246e-01
  3.0461373e+00
 -3.3819647e+00
 -2.3296931e+00
 -1.0398456e-01
  6.8803370e-01
  2.3257401e+00
 -8.1933808e-01
 -6.8604636e-01
 -2.6354861e-01
  9.2528260e-01
  2.4304457e+00
  3.8692327e+00
  7.1268260e-01
  5.1903449e-02
 -3.3862543e+00
 -9.5895356e-01
 -1.2305989e+00
  1.0913717e+00
 -2.6848609e+00
 -1.3521264e+00
  8.2446998e-01
  6.7350388e-01
  5.9708101e-01
  1.5042968e+00
 -5.0369090e-01
  2.4668577e+00
  2.3170938e+00
 -5.0679296e-01
  6.2918897e+00
 -1.3703005e+00
  1.6978153e+00
 -1.9151142e+00
 -3.2009382e+00
  2.3039446e+00
  8.9413777e-02
  1.2486881e+00
  5.5225307e-01
  2.5279067e+00
 -4.0043402e+00
  4.4839425e+00
 -7.7123678e-01
 -3.2813585e-01
  2.6999631e+00
 -3.8876276e+00
 -1.4259455e+00
  3.8417156e+00
  1.0809207e+00
 -3.5662611e+00
  4.3640380e+00
 -6.9414526e-01
 -3.6428325e-02
  5.1583166e+00
 -7.4641573e-01
  1.3977206e+00
  5.1983643e+00
  1.0673163e+00
 -1.9576942e+00
 -1.7788823e+00
  1.7439089e+00
 -2.8431773e-01
 -8.1509298e-01
  1.7837898e+00
 -4.9790072e+00
 -6.9590837e-01
  6.2441626e+00
 -1.9511029e+00
 -4.0960011e+00
  1.4538766e-01
 -1.5132467e+00
  3.5859449e+00
  8.0010395e+00
  1.0923235e+00
 -4.5533243e-01
 -4.6191702e+00
 -7.0700330e-01
 -1.8526095e+00
 -4.4534073e+00
  4.0080090e+00
  1.4585969e+00
 -7.7835369e-01
 -2.0818853e+00
 -6.6126719e-02
  1.7016574e+00
  1.9635814e+00
 -3.2828693e+00
 -1.3196012e+00
 -1.9746690e+00
  3.0675147e+00
 -3.9744234e+00
 -3.2604728e+00
  2.0522668e+00
  1.5999806e+00
  5.2828875e+00
 -8.9758337e-01
  5.2710330e-01
  1.5943708e+00
  3.3909178e+00
  1.9244231e+00
 -1.5008563e+00
  8.9654243e-03
  4.0806780e+00
 -1.6814708e+00
 -2.6266446e+00
  6.5314684e+00
  6.3679892e-01
 -4.7066956e+00
 -7.0857537e-01
 -2.7996442e+00
 -5.4210706e+00
  6.6727549e-03
 -1.2417285e+00
 -2.4303308e+00
 -3.9639482e+00
 -2.8121102e-01
  9.9216424e-02
  2.1955192e+00
 -7.2043294e-01
 -4.9212486e-01
 -9.4672912e-01
 -5.3604406e-01
  3.0441699e+00
  1.9541160e+00
  1.6300706e+00
 -2.2491167e+00
 -2.7892437e+00
 -2.6729767e+00
  1.6893319e+00
  1.4374574e+00
 -1.2655500e-01
 -2.9692259e+00
  1.6732112e+00
  1.5325328e+00
  4.6693376e-01
 -3.9892664e+00
  3.8198953e+00
  4.1352150e-01
 -4.6772885e+00
 -5.9993289e-02
  8.6990339e-01
 -2.2641287e+00
 -2.8376255e+00
 -2.6469071e+00
  6.5414124e+00
  3.1684089e+00
 -4.0873332e+00
 -2.6740849e+00
  2.0845044e+00
 -4.7601458e-01
  1.1959639e+00
 -2.2342546e+00
 -6.5230207e+00
  1.4780992e+00
 -4.2536263e+00
  3.2810860e+00
 -4.2730899e+00
 -1.9677243e+00
 -1.2208705e+00
  3.4056458e+00
 -1.5477653e+00
 -4.5296102e+00
  2.0345404e+00
 -1.3866477e+00
 -1.8203582e+00
  8.6001927e-01
 -3.6514502e+00
 -2.1804268e+00
 -1.1717888e+00
 -1.3956228e+00
 -3.1618323e-02
  1.1209167e+00
  7.4912488e-01
 -1.0925796e+00
 -3.0478921e+00
  1.6384251e+00
  1.3750574e-01
 -3.6994274e+00
 -4.5618644e+00
  8.3929271e-01
 -1.0676402e+00
  2.9720354e+00
  4.0470209e+00
  3.2959185e+00
 -4.4689226e+00
  2.8254902e+00
 -2.4264368e-01
  5.3817129e-01
  5.6308298e+00
 -5.0468736e+00
  1.9029536e+00
 -2.4795241e+00
  2.9603267e+00
 -4.7678418e+00
 -1.6526035e+00
 -2.1516340e+00
  1.7505167e+00
  3.0896318e+00
 -3.4621701e+00
 -7.2260362e-01
 -2.9426026e+00
  1.4983403e-02
  2.6161463e+00
 -3.0410085e+00
 -8.7397343e-01
  1.0602592e+00
  1.2931046e-02
  1.3417832e+00
  9.9877316e-01
 -5.2907901e+00
  3.4780946e+00
  1.3260500e+00
 -2.1195738e+00
 -1.7489383e-01
  1.9215430e+00
  3.8944694e-01
 -2.5524211e+00
  1.2070400e+00
  6.9644465e+00
  1.7530413e+00
  1.2795902e+00
 -9.9540550e-01
 -2.6910629e+00
 -5.8900177e-01
 -1.8902032e+00
  4.9491434e+00
 -5.1041073e-01
  3.1557665e+00
  7.0011133e-01
 -1.2307948e+00
 -3.5391667e+00
  1.0698111e+00
 -5.1841564e+00
  4.7683853e-01
  7.4676567e-01
  7.4829745e-01
 -6.2350911e-01
  4.5407977e+00
  2.4809897e+00
  3.0040293e+00
  3.3927459e-01
 -3.4051061e-02
 -3.0222899e-01
  8.7539834e-01
  1.8350480e+00
 -2.6554701e+00
  2.7834213e+00
 -9.7480780e-01
  3.4505134e+00
  1.2478573e+00
  4.9397845e+00
 -1.0220786e+00
  1.0993584e+00
  1.5716261e+00
 -3.4106216e-01
  1.2475178e+00
 -6.7340791e-01
 -4.2916813e+00
 -6.9990706e+00
 -6.5220112e-01
 -8.2954943e-01
  3.6070868e-01
  2.3793104e+00
 -2.2213228e+00
 -4.6017466e+00
  1.0280818e+00
  3.0359823e-01
  5.3540268e+00
  1.1352359e+01
  6.2826055e-01
 -3.5469971e+00
  6.3446629e-01
  5.4326177e-02
 -2.8630505e+00
 -1.5631998e+00
 -1.0237947e+00
 -2.8847489e+00
 -5.1679354e+00
  6.2622471e+00
  3.1895529e-02
  3.3777850e+00
 -2.8203597e+00
  1.7793955e+00
 -3.2250328e+00
  1.4410471e+00
  1.8898630e-01
 -2.3808782e+00
  8.6075407e-01
 -3.0116479e+00
  2.5036533e+00
  3.3179903e+00
  1.5481181e+00
  1.4542850e+00
 -3.3835921e+00
 -9.4691849e-01
  1.7581785e+00
  4.0346503e+00
  2.5454579e-02
 -3.2939618e+00
 -5.6233019e-01
 -8.7692422e-01
 -2.5325043e+00
  1.7637668e+00
 -3.5766554e+00
 -1.4326751e+00
  1.4592371e+00
 -3.6028264e+00
  2.4423826e+00
 -1.6310686e+00
  1.0363770e+00
 -2.6846306e+00
 -2.3207085e+00
  1.4440275e+00
 -1.0199782e-01
  2.6388061e+00
 -6.3483101e-01
 -2.1276955e-01
 -1.0522863e+00
 -7.2083163e+00
  1.6314420e+00
 -3.2874067e+00
  2.4190681e+00
  1.4279394e+00
  2.5203764e+00
 -3.6284196e+00
 -2.1356447e+00
  7.9927033e-01
  3.9371300e+00
 -2.6742649e-01
 -2.2089717e+00
  1.4147797e-01
  1.2907264e+00
 -4.5629096e+00
  4.8113561e-01
  3.4508556e-01
 -1.6133117e-02
 -1.7744876e+00
 -1.5711948e+00
 -4.7246275e+00
  7.1614879e-01
 -2.7238458e-01
 -1.8038150e+00
 -4.4187794e+00
 -1.7388174e-02
  4.0067980e-01
  1.3317071e+00
  2.6598649e+00
 -1.2947977e-01
  1.2157335e+00
 -1.5465072e+00
  3.3796792e+00
 -2.2188308e+00
 -2.1253903e+00
 -1.0298089e+00
 -4.6037369e+00
  1.9488350e+00
  2.2942778e-01
 -3.1651704e+00
 -1.6649458e+00
  4.1882062e+00
  3.9835629e+00
 -2.9096973e+00
 -5.2063742e+00
  2.7852719e+00
  6.1880738e-01
  1.5292373e+00
  3.6305878e+00
 -2.9546696e-01
 -1.1397876e+00
  2.3566389e+00
 -1.1894200e-01
  2.1721530e+00
 -1.9478893e+00
 -3.3413820e+00
 -9.9936163e-01
  1.6827544e+00
 -4.9602094e+00
  3.3964260e+00
  1.5968858e+00
  1.8460462e+00
 -2.6231372e+00
  1.8489712e+00
  4.4651935e-01
  2.4199016e+00
 -2.0035906e+00
  9.6568966e-01
  4.9250686e-01
 -1.8686043e+00
  1.3829176e+00
  1.6229893e+00
 -3.5667667e+00
 -1.3538705e+00
 -4.2784839e+00
 -1.2926369e+00
  2.6926322e+00
  8.2644349e-01
 -1.5053555e+00
 -2.7163966e+00
  1.2341351e-02
  2.0719771e+00
 -1.7760441e+00
 -9.1094834e-01
 -2.0727368e-01
  1.5548928e+00
 -4.8937982e-01
  3.0448053e+00
 -3.1901240e+00
 -2.0655963e+00
  5.5003279e-01
  1.3986185e+00
  1.6197355e+00
 -6.0796390e+00
 -2.4889972e+00
 -2.8872421e+00
 -1.0000976e+00
 -5.5206938e+00
  2.3297143e+00
  4.7616437e-01
 -3.2787199e+00
 -3.4973006e+00
  1.9168650e+00
 -4.7947474e+00
  1.3736463e+00
  4.0953791e-01
  4.4978812e-01
 -2.8328414e+00
 -4.8474917e-01
 -1.3962101e+00
 -3.1305633e+00
 -3.7017173e-01
  3.1890855e+00
 -4.1878076e+00
 -1.6997017e+00
  3.3850524e-01
  1.9276994e+00
 -3.4448249e+00
 -1.5553643e+00
 -1.7433062e-02
  2.7449744e+00
 -7.9206020e-01
 -6.2784681e+00
 -2.7840295e-01
  4.4382300e+00
 -8.4849066e-01
 -2.0387606e-01
 -5.4805487e-01
 -3.6422396e+00
 -2.5262878e+00
 -1.1513137e+00
 -2.2424989e+00
 -1.7994853e+00
 -2.5730484e+00
 -3.1467948e+00
  3.6688490e+00
  1.8034394e+00
  1.3417149e+00
 -7.2010189e-01
 -1.5727258e+00
 -1.7152989e+00
  1.6027153e+00
  4.0883966e-02
  1.1846508e+00
  1.0950200e-01
  1.7445636e+00
  2.3681681e+00
  5.8421760e+00
  2.4047787e+00
 -5.8197135e-01
 -8.0285627e-01
 -4.4424891e-01
 -2.3768513e-01
  5.8250719e-01
 -2.7988341e+00
 -5.3071666e-01
  7.0299673e+00
  1.3329796e+00
  3.1362112e+00
 -6.2874877e-01
 -3.2521653e+00
  1.6492962e+00
  1.9397806e-01
  3.1327417e+00
 -1.1332318e+00
  3.0657821e+00
 -2.7282948e+00
  2.9129183e+00
  3.1879380e+00
  3.3488519e+00
  5.6441555e+00
 -7.8182548e-01
 -7.8400630e-01
 -4.2860804e+00
  6.9945151e-01
 -5.3853807e+00
 -2.0826104e+00
 -2.8042433e+00
 -9.2290032e-01
 -1.5273633e+00
  3.1560335e+00
  2.5175169e+00
 -2.8547928e+00
 -2.2505923e-01
  2.2834513e+00
  2.0834758e+00
 -1.8966652e+00
  2.3303080e+00
 -2.5303092e+00
 -1.6536686e-01
 -4.0639100e+00
  1.5526730e+00
  3.2565145e+00
  5.2226448e-01
  1.8061709e+00
 -2.0908754e+00
  2.0005972e+00
 -1.9748293e+00
 -7.2288775e+00
 -1.4824172e+00
  4.0018940e+00
  1.3688728e+00
  2.3185122e+00
 -1.8008527e+00
 -1.8438510e+00
 -7.2986627e-01
 -3.7217157e+00
 -2.0784996e+00
  1.5576547e+00
  5.6166048e+00
  1.0029228e+00
 -5.3803220e+00
  2.4555473e+00
  5.5577645e+00
  2.5939493e+00
  1.7877283e+00
 -6.5670896e-01
  1.6103542e-01
 -4.3108094e-01
  8.5457259e-01
 -2.1208351e+00
 -2.0424991e+00
 -1.4285314e+00
 -8.7551540e-01
 -4.8232718e+00
  1.0043718e+00
  4.0952830e+00
  4.5065174e-01
 -3.3050868e-01
 -3.0750113e+00
  3.7206116e+00
 -2.0772443e+00
  7.8006065e-01
  3.7248416e+00
 -5.8630347e+00
 -2.0046508e-01
  8.3757657e-01
  4.2301927e+00
  5.6565219e-01
 -3.1873612e+00
 -1.9830042e+00
  3.3613253e+00
 -7.6132417e-02
 -4.6755490e+00
  1.9423121e+00
 -1.0121156e+00
 -1.1575772e+00
  1.5193900e+00
  6.1558473e-01
 -7.1117544e-01
  3.2674210e+00
 -1.5890467e+00
 -1.3738526e-01
 -4.9596110e-01
  5.1166196e+00
 -2.0333064e+00
  3.2755659e+00
 -1.6648538e+00
 -5.3832250e+00
  4.3215755e-01
 -1.6723017e+00
 -4.4178319e+00
 -3.0203283e+00
 -2.4882636e+00
 -1.3677410e+00
  1.3739142e+00
  4.3663535e+00
 -2.8178968e+00
  9.6272999e-01
  1.2296453e+00
 -9.9323785e-01
  1.0977798e+00
 -1.5017210e-01
  6.1576241e-01
  1.4246069e+00
  2.4112885e+00
  2.7144558e+00
 -4.1419652e-01
  2.3618994e+00
  7.5729543e-01
 -2.6813672e+00
 -2.2119045e+00
  1.7030418e+00
  1.1023260e+00
  1.5002555e-01
 -1.3601331e+00
  4.5596626e-01
 -1.4210002e+00
 -3.9939415e+00
  2.4557734e-01
  4.0627322e+00
  9.2189693e+00
 -2.7242234e+00
  2.4929063e+00
 -2.2168291e+00
 -2.3559117e+00
  1.1576388e+00
 -2.3116729e+00
  5.1539035e+00
 -1.4935194e+00
  3.9007471e+00
  1.5843967e+00
 -1.7404050e+00
 -5.9530582e+00
 -3.0212233e+00
  1.9751496e+00
  2.1132387e-01
 -6.2265939e-01
  2.9153285e+00
 -2.0890777e+00
  3.0748363e+00
 -1.2428850e+00
 -1.5059705e+00
  4.2413858e-01
  9.5369768e-01
  9.7314793e-01
 -5.5651460e+00
 -1.9768391e+00
  4.5847158e+00
 -1.2805418e+00
 -3.5304067e+00
 -1.3066555e+00
  1.5287443e+00
 -4.3380138e-01
 -6.0984974e+00
  2.6849301e+00
 -7.5767660e-01
 -5.4331074e+00
 -1.2613306e+00
  1.1528343e+00
  4.3332481e-01
  3.8144821e-01
  5.4198780e+00
  3.3247864e+00
 -1.6896851e+00
  3.3439367e+00
 -4.1586080e+00
  4.4640446e-01
  1.0748740e+00
  1.6734976e+00
  6.5611129e+00
 -1.2035741e+00
 -2.9765310e+00
  2.9064445e+00
  1.3129473e+00
 -3.4906805e-01
 -1.6987164e-01
 -1.6920683e+00
 -2.5202034e+00
  1.6713109e+00
  1.9357616e+00
  2.5399230e+00
  5.2198038e+00
  2.2461953e+00
 -2.1327732e+00
  2.2320642e+00
 -1.9907639e+00
  5.1670521e-01
 -1.0210025e+00
 -5.2811036e+00
  9.3875211e-01
  1.2727530e-01
 -2.2061088e+00
  1.8394632e+00
 -1.4665834e+00
  1.1606655e+00
  3.6770442e+00
  2.6698871e+00
  3.2071671e+00
 -4.1382260e+00
  2.9343596e-01
  2.9359302e-01
 -6.9400400e-01
  2.0256886e+00
  5.4170513e+00
  1.3591020e+00
 -2.2579968e+00
  5.2614651e+00
 -2.1143036e+00
  2.3682523e+00
 -6.3183489e+00
  8.3541858e-01
 -9.5824385e+00
 -6.0084701e+00
 -3.0792527e+00
 -2.1405523e+00
  2.2822149e+00
  6.5877259e-01
  4.6520071e+00
 -2.9386631e-01
  2.1954274e+00
  3.9594204e+00
 -4.4265232e+00
 -1.9788747e+00
 -3.4358950e+00
  2.2415154e+00
 -1.4680938e-01
 -1.6344842e+00
 -1.6288811e+00
  2.3089635e-01
  4.4224100e+00
  2.6782939e+00
 -7.9295177e+00
 -2.1348085e+00
  6.0044551e+00
 -2.3785498e+00
 -7.2268581e+00
  1.9215839e+00
 -8.8030946e-01
  1.0782282e+00
  9.4761723e-01
 -2.6984322e+00
 -2.4731641e+00
 -1.5012470e+00
 -2.0210202e+00
  1.2030985e+00
 -4.7164083e+00
  3.4260056e+00
  6.7003713e+00
  6.0421290e+00
  1.2853332e+00
  1.7953527e+00
  8.2924902e-01
  2.9245067e+00
 -2.1154921e+00
  1.5905575e+00
 -7.8178668e-01
 -9.8129153e-01
 -5.7830447e-01
  8.3844572e-01
  2.3522105e+00
 -1.9393826e+00
  3.3741314e+00
 -4.3697319e+00
  3.2810681e+00
  3.3438423e+00
  1.1909024e-01
  1.6690950e+00
  6.0256076e+00
 -9.1267580e-01
 -6.1983271e+00
  1.4070028e+00
 -2.9298036e+00
 -1.5748821e+00
  1.1320614e+00
  2.8084681e+00
 -1.6078100e+00
  6.5108353e-01
  2.4099724e+00
 -2.1213117e+00
  4.1228681e+00
  1.3672462e-01
 -3.5429832e-01
 -9.0683264e-01
 -1.6406729e+00
  7.2926080e-01
  1.0048149e+00
  2.3692293e+00
  2.9394982e+00
 -5.0327450e-01
  1.2086182e+00
 -8.1407011e-01
  1.3941420e+00
 -2.4749150e+00
 -4.1711149e+00
  1.5715594e+00
  3.5050206e+00
 -6.5294367e-01
 -1.6582769e+00
  1.5614753e+00
 -2.8076420e+00
 -2.3392663e+00
 -4.0952673e+00
  2.6272690e+00
  1.2594359e+00
 -1.2170118e+00
 -6.4420050e-01
  8.1597006e-01
 -1.7758253e+00
 -6.4038074e-01
 -8.5398185e-01
 -2.3284941e+00
 -7.1128756e-01
 -1.3769163e+00
 -2.5625112e+00
 -9.7184157e-01
  5.0946778e-01
  3.4811401e+00
  1.9138837e-01
  6.2991161e+00
  3.5230956e+00
  2.4387217e+00
 -4.8319478e+00
 -2.9092240e+00
 -1.0601870e+00
  7.8180480e-01
 -3.1256869e+00
 -1.0925409e+00
  2.2984743e+00
  2.7863503e+00
  3.3042996e+00
  1.6207525e-01
 -1.9532380e+00
 -2.9033892e+00
 -1.6309320e+00
 -6.1820275e-01
  2.5891905e+00
  5.3581506e-01
  1.3664171e+00
 -7.8784955e-01
 -2.3866138e+00
 -1.0249841e+00
  3.4101703e+00
 -1.9304968e-01
  7.4665742e+00
 -2.1351488e-01
  4.9538164e+00
 -2.4866519e+00
  1.3771163e+00
  3.4402525e+00
  4.3630638e+00
  4.7397280e+00
  3.2710130e+00
 -1.1846287e+00
 -1.5419599e+00
 -2.7120919e+00
 -3.4864466e+00
 -5.8174582e+00
 -2.5379071e-01
  6.7831570e-01
 -4.5863657e+00
 -1.8690128e+00
 -1.3641452e+00
 -3.3563926e+00
 -2.0345111e+00
 -1.9377923e-01
  3.1668272e+00
 -5.2188158e+00
 -2.4267073e+00
 -1.7921236e+00
  1.7687294e+00
 -4.8315840e+00
 -3.9183310e-01
 -2.8207369e+00
  2.8723629e+00
 -3.1781077e+00
 -1.9161892e+00
 -3.1315131e+00
 -3.5346158e+00
 -6.9640315e-01
  1.6753879e+00
 -3.1001842e+00
  2.9007990e+00
 -4.9269587e-01
  5.1730781e+00
  2.0449502e+00
 -8.7689608e-01
  5.0295954e+00
 -4.5462341e+00
  1.9158304e+00
 -1.6737749e-01
 -2.8452404e+00
  6.3939995e-01
  4.1639388e-01
  5.5482817e+00
 -4.9742734e-01
  8.3315790e-01
 -1.4801612e+00
  4.7549000e+00
  1.3952273e+00
  2.6635334e+00
  2.1220150e+00
  1.2621064e+00
 -1.4959347e+00
 -1.9536021e+00
  4.1078439e+00
  2.5307221e+00
  1.8115233e+00
  1.6314129e+00
  1.0631163e+00
 -7.4521446e+00
  2.2104127e+00
 -1.4056811e+00
  1.9312991e+00
  3.0006926e+00
 -4.0384383e+00
 -1.9009671e+00
 -2.7668126e+00
  9.9419194e-01
 -2.1398158e+00
 -9.2892897e-01
  3.9306717e+00
 -6.5117681e-01
  6.3666916e-01
 -5.0903887e-01
  6.4411473e+00
 -2.0142207e-01
 -1.5450057e+00
 -6.8410110e+00
 -3.9754322e+00
  1.1669334e+00
 -3.5268605e+00
 -3.2770279e-01
 -5.9953444e-02
 -2.5395050e+00
  3.1651065e+00
 -9.5518023e-01
 -4.0282431e+00
 -1.2883984e+00
  1.5525286e+00
  6.0529537e+00
 -9.1770405e-01
  1.2755210e+00
 -4.0190363e+00
 -2.2320077e+00
 -1.4557965e+00
  1.7266932e+00
  2.2155639e-02
  5.3670263e+00
 -3.0179887e+00
 -5.1843482e-01
  3.9782238e+00
 -4.6673975e+00
 -1.8013059e+00
  8.9580339e-01
  7.8359014e-01
 -2.2848711e+00
 -3.2906830e+00
  8.2859717e-02
 -1.4288199e+00
 -2.6960142e+00
 -9.3154716e-01
 -1.4066424e+00
  7.1780175e-02
  3.2850718e+00
  5.5542450e+00
  1.0004921e+00
 -8.1013995e-01
 -1.3857827e+00
 -1.9093221e+00
  8.3284450e-01
  1.5172525e-01
  3.8134212e+00
 -1.4095914e+00
  3.5958757e+00
 -5.0200331e-01
 -4.7128177e+00
  3.4522355e+00
 -3.0020626e+00
  1.8868386e+00
 -9.5922041e+00
  4.9036658e-01
 -1.4457902e+00
 -7.3159021e-01
 -5.3317490e+00
  5.2263594e+00
 -4.0790278e-01
  2.1719575e+00
 -2.6731656e+00
 -2.1747918e+00
 -6.5476971e+00
 -4.4627792e-01
 -2.3862550e+00
  1.2105306e+00
 -1.0072578e+00
 -3.5424182e+00
 -2.2647140e+00
  3.2692585e+00
  2.3919500e-01
 -9.1069040e+00
 -2.1712527e+00
  5.9636469e+00
 -1.3686991e+00
 -2.5889328e-01
 -7.8193078e+00
  3.2927663e+00
 -7.6357353e-01
  8.6637425e-01
  4.1782206e-01
 -2.6340921e+00
  1.4668329e+00
 -1.5486530e+00
  5.3698869e+00
 -1.5931236e+00
 -9.2709100e-01
  1.2093167e+00
 -1.0880435e+00
  1.8089825e-01
  7.0337754e-01
 -4.6565094e+00
 -3.0624831e+00
 -3.4562707e+00
 -4.8886628e+00
 -2.5007906e+00
 -2.4546939e-01
  1.0453516e+00
  1.1998068e+00
  1.9095724e+00
 -6.7392105e-01
  1.6640608e+00
  6.6948926e-01
  4.1404357e+00
 -4.8795480e-01
 -1.0369248e+00
 -3.5922952e+00
  4.2664179e-01
 -1.4220392e+00
  2.3454313e+00
 -1.0052739e+00
 -5.9033120e-01
 -8.3824739e+00
 -1.7000407e+00
 -7.2930908e+00
  3.3543842e+00
 -4.5213952e+00
 -4.4805799e+00
  5.0047021e+00
  5.2888908e+00
 -7.3406339e-01
  1.0333151e+00
  5.4030194e+00
 -7.2443194e+00
 -3.3110431e-01
  5.1939082e-01
 -2.9858887e+00
 -1.4228747e+00
 -1.9885784e+00
  3.9732504e+00
  1.7500031e+00
 -1.5467035e+00
 -2.3229277e+00
  2.5156987e+00
 -3.7903449e-01
 -9.4823763e-02
 -2.4995868e+00
 -4.0198226e+00
 -3.5589161e+00
 -1.0553670e+00
 -2.8184369e+00
 -8.2529627e-02
  8.0123895e-01
 -2.1688523e+00
 -7.7749591e+00
 -4.1888757e+00
 -8.1619626e-01
 -3.0161071e+00
 -2.4517357e+00
 -8.0142570e-01
 -7.9010415e-01
 -3.4138567e+00
  3.6703679e-01
  2.9542952e+00
  4.5113671e-01
 -2.2348020e+00
  3.0926529e-01
  1.9970151e+00
 -5.3012075e+00
  2.1166389e+00
 -3.5208025e+00
 -2.0564623e+00
 -1.4977592e+00
  2.7146372e-01
  9.4166476e-01
  1.8721114e+00
 -1.9543693e+00
  4.6075821e+00
  1.2004308e+00
  2.5269347e-01
 -1.6161979e+00
  1.3710277e-01
  1.2237719e+00
 -9.5275640e-01
 -1.6246054e-01
  3.9737298e+00
 -3.2533252e+00
 -6.3225865e-01
 -3.1834967e+00
  4.3163257e+00
  3.0496106e+00
 -1.2293720e+00
 -4.5153742e+00
 -4.6656494e+00
  2.4037383e+00
 -1.2022403e+00
  3.6038508e+00
 -1.0276512e+00
  5.7741082e-01
 -1.9222236e+00
 -3.8168955e+00
  2.7579873e+00
 -8.9000247e-02
 -5.0439620e+00
  5.9603548e-01
  4.3096485e+00
  2.9831376e+00
  2.3771641e+00
 -4.1933088e+00
 -2.8489749e+00
 -2.9044180e+00
 -3.1017303e+00
 -2.0427222e+00
  3.7429280e+00
 -3.5363826e-01
 -5.3280182e+00
  4.3539820e+00
 -1.0451913e+00
 -1.3342923e+00
  1.3592316e+00
 -1.8173712e+00
  2.0304959e+00
 -1.5902034e+00
 -1.0205617e+00
 -6.0636148e+00
  8.5026759e-01
  4.9214854e+00
 -2.9612881e-01
 -4.0255275e-01
 -1.1073842e+00
  8.4754074e-01
  1.4259200e+00
  1.1221483e+00
 -2.4909308e+00
 -3.3090124e-01
 -9.4472760e-01
 -1.0776633e+00
 -2.4963856e+00
  1.4329435e+00
  6.8550766e-01
 -1.5740858e+00
  2.2049530e-01
 -2.6605356e+00
 -2.8478810e-01
  1.4147918e-01
 -2.4039345e+00
 -4.9127698e-01
  4.2603278e+00
 -2.0900235e+00
  2.3038969e+00
  3.2485640e+00
  3.7476492e+00
 -4.9456220e+00
 -3.2966018e+00
 -1.4014901e+00
  7.2606170e-01
  1.8964554e-01
 -2.0256820e+00
  5.5165428e-01
 -2.0311770e+00
 -3.3075163e+00
 -1.7555413e+00
  3.3946731e+00
 -6.1624938e-01
 -5.4564422e-01
 -1.6555445e+00
 -2.3176885e+00
 -1.7696880e+00
  4.2241592e+00
 -6.9402313e-01
  3.0818574e+00
  2.3700457e+00
 -1.8971925e+00
  5.2312684e-01
  6.4598236e+00
  4.0827128e-01
  2.2382271e+00
 -1.3051696e+00
 -9.7816688e-01
 -2.3371179e+00
 -1.2643161e+00
 -1.1634442e+00
 -4.0599513e+00
  4.1302925e-01
  3.7081234e+00
  3.0160882e+00
 -3.4569046e+00
 -2.4528549e+00
  2.8908211e-01
 -9.7528052e-01
 -3.2747585e-01
 -9.4647777e-01
 -8.4556127e-01
 -2.8413846e+00
 -1.2293640e+00
  1.5976008e+00
  2.5055673e+00
 -3.0155513e+00
 -2.4886894e+00
  1.2746726e+00
 -9.7854680e-01
 -2.9815271e+00
 -2.5509658e+00
 -2.3637578e+00
 -4.3902267e-02
  1.0540950e+00
 -7.5514513e-01
 -3.5143745e+00
  3.1322145e+00
  2.5564250e-01
 -8.3918160e-01
  1.9758894e+00
 -3.6747427e+00
  6.3532215e-01
 -1.5960197e+00
  7.8660102e+00
  3.7533758e+00
  1.0754056e+00
  3.2641904e+00
 -5.5789533e+00
  2.6730037e+00
  1.5551847e+00
  1.3698684e+00
 -5.2691698e+00
 -6.8717855e-01
 -8.4186143e-01
  1.3640481e+00
 -5.2676363e+00
  6.1731305e+00
 -1.7946987e+00
 -3.9217088e+00
 -1.9535639e+00
  1.3318181e+00
  5.3453344e-01
  2.2213550e+00
  2.2346396e+00
  2.5226381e+00
 -1.2937772e+00
 -2.7221363e+00
  9.7556400e-01
  1.9571438e+00
  5.2721815e+00
  7.5013928e+00
  1.1989925e+00
  3.3018968e+00
 -4.9899673e+00
 -1.2474539e+00
 -1.6373737e+00
 -2.0173118e+00
 -5.0824356e-01
  1.6183854e+00
 -5.2066841e+00
  1.8612119e+00
  3.2186980e+00
 -3.5638487e-01
 -2.1571290e+00
  1.5426812e+00
  5.0518103e+00
  1.1927264e+00
  1.1154560e+00
 -1.3733305e+00
  2.0222895e+00
  3.9359272e-01
  5.9493673e-01
  2.7916269e+00
 -3.3070502e-01
  4.8529413e-01
  7.6923299e-01
 -3.1537716e+00
  3.7787499e+00
 -7.0816898e-01
 -3.5651493e+00
 -2.0003607e+00
  5.9382992e+00
 -3.0836172e+00
 -3.8556613e-02
 -1.0322984e+00
 -6.9765759e-01
 -1.7774235e+00
 -2.3316574e+00
 -5.6116050e-01
  6.6597039e-01
 -2.2953715e+00
  5.6076264e-01
  2.4375679e+00
  2.2163732e+00
  6.8392360e-01
 -7.0530157e+00
  6.7496437e-01
  1.3256192e+00
  3.9867243e-01
  6.3116550e-02
  1.4808766e+00
  1.1476429e+00
  2.6042573e+00
  3.1971860e-01
  1.2217917e+00
  1.2729946e+00
 -9.6510011e-01
  6.9374762e-02
  6.9302249e-01
  1.6253518e+00
  1.7051957e+00
  1.8985630e+00
  1.3040258e+00
 -4.5463791e+00
  1.7578431e+00
 -1.3871590e+00
  3.7422886e+00
  1.8230839e-01
  1.2707801e+00
  3.4935119e+00
 -1.4744273e+00
  7.6835239e-01
 -1.9972098e-01
  1.1137817e-02
  1.4684212e+00
  1.2623744e-01
 -1.2301919e+00
  1.3004663e+00
  8.6057046e-03
 -2.2915101e+00
 -2.5784636e+00
  8.5866392e-01
 -2.9678276e-01
 -2.0353459e-01
  6.6808499e-02
 -2.2803871e-01
 -2.8472807e+00
  3.0043476e+00
  1.5577463e+00
 -9.2508912e-01
 -1.3522238e+00
 -1.8576593e+00
  3.3433383e+00
 -2.1122587e+00
 -1.2243553e+00
 -3.1411202e+00
 -1.6575275e-01
  5.3635144e+00
 -1.2787474e+00
 -1.5572476e+00
 -7.3485904e+00
 -5.7276338e-01
 -7.4657998e+00
 -1.9327950e+00
  8.1684818e+00
 -1.8435763e+00
  8.3357859e-01
 -1.0366231e+00
 -4.3089848e+00
  9.5666543e-02
  1.0616699e+00
 -4.0069723e+00
 -3.8260949e+00
  3.6749172e+00
  9.6558350e-01
 -1.2372382e+00
  2.6510304e-03
 -2.1235392e+00
  1.3121012e+00
  3.2705171e+00
  6.3575149e-01
  5.2824502e+00
 -5.4450855e+00
  2.0712965e+00
 -3.6010461e+00
 -2.8453190e+00
 -3.1032634e-01
 -3.2889244e-01
 -7.5130686e-02
  4.0860653e+00
 -1.1074528e+00
 -2.9907315e+00
 -3.6221626e+00
 -1.3199461e+00
 -4.2845181e-01
  1.8173558e+00
  6.3627565e-01
  2.6457620e-01
 -2.5098710e+00
 -1.3936629e+00
 -3.1548223e+00
  5.1112056e+00
  2.1734486e+00
 -7.5752515e-01
 -1.6732211e+00
  5.1658502e+00
  2.1990335e+00
 -5.1633711e+00
  1.3691078e+00
 -2.2381377e+00
 -6.9790280e-01
  1.5610213e+00
 -1.6226205e+00
  4.8796743e-01
 -1.0601714e+00
  1.4662175e+00
  3.4872630e+00
 -7.3216748e-01
 -1.2057567e+00
  4.3353176e-01
  1.9620609e+00
  1.3292959e+00
  7.3738024e-02
  4.5355076e-01
 -4.2458233e-01
 -3.0280671e+00
 -2.3656337e-01
 -3.5818825e+00
 -5.4636943e-01
 -7.1281085e+00
 -1.2969688e+00
  2.0041249e+00
  6.7296696e-01
 -1.8932297e+00
 -2.2888051e-01
 -4.1854629e-01
  4.3920654e-01
 -6.2319654e-01
  4.7232032e+00
 -3.9808772e+00
  3.1724384e-01
  2.2811527e+00
 -1.1493337e+00
 -3.3665204e+00
 -1.7036238e+00
 -8.3109117e-01
 -2.3193338e+00
  2.5859463e+00
  2.2620785e+00
 -1.3340904e-01
 -1.4674281e+00
 -2.3449898e+00
  1.9666135e+00
 -4.5095921e+00
  9.6050721e-01
  9.2186344e-01
 -3.9858696e+00
 -3.7754934e+00
  2.6307905e+00
 -1.2387261e+00
 -3.3487567e-01
 -6.6736752e-01
 -5.4654258e-01
 -2.7337842e+00
 -6.6384583e+00
 -3.0403008e+00
 -1.8560371e-01
 -3.4108274e+00
 -5.7005715e+00
 -1.3529590e+00
  2.3560758e+00
 -2.9996316e+00
 -2.7911839e+00
 -5.7308638e-01
  2.0640669e+00
 -1.9038398e+00
 -3.6031556e+00
  2.2171848e+00
  4.7528472e+00
 -1.5965506e+00
  2.6062238e+00
  1.0023713e+00
  3.9783306e+00
 -1.2247632e+00
  7.7052069e-01
 -6.9200963e-01
 -3.7205998e-02
 -9.7441345e-02
  3.3708594e+00
 -3.8995321e+00
  3.1720746e-01
 -1.4135872e-01
 -6.2364185e-01
  2.0148404e+00
  6.1728036e-01
 -1.1077298e+00
 -4.9717069e+00
 -4.1997838e+00
 -1.9669762e+00
  1.3292392e+00
  3.5745118e+00
 -5.5193359e-01
 -1.8297285e-01
 -3.8227215e+00
  1.8856866e+00
 -2.4204292e+00
 -9.5035988e-01
 -2.7430887e+00
 -1.0892884e+00
 -1.7435206e+00
 -2.5116630e+00
 -1.2444000e+00
 -9.7001500e-02
 -6.8667102e-01
  2.4755111e-01
  4.8727512e+00
 -2.8522024e-01
  6.2538213e-01
 -2.1619167e+00
 -1.1024764e+00
  3.9447799e+00
 -5.5186644e+00
 -3.6482182e+00
  2.9913545e+00
  3.9702482e+00
 -1.0552644e+00
 -1.6678746e+00
  2.0214303e+00
  1.3056436e+00
 -4.9331293e+00
  2.7987552e+00
  8.6626953e-01
 -2.8363996e+00
  1.0034022e+01
 -1.9467282e+00
  2.8948030e-01
 -2.5732622e+00
 -6.2833457e+00
 -4.6445694e-02
 -5.6801991e+00
  5.6889135e-01
  1.8894992e+00
 -9.9221486e-01
  1.5863991e+00
 -1.1599078e+00
 -3.6043236e+00
  3.7015122e-01
  1.4627017e-02
  1.4388768e-01
 -1.4025447e+00
  2.5766808e-01
  3.1864460e+00
  1.6617622e+00
 -1.3812819e+00
  3.3626995e+00
  3.0133326e+00
 -2.4574785e+00
  4.4404373e+00
  5.8397017e-02
  3.8681796e+00
  1.2329898e+00
 -8.6733326e-02
 -2.7200387e+00
 -2.2237711e+00
  2.1454170e+00
 -4.1014470e-02
  1.1659364e+00
  6.9732672e-01
  1.9412909e+00
  2.4463634e+00
  1.1074371e+00
  2.3373952e+00
  1.7884552e+00
 -2.2529202e+00
  2.1266725e+00
 -2.4379060e+00
  4.5109587e+00
  2.5080383e+00
 -1.9182765e+00
  1.4108080e+00
  2.2770683e-01
  2.2195201e+00
  2.2543142e+00
  4.7072983e+00
  6.5178638e+00
 -3.1085590e-01
  2.6450417e+00
 -2.7536601e-01
 -2.1398828e+00
  1.7677225e+00
 -4.3540940e+00
 -6.3370872e+00
  1.1842905e+00
 -1.8823429e+00
 -1.5825702e+00
  4.5663648e+00
  7.0438414e+00
  4.6402464e+00
  3.7895005e+00
 -2.9403675e+00
 -2.3209586e+00
  1.7571022e-01
  3.6148825e+00
 -1.3107537e+00
  7.5445242e+00
  3.2746334e+00
  4.5045395e+00
  6.4890709e+00
  2.9219487e-01
  3.0405066e+00
 -5.1649618e+00
  2.1644142e+00
 -2.1582572e+00
 -2.3936448e+00
 -2.0090327e+00
  1.7094007e+00
  2.9743692e-01
 -4.9215035e+00
  4.5719404e+00
 -6.0750670e+00
 -9.6419126e-01
 -1.0019783e+00
 -3.9266596e+00
  4.0881068e-01
  3.9014492e+00
  1.2455695e+00
  2.0470276e+00
 -1.2821118e+00
  2.3416681e+00
 -1.9975374e+00
 -5.0440540e+00
 -3.5927026e+00
 -3.5311587e+00
  2.8709316e+00
 -6.3898551e-01
 -2.3362892e+00
 -5.7653350e-01
  1.9531705e+00
  2.7751023e-01
  4.6679354e+00
 -3.4014170e+00
 -2.1488664e+00
 -2.0891421e+00
  3.7010093e+00
 -1.0579985e+00
 -1.9758015e+00
  2.1949813e+00
  3.5999613e+00
 -1.1988606e+00
  1.9564025e+00
 -8.1308424e-02
  5.0710201e-01
  1.1262038e+00
  8.2865363e-01
 -5.2358766e+00
 -2.7105019e+00
  4.3831186e+00
 -2.9011283e+00
 -2.3430624e+00
 -2.3645189e-01
  3.0099015e+00
  1.8335533e+00
 -3.3183864e-01
  2.9538300e+00
  2.7776423e+00
  3.2591169e+00
  7.7043504e-01
  2.8551883e-01
 -1.2109923e+00
  7.2177666e-01
 -6.2023897e+00
  2.4055321e+00
 -1.2723740e+00
  2.0324533e+00
 -2.1613061e+00
  8.6757243e-01
 -6.5662038e-01
 -2.8656440e+00
 -2.0728240e+00
  1.2741659e+00
 -8.7258995e-01
 -8.6747532e+00
 -2.8497815e+00
 -3.4007597e+00
 -1.0730609e+01
 -3.7478311e+00
  2.5889745e-02
  1.7241089e+00
  2.7619112e+00
  5.7461590e-01
 -4.9564698e-01
 -3.6169381e+00
 -6.1216679e+00
  2.4264989e+00
 -3.8993766e+00
 -1.7845109e+00
  4.1358337e+00
 -3.5460637e+00
  2.7997813e+00
  4.7903514e-01
  3.1787882e+00
 -1.5621278e+00
  1.3920485e+00
 -5.0083995e+00
  1.6084431e+00
 -1.5753770e+00
  5.0990338e+00
  3.8074949e+00
  2.4054372e+00
 -2.4677906e+00
  2.9459496e+00
  8.1239974e-01
  5.3061929e+00
 -2.6130180e+00
  2.1280701e+00
  7.7707738e-01
  4.5759568e+00
  1.7672483e+00
  8.1610912e-01
 -5.7041281e-01
 -5.8654433e-01
 -3.4965131e+00
 -5.4730506e+00
 -4.0163556e-01
 -4.5668755e+00
 -1.2701647e+00
  1.6698362e+00
 -1.7119976e+00
 -1.0836889e+00
  4.3758698e+00
 -7.2556710e+00
 -2.5969815e-02
 -3.3140953e+00
  3.0115587e-01
  5.5881071e-01
  7.2155148e-01
 -2.6366241e+00
  1.2417221e+00
 -5.2652998e+00
 -1.9387954e+00
 -5.5848289e-01
 -2.3827682e+00
  8.6415529e-01
 -3.5654798e-01
  1.1319652e+00
  8.5115280e+00
 -7.1485548e+00
  2.3075001e+00
  6.7440023e+00
  1.0205081e+00
 -5.0831313e+00
 -3.9726560e+00
 -2.3051369e-01
  4.1261134e+00
 -7.8023183e-01
 -1.9135450e+00
  4.5799122e+00
  3.6607993e+00
 -9.9796349e-01
  4.0254620e-01
 -1.0685681e+00
 -1.2668209e-01
 -6.5130105e+00
 -1.3578531e+00
 -7.0707649e-02
  3.8861415e-01
  1.1647149e+00
 -1.4579991e+00
  4.6660285e+00
  1.7382542e+00
 -3.6833980e+00
  2.7561557e+00
 -3.6837845e+00
 -2.0836883e+00
 -6.5335627e+00
  1.6994028e-01
  2.2227576e+00
  1.9755954e+00
  1.0826335e+00
 -1.9871383e+00
 -8.3750749e-01
 -2.4559789e+00
 -2.0654550e+00
 -1.6362920e+00
  1.0763334e+00
 -3.6462028e+00
 -9.7978407e-01
 -1.7358456e+00
  3.0449409e+00
 -2.6088324e+00
 -2.5679460e+00
  2.2447419e+00
  5.3130484e+00
  3.9910803e+00
 -2.0253229e+00
 -1.8095341e-01
  1.4555221e+00
 -3.4487009e-02
 -9.3412298e-01
 -1.8832593e+00
  2.1546914e-01
  6.5391809e-01
  1.0151101e+00
 -2.9926822e+00
 -1.3961379e-01
 -6.0925059e-02
 -1.5516794e+00
 -3.8021555e+00
  1.9162434e+00
 -5.7982631e+00
 -7.6748691e+00
  3.7485533e+00
 -2.1452000e+00
 -3.2498894e+00
 -3.1511056e+00
  3.1996918e+00
 -7.8124440e-01
  2.2246282e+00
 -1.7441635e+00
 -1.5754707e+00
  3.7257900e+00
  2.1307147e+00
  5.8874905e-01
 -3.5848531e-01
  6.4372450e-01
  2.0217540e+00
 -2.3575797e+00
 -2.7704589e+00
 -2.3740830e+00
  8.2260698e-01
 -1.0454313e+00
  6.7232949e-01
  1.2215364e+00
  1.6402701e+00
 -4.4385901e-01
  2.3468294e+00
  3.9063266e-01
 -2.8340256e-01
  3.1758106e+00
  1.1420097e-01
  1.3027109e+00
 -2.5247157e+00
  4.5818013e-01
  6.2630486e-01
 -1.3565463e+00
  4.0531877e-01
 -3.9346856e-01
 -3.7430527e+00
 -3.6071575e+00
 -5.5577970e-01
  6.1382806e-01
 -1.9608761e+00
  2.8781023e+00
  2.9418364e+00
  1.6599457e+00
 -7.0105429e+00
 -5.1017704e+00
 -1.9068362e+00
  2.8360412e+00
 -9.1259545e-01
 -2.6484928e+00
 -3.1621471e-01
 -3.0691514e+00
 -1.6013212e+00
  3.3887935e-01
 -3.2398272e+00
  3.8034050e+00
  4.1090746e+00
  2.8313901e+00
  3.0580542e+00
  7.7231497e-01
  3.3310714e+00
  1.6762700e+00
 -1.0745891e+00
 -4.9132723e-02
  9.8076284e-01
  3.9460164e-02
 -4.8305231e-01
  4.7037101e+00
  3.4759262e+00
 -3.5312992e-01
 -2.2185454e+00
  1.2230350e+00
  4.3034096e+00
  5.1413093e+00
  3.8816252e-01
 -2.8623788e+00
 -8.7989825e-01
  1.6094346e+00
  1.0538726e+00
  2.4081817e+00
  2.5750411e+00
  1.9563445e+00
  1.3102953e-02
  3.4670874e-01
 -3.3825171e+00
 -1.1915739e+00
  7.0650351e-01
 -2.0567790e-01
 -4.6339226e+00
  3.1675851e+00
 -1.2048800e+00
  4.5252535e-01
 -1.0055723e+00
 -5.0781498e+00
  1.3369821e+00
 -3.5482472e-01
 -1.0626888e+00
 -2.1639547e+00
  3.9167619e+00
 -3.3516794e-01
 -1.1932040e+00
 -2.6026325e+00
  2.1635182e+00
 -1.2410893e+00
 -1.6575509e-01
 -4.2143278e+00
 -1.2817971e+00
 -3.9897370e+00
 -1.5637718e+00
  6.9073081e-01
 -3.1580954e+00
 -9.9601829e-01
  4.4078338e-01
  4.9802843e-01
 -4.3414354e+00
  1.6859202e-02
  2.1867650e+00
  7.7937980e+00
  1.0835528e+00
 -9.2967469e-01
  8.8720715e-01
  1.2359519e+00
 -1.4115831e+00
  2.0866373e+00
 -2.6538627e+00
  3.4576290e+00
 -4.1584744e+00
 -9.9986143e-02
  2.4225483e+00
 -2.1018190e+00
 -1.2607473e+00
 -9.2091161e-01
  2.1152900e-01
 -9.3752873e-01
 -1.6226543e+00
 -7.8007030e-01
  2.7777946e+00
  3.2576046e+00
  1.5087602e+00
  2.4109292e+00
 -2.4322357e+00
  2.4938681e+00
  2.4319599e+00
 -2.7926059e+00
  4.9101874e-01
 -4.1306782e+00
  4.6879992e-01
  7.8197944e-01
  2.6614401e+00
  1.0179303e+00
  4.3048120e-01
 -2.2385228e+00
  2.3257983e+00
  2.6581886e+00
 -1.8056967e+00
  1.1337645e+00
  5.1766849e+00
 -2.4008067e+00
  6.0075135e+00
 -2.8562601e+00
  1.1869955e+00
  3.5149109e+00
  7.2785598e-01
 -5.6787580e-01
  3.1324768e+00
  1.8000226e+00
  2.1939242e+00
 -2.3752115e+00
 -3.5797594e+00
  3.5161421e+00
 -2.4195652e+00
  1.3013574e+00
  5.6028571e+00
  3.4864303e-02
  8.8174969e-01
 -1.2551843e+00
 -5.9111495e+00
 -1.4889063e+00
  1.4807881e+00
 -3.6519284e+00
 -3.8783870e+00
 -3.8566923e+00
 -5.8561605e-01
  5.6450057e-01
 -4.8119078e+00
 -6.5680081e-01
  1.0313938e+00
  6.2574601e+00
  2.9406824e+00
  7.9193771e-01
  2.1938889e+00
 -6.7662892e+00
  3.8963475e+00
  3.4349163e+00
  7.0666319e-01
  8.6955750e-01
  6.6498458e-01
 -4.3417835e+00
  1.1633996e+00
 -2.8014290e-01
  2.2171991e+00
 -6.9425340e+00
 -1.4790857e+00
  1.3477480e+00
 -1.3422725e+00
 -6.4719373e-01
 -1.4901903e+00
 -3.1833155e+00
  3.8987474e+00
  1.3913130e+00
  6.5536338e-01
 -5.5938584e-01
 -2.3892403e+00
 -7.6608378e-01
 -1.4553952e+00
  1.3569479e+00
  1.6149471e+00
 -2.4007773e+00
 -1.1025912e-01
 -1.1030010e+00
  1.2450259e+00
 -3.8127804e-01
  1.1880168e+00
  3.3811998e+00
 -2.1692543e+00
 -2.0653062e+00
 -2.0520751e+00
  2.4705660e+00
 -1.1180738e+00
 -4.7792274e-01
  1.2885039e+00
  2.4666936e+00
 -4.6555486e+00
  1.8686630e+00
 -1.2757114e+00
 -8.6994857e-01
  4.5150328e-01
 -3.3294117e+00
  1.1279719e-01
  1.8969123e+00
  2.0252852e+00
  9.1456079e-01
 -1.9219780e-01
 -7.7204168e-01
 -2.8547618e+00
  2.0762637e+00
 -6.5847844e-01
  1.6173177e-03
 -3.0460634e+00
  1.1222067e+00
  4.3076220e+00
 -5.5956779e+00
 -3.1071084e+00
  7.0871983e+00
  2.6042385e+00
 -1.0789016e+00
  8.0593818e-01
  1.0095195e+00
  2.5551691e+00
  1.1715872e+00
 -3.0665632e-02
  5.0852733e+00
  4.3284564e+00
  4.8762732e+00
 -6.9415367e-01
  3.2831590e+00
 -3.7503040e-01
  1.5094651e+00
  5.0252247e+00
 -2.7279932e+00
  1.1049790e+00
  4.7675066e+00
 -2.0605783e+00
 -3.0166287e+00
  5.5561996e-01
 -1.3000667e+00
 -3.3436372e+00
  1.2429588e+00
  3.0590270e+00
  3.1596664e-01
  2.1212285e+00
 -1.2623944e+00
  9.4419634e-01
 -1.7771833e+00
 -1.9651949e+00
  5.6487012e+00
 -1.0096927e+00
  7.5819957e-01
  4.5619440e-01
 -1.7565031e-01
 -2.0367918e+00
  2.1323251e-02
  9.7508982e-02
  1.1666721e+00
  4.8330906e-01
  8.1826860e-01
  5.6620383e-01
  1.0688445e-01
  5.7359165e-01
 -4.7256792e-01
  2.7481344e-01
 -6.9542807e-01
 -2.6199988e-01
  1.7567651e+00
 -2.3964089e-01
 -1.3382910e+00
 -6.0173217e-02
  1.6584338e-01
  3.2086792e+00
 -6.5999603e-01
 -2.0473998e+00
 -4.9177319e-01
  4.1391370e-01
 -1.1885034e+00
 -4.0387005e-02
  1.0354912e+00
  4.6549615e-01
 -4.6942860e-01
  1.0191618e+00
 -3.9146420e-01
  1.6484692e+00
  3.3837671e+00
 -2.5615135e-01
 -1.3754380e+00
  1.9181918e+00
 -2.2132795e-01
 -1.9104505e+00
  1.2802081e+00
  4.7291675e-01
 -9.0771329e-01
 -5.4268968e-01
 -4.0487149e-01
  1.4359714e+00
 -3.7908405e-01
 -3.5589325e+00
  1.4707379e+00
  1.1177991e-01
 -1.5249910e+00
 -2.7595767e-01
 -2.9250115e-01
  4.0596290e+00
  1.4098029e+00
  4.7967505e+00
 -2.6717706e+00
  4.0863051e+00
 -1.4794091e+00
 -6.6124187e+00
  4.9152551e+00
  1.2167377e+00
 -4.1761681e-01
 -1.5461220e+00
  1.2894601e+00
  3.3994451e-01
  3.3529482e+00
  2.7731555e+00
  2.8803449e+00
 -5.5759377e+00
  1.2178786e+00
 -9.7099192e-02
 -9.1785204e-01
  8.8550830e-01
 -4.3429583e-01
  3.1514708e-03
 -5.7742615e+00
 -4.0133042e+00
 -2.4580927e+00
  4.3160706e+00
 -1.9358444e+00
 -1.7012050e+00
 -3.6897714e+00
  7.8331310e-01
 -6.7642742e-01
 -2.1808121e+00
  3.0789456e+00
  5.7793123e-01
 -4.3329139e+00
 -3.0228627e+00
  2.6002035e+00
 -3.7295587e+00
  9.0947002e-02
 -1.1582129e+00
 -5.2601689e-01
  7.3398650e-01
 -8.5539937e-01
  1.2616129e-01
 -2.8273919e+00
  4.8311291e+00
  1.0578160e+00
 -2.0587714e-01
 -8.5983169e-01
  1.7949961e-01
  3.0480668e-01
 -4.4635754e+00
  2.3493795e+00
  1.7360142e+00
  3.8580674e-01
 -4.1539970e-01
  1.8004527e+00
  1.3482617e+00
 -7.3197788e-01
  1.1375742e-01
 -9.5381182e-01
  7.4594170e-01
  3.2589672e+00
 -4.0699201e+00
  2.1771555e+00
  1.4580061e-01
  2.4183478e+00
 -3.4093266e+00
  6.2017918e-01
  3.6100216e+00
 -8.6625731e-01
 -4.2634997e+00
 -4.4645673e-01
 -1.7133225e+00
  6.2730384e-01
 -9.4027191e-01
  1.2826107e+00
 -4.3269310e+00
  5.3849401e+00
  1.4753373e+00
  3.1739652e-01
  2.6035789e-01
 -1.1677966e+00
  6.1719340e-01
  3.7078035e+00
 -5.0279994e+00
  4.0484470e-01
  1.6081015e+00
  3.2469363e+00
  4.0687208e+00
 -1.8851520e-02
 -3.2232895e+00
 -3.2474527e+00
  1.7363764e+00
 -9.4918257e-01
 -1.5013870e+00
  3.0517426e+00
  3.4796517e+00
 -5.5623770e+00
 -4.6218438e+00
 -3.5113037e+00
  2.3434005e+00
 -1.5882295e+00
  4.2511749e+00
  1.5913924e+00
 -4.2453723e+00
 -7.7584748e+00
  1.9999815e+00
  1.3426427e+00
  1.5467527e+00
 -1.1390299e+00
  3.3012476e+00
  4.4801168e+00
  2.1397066e+00
  3.5875301e+00
  4.3208556e+00
  3.4214292e+00
  1.9540939e-01
  2.3163066e+00
  1.5644076e-01
  1.7803025e+00
 -3.6484559e+00
 -2.3070288e+00
  1.2445706e+00
  4.2613654e+00
 -2.1021557e+00
 -2.7622506e-01
 -9.4539803e-01
  1.6882199e-01
  1.4130877e+00
  8.6798280e-01
 -5.1513815e+00
  8.4137440e-02
  4.7341451e-01
  2.3203495e+00
 -3.1271393e+00
 -5.7216821e+00
  3.8348134e+00
 -2.0032892e+00
 -2.0736475e+00
 -3.4122224e+00
  2.9618456e+00
  1.5979685e+00
  3.4011788e+00
 -1.0964948e+00
 -5.9642315e-01
 -2.0801105e+00
  1.4678359e+00
 -1.3150972e+00
  2.5530756e-01
 -3.4804347e+00
 -1.9462324e+00
 -1.7048033e+00
  2.9384215e+00
 -1.6582426e+00
  1.0978649e+00
 -3.4576917e-01
 -1.5636925e+00
 -1.0749308e+00
  1.8454813e+00
 -2.2092550e+00
 -6.0714374e+00
 -2.9222848e+00
 -1.0298988e+01
 -1.4126141e+00
 -1.5807873e+00
  4.6274400e+00
 -3.2349036e+00
  3.8457539e+00
 -3.1948376e+00
  4.2290540e+00
  5.2947134e-01
  5.2815828e+00
  6.7640471e-01
 -1.0169263e+00
 -2.0157533e+00
  1.5507830e+00
  3.8286886e-01
  6.7716974e-01
  2.0237850e-01
 -7.9046130e-01
 -3.9561503e+00
  7.2865987e-01
  1.7338954e-01
 -1.5272806e+00
  3.0634148e+00
 -8.4885500e-02
  5.1690679e-02
 -7.1933484e-01
 -2.9753995e-01
  4.5478811e+00
  5.3106432e+00
  1.7441611e+00
 -1.3451557e+00
  2.6487212e+00
  2.0839667e+00
 -9.9020290e-01
 -2.4139664e-01
  2.2647338e+00
  3.4168077e+00
  3.1717920e-01
 -1.4658359e+00
  5.4773808e+00
  3.8736751e+00
 -5.3415184e+00
 -2.7817500e+00
 -9.5886624e-01
  1.6403028e-01
 -4.7683830e+00
  6.2516155e+00
  6.3994241e+00
 -3.2914085e+00
 -2.5377197e+00
  2.0857906e+00
  4.0822921e+00
 -7.4555278e-01
 -2.2426252e+00
 -2.5801406e+00
  1.2420028e+00
 -8.7118578e-01
  2.9700768e-01
  1.2421634e+00
  3.2388597e+00
  1.8216988e+00
 -1.2550390e+00
  3.5148542e-02
  5.7842903e+00
  1.2881216e-01
 -2.4514868e+00
 -5.0213683e-01
 -4.5056429e+00
  1.2801801e+00
  9.6179858e-02
  3.6932323e+00
  4.1890864e+00
  4.4970174e+00
 -3.7430754e+00
  1.6608055e+00
  2.4836858e-01
  7.1050751e-01
 -7.7774644e-01
  1.4524726e+00
 -7.8962398e-01
  7.5212449e-01
  1.4597424e+00
  3.9420161e+00
  7.9442486e-02
  1.9124788e+00
 -4.3771598e-01
 -6.1277544e-01
 -1.8144451e-01
 -1.3245226e+00
  9.2146009e-01
  5.1676536e+00
  7.3450083e-01
 -9.5215261e-01
 -2.1944499e+00
  5.9368037e-02
 -1.5392534e-01
  2.1116400e-01
  4.7673855e+00
  6.5968364e-01
 -4.7306137e+00
 -7.8801948e-01
  8.3402634e-01
 -1.0636467e+00
 -1.0115623e-01
 -1.6096677e+00
  3.6495092e+00
 -1.1342757e+00
 -1.3072656e+00
  9.2883146e-01
 -1.4314190e+00
  7.4575663e-01
 -4.3393474e+00
 -8.7729341e-01
 -4.4592690e+00
  1.1850008e+00
 -1.2815928e+00
  1.4701892e-01
  2.3254991e+00
  4.5931369e-01
 -3.5467844e+00
 -6.7637796e-03
 -1.6649872e+00
 -5.4585445e-01
 -4.7181826e+00
  4.4799132e+00
 -3.7474842e+00
  3.1583998e+00
  4.0835986e+00
  5.8898520e+00
 -8.0691034e-01
  2.3768756e+00
 -1.0279064e+00
  4.1284165e+00
  2.3018179e+00
  4.9347930e+00
  2.8427100e+00
 -1.6970787e+00
 -3.0547431e+00
  2.5654330e+00
  6.5179958e+00
  2.3718708e+00
  2.9849181e+00
 -2.7308230e+00
  1.8907636e+00
 -9.9489117e-01
  1.1894977e+00
  1.7505718e+00
  2.1072307e-01
  4.9860263e+00
  1.0768839e+00
  1.5149451e+00
 -2.0793276e+00
 -3.1282079e+00
 -1.0743700e+00
 -8.6332577e-01
 -2.1560462e-01
  2.1361687e+00
 -1.2606640e+00
 -7.9718137e-01
 -5.0030947e+00
  2.5445494e-01
 -4.7859821e-01
 -1.1360819e+00
  2.7514348e+00
  3.1131374e-02
  7.3211700e-01
 -9.3188173e-01
 -2.7695632e-01
  1.7607275e-01
 -3.3116016e+00
  3.7840011e+00
 -2.9799548e-01
  4.4795547e+00
 -2.7847223e+00
 -1.7996418e+00
  5.3705418e-01
 -1.1313865e+00
 -3.4009998e+00
  2.1985565e-01
 -1.0242542e+00
  2.9067776e+00
  1.5781383e-01
 -1.7031444e+00
 -4.7284043e-01
 -5.2310681e-01
  2.3563528e+00
  1.7844635e+00
 -3.3366776e+00
 -3.9180171e-01
  3.1978047e-01
 -6.2067360e-01
  7.3774196e-02
  8.5475266e-01
 -1.7696574e+00
 -5.5149496e-01
 -4.3301835e+00
  1.9722188e+00
  2.3629463e+00
  6.1941800e+00
 -2.2229831e+00
  2.3655810e+00
  9.9441111e-01
  3.9737719e-01
 -4.8641038e+00
  3.4702513e+00
  2.3791969e-01
  1.6320479e+00
 -2.7387028e+00
  1.2511882e+00
 -4.3442020e+00
 -3.0594304e+00
  2.4118512e+00
 -3.4965990e+00
 -3.5823846e-01
 -1.5927230e+00
 -2.4718411e+00
  3.8605025e+00
 -3.9361973e+00
 -8.2133651e-02
 -1.8626887e+00
  5.8099520e-01
  5.1620662e-01
  2.5312910e+00
  5.7279831e-01
 -2.4873703e+00
  2.4591217e+00
  1.7371991e+00
  5.2206647e-01
 -3.3921209e-01
 -2.7058332e+00
  1.0567672e+00
  2.0531375e+00
 -1.1160244e+00
 -1.6607631e+00
  7.3750871e-01
  1.4039065e+00
  4.0911465e+00
  1.2096994e-01
  2.4145172e+00
 -1.8707684e+00
  2.2180102e+00
 -2.5275593e+00
  2.6735876e+00
  1.3366370e-01
 -7.9625434e-01
  3.3480155e+00
  3.3235949e-01
  9.5282978e-01
 -9.8595810e-01
  1.2765964e+00
  2.6381204e+00
 -4.6181936e+00
  6.5472430e-01
 -2.4756706e+00
 -2.3634548e+00
 -2.2564001e-01
 -1.6011372e+00
  2.1182742e+00
  4.0161827e-01
 -2.2987217e-01
 -2.8352628e+00
 -1.9943646e+00
  2.9236670e+00
 -9.7923601e-01
  2.4942181e+00
 -3.3412349e+00
 -1.0093502e+00
 -2.5193253e+00
 -2.5097558e+00
  1.7184037e-01
  2.1700432e+00
 -2.2775707e+00
  3.0148602e+00
  1.5936120e+00
 -1.6665252e-01
 -6.2138909e-01
  2.5675111e+00
  1.4913676e+00
  2.7920220e+00
 -6.5050173e+00
  1.5936401e+00
  3.0587473e+00
  2.3379998e+00
 -2.3539054e+00
 -3.0893183e+00
  3.9806561e+00
 -2.5634744e+00
 -1.0078216e+00
 -8.3256572e-01
  2.6246855e+00
  8.3061600e-01
  2.4247906e+00
  3.8152344e+00
  3.9799452e-01
  5.2858176e+00
 -2.1980834e-01
  4.6772451e+00
 -4.1230896e-01
 -1.4395211e+00
  6.8513742e-03
  1.9423772e+00
  3.6229560e+00
  5.5040464e+00
 -5.1581317e-01
  2.0508549e+00
  2.4944167e+00
  1.6206951e+00
  7.8826284e-01
 -2.3215581e-01
 -3.8545821e+00
  3.5070693e-01
  2.0286505e-01
  3.4714262e+00
  1.4288317e+00
  2.7791571e-03
  2.4651544e+00
  1.9222614e+00
  1.7633970e+00
 -1.8504072e+00
  9.8932707e-01
 -1.1504877e+00
 -4.3943942e-01
  2.4069388e+00
  4.2754468e-02
  1.1425046e+00
 -2.5003150e+00
  9.6797401e-01
  4.3734560e+00
 -2.4935243e+00
 -1.2527276e+00
 -5.2955022e+00
  8.0120724e-01
  2.3247888e+00
 -2.2115650e+00
  1.2506722e+00
 -5.9220272e-01
  3.8614891e+00
  4.5501772e-01
 -6.7136830e-01
 -1.9246358e+00
  3.6822839e+00
 -6.1166447e-01
  1.0486805e+00
  1.5081031e+00
  5.6282610e-01
 -1.4009998e+00
 -1.5566881e+00
  2.5964317e+00
 -4.3796749e+00
 -4.6837786e-01
 -5.2352156e-02
  3.6490273e+00
  3.5602047e+00
 -9.9113059e-01
  7.0066583e-01
  2.4332492e+00
  1.5308207e+00
  5.5262957e+00
  6.2390384e-03
  1.2807121e+00
 -9.0784359e-01
 -3.3142536e+00
  6.8379992e-01
 -1.2744309e+00
  2.7328634e+00
 -1.7277137e+00
 -8.7399817e+00
 -3.0250595e+00
 -3.1334143e+00
  1.3879095e-01
  5.2003593e+00
 -1.3832209e+00
 -1.2315995e-01
 -3.9743468e-01
  1.3374835e+00
  2.9551834e-01
 -9.1965175e-01
  1.5716298e+00
  1.7155495e+00
  2.6462710e+00
  3.1939015e+00
 -1.2918861e+00
 -4.3597741e+00
 -5.5906849e+00
 -9.1535145e-01
 -1.0441185e+00
  1.2855706e+00
  1.5358020e+00
  8.9911306e-01
 -3.7774580e+00
  5.1326489e+00
 -1.6590325e+00
  7.2250420e-01
  2.0628066e+00
  9.2704523e-01
  1.1524210e+00
 -3.1373858e+00
  2.3865161e+00
  2.5297225e+00
  1.5338717e+00
  3.8896590e-01
 -7.3612309e-01
  1.9114671e+00
 -3.3448348e+00
  2.3405302e+00
  1.4423802e+00
 -6.9856071e-01
  3.2761056e+00
  6.1807261e+00
 -6.2233143e+00
 -4.8633990e+00
  5.7962137e-01
  1.1422596e-01
 -4.1929512e+00
 -3.8979560e-01
 -1.3786666e-01
 -1.9721777e+00
  4.5022321e+00
 -1.3047067e+00
  1.6386757e+00
  2.2919397e+00
 -2.6159961e+00
 -4.7114120e+00
 -6.0160933e+00
 -2.4365392e+00
 -1.7384660e+00
  2.8606106e-02
 -1.1630398e+00
 -1.5166459e+00
 -7.6622695e-01
  1.3691248e+00
  1.5658776e+00
 -2.8471107e+00
  3.3167288e+00
 -6.2826548e+00
 -3.1222911e+00
  3.9174347e+00
  4.7023110e+00
  2.0430789e+00
  1.8991714e+00
  2.5405757e+00
  3.1690075e+00
  2.8025954e+00
  6.2012041e-01
  2.6111174e+00
  4.4783735e+00
  9.0236586e-01
 -2.6315096e-01
 -2.8456340e+00
  8.8686064e-02
  3.4473081e+00
 -9.3635398e-01
  2.3888793e-02
 -1.5819858e+00
  1.1540101e+00
 -1.2904721e+00
  3.1653597e+00
  2.2382205e+00
  6.0376570e-02
 -1.2229229e+00
 -2.9154879e-01
  1.1643919e+00
 -1.1809006e+00
  4.7081842e+00
 -3.3060896e+00
 -2.6325768e-02
  8.2906771e-01
  2.5767691e+00
  2.7395124e+00
 -8.8565302e-01
  3.0390954e+00
 -2.9103620e+00
 -4.3225088e+00
  4.0495353e+00
  1.0407805e+00
  5.8773148e-01
  3.9148140e+00
 -7.1079081e-01
  1.6842448e+00
 -3.8042131e-01
 -1.4523043e-01
 -1.7761143e+00
  3.6630106e+00
  2.3315480e+00
  2.8557754e-01
 -2.0665753e+00
 -1.3016130e+00
  3.8604088e+00
  2.1069498e+00
 -1.2389655e+00
  1.7821097e+00
  8.0850893e-01
 -1.6696697e-01
  6.9221396e+00
  1.0952038e+00
  2.7336831e+00
 -1.7105779e-01
  3.4995699e+00
  2.5646932e+00
 -2.8507268e+00
  3.9863980e-01
  2.6024942e+00
  2.3810606e+00
  1.0490003e+00
 -6.2429655e-01
 -2.0441085e-01
 -4.7553265e-01
  7.0656043e-01
  2.4879167e+00
 -1.1693048e+00
  6.3413131e-01
 -3.2102678e+00
 -2.2575982e+00
  7.2889316e-01
 -1.4868785e-01
 -2.1462336e-01
 -3.2703438e+00
 -5.2091489e+00
  1.2420920e+00
 -1.0724846e+00
  5.0923338e+00
 -1.9935915e+00
  7.4869215e-01
  1.1337992e+00
 -3.9483957e+00
 -6.4883442e+00
  4.3665366e+00
  3.5563600e+00
  1.1691277e+00
  3.9126501e+00
  8.6129946e-01
 -5.8210049e-02
  6.3753819e-01
  2.7335067e+00
 -3.4946200e-01
  1.0886174e-01
 -3.3987095e+00
  1.8000809e+00
 -3.7014887e+00
  5.4380673e-01
 -2.3710485e+00
  1.5114635e+00
 -2.7413983e+00
 -4.7906998e-01
  2.3151577e+00
 -3.8121448e+00
  2.1145889e-01
  6.7389693e+00
  6.9931561e-01
 -7.3627037e-01
 -1.4514586e+00
 -6.9531061e-02
 -2.2327083e-01
  8.0570192e+00
 -2.0959474e-01
  9.0665334e-01
  1.4423614e+00
 -8.4548360e-01
  1.7975032e+00
  2.3535979e+00
 -1.1609961e+00
  6.2329173e+00
  7.6087707e-01
  7.0654291e-01
 -6.1242199e+00
 -2.8206265e+00
 -3.8082318e+00
  2.3587823e+00
 -1.7720035e+00
  1.1768951e-01
 -2.3516381e+00
 -1.2134782e+00
  2.0928814e+00
  5.0469284e+00
 -8.7590533e-01
  1.5655819e+00
  1.3427559e+00
  3.4742205e+00
  3.0610471e+00
  1.2005068e-01
 -3.2388413e+00
 -1.2938702e+00
 -3.3734756e+00
  3.1900721e+00
 -3.5177233e+00
 -2.8703723e+00
 -3.5405761e-01
 -2.2048993e-02
  1.9714246e+00
  4.1565571e+00
  5.4897135e-01
  1.4552048e+00
 -1.7619913e+00
 -3.1178386e+00
 -6.2454127e-02
  4.6977868e+00
  1.0284420e-01
 -2.7150443e+00
 -3.5455084e+00
 -1.1279422e-01
  3.6778703e+00
  4.0724325e+00
 -1.1634562e+00
 -5.5928917e+00
  1.2626848e+00
  3.4266872e+00
  5.4634506e-01
 -1.2361188e+00
 -2.4262412e+00
  1.2199892e+00
 -1.7240459e+00
  1.3273702e+00
  2.7364254e-01
  5.6517673e-01
  3.0320072e-01
  4.2803030e+00
 -4.2198415e+00
  1.8537416e+00
 -2.0274003e+00
  2.1210448e-01
  2.2941051e+00
  2.9718006e+00
  2.5469394e+00
  3.2438071e+00
 -2.2822371e+00
  2.9709247e-01
 -3.1557167e+00
 -6.6798024e+00
 -4.1456857e+00
 -1.5135131e+00
 -6.8236673e-01
 -1.9828724e+00
  1.6001095e+00
 -3.3706567e-01
 -2.3481207e+00
 -2.2611358e+00
 -6.6243310e+00
 -8.4591484e-01
  3.6824489e+00
  1.1910150e+00
 -8.5175771e-01
  9.8191607e-01
 -1.6870145e+00
 -3.5829437e+00
  1.8437539e+00
  2.0139070e+00
  1.1577153e+00
  3.8417468e+00
 -3.3300180e+00
  2.7404475e+00
  8.4291857e-01
  2.1139102e+00
  3.9318941e+00
  5.8015957e+00
 -1.2389498e+00
 -3.2460511e+00
  1.5775023e+00
 -1.5162487e+00
 -2.1141419e+00
  6.3399343e+00
  2.4992189e+00
  5.6228113e-01
  6.7605133e+00
  2.9361079e+00
 -5.6135650e+00
 -4.4036717e+00
 -2.1025400e+00
  3.8206008e-01
  1.4803916e+00
  2.1409683e+00
 -2.5360432e-01
  4.7844481e-01
  3.3556182e+00
  2.6777211e-01
 -1.0582997e+00
  7.5271934e-01
  3.1057944e+00
 -5.7066762e-01
 -6.5222335e-01
 -2.2941270e+00
 -3.1874008e+00
 -1.4076437e-01
  4.0781965e+00
 -9.7628433e-01
 -2.5181506e+00
 -2.8295212e+00
  2.0459127e+00
  4.3675423e-01
  2.9171019e+00
  1.5795989e+00
 -1.1519250e+00
 -8.2575202e-02
 -2.3021477e-01
  1.0267518e+00
 -7.6656985e-01
 -5.4291487e+00
 -4.7391047e+00
  9.0168327e-01
 -2.6141908e+00
 -8.0502379e-01
  1.8534353e+00
  1.9059582e+00
 -9.8176759e-01
 -4.3111343e+00
  3.2206209e+00
  2.3077996e+00
  5.7855563e+00
  8.8611704e-01
 -3.6749544e+00
  1.3613931e+00
 -7.0895505e-01
 -1.1448429e+00
  3.1455543e+00
 -6.5215321e+00
 -6.5807694e-01
 -1.7457432e+00
  1.6063243e+00
 -1.3988943e-01
 -1.3317240e+00
  3.7057328e+00
  1.1161888e-01
 -5.0243378e+00
 -2.0125771e+00
 -6.7531419e-01
 -2.1942403e+00
  5.4861736e+00
 -3.1157546e+00
  1.5825379e+00
  2.0714159e+00
  8.1734335e-01
 -4.7674108e-01
 -5.5493741e+00
  9.7374338e-01
  2.4329503e+00
  7.2607261e-01
  1.0280008e-01
  1.8866537e+00
  4.7647462e+00
 -1.7308894e+00
  2.0744100e+00
 -1.3974495e-01
  2.4365711e+00
 -4.9238234e+00
  2.5344739e+00
  1.5259117e+00
 -1.9534082e+00
  1.5760635e+00
  3.4049492e+00
 -4.0450051e-01
 -6.1993164e-01
  2.4043007e+00
  1.6419573e+00
 -3.7775454e-01
  1.0476285e+00
  7.6192045e-01
 -2.0860896e-01
  3.3841696e+00
 -3.3999282e-01
 -1.8628000e+00
 -1.3523511e+00
  2.1157008e-01
 -2.7365112e+00
  1.4179612e+00
 -2.3392830e+00
 -4.9428358e+00
 -1.7136124e+00
  1.6772673e+00
  8.0610687e-01
 -6.4517505e-02
  6.1662513e-01
 -4.5052323e+00
  9.1359288e-01
 -3.3705838e+00
 -2.0324614e+00
 -8.7907404e-01
 -3.3949442e+00
 -3.7605424e+00
  2.2653174e+00
 -1.2763926e+00
 -2.2231469e+00
  2.4596074e+00
 -3.8911908e+00
  4.9757427e-01
  3.9394758e+00
 -3.1059139e+00
  1.0788571e+00
  2.3068540e+00
 -5.6275970e-01
  3.5493462e+00
 -1.0608774e+00
 -3.1371028e+00
  2.3245964e+00
  1.6312099e+00
  2.4867294e+00
  3.3012512e+00
 -5.2156669e-01
  1.3525231e-01
  1.1152847e+00
  1.9335413e+00
  2.0391543e+00
  2.5582929e+00
  2.5945947e+00
 -1.7285895e+00
  1.3537223e+00
  5.5727510e+00
 -2.6900139e-01
 -3.9468596e+00
  3.8726704e+00
  2.4068596e+00
  7.1218079e-01
 -8.0630219e-01
  1.4522604e+00
  7.2925621e-01
  1.7328062e+00
  3.5567470e+00
 -1.4816376e+00
 -1.8914607e+00
 -2.1326749e+00
  5.1424160e+00
 -5.8267326e+00
  1.2574168e+00
  1.5706930e+00
  2.1836705e+00
  2.5920839e+00
 -4.3280177e+00
 -9.6656758e-01
 -3.9279463e+00
  1.3053831e+00
 -7.0149469e+00
 -2.7745001e+00
  6.8979340e+00
 -4.3318577e+00
 -4.8226830e-01
  2.3419191e-01
 -1.0954759e+00
  1.1403258e+00
 -4.8520093e+00
 -1.6592835e+00
 -2.1331359e-01
 -2.7014589e+00
  1.1636032e+00
  1.5879016e+00
  2.2210073e+00
 -6.7179662e-01
 -5.2744212e+00
  1.6298542e+00
 -4.1809020e+00
 -1.0164976e+00
 -2.9819963e+00
  1.8180149e+00
  3.3371720e+00
  1.5690472e+00
 -5.5924935e+00
 -8.1742436e-01
 -8.3315635e-01
 -1.5147406e+00
  4.8736450e-01
  3.6383326e+00
  3.7883387e+00
 -6.7858540e-02
  2.4434996e+00
  2.7242537e+00
  7.2701849e-02
 -9.6678454e-01
 -1.4162260e+00
 -4.9718493e-01
 -1.0995494e-01
 -1.6333157e+00
 -1.8775284e-01
  9.2557746e-01
  8.8770407e-01
 -4.3127337e+00
  2.0143652e+00
  3.7107745e-01
  1.7605759e+00
 -8.9782900e-01
  5.4702849e+00
  1.3379338e-01
 -1.6270530e+00
  3.6074162e-01
 -1.1706026e+00
 -1.6545662e+00
  2.9077785e+00
  1.0986745e+00
  1.3738672e+00
 -2.0591865e+00
 -1.0287807e-01
 -2.6548419e+00
  3.7675431e+00
 -1.7763609e+00
  3.1773381e+00
 -2.8278141e+00
  5.8169180e-01
  1.3822612e+00
  3.8785484e+00
  7.7275343e+00
  2.7284279e+00
  2.8690054e+00
  1.1244479e+00
  1.8177077e+00
 -7.7703756e-01
  1.4910533e+00
 -3.4972627e+00
  1.4491920e+00
  4.8543220e+00
 -3.0923135e+00
 -4.1906147e+00
 -5.9776063e+00
  9.6512377e-01
  3.4423237e+00
  1.3432233e+00
  3.2139587e-01
 -3.0220139e+00
  5.9349275e-01
  1.7680129e+00
  2.4662912e+00
  3.6703327e+00
  3.5803744e-01
  3.7947369e-01
  3.2570217e+00
  6.3226813e-01
  2.6436911e+00
  2.4823151e+00
  6.7481389e+00
  1.8041303e+00
  6.0970774e+00
  2.2434352e-01
  3.7356177e-01
  2.0297740e+00
  1.2792775e-01
  3.1838782e+00
  3.9445312e+00
 -4.4499936e+00
 -8.5668063e-01
 -1.6925950e+00
 -2.4262433e+00
 -2.8109002e+00
 -1.9935730e-01
 -1.6461772e+00
  1.8948976e+00
  4.2876992e-01
 -5.0898021e-01
 -2.0910692e+00
 -1.3122724e+00
 -2.5482869e+00
 -7.3153603e-01
  7.5291395e-01
  5.9072471e-01
 -9.7145742e-01
 -1.5684304e+00
 -2.0235162e+00
 -3.6007812e+00
 -2.5600588e+00
 -3.0143380e-01
  4.9587264e+00
 -6.6163821e+00
  1.1444124e+00
 -2.0600641e+00
 -6.3459897e+00
  1.0371961e-01
  4.2270865e+00
 -2.0081758e+00
 -8.2516819e-01
  4.4809160e+00
  1.4834984e-01
 -2.3970904e+00
 -5.0272447e-01
  5.1783614e+00
 -1.6384559e-02
 -7.2242922e-01
 -4.4932537e+00
  8.1742626e-01
  1.6058427e+00
  3.2189140e-01
 -3.9747369e-01
 -2.4059033e+00
 -3.1229675e+00
 -1.1525786e-01
 -4.8718575e-02
  1.0892348e+00
  2.7496219e+00
 -1.8582428e+00
 -6.3917887e-01
  7.9618198e-01
 -3.7864425e+00
  3.7446122e+00
  4.0692630e+00
  7.5716889e-01
  1.6058363e+00
  2.7259364e+00
  2.8557243e+00
  6.1190634e+00
  2.6639464e+00
  6.9745913e+00
 -2.4190462e+00
  7.9696275e-02
 -1.3903326e+00
 -2.9021404e+00
  1.5846448e+00
  2.6039693e+00
 -1.6331853e+00
  1.0341179e+00
  4.7173047e+00
  4.6521133e-01
  4.0630725e-01
  2.8434401e+00
  3.7639630e+00
  4.9297026e-01
  3.7036991e+00
  3.0872777e-01
  1.6058128e+00
  1.8480448e+00
 -1.4178631e+00
  8.5315275e-01
  4.3762984e+00
  2.9311340e+00
 -1.4032136e+00
  2.0247281e-01
  2.9698882e+00
 -3.4892149e+00
 -3.7699008e+00
  8.5420179e-01
  2.8600528e+00
 -1.8910135e+00
  6.3593441e-01
 -2.2043990e-01
 -3.1789191e+00
  6.0845175e+00
  1.3790385e+00
  1.1834354e-01
 -2.4768431e+00
  4.2694455e-01
 -1.5226343e+00
  1.8191366e+00
  5.2580988e-01
 -2.0317416e+00
  2.5242085e+00
  1.1937854e+00
 -4.6958528e+00
  6.5373707e+00
  4.1558686e-01
  5.5130947e-01
  8.7231932e+00
 -2.7384952e-01
 -4.4959193e-01
  4.2978539e+00
  2.6822288e+00
  4.7877860e+00
 -4.2253714e+00
  3.6567709e-01
  1.8705577e+00
 -1.7019790e+00
 -1.3156071e+00
  3.0110571e-01
  4.1159449e+00
  9.2053521e-01
 -5.4225197e+00
 -2.8024390e+00
 -1.9726105e+00
 -2.1944745e+00
 -3.4063826e+00
 -6.4673858e+00
  6.5261602e-01
 -1.8291013e+00
 -1.2823447e+00
 -1.0553476e+00
 -4.2773741e-01
 -2.3934884e-01
 -4.1954449e-01
  5.5585938e+00
  8.5846359e-01
  1.4867060e+00
 -4.5798469e+00
  1.2810702e+00
  2.5035903e+00
  7.8577461e+00
 -1.6686856e+00
 -4.2249808e+00
 -2.0760758e+00
  3.5090928e+00
  1.0725737e+00
  2.2699852e+00
  4.2467890e+00
 -2.2026184e-01
  9.0750653e-01
  1.7016166e+00
  1.5162867e+00
  7.9983521e-01
  2.7227607e+00
 -6.1547308e+00
  1.6817875e+00
  9.3011224e-01
 -2.3117440e+00
 -2.7118421e+00
  3.4542892e+00
  1.7571603e+00
 -1.4816747e+00
 -8.8984567e-01
 -4.0147674e-01
  2.5676844e+00
  5.2785093e-01
 -3.7478061e+00
 -2.2715447e+00
 -2.1592891e-01
  1.2073205e+00
 -4.3546085e+00
 -1.9908524e+00
  3.4560099e+00
 -6.4110012e+00
 -9.9330050e-01
  5.1068407e-01
 -1.9274780e+00
 -1.4410633e+00
 -2.3669639e+00
  2.2555764e+00
 -1.2612642e+00
  2.6146319e+00
 -4.1240258e+00
  1.8579726e+00
 -1.6633597e-01
  1.9987736e+00
  2.4899368e+00
 -4.2131939e+00
  5.4966455e+00
 -2.3518245e+00
  4.6593127e+00
 -2.0789757e+00
 -5.8431988e+00
 -2.2870071e+00
 -9.3079062e+00
  3.0669141e+00
  6.4111743e+00
 -1.5900077e+00
 -5.7152843e+00
  2.5921011e-01
  1.1103560e+00
  1.7389977e+00
 -5.1592360e+00
 -2.4423647e+00
 -2.1424098e+00
  1.7866567e+00
 -2.6219571e+00
 -5.4600363e+00
  2.3750203e+00
  1.6609534e+00
  1.1418765e+00
  1.5304617e+00
  1.4476180e-01
  9.5747204e+00
 -3.9765980e+00
 -2.2410939e+00
  4.8045449e+00
 -2.4729812e+00
 -3.6646402e+00
  3.7905079e-01
 -3.3731019e+00
  2.0771990e+00
  1.8037616e+00
 -1.8761481e+00
 -5.3570098e-01
 -1.3156114e+00
 -3.1911113e+00
  4.5708984e-01
  5.6316533e+00
  2.2888963e+00
 -1.1491547e+00
 -2.0109134e+00
 -3.3683314e+00
 -5.3317585e+00
  3.1924250e+00
 -1.6563423e+00
  1.1119592e+01
 -2.5844409e+00
 -1.1930351e+00
  3.4108949e+00
 -9.3587977e-01
  2.5570426e+00
 -1.2655476e-02
 -3.1032664e-01
 -3.4468246e+00
  1.4899957e-01
  3.5934122e+00
  2.1681616e+00
  1.3589973e+00
 -3.7200534e+00
 -3.4669008e+00
 -4.3533406e+00
  1.2631798e+00
  1.2084961e-01
 -3.3381784e+00
 -8.9229268e-01
 -1.0766892e+00
  6.7356962e-01
 -1.4230076e-03
 -1.2635270e+00
 -1.8496569e+00
 -2.7370224e+00
 -1.2569063e+00
  4.4230768e-01
  5.0303459e-01
 -3.8330722e+00
  4.7998199e+00
 -2.7878966e+00
  1.3782500e-02
  3.3238420e+00
  3.5828686e+00
 -6.2922196e+00
 -3.5832076e+00
  2.7717960e+00
 -1.0070229e+00
  5.1846619e+00
  7.6634580e-01
  1.5175531e+00
  5.5760562e-01
  2.5647120e+00
  4.4281478e+00
 -4.0289146e-01
  3.8528953e+00
 -3.1403284e+00
  1.6046507e+00
 -9.5438033e-01
 -1.9102807e+00
  3.5681455e+00
  2.1959839e+00
 -3.5505316e+00
  2.7367845e-01
  2.0527306e+00
  4.7590637e+00
 -2.3575029e+00
 -3.3577451e-01
 -1.8528196e+00
  2.1479161e+00
 -5.3380662e-01
 -3.2809181e+00
 -5.5336338e-01
 -3.2403660e+00
  5.5285454e+00
 -4.0716925e+00
 -6.0685720e+00
 -1.4858907e+00
 -2.7582550e-01
  1.7636603e+00
 -4.8460131e+00
  3.3553021e+00
 -1.2014359e+00
  2.2136817e+00
  1.2349902e-02
  1.8617387e+00
  3.7464583e+00
 -5.2229638e+00
 -7.9158086e-01
  2.3958972e+00
  3.0294378e+00
  2.2980745e+00
  1.9197029e+00
  2.5738251e+00
  1.6843668e+00
 -1.0575362e-01
  2.1826773e+00
 -2.3575020e+00
 -7.0135421e-01
 -1.3135887e+00
  2.5151381e+00
 -2.7593544e+00
 -6.3314998e-01
 -2.8179765e+00
 -5.2063785e+00
  3.6498301e+00
  5.1312785e+00
  3.7539163e-01
  1.6212395e-01
  6.9277495e-01
 -7.3092562e-01
 -4.3993416e+00
 -3.1403837e+00
 -3.5109976e-01
  1.5294407e-01
 -6.8264848e-01
 -5.8202273e-01
 -9.5182858e-02
 -9.4437200e-01
 -6.0787816e+00
 -2.0048380e-01
  3.0712922e+00
  1.2463424e+00
 -5.3433245e-01
  3.1080461e-01
  5.9544063e-01
  2.7119567e+00
  1.2514194e+00
  1.2380232e-01
  6.3890142e+00
  2.8141580e+00
  3.0026798e+00
  2.5026481e+00
  2.6800594e-01
 -3.8891418e+00
 -3.0232911e+00
  2.2598252e+00
 -1.1209316e+00
 -1.6873941e+00
  5.7224383e+00
  4.4934171e-01
 -2.1750643e+00
 -4.5479789e+00
 -1.0123265e+00
 -1.0312247e+00
 -3.6398382e+00
 -1.7585771e+00
  1.4017341e+00
 -2.8802581e+00
 -2.4220948e+00
  3.0219767e-02
 -3.4498472e+00
  6.9351811e+00
  2.5125506e+00
 -4.1936913e+00
 -1.6964641e+00
 -2.6768191e+00
  2.0957148e+00
  2.3511000e-01
 -4.7671089e+00
 -2.2031918e+00
 -1.2478133e+00
  2.8453372e-02
 -2.3793213e+00
 -3.9712700e-01
 -4.4798732e+00
  6.9522947e-01
  1.4907382e+00
  2.0456839e-01
  6.2239188e-01
 -3.0002210e-01
 -2.5930681e+00
 -1.8672641e-01
  3.9920783e-01
  7.7904010e+00
  1.8414952e+00
 -5.6964455e+00
 -9.6277213e-01
  2.7914479e+00
 -6.1049497e-01
  1.2241043e+00
 -1.5983108e+00
 -2.0085282e+00
 -5.1912632e+00
  4.4804481e-01
 -4.2976298e+00
 -3.8226089e+00
 -1.3821483e+00
 -4.8479503e-01
 -5.2668004e+00
 -1.2403437e+00
 -1.0728935e+00
  1.9136549e+00
 -1.1598672e+00
 -7.3073249e+00
  5.9091562e-01
  1.6013148e-01
  3.4704907e+00
  4.8451848e+00
  1.2807376e+00
  3.3277669e+00
 -1.9806468e+00
 -7.1678030e-01
 -5.2510748e+00
  7.3964448e+00
  2.0672499e-01
  4.1771197e+00
 -1.2912543e+00
 -3.5331492e+00
 -2.0596879e+00
 -2.3852103e+00
 -1.0342366e+00
  2.9993179e+00
  1.7066674e+00
 -2.5147583e+00
  5.6602731e+00
 -4.5185927e-01
  4.9989438e+00
 -2.7393653e+00
  2.0132859e+00
 -1.7603240e+00
 -1.9406872e+00
 -7.5024114e+00
  3.7072873e+00
  4.0085092e-01
  3.4472458e+00
  7.4187952e-01
 -2.4760702e+00
  1.6004106e+00
  1.2320485e+00
  6.2413659e+00
  4.5221916e-01
 -1.1476997e+00
  4.2807355e+00
 -9.9260879e-01
  6.3739862e+00
 -2.8472200e-01
  2.3738706e+00
  1.0719131e+00
  9.7404701e-01
 -2.4455192e+00
  2.1747761e+00
  4.1290436e+00
 -1.0246615e+00
  2.9689248e+00
  1.0160326e+00
  2.7019563e-01
 -1.1536011e+00
  8.9269465e-01
  3.5125389e+00
  3.0926590e+00
  7.3852596e+00
 -4.6245798e-01
  2.2977510e-01
 -1.9975055e+00
  5.9958334e+00
  2.4637287e+00
 -3.8179092e+00
  7.6942503e-01
  1.5028875e+00
  2.5140936e+00
  4.2489829e+00
  2.2304080e+00
 -1.9616395e+00
 -2.7356379e+00
 -9.9645841e-01
 -1.0700771e+00
  5.5883044e-01
  3.9968181e+00
  1.5111203e+00
 -6.8814501e-02
  4.4666018e+00
 -1.2070031e+00
 -2.9376016e+00
  1.3629398e+00
 -3.8235447e+00
 -7.7887092e+00
  2.0876048e+00
 -1.4609993e+00
  2.9271309e+00
  3.4706554e+00
  3.1588197e+00
 -9.3438685e-01
  2.3763521e+00
 -2.1130776e+00
 -6.5655427e+00
 -8.4697837e-01
  4.3317757e+00
  4.6465388e-01
  4.6446662e+00
 -3.3073409e+00
 -3.8234060e+00
  9.9067432e-01
 -1.0760958e+00
 -2.2964308e+00
  3.3172741e+00
  3.4243729e+00
 -1.6289982e+00
  1.8363998e+00
 -8.2965404e-02
  4.4555366e-02
  3.2559030e+00
  1.9524475e+00
 -7.7858664e-02
  3.0555120e+00
 -1.9210936e+00
  2.0701766e+00
 -4.8891163e-01
  1.6922660e+00
 -1.1036010e+00
 -1.6543963e+00
 -1.3366892e+00
  4.9452276e+00
  7.0814699e-01
 -9.9379474e-01
  8.5087138e-01
 -1.7780434e+00
 -1.7112564e+00
  1.8422954e+00
 -4.0545335e+00
  3.5230627e+00
 -3.0120828e+00
 -3.5956998e+00
  3.7202148e+00
  1.7999033e+00
 -4.4019723e+00
  3.0274909e+00
 -3.2470689e+00
 -4.3954918e-01
 -3.6446962e+00
  3.6640396e+00
 -5.4860659e+00
 -3.1751566e+00
  2.9250575e-04
  4.4512779e-01
  3.0374627e+00
 -1.7134060e+00
 -8.6608243e-01
  7.3139830e+00
  1.1003273e+00
 -1.1553322e+00
 -2.7222216e+00
 -7.0529503e-01
 -1.3449475e-01
  4.3979058e+00
 -5.5357790e+00
  9.3888032e-01
 -2.2633958e+00
 -1.2758781e+00
 -3.3530447e+00
 -6.2114744e+00
  5.9313483e+00
 -4.2025262e-01
 -1.0494806e+00
  2.6085939e+00
 -1.7950506e+00
  4.5210788e-01
  3.5680988e+00
  2.4812653e+00
 -4.3708649e+00
 -1.1743841e+00
  4.2650909e+00
 -3.5766404e+00
  1.0428423e+00
  6.8375335e+00
  3.1980698e+00
  4.4533315e-01
 -5.1815920e+00
 -1.7173405e+00
 -6.0519724e+00
 -1.0795089e+00
 -4.6744800e+00
  3.6245060e-01
 -8.5246408e-01
  2.9657319e+00
  3.7926207e+00
  2.0303695e+00
 -1.4337330e+00
  8.4193331e-01
 -1.6802362e+00
 -3.0745814e+00
 -1.8520230e-01
  1.8999590e-01
 -3.0281954e+00
 -2.8867185e+00
 -2.1540010e+00
  2.3067751e+00
 -7.4179363e+00
  6.3136635e+00
 -1.0221046e+00
 -4.3548641e+00
 -3.7362430e+00
 -6.4533367e+00
  2.2479429e+00
  1.7143213e+00
  2.2497349e+00
  5.1816506e+00
  2.8392813e+00
  3.5589473e+00
  5.0812531e+00
 -5.4010434e+00
  4.8262725e+00
 -1.5551958e+00
  3.5233170e-01
 -4.5897923e+00
 -1.8195864e+00
  9.0364933e-02
 -3.8730669e+00
  2.7255121e-01
  5.4442000e-01
 -3.1015885e+00
  1.1267066e+00
  1.5169952e+00
  2.2733321e+00
  3.6001876e-01
 -2.9109466e+00
 -1.3346687e-01
 -8.6240292e-01
 -3.8641958e+00
  3.3642006e-01
  1.1772732e+00
 -3.5336602e+00
  5.8890551e-01
  5.7975456e-02
  2.0162358e+00
  3.2896872e+00
 -2.0546997e+00
 -3.5890934e+00
  9.1883117e-01
 -1.3024362e+00
 -7.1898079e-01
  1.4023097e+00
 -1.5065876e+00
  1.3279141e+00
 -8.4698498e-01
 -7.6296741e-01
 -2.6824634e+00
 -2.0389467e-01
  2.0011539e+00
  6.5677661e-01
 -6.8137836e-01
  2.0291154e+00
 -5.2322143e-01
 -3.6261804e+00
  1.4793843e+00
  6.4823208e+00
 -9.4219923e-01
  2.6740532e+00
  1.3296309e+00
  1.8648326e+00
 -7.7763969e-01
 -2.4602299e+00
  1.4439263e+00
  2.3660834e-01
  1.3951205e+00
 -1.5568086e+00
 -3.0206850e+00
  3.3406920e+00
 -1.0760962e+00
  2.7022469e-01
 -1.9815156e+00
 -1.4942672e+00
 -1.0434914e+00
  4.5323963e+00
 -1.7489978e+00
 -3.1309440e+00
  5.3340721e+00
 -2.9573207e+00
 -6.5114627e+00
 -3.8476472e+00
  1.7066967e+00
  1.8257095e+00
 -8.1820947e-01
  8.8263959e-01
  4.1619956e-01
  1.1610380e+00
  1.4242718e+00
 -3.5125549e+00
  1.7238983e+00
 -5.1900947e-01
  2.2902668e+00
  2.9093142e+00
 -2.1676314e+00
  3.0269349e+00
  9.1101354e-01
  1.4498886e+00
  3.7307327e+00
  3.0439765e+00
  3.4338725e+00
 -2.0368936e+00
  4.6632254e-01
 -1.1273068e+00
 -4.4351090e-03
  4.8271060e+00
 -3.5024185e+00
 -3.3414662e+00
  3.5747702e+00
 -1.2372838e+00
 -2.3280110e+00
  1.1412755e+00
  6.1691256e+00
 -2.0469246e+00
 -2.9504912e+00
  4.3000850e-01
  3.1073346e+00
 -5.0539346e+00
  8.2844073e-01
  8.5188442e-01
  1.8608818e+00
  4.4923940e+00
 -2.2381845e+00
 -1.5509304e+00
  2.5555308e+00
  4.2039609e+00
 -4.4728403e+00
 -6.0595222e+00
 -4.9978948e+00
  4.0974121e+00
 -1.6921700e+00
 -5.3186045e+00
  3.2176464e+00
 -4.4699855e+00
 -1.4098145e+00
 -2.9554808e+00
 -2.1370857e+00
  4.3872156e+00
 -1.7396971e+00
 -1.0732800e+00
 -1.7932352e+00
  3.1480992e+00
  2.2731550e+00
 -3.4742250e+00
  1.2574180e+00
  2.1544001e+00
 -1.3883297e+00
 -5.7770801e+00
  1.2054282e+00
  2.1274724e+00
 -1.8234494e+00
  2.6042943e+00
  1.7758222e-01
 -2.8595722e-01
  9.3998349e-01
  2.7826318e-01
 -3.7380536e+00
 -3.4104121e+00
  1.4183046e+00
 -2.0599847e+00
 -4.5324984e+00
 -4.2849088e+00
  1.7629201e+00
  2.8382640e+00
  2.5337062e+00
 -2.2344878e+00
  2.7263052e+00
 -4.2907047e+00
  4.8256528e-01
  2.8489205e-01
 -1.2489878e-01
 -5.7606535e+00
 -8.8826552e-02
 -3.6822391e+00
 -4.1615641e-01
  4.1714028e-02
  2.1834251e-01
  2.6460459e+00
 -1.4477538e-01
  4.7932389e-01
  1.4895332e+00
  3.1739748e+00
  2.7791348e+00
 -8.8088447e-01
  2.9227290e+00
 -8.8754892e-01
 -3.0647171e+00
  4.0299973e+00
 -1.1911439e+00
  1.1256256e+00
 -1.6358604e+00
 -6.6053004e+00
  2.6281099e+00
 -4.9536961e-01
 -8.1821203e-01
 -1.7261252e+00
 -7.0353967e-01
 -1.9728249e+00
  2.4909112e+00
  1.7144972e+00
 -2.2445726e+00
 -5.2046089e+00
  1.7178744e+00
 -4.8817471e-01
  6.1938777e+00
  5.5265169e+00
  6.2488856e+00
  3.7546691e-01
 -2.7020187e+00
  1.6158032e+00
 -2.4464986e+00
 -1.3784316e-01
 -3.6441822e+00
 -2.0386140e+00
 -9.9716258e-01
 -5.6203979e-01
  7.7451277e-01
  1.0843978e+00
  6.4672244e-01
  5.7413344e+00
 -1.4197575e+00
 -4.7092156e+00
 -2.1909802e+00
  5.6876354e+00
  1.3490058e+00
 -5.2489549e-01
 -3.1159253e+00
 -5.5826175e-01
 -5.3084326e+00
 -3.4523101e+00
 -2.7472954e+00
  1.5053943e+00
  5.2401435e-01
 -6.7647851e-01
 -8.3033919e-01
 -2.0665715e+00
  4.1411228e+00
  4.5552864e+00
 -7.7127681e+00
  2.7257857e+00
 -1.4593772e+00
 -1.5426127e+00
 -2.5663259e+00
  1.0062375e+00
 -2.6937597e+00
  2.0004449e+00
 -2.6801548e+00
  7.8634820e+00
  3.4041157e+00
 -1.5998837e+00
  2.6981020e+00
  4.7863860e+00
  4.8477840e+00
  3.9554095e+00
 -3.0685580e+00
 -1.1872116e+00
  5.9035432e-01
 -3.9103494e+00
  2.0459130e+00
 -6.4656538e-01
  2.4565549e+00
 -1.9138879e+00
 -2.8455446e+00
  2.9353840e+00
 -8.9160591e-01
  3.3093154e+00
  4.4353089e+00
  3.1401646e+00
 -2.0319333e+00
  1.3731891e+00
  6.8860883e-01
 -2.0804615e+00
 -5.5470562e-01
  1.8995163e+00
 -1.7143904e+00
  1.6031734e+00
 -6.6951084e+00
  6.6460299e+00
  1.5902550e+00
  1.8305433e+00
  4.0104322e+00
  2.2297738e+00
  2.0572965e+00
  1.0702147e+00
 -2.7783531e-01
 -1.3804733e+00
  6.3141809e+00
 -1.1051474e+00
 -3.6376989e-01
 -4.6774542e-01
 -2.0907638e+00
 -2.1780555e+00
  3.2282645e-01
  1.1678334e+00
 -3.5297749e+00
  5.7610530e-01
  3.0908654e+00
  5.4670054e-01
 -5.1608000e+00
  3.1964844e-01
 -3.8296931e+00
 -2.7944627e+00
 -3.5214281e+00
  7.9912519e-01
  3.8311315e+00
  5.2605909e-01
 -2.5901270e+00
 -2.9830778e+00
  2.2166102e+00
 -1.0888785e+00
  1.4753681e+00
 -5.1542085e-01
  2.2923200e+00
 -1.5438678e+00
  7.7030689e-01
 -1.9783883e+00
  3.1270401e+00
 -7.5997019e+00
  2.7395213e+00
  4.8837736e-01
 -2.8321927e-02
 -1.9672582e+00
 -4.1758599e+00
 -1.2723292e+00
 -3.8190067e+00
  3.7869310e+00
 -6.1876440e-01
 -3.1661415e+00
  9.3388426e-01
 -2.8961892e+00
 -3.7998645e+00
  5.1688952e+00
 -5.8506598e+00
  5.1017070e-01
 -2.5956154e+00
  1.7839071e+00
  2.7401130e+00
  1.6925201e+00
  3.8766944e+00
  2.9933748e+00
 -8.7704331e-01
 -2.4060388e+00
  1.5555735e+00
  1.2476753e+00
 -2.4861958e+00
  2.8991854e+00
 -1.4220033e+00
  1.4006523e+00
 -1.7666932e+00
 -7.9826102e+00
  6.3374147e+00
  1.5221193e+00
 -2.2681718e+00
  1.3268812e+00
  2.8788197e+00
 -1.3436927e+00
  9.4821209e-01
 -1.4016179e+00
  1.3943827e+00
  2.1324079e+00
  2.3695979e+00
 -3.2071087e+00
  8.2719427e-01
  2.0717238e-01
 -1.0144962e+00
  2.1064911e+00
 -5.6794667e+00
  3.0831201e+00
 -1.4725968e-01
 -2.1346958e+00
 -4.1688895e+00
 -2.5291686e+00
  2.3841538e+00
  1.4224735e+00
 -2.8480272e+00
 -2.4611931e+00
  3.9026406e+00
  2.6261735e+00
  3.0610199e+00
 -2.9249561e+00
 -1.6414558e+00
 -6.8875885e-01
 -2.4768863e+00
 -1.8785168e+00
 -2.8480325e+00
 -5.8521032e+00
  9.5138186e-01
 -1.8499091e+00
 -9.2281449e-01
  8.9938736e-01
  6.2719550e+00
 -1.7568908e+00
  7.9075998e-01
 -4.8095465e+00
 -2.6783891e+00
 -2.9063144e+00
  9.6954608e-01
 -2.9445014e+00
 -4.9772582e+00
  6.6795260e-01
  1.2419711e+00
  2.6456149e+00
 -1.2853659e+00
 -3.9119821e+00
  5.4500961e+00
 -2.8631816e+00
  4.5530429e+00
 -4.3368320e+00
 -2.6646209e+00
  2.7577918e+00
 -2.4714160e+00
 -4.7071028e-01
 -2.9511824e+00
  1.6759439e-01
 -1.2412821e+00
 -2.4122180e-01
  9.1452654e-03
 -3.1325903e+00
 -3.5743301e+00
  6.9689214e-01
  7.7706598e-02
 -1.1328808e+00
 -1.6957202e+00
  5.2220690e-01
 -2.9233224e+00
  1.3926029e+00
 -3.9414039e+00
 -2.0811617e+00
  1.2306180e+00
  4.3053379e+00
 -1.4258919e-02
 -2.8330785e-01
  1.0334436e+00
  1.5484267e+00
  5.2730441e-01
  1.8647339e+00
  6.9214220e+00
  5.6868488e-01
 -3.2663877e+00
  1.3265479e+00
  2.9616897e+00
  5.7681832e+00
  8.7200738e-02
  2.6250660e+00
 -2.5730758e+00
 -2.4649677e-01
 -1.5985940e+00
 -2.3016872e+00
 -1.2664318e+00
  4.6405320e+00
 -1.8569331e+00
 -1.2359558e+00
  6.0449009e+00
  2.0440831e+00
 -1.2260609e+00
  1.2204617e+00
  6.2324774e-01
 -3.4705808e+00
 -2.4409432e+00
  7.2560406e+00
  1.4101717e+00
  2.3499897e+00
 -5.4794508e-01
  6.0762401e+00
  3.5949225e+00
 -3.2504187e+00
  2.9193528e+00
 -5.4707724e-01
  3.2118680e+00
  1.5530980e+00
  9.8630145e-02
 -1.7398313e+00
  1.3514651e+00
  1.4845881e+00
 -2.8676169e+00
  3.8169351e-01
  2.3419425e+00
 -2.1275511e+00
  6.6962177e-01
 -3.0116975e+00
 -3.7729161e+00
 -2.4541740e-01
 -2.1060503e+00
 -2.7274253e+00
 -4.4172149e+00
  1.9439135e+00
  4.8357227e-01
 -2.9430311e+00
  1.8120220e+00
  1.9009590e-01
  2.3476794e+00
  2.4428895e+00
  6.9807321e-01
 -1.6308782e+00
 -2.4335768e+00
 -9.6594501e-01
 -2.2934990e+00
 -5.6852806e-02
  2.2453802e+00
 -5.7389135e+00
  1.0978779e+00
 -4.8609581e+00
 -1.0961000e+00
  3.7716949e+00
 -1.7481383e+00
  1.4178277e-02
  3.2714520e+00
 -2.4958470e+00
 -1.0102607e+00
 -4.7448134e+00
  3.5709341e+00
 -3.0460438e-01
  1.4347061e+00
  2.9613347e+00
 -1.9443034e+00
  5.8762226e+00
  1.3227302e+00
  6.7638845e+00
  4.9766030e+00
  3.6336250e+00
 -3.0426917e+00
  4.7185868e-02
  8.3310127e-01
 -7.9100090e-01
 -3.6790512e+00
  3.5217249e+00
  3.0899901e+00
  1.2135105e+00
  5.0035346e-01
 -3.3801141e-01
 -1.7143776e-01
 -1.0152169e+00
  7.8363347e-01
  3.0393548e+00
  1.4541239e+00
  8.4313345e-01
 -1.7629393e+00
  3.0547767e+00
  1.4544812e+00
 -6.4042802e+00
 -7.3049968e-01
 -3.8919799e+00
 -2.3145461e+00
 -5.1478944e+00
 -5.4290805e+00
  5.3499037e-01
  3.8471782e+00
  2.3416224e+00
 -5.3438264e-01
  1.5459704e+00
  3.9372320e+00
  5.4461145e-01
  1.4448452e+00
 -2.3668471e-01
 -6.1431575e-01
 -6.8217504e-01
  2.6512873e+00
  1.1398921e+00
 -2.2196305e+00
  4.0889621e+00
 -2.4476392e-02
 -1.5713103e-02
 -2.4100528e+00
  4.0068979e+00
 -3.4039074e-01
  3.0354247e+00
  3.1908522e+00
 -4.6841097e+00
  5.9525037e-01
  1.7451122e+00
 -2.6962286e-01
 -2.8246710e+00
  6.2890291e+00
  4.0581174e+00
 -2.0651119e+00
 -1.5524677e+00
 -4.6290917e+00
 -2.5399587e-01
  8.3861977e-01
 -1.7859761e+00
 -4.5277098e-01
 -7.3393762e-01
  2.7414176e+00
 -3.8995800e+00
  1.8917359e+00
 -9.2153335e-01
 -1.3689947e+00
  2.0464463e+00
 -4.1168165e+00
  1.2408650e+00
  9.2449653e-01
  3.1281510e-01
  4.2284260e+00
  4.5447928e-01
 -9.4310373e-01
  1.6534210e+00
  9.9077851e-01
 -2.1454847e+00
 -5.2006855e+00
  8.8640235e-02
  8.5838127e-01
 -5.0662214e-01
  2.7136633e-01
 -4.1543140e+00
 -5.4988104e-01
 -1.8221375e-01
 -1.3675902e+00
  6.5158105e-01
 -1.5767556e+00
 -3.1801333e+00
 -2.8637317e-01
  1.0696153e-01
 -2.5575328e-01
 -3.0508137e+00
  6.3581681e-01
 -3.8741107e+00
  2.2883844e+00
  2.9233260e+00
  1.4537455e+00
 -1.2089590e+00
  1.6340507e+00
 -2.6489251e+00
 -4.6348447e-01
 -2.4414024e+00
 -1.4019355e+00
 -8.4156406e-01
  1.0685354e+00
  1.3724601e+00
  6.6409051e-01
 -2.1695290e+00
  1.1233245e+00
  1.9708159e+00
  7.3636764e-01
  7.0431767e+00
  3.3661335e+00
 -4.5366378e+00
 -1.8727872e+00
  5.1434088e+00
 -3.0406494e+00
 -1.1310560e+00
 -3.6096034e+00
 -5.8265444e-02
  1.5752994e+00
 -1.2590640e+00
 -9.1369641e-01
 -1.0469260e+00
  6.3733596e-01
 -1.9244280e-01
  1.2243736e+00
  4.1238537e+00
 -1.7732064e+00
  3.3402975e+00
  1.9615372e+00
 -1.8123224e+00
  2.5952253e+00
  1.5061988e+00
 -4.0537584e-01
 -7.2964568e+00
  4.9771562e-02
 -1.1112649e+00
 -1.9680287e+00
 -1.3626362e+00
 -9.6871570e-02
  3.8669248e+00
 -6.2498975e-01
 -4.7756042e+00
  1.0973140e+00
 -6.4338164e+00
  2.3186750e+00
 -3.2414205e-02
 -8.6023688e-01
  4.9224478e-01
  5.5400376e+00
  3.0558145e+00
 -4.4650984e+00
 -2.5014290e-01
 -3.8325343e+00
  1.6558701e+00
  2.5822549e+00
 -5.5157459e-01
 -9.5822960e-02
  2.5015607e+00
 -3.1034939e+00
 -2.3237150e+00
 -1.1421524e+00
  2.3724298e+00
  1.6939491e+00
  1.4738456e+00
  1.4716651e+00
 -4.1005197e+00
  3.9277022e+00
 -3.5796499e-01
  1.7237341e-01
 -1.4182343e+00
  5.1412332e-01
  1.5152559e+00
  2.6569235e-01
 -6.9204946e+00
  6.7967421e-01
 -4.0389733e+00
  1.2850928e+00
  1.9077463e+00
 -9.6410799e-01
 -7.6533210e-01
 -6.4440203e-01
  1.9440528e+00
  1.7906700e+00
  1.4372220e+00
  1.3738970e+00
  4.0596634e-01
  6.1400944e-01
 -2.2707751e+00
  5.1636496e+00
  1.5763445e+00
  3.2344167e+00
 -1.6418155e+00
 -8.0311507e-01
  2.3382885e+00
 -1.7165776e-01
  1.9957123e+00
  2.0740369e-01
  3.7084854e+00
 -3.4198840e+00
  2.2049866e+00
  2.9266748e+00
 -4.1137636e-02
  7.4687397e-01
 -3.7209776e-01
 -2.2574704e+00
 -1.6937582e+00
 -2.3937476e+00
  4.1012354e+00
 -7.7461237e-01
 -2.4643362e+00
 -3.6668839e+00
 -1.6666682e+00
 -5.3677517e-01
  2.5149198e+00
  3.9473083e+00
  2.6601422e-01
  1.5220187e+00
  2.1416574e+00
 -1.0706785e+00
 -2.6260307e+00
 -7.1738012e-02
 -2.7644756e-01
 -7.7827840e+00
 -8.3519000e-01
 -1.4774659e+00
  1.9481883e+00
  5.9771128e+00
 -4.5519242e+00
 -1.2265793e-01
  1.6741641e-01
 -2.9158428e+00
  2.3372900e+00
 -3.7282375e-01
  1.0268921e+00
 -2.4857020e-01
  1.2289155e+00
  6.6824207e+00
 -1.1384649e+00
 -3.5408130e+00
 -2.6613712e+00
  7.2803812e+00
 -6.2049627e-01
  6.9434541e-01
  1.1567280e+00
  2.1878825e-01
  2.6398880e+00
  1.7846489e-01
  4.0535874e+00
 -1.1150745e-01
 -1.3351662e+00
  1.6306049e+00
 -1.4629520e+00
 -1.8602499e+00
  2.9913902e+00
 -2.6489244e+00
  2.2924769e+00
  4.0174305e-02
 -5.3707352e+00
  1.1408571e+00
  4.4477477e+00
 -3.6831527e+00
  2.1722457e+00
 -1.6372433e+00
  1.3857512e+00
  2.8328629e+00
  1.4957680e+00
  6.9448513e-01
  1.0702345e+00
  1.3322107e+00
  1.0460663e+00
 -7.2864547e+00
 -1.0562456e+00
 -2.8740597e-01
  7.1783051e+00
 -2.1649280e+00
 -6.8465722e-01
 -6.2939649e+00
  2.4232566e+00
 -1.9502437e+00
  5.1792951e+00
 -2.8511378e-01
 -8.6382645e-01
 -7.7434438e-01
  1.3857458e+00
  1.1529692e+00
 -3.2865331e+00
 -1.3458818e+00
  3.7706695e+00
  3.7279217e+00
  4.0619102e+00
  4.3752441e+00
 -7.5304389e-01
  4.9281387e+00
  1.9326123e+00
 -1.9019734e+00
  5.5575409e+00
 -1.0240454e-01
  1.8767670e+00
 -5.1169624e+00
 -2.3842794e-01
  2.5083244e+00
 -5.4960348e-02
  1.5495088e+00
 -1.2852660e+00
  1.2327521e-01
 -2.2705128e+00
 -6.0637884e+00
  2.5263755e+00
  1.8805982e-01
 -3.4961874e+00
 -2.8489193e-01
 -1.4111288e+00
  7.5044018e-01
 -3.5518212e+00
 -2.5681491e+00
  3.1350026e+00
  3.0549927e+00
  5.3370352e+00
 -1.9485027e+00
 -3.6096072e+00
 -1.2497415e-01
 -6.0983235e-01
 -5.4749575e+00
 -1.8229587e-01
  2.2800782e+00
  3.4292817e+00
  1.8081641e-01
  8.6761403e-01
  3.2417772e+00
 -1.3948421e+00
 -1.8764534e+00
  2.8661532e+00
  3.8050896e-01
 -5.3089113e+00
  2.4094105e+00
 -1.3747982e+00
  4.9549103e+00
  3.4627745e+00
  7.6209068e-01
 -8.2491088e-01
 -4.1853890e+00
 -3.9188111e-01
  8.7771237e-01
  8.2447463e-01
  6.7579050e+00
  1.0399433e+00
 -4.6942286e+00
  2.2801588e+00
 -3.6636734e+00
 -2.0556371e+00
 -2.7119870e+00
 -2.8738449e+00
 -1.0061275e-02
 -2.4344563e+00
  1.4510260e+00
  1.3495252e+00
  4.2160156e-01
 -2.8375560e-01
  6.4582646e-01
 -2.0804372e+00
 -6.5037024e-01
  1.1794033e+00
  1.9323215e+00
  2.6935282e+00
 -5.3656983e-01
 -2.4000833e+00
 -3.0519729e+00
 -1.9404944e+00
  2.7191622e+00
 -2.8149769e+00
  2.0353904e+00
  2.4282155e+00
  1.0952791e+00
  5.5972183e-01
  2.0180221e-01
 -1.4024868e+00
 -2.0532935e+00
 -7.8971326e-01
 -2.4903364e+00
 -4.2773902e-01
 -1.3250160e+00
  2.2778163e+00
  4.0398545e+00
 -1.3010439e+00
  2.9331295e+00
  2.1949246e+00
 -3.8350182e+00
 -4.5769835e-01
 -3.5676622e-01
 -4.5675822e-02
 -3.0728025e+00
 -2.1934633e+00
  3.4932318e+00
 -1.0689770e+00
  6.2745702e-01
 -2.5523564e-01
  9.4129913e-02
  6.4955525e+00
 -3.6121075e+00
 -2.2194486e+00
  3.4695206e+00
 -1.5704069e-01
  7.6779997e-01
  5.1855117e-01
 -3.1979368e+00
  1.2590827e+00
  2.3698716e+00
 -7.1262574e-01
 -1.7512673e+00
  1.8901778e+00
 -2.0084124e+00
  5.7079649e+00
 -3.6049289e-01
 -1.2408210e+00
 -1.4426161e-01
 -1.1005627e+00
 -1.8260078e+00
 -6.1612611e+00
 -1.0708990e+00
 -1.7717969e+00
  1.0270179e-01
  2.1924863e+00
  2.5441086e-01
  9.2957509e-01
 -3.7431088e-01
 -9.2682981e+00
  4.8024559e-01
  7.1584326e-01
 -1.9082301e+00
  2.5812018e+00
  2.6516526e+00
  6.4445239e-01
  3.1671736e-01
 -4.0077811e-01
  3.1047547e+00
 -3.9259939e+00
  1.4738792e+00
 -1.3477366e+00
 -3.5238516e+00
 -2.2680676e+00
  1.0977854e+00
 -4.8864606e-01
  2.2326865e+00
  5.1016396e-01
 -1.1393012e+00
 -1.4864318e+00
 -2.6175358e+00
  3.2016094e+00
 -2.1348488e+00
 -6.1047940e+00
 -1.2135876e+00
 -4.1842871e+00
 -1.1077546e+00
  1.9105281e+00
 -1.1359076e+00
  5.2674872e-01
  5.7876825e-02
 -1.2220159e+00
  2.3389537e+00
  9.0403742e-01
 -6.2555683e-01
 -2.9482982e-01
  2.3783293e+00
  5.1843953e-01
  3.2917333e+00
 -1.5345244e+00
  1.2695687e+00
 -1.1663126e+00
  8.7307310e-01
  2.4492252e+00
  9.7339827e-01
  2.2276988e+00
 -7.7904195e-01
 -1.5618638e+00
 -5.6587856e-02
  9.4205868e-01
 -3.4836595e+00
 -5.9907460e-01
 -1.6603129e+00
  5.0485635e-01
 -1.5573901e+00
 -1.1358191e+00
 -3.2704053e+00
 -3.5754793e+00
 -4.6844401e+00
  2.4040265e+00
  4.0109086e+00
  4.1588430e+00
  9.7786838e-01
  1.1605359e+00
 -2.0517871e-01
 -1.2792102e+00
 -1.4635682e+00
 -3.1943088e+00
 -2.6251407e+00
  3.3033478e+00
 -9.9306458e-01
  1.9978056e+00
  1.9823132e-01
 -1.6340810e+00
 -2.6434141e-01
 -3.0289199e+00
  5.0835061e-01
 -5.6952729e+00
 -3.2368491e+00
  1.5590436e+00
  1.1533034e+00
 -1.2347176e+00
 -1.6277753e+00
 -5.9441458e-02
  1.7326707e-01
 -2.1850818e-01
 -1.8868154e-01
  1.7238006e-01
  3.1020349e-01
 -1.0291506e+00
 -3.4531492e-01
 -1.0704435e+00
  5.5733037e-01
  8.0329889e-01
  8.8821220e-01
  6.8614945e-02
 -8.5676825e-01
 -1.5316323e+00
  1.2783297e+00
  5.1730949e-01
 -8.1076646e-01
 -2.8542253e-01
 -1.1357671e-01
  3.7737301e-01
 -1.8962009e-01
  1.2199960e+00
 -8.4719732e-02
 -3.1343344e-01
 -8.5072541e-01
  1.7974739e-01
  2.2131914e-02
  2.6194975e-01
  2.9397285e-01
  1.0217648e+00
  1.6402811e-01
 -1.5466458e+00
 -7.0148695e-01
 -4.7331712e-01
 -7.9607308e-01
  1.7668805e+00
  6.9482750e-01
  2.1191885e+00
 -2.1602084e-01
 -1.0021707e+00
 -9.8410852e-02
 -1.9407246e-01
  5.3778327e-01
 -1.2904876e+00
  3.7421820e-01
 -1.7011421e+00
  8.5519433e-01
 -2.7958292e-01
 -6.0182673e-01
 -3.0899301e-01
  2.0808535e+00
  1.8655012e+00
 -1.7232914e+00
  2.4075449e+00
  3.6087003e+00
  2.2770743e+00
 -9.3735284e-01
  5.4666770e-01
  2.5504045e+00
  5.8925247e-01
  7.9395252e-01
  3.4081800e+00
  6.0741901e+00
 -5.6838983e-01
  4.1619554e+00
 -7.0516008e-01
  2.1680882e+00
  2.4375637e+00
 -3.4055383e+00
 -1.7902501e+00
 -2.0029523e+00
 -4.6638288e+00
  4.6026926e+00
 -4.8652239e+00
 -3.1787183e+00
 -4.9343693e-01
  3.3675053e+00
  2.7867007e+00
  4.5660448e+00
 -6.3859801e+00
 -1.8028743e+00
  2.0444934e+00
 -3.2965055e+00
 -3.0315571e+00
 -1.0084782e+00
  6.0397911e-01
 -9.5555782e-01
 -2.7416675e+00
 -1.4005220e+00
 -1.0384473e+00
 -1.4913462e+00
  3.4378548e+00
 -1.5208498e-02
 -2.0429225e+00
 -6.2410098e-01
 -1.9341110e+00
  2.3656210e-01
 -1.5062935e+00
  3.1402848e+00
 -2.8007784e+00
 -2.4522264e+00
  4.7817998e+00
  4.1050768e+00
  4.9437685e+00
 -9.6315408e-01
  4.6811600e+00
 -9.8201406e-01
  2.6429737e-01
 -1.6194953e+00
 -1.5564550e+00
 -1.6270854e+00
 -2.6675556e+00
  2.9586068e-01
  2.8206697e+00
 -3.4766862e+00
  2.1877417e-01
 -1.7754694e+00
 -4.0420589e+00
  7.7922541e-01
  4.2495127e+00
  2.2780769e+00
 -2.2289758e+00
  6.1178336e+00
 -1.1603954e+00
  8.8556641e-01
 -1.9771197e+00
 -6.5155635e+00
 -9.6332097e-01
 -1.5037119e+00
 -3.3413200e+00
  6.4455757e+00
 -1.8050346e+00
 -3.7908059e-01
 -3.7967224e+00
 -5.0386162e+00
 -3.9747937e+00
 -4.0596623e+00
  2.9449350e-01
  3.8310754e+00
 -5.6915269e+00
 -4.4868994e-01
 -2.5575283e+00
  2.7139070e+00
 -4.2862201e-01
 -3.0722768e+00
 -5.5023259e-01
 -3.9088266e+00
  3.2542677e+00
  3.2539868e+00
  1.3997518e+00
  4.6335945e+00
  4.9252129e-01
  2.5277343e-01
  1.5402909e-01
  1.3934700e+00
  6.1982212e+00
 -1.8770046e+00
 -4.7513299e+00
 -2.0978539e+00
 -6.2610421e+00
 -2.5810745e+00
  8.7797755e-01
 -4.0311065e+00
  6.5035313e-01
 -3.4783050e-01
 -9.7305006e-01
  6.7742381e+00
  1.5160179e-01
  7.9369897e-01
  2.0262828e+00
  1.6643564e+00
 -1.9287055e+00
  5.3072178e-01
 -2.6904027e+00
 -3.4985754e+00
  6.7171562e-01
 -3.3022451e+00
 -2.1732645e-01
 -1.0416025e+00
 -3.4345195e-01
  5.1025910e+00
  2.4010372e+00
  1.5431861e+00
 -2.2505435e-01
 -2.3765302e+00
 -1.5802726e+00
  1.0717980e+00
  3.9369521e+00
  2.6619594e+00
  1.8958737e+00
 -8.3222473e-01
  3.1201942e+00
 -2.5415146e+00
  2.8852429e+00
 -1.3965791e+00
  3.2712695e-01
  9.6324956e-01
  3.7399468e-01
 -1.2491506e+00
 -2.5124211e+00
  8.9842862e-01
  6.6489661e-01
 -2.9052820e+00
 -1.9462305e+00
 -2.7150414e+00
  2.6644592e+00
  1.0945145e+00
  2.3493764e+00
 -3.3717766e+00
  2.3060246e+00
 -4.5201955e+00
 -1.5176706e+00
  1.5633143e+00
  7.0280880e-02
 -8.3736277e-01
  8.4890914e-01
  3.6609199e-02
 -1.2824473e+00
 -1.2146308e+00
 -3.3596924e-01
  1.7748880e-01
 -7.2530097e-01
 -3.4804673e+00
 -7.0496259e+00
 -1.4551544e+00
  5.0494442e+00
 -4.4759688e+00
 -6.2109590e-01
 -4.3657988e-01
  1.0693171e+00
  6.4613365e-02
 -3.4865544e+00
 -6.8562613e+00
  2.9438093e+00
  1.8586286e+00
 -4.0974479e+00
  1.6530981e+00
 -2.7197173e+00
  5.1046765e-01
 -4.8992100e+00
 -3.2831819e+00
 -4.5654532e-02
  2.5517631e+00
  3.0993924e+00
 -4.7024113e-01
  4.3349962e+00
 -3.0871711e+00
  1.2023277e+01
  3.0691557e+00
 -4.7876368e+00
 -6.3669772e+00
 -2.8166983e+00
  4.7938910e+00
 -6.8811073e+00
  2.0271134e+00
  3.6157057e+00
  6.7633681e+00
  1.4205817e+00
 -1.9247116e+00
  9.7747022e-01
 -5.6861610e+00
  5.2492023e+00
 -6.8443255e+00
  2.0444169e+00
  6.5174061e-01
 -1.2792814e-01
 -6.6602635e-01
 -4.5956469e+00
  1.1878926e+00
  5.1233263e+00
 -2.9023910e-01
 -1.6067276e+00
  8.4685850e-01
 -5.8529062e+00
 -5.5183043e+00
  8.8177180e-01
 -2.0875514e+00
  1.8046957e+00
  2.4303991e-02
  1.1203872e+00
 -3.6033483e+00
  3.3550400e-01
 -1.5701214e+00
 -8.5634214e-01
 -2.7419353e+00
 -1.8826362e+00
 -2.4182708e+00
  5.6532006e+00
  1.9727180e+00
  5.6922531e+00
  2.0741684e+00
  3.2604334e+00
  9.4957763e-01
  1.8243545e+00
  1.6957082e+00
 -2.5259885e-01
  1.3422858e+00
  2.2704554e+00
  1.3517857e-01
 -8.2613999e-01
 -2.2897577e+00
 -5.2540946e+00
 -2.6327729e-01
  4.3428528e-01
  1.0663205e+00
 -6.0515024e-02
  4.1451120e+00
  5.0065870e+00
 -2.7949294e-02
  1.7938887e+00
 -2.8000152e+00
  2.1494322e-01
  3.3605535e+00
 -2.2473819e+00
 -2.2834952e+00
  1.3230206e+00
 -2.8878038e+00
  3.2166984e+00
  6.5147209e-01
 -1.2658867e+00
 -4.6649787e-01
 -2.0925552e-01
 -1.4466664e+00
  4.1607852e+00
 -3.8568482e-02
  2.1809068e+00
 -2.8869975e+00
  1.2703294e+00
 -2.5285783e+00
  2.0235653e+00
 -1.2043108e+00
  5.8006573e-01
  4.6542931e-02
 -6.1810722e+00
 -2.6141000e-01
 -1.6306974e+00
 -3.1884985e+00
 -2.8337047e+00
 -5.4998083e+00
  1.1818347e+00
 -7.4840319e-01
  2.2042382e+00
 -1.3958672e+00
 -6.9924623e-01
 -4.7076025e+00
 -1.0274795e-01
  1.1761096e+00
 -8.1036466e-01
 -2.7681499e+00
  5.7865173e-01
  3.3736649e+00
  9.5679450e-01
  3.4170744e+00
  2.7554849e-01
  1.6621499e+00
  4.7378039e-01
 -1.5320500e+00
  1.8568727e+00
 -1.4927257e+00
 -7.3081815e-01
  2.4568319e-01
  3.5236943e+00
  1.3750641e+00
 -2.8403223e-01
  1.6236273e+00
  5.6941527e-01
  5.9263152e-01
 -2.0755086e+00
  6.1134667e+00
 -3.3145757e+00
 -9.4946563e-01
  2.1098497e+00
  3.6134200e+00
 -4.6824908e-01
  1.3071967e+00
 -3.2355375e+00
 -7.2831511e-01
  6.2980592e-01
  2.6790586e-01
 -1.5847667e+00
  4.6391306e+00
  2.1491514e-01
  5.2990408e+00
 -1.9261717e+00
  1.0143116e+00
  1.7129561e+00
 -4.6607271e-01
  3.6876776e+00
  1.0476890e+00
 -2.8614240e+00
 -9.0124971e-01
  1.7340626e-01
 -1.9536830e+00
 -2.3470480e+00
 -1.0870649e+00
  4.6754799e+00
  7.6237416e-01
  2.1517148e+00
 -3.3652959e+00
 -7.6163669e+00
  2.3511643e+00
 -1.3059375e+00
 -1.7685673e-01
 -8.1632245e-01
 -3.2846034e-01
 -2.4287465e+00
 -1.1921026e+00
 -3.7926278e+00
  2.7527277e+00
 -1.2871207e+00
 -1.0233377e+00
 -2.1485336e-02
  6.9392748e+00
 -5.1005000e-01
  3.4101422e+00
  3.5597823e+00
 -5.8815348e-01
 -1.7072128e+00
 -6.5135741e-01
 -4.4608140e+00
  3.5624952e+00
 -1.7419478e+00
  2.0998682e-01
 -2.3779988e+00
  3.6040553e-01
  3.5539696e+00
  1.4878725e+00
  4.3675518e+00
 -1.7422370e+00
  1.2833036e+00
  2.4272909e+00
 -3.1765566e+00
  2.7051800e-01
  8.5408628e-01
  1.8405677e-01
 -2.1928628e-01
  4.2524652e+00
 -1.7766656e+00
 -2.6841235e+00
  8.8015372e-01
  2.5861442e+00
 -1.5585767e+00
 -3.3304908e+00
  6.7713342e+00
 -3.3625770e+00
 -2.6071823e+00
 -2.2373855e+00
  1.4168305e+00
 -8.8945323e-01
  5.9309763e-01
 -2.1153672e+00
  3.0591877e+00
  3.4594877e+00
 -2.2156658e+00
  3.6697876e-01
 -1.9595931e-01
 -1.5722294e+00
 -1.1162032e+00
 -1.8934900e+00
  2.1218538e+00
 -1.5360979e+00
 -4.0113659e+00
 -4.4769862e-01
  5.5166659e+00
  1.1183237e+00
  2.3352656e+00
 -2.1157780e+00
  2.4574780e+00
  5.0616360e-01
  3.9082191e+00
 -3.5764060e+00
 -1.0636995e+00
  7.0602584e-01
 -2.2838748e+00
  8.5965592e-01
 -4.6703377e-01
  2.5773809e+00
 -1.3510360e+00
 -1.5462744e+00
 -4.8252559e-01
  3.7782136e-01
  1.2738541e-01
 -2.5523839e+00
 -2.5799626e-01
  2.0568662e+00
  2.3736682e+00
  4.7089624e+00
  4.6637998e+00
 -5.3162155e+00
  3.6694853e+00
  4.9001350e+00
 -3.6260138e+00
  1.4704326e+00
 -1.5592037e+00
  8.5312867e-01
  2.9225025e+00
  8.2912296e-01
 -1.2814786e+00
 -1.6801155e+00
 -9.9723601e-01
 -1.6898552e+00
  2.2926018e+00
 -1.9233268e+00
  8.0949726e+00
 -4.0370178e+00
 -3.5966298e-01
  1.2454408e+00
  5.2464750e-02
 -2.8731890e+00
  2.9292684e+00
 -3.0586829e+00
  1.1873984e+00
 -1.9688770e+00
 -1.3190871e+00
  4.3322663e+00
  6.6133699e+00
  1.4823428e+00
  2.5103588e+00
  1.2554212e+00
 -1.0121967e+01
 -5.7360291e+00
  1.3320651e+00
  2.1782051e-01
  3.4234610e+00
  5.1851230e+00
  1.6757513e+00
  2.0538027e+00
  9.6648812e-01
  4.7755310e-01
  1.1440911e+00
  4.7933979e+00
 -2.2299364e+00
 -4.6898398e+00
  7.9789615e-01
 -2.2925568e+00
  7.6732033e-01
 -1.7264344e+00
 -2.5259197e+00
  5.7495756e+00
  6.9065852e+00
 -4.4958042e-03
  1.9900601e-01
 -1.6008053e+00
  9.3326634e-01
  1.0907811e+00
  2.7325230e+00
 -4.7378697e+00
  3.7720332e-01
 -7.2158985e-02
 -6.7340046e-02
 -4.8646760e+00
  6.3527274e-01
 -1.3862548e+00
  2.2264636e+00
  1.3657134e+00
 -2.6603930e+00
  4.6502590e+00
  1.8121134e+00
  4.9988780e+00
 -4.5950017e+00
 -3.1011671e-01
  1.3239479e+00
 -5.2684722e+00
 -3.3742318e+00
 -2.5237153e+00
  2.1776035e+00
  1.8879364e+00
 -3.2856112e+00
 -2.0242682e+00
 -1.7485298e+00
  2.3257062e+00
 -3.6518970e+00
 -4.4438148e+00
  6.7250347e-01
  2.8534248e-01
  3.5871646e+00
  2.2032933e+00
 -2.2452717e+00
  5.9317000e-02
  2.1770337e+00
 -3.1541524e+00
 -5.6266665e-01
  6.4877214e+00
  1.0230571e+00
 -2.4138734e+00
 -3.6830161e+00
  4.2942672e+00
  1.0408416e+00
  6.9803619e-01
  1.9491769e-01
  1.9895924e+00
 -1.4381304e+00
 -8.5578117e+00
 -4.1828713e+00
  1.0303341e+00
  3.8917334e+00
  1.8733164e+00
  4.5492640e+00
  4.1985931e+00
  4.7709961e+00
 -5.0414121e-01
  2.1503685e+00
 -4.6387736e-02
 -5.2149215e+00
  1.7495899e-01
 -9.5041627e-01
  1.6329489e+00
 -2.3841527e+00
  5.7692122e-01
  7.2548914e-01
 -7.4618185e-01
 -6.4244690e+00
  4.2029619e-01
 -4.0579743e+00
 -3.6636105e+00
  4.1017661e+00
  4.2999354e-01
  3.0071580e+00
 -6.3891721e+00
 -2.3751669e+00
 -6.8425965e-01
 -1.9502406e+00
 -3.8236854e+00
 -3.8844719e+00
 -1.9360274e+00
 -3.9223237e+00
  3.6054285e+00
 -1.7633197e+00
 -6.6815257e-01
 -4.9479413e+00
 -3.7383158e+00
  2.3215234e+00
  1.4892850e+00
 -4.1157353e-01
 -1.8147211e+00
  3.4382377e+00
  2.7334359e+00
  2.4769752e+00
  1.8845767e-01
  8.9711714e-01
  1.0220588e+00
  3.0547156e+00
 -5.2756548e+00
  4.7377305e+00
  1.4624805e+00
  3.0900023e+00
 -8.4911659e-02
  1.3114481e+00
 -1.0692267e+00
 -1.7623752e-01
  3.6366961e+00
 -1.6880994e+00
  2.1771407e+00
 -1.5876628e+00
 -8.3479691e-01
  5.0086755e-02
 -1.9025670e+00
 -8.2860118e-01
  1.2876427e+00
  1.4768543e+00
 -6.4206183e-02
  1.4034055e-01
  6.1745876e-01
 -4.5588336e+00
 -2.5346273e-01
  9.9260026e-01
 -2.5122921e+00
 -3.5244868e+00
  2.5845082e+00
 -1.3098785e+00
  5.0315032e+00
  1.5527393e+00
  1.8251952e+00
 -3.3162384e+00
 -1.1173422e+00
 -4.5128241e+00
 -1.2041470e-01
  3.1340475e+00
 -1.4884046e-01
  2.4012580e+00
 -1.9758353e+00
 -3.2295742e+00
 -2.2679012e+00
  4.5971909e+00
  3.8476467e+00
  3.0278678e+00
 -3.9399493e-01
 -3.8525429e+00
 -1.4282959e+00
 -7.2037679e-01
 -1.5174985e-01
 -1.5376977e+00
  1.9577533e+00
