nep4_zbl 6 P Na F O C H 
zbl 0.8 1.6
cutoff 6.5 4 165 54
n_max 8 8
basis_size 8 8
l_max 4 2 0
ANN 50 0
  3.6747649e-02
  5.5930591e+00
 -2.1199639e+00
  3.7593312e+00
  1.2166800e-01
 -1.3075094e+00
  2.6478522e-02
  1.2072086e+00
 -1.1790530e-01
 -2.1271586e-01
  1.6892132e+00
 -7.3717517e-01
 -7.0928794e-01
 -3.6084819e+00
  1.4923024e-01
  2.8216252e-01
 -1.2612717e+00
 -6.4615935e-01
 -4.3305439e-01
  2.7935382e-02
  3.3672735e-01
 -2.9907832e-01
  4.0072961e+00
 -1.5513314e+00
 -2.2601979e-02
  4.4940281e-01
  2.8054481e-02
  2.8388485e-01
 -9.6178019e-01
  4.4705719e-01
 -2.7745262e-01
 -4.6740642e-01
 -1.4205297e+00
 -2.5453377e+00
 -3.4235865e-01
 -5.5712539e-01
 -6.0649818e-01
  1.2123569e+00
  7.3558515e-01
  2.6274095e+00
  5.5523366e-01
 -3.8512139e+00
  1.7028425e+00
  5.7104433e-01
  1.8895352e-01
 -2.6054852e+00
  3.6347680e-02
  1.8049456e-01
  4.7648034e+00
 -2.9124662e-01
 -9.5783949e-02
 -1.4901199e+00
 -4.7890726e-01
  4.0373914e-02
 -2.1974196e+00
 -1.9930218e+00
  3.7644112e+00
  3.5880499e+00
 -8.1639600e-01
  4.1843514e+00
 -8.9904839e-01
  8.4544641e-01
 -1.1021068e-01
  1.1486397e+00
  2.6255780e-01
  6.0715926e-01
 -1.0162054e+00
 -1.2854269e+00
  4.2585559e+00
  6.2163842e-01
  4.2557859e-01
  4.4323378e+00
 -1.0000885e+00
 -1.0123403e-01
  3.8103652e+00
  4.0114075e-01
  3.1209883e-01
 -2.7327867e+00
  5.0989354e-01
  3.8437229e-01
  6.9643801e-01
 -2.2975178e-01
  2.0649271e+00
  7.1464054e-02
 -1.3989960e+00
 -1.0556659e+00
 -3.5798774e+00
  1.8784660e+00
  4.6542710e-01
  7.5452316e-01
 -3.2903433e-01
  2.4874396e+00
 -1.7359618e+00
 -3.5167687e+00
 -1.9731941e+00
  5.0891328e-01
  5.5998649e-02
 -2.3285978e+00
  5.4516386e-02
  3.2949236e-01
 -2.2794893e-01
 -1.3627695e+00
 -1.4962204e-01
  7.8977025e-01
 -1.8541905e-01
  4.6612090e-01
 -1.7385687e-01
  1.1608515e+00
 -5.3075595e+00
 -8.7615186e-01
 -2.2099619e+00
 -2.7459776e+00
 -3.9238362e+00
 -4.5703280e-01
 -1.9147048e+00
  2.0385070e+00
 -2.4210081e+00
 -5.1238436e-01
 -9.7362265e-02
  6.4586890e-01
  7.1865642e-01
 -1.3011602e+00
 -5.3168291e-01
 -1.6168424e+00
  2.2749789e-01
 -6.2542570e-01
 -2.3228288e+00
 -7.0806819e-01
 -3.0180749e-01
 -6.4736313e-01
 -1.0453606e+00
 -3.9179936e-01
 -4.3807416e+00
  1.5626200e+00
 -1.8681817e+00
  1.7041451e+00
 -5.2984113e-01
  1.1768618e+00
 -1.3230982e+00
 -7.9985994e-01
 -3.7508357e+00
 -4.0127339e+00
  3.7053006e+00
 -3.7690547e+00
 -1.3515681e+00
 -9.8410493e-01
 -8.3119437e-02
 -1.5113852e-02
  1.6631159e+00
 -1.7993048e+00
  2.8445168e+00
  3.5015470e-01
 -1.6524568e+00
  2.1767956e-01
 -1.7124487e+00
  1.4678832e+00
 -1.3476974e+00
  8.9371830e-01
 -1.8990465e+00
  8.8729620e-01
  2.3457477e+00
  1.4822829e+00
 -2.5260713e+00
  1.5513911e+00
 -1.2435491e+00
 -2.0783730e+00
  7.2111976e-01
 -5.2772224e-01
  3.1488828e-02
  9.4168156e-01
 -3.4327574e+00
  8.9791214e-01
 -4.2952865e-01
  2.2841358e+00
  1.0555736e+00
 -3.2082026e+00
 -8.1313050e-01
  1.0871897e-01
 -7.9557377e-01
  2.5541949e+00
 -2.8702662e+00
  6.6468304e-01
  1.1943008e+00
 -1.2600970e+00
 -2.2633629e+00
  3.9016435e+00
  2.5574818e+00
 -3.1761267e+00
 -4.8189935e-01
 -1.1266704e+00
 -8.3151102e-01
  1.2301052e+00
 -2.3264432e-02
  1.3623227e+00
 -9.8749155e-01
 -2.7983280e-02
  3.9575896e-01
 -4.0624070e-01
 -1.3024104e+00
 -4.3157402e-01
  8.5938647e-03
  2.1658613e-01
  1.0409281e+00
 -4.1213300e-02
 -8.8500433e-02
 -6.9866252e-01
 -1.6312977e+00
  3.6026039e+00
  4.7704017e-01
 -7.0776159e-01
  4.8546129e-01
 -1.9486494e-02
  1.6017623e+00
 -4.5287946e-01
 -8.8721836e-01
 -9.8098207e-01
 -6.6155344e-01
 -2.5437720e+00
 -1.6495245e+00
 -6.3359797e-01
 -1.2560352e+00
  6.2489996e+00
 -1.2269907e+00
  8.5104489e-01
 -6.7269688e+00
 -1.0929457e+00
  2.3828898e-01
  5.8203971e-01
 -1.5255646e-01
 -5.3095829e-01
  2.0869064e+00
 -1.4247422e+00
 -1.4138447e+00
 -9.7823501e-02
  8.6328723e-02
 -8.7137491e-02
 -1.5156295e+00
 -1.1588430e+00
 -1.2502059e-01
  6.5556616e-01
 -1.9755991e+00
 -1.1810662e-01
  1.3036357e-01
  1.8165085e-01
  1.3472816e-01
  3.2701296e-01
 -1.6551960e+00
 -6.5475744e-01
  4.2652864e-02
 -6.6860241e-01
  2.1531258e+00
  1.4811313e+00
 -1.8733711e+00
 -1.6560438e+00
 -1.3161023e+00
 -2.1815739e+00
  8.3298045e-01
  5.2311254e-01
  4.2148623e-01
  3.8184139e-01
  7.2314727e-01
 -3.9897659e-01
 -2.7288289e+00
  1.0814914e+00
  3.4920089e+00
 -3.7693199e-02
 -2.8051206e-01
  1.0571245e+00
  1.3434503e+00
  2.0217398e-01
  2.2481785e+00
  1.1139380e+00
 -1.3288834e-02
  2.1491785e+00
  2.8846693e+00
 -5.0222803e-02
 -6.3446566e-02
  1.4101933e-01
 -5.9753835e-01
  9.3230170e-01
  2.6938835e-01
 -4.6906373e-01
  1.4356920e-01
  2.4704173e+00
  1.5443446e-01
 -3.6509376e-02
 -3.4445164e-01
  3.9710875e+00
  2.3881886e+00
  1.4570831e-01
 -1.7428944e-01
  8.3528769e-01
 -4.5391786e-01
 -1.7878681e-01
  9.1803575e-01
  9.9481300e-02
  4.7825423e-01
  3.0593258e-01
 -5.0122625e-01
  2.6932889e-01
 -3.4233370e+00
  1.7841688e+00
 -6.5385967e-01
 -1.0416273e-01
  1.3694047e+00
  3.4626184e-03
  1.4431229e-01
 -8.9918953e-01
 -2.8097539e+00
 -9.2461872e-01
  6.7499506e-01
 -1.4111086e+00
 -1.9458096e+00
  3.7223146e+00
 -5.5795159e+00
  2.1674974e-01
  9.5674497e-01
  3.2110417e+00
 -1.8271840e-01
 -6.2011653e-01
  1.2525457e-01
  5.7802707e-01
 -4.9685817e-02
  2.4750042e-01
  4.9472782e-01
  5.2753079e-01
  5.7613957e-01
 -1.2260231e-01
  4.6967897e+00
  8.7044165e-02
  8.5809332e-01
 -1.2059474e+00
  3.1174550e+00
  1.4170112e-01
 -5.2847467e-02
  9.8488808e-01
 -7.9246968e-01
  1.0209607e-01
  1.4624499e+00
 -3.3136711e-02
  3.6339569e-01
 -1.2545688e+00
 -1.4775544e-01
  1.1338503e-02
 -2.2545247e-01
 -6.9738433e-02
  5.0192680e-02
  2.8753126e+00
 -6.9644099e-01
 -1.6336919e+00
 -7.9071596e-02
 -4.4798827e-01
 -1.2122675e+00
  7.4941742e-01
  1.0776732e+00
 -1.3101748e-01
 -2.3570932e-01
  2.1557193e+00
  3.0404049e-01
  1.6687858e-01
 -1.2254698e+00
  1.0224497e+00
 -2.6633139e+00
 -3.0709794e+00
  1.5569263e+00
  2.1110334e+00
  1.7077787e+00
  7.7698082e-01
 -1.1640221e+00
 -1.7117760e-01
 -1.4398557e+00
  2.1747963e-01
  5.6383365e-01
  7.9182792e-01
  4.0118570e+00
 -2.3570280e+00
  7.1607214e-01
  4.4270966e-02
 -2.4951715e+00
 -4.2037134e+00
  2.6091199e+00
 -6.1952658e-02
 -2.9387677e+00
 -1.3417972e+00
  8.4396601e-01
 -6.3930297e-01
 -1.2640826e+00
  9.1569418e-01
  1.5472469e+00
 -1.3006090e+00
 -2.8203473e+00
  4.6730581e-01
 -7.9215080e-01
  5.4027323e-02
 -2.7580869e-01
 -1.0101160e+00
 -4.9968642e-01
 -3.4367450e-02
 -5.0779915e-01
  1.4938226e+00
 -3.2792549e+00
  7.6616687e-01
 -2.3355205e-01
  1.0082111e+00
  2.3409185e-01
 -2.1800685e+00
  6.8520063e-01
 -1.4704096e+00
  1.1737218e-01
  5.8516306e-01
  1.4482061e+00
 -1.0078664e+00
 -3.3859584e-01
  3.1204953e+00
 -9.2504174e-02
 -1.3019389e+00
  7.9782099e-01
 -1.2343512e-01
 -1.2849094e+00
  1.6900829e+00
 -4.3414778e-01
 -8.0681193e-01
  6.6956139e-01
  2.7241786e+00
 -2.3888590e+00
  3.5585454e-01
 -1.5872256e+00
 -6.8277977e-02
  2.2098526e-01
  4.6210739e-01
  1.6676174e+00
  2.1119893e+00
  1.3388989e+00
 -1.1800526e+00
  5.3745127e-01
  8.5397494e-01
  1.7709638e+00
  3.1604376e+00
 -6.5240569e+00
  2.4215703e+00
  8.9232826e-01
 -4.4866033e+00
  8.5221303e-01
 -5.6171453e-01
  2.2886326e+00
  4.5983827e-01
 -1.7900546e-01
  1.1281145e+00
  7.5476772e-01
  3.9005616e+00
  4.9016225e-01
  6.1861521e-01
 -1.4406571e+00
 -5.4276621e-01
 -3.8771518e-02
  4.1647553e+00
  1.3517020e+00
 -1.3543452e+00
 -3.1229186e+00
 -1.2242593e+00
  5.9671730e-01
 -1.1248974e+00
  5.2448131e-02
  1.8980653e+00
  2.1032894e+00
  2.0705228e+00
  5.8591720e-02
 -2.2297680e+00
 -1.7598121e-01
 -7.1052736e-01
  1.1545870e+00
  1.1687799e+00
  1.0215563e+00
 -3.0524001e-01
  1.6432937e+00
 -2.0168884e+00
  1.4641422e+00
  7.9442745e-01
  1.0553300e+00
  7.0263736e-02
 -2.6095137e-01
 -4.9134576e-01
  5.2357572e-01
  1.9433639e+00
  5.6584394e-03
 -1.1356719e+00
  5.1159292e-01
 -3.5080993e-01
  1.7406887e+00
  2.2421050e+00
  1.1501217e+00
 -9.0204650e-01
 -5.0627506e-01
 -1.2279120e-01
  1.6828057e-01
 -4.4285995e-01
 -1.6599280e+00
 -1.0748905e+00
  4.7927728e+00
 -2.7467685e+00
 -3.1789020e-01
 -6.3846314e-01
 -1.0361806e+00
  3.3111773e+00
 -3.1859374e-01
 -2.3577051e+00
  1.5998371e+00
 -2.4928176e+00
 -2.2312121e+00
 -2.5312955e+00
  1.6525383e+00
  9.3141073e-01
 -7.8464258e-01
  8.3332962e-01
  9.4073579e-02
 -1.5643649e+00
  5.6636786e-01
  4.1289693e-01
  7.4728668e-02
 -7.0529801e-01
  2.2797523e+00
  5.5502701e-01
 -3.7396488e-01
 -1.6833453e+00
  3.4915822e+00
  9.8749191e-02
  3.7467387e-01
 -1.8367180e-01
  2.2042897e+00
  3.9390125e+00
  1.1447132e-02
 -1.7687292e-01
 -3.7306345e-01
 -2.5607321e-01
 -3.4080634e-01
 -2.5226530e-01
 -2.3070809e-01
  1.8676624e-01
 -2.7792332e+00
 -5.3144991e-01
  1.0356925e-02
 -8.4233895e-02
  2.0182717e+00
  1.0390460e+00
  2.5493723e-01
  2.6142900e+00
 -2.3055303e+00
  3.3624220e-01
 -1.1948587e+00
 -5.9260201e-01
 -4.2046061e+00
  7.0019943e-01
  2.2587442e-01
 -2.7754486e+00
 -2.7969403e+00
 -1.0212581e+00
 -3.7398200e+00
 -2.3603445e-01
  2.8750703e-01
  9.3875523e+00
  1.2416786e+00
  5.8642292e+00
 -1.4118019e-01
  1.5112699e+00
  5.7441077e+00
  7.7248793e+00
  6.8062073e-01
  2.9931896e+00
  6.9411774e+00
 -2.1288581e-01
 -2.0510261e+00
  2.6270683e+00
 -3.8515294e-01
  3.7174886e-01
 -9.7779989e-01
 -2.3704119e+00
 -1.0212495e+00
 -3.0920595e-01
 -6.5949929e-01
 -3.2695372e+00
 -1.3878436e-01
 -2.0207392e-02
 -5.4256076e-01
 -1.7209733e-02
 -6.0910050e-02
  2.1163998e+00
  2.5130081e+00
  1.0655968e+00
  1.0196204e+00
 -8.5561261e-02
 -1.0196433e+00
 -9.0110235e-02
 -7.7099633e-01
  1.9431786e-01
  3.1086835e-01
 -8.7722816e-04
 -5.7804096e-01
 -1.8154343e+00
 -1.3103286e+00
  4.7822480e+00
 -2.9617631e+00
 -1.1056803e+00
 -2.9297149e-01
  8.7175083e-01
  1.7211276e+00
  3.1907400e-01
 -6.5229911e-01
  2.3156312e-01
  9.2564648e-01
  2.9171810e+00
 -3.7118232e-01
  3.5123568e-02
 -6.0828477e-01
  7.3786035e-02
  1.7686541e+00
 -1.5428393e+00
 -7.5588115e-03
  2.1461182e+00
 -2.0561308e-01
 -5.7392800e-01
 -2.1886585e+00
 -8.8368839e-01
 -5.4464531e-01
 -5.0791260e-02
 -1.7105280e-01
 -3.7151161e-01
  4.9778728e+00
  2.6269874e-02
 -4.5891145e-01
 -4.0194431e-01
  1.3889611e+00
 -2.2546344e+00
 -2.8456771e-01
 -6.4643431e-01
  1.2459364e+00
  2.6770213e+00
 -1.4698124e+00
 -1.5242387e+00
  7.4020219e-01
  1.8553203e-01
  1.2557504e+00
 -1.0513296e+00
  2.8873786e-01
 -6.1900717e-01
  3.8118118e-01
 -4.3413594e-01
 -3.8358890e-02
 -3.5975974e-02
 -1.0222923e+00
  8.7574869e-01
 -4.3821931e-01
 -2.4864500e+00
 -5.1419544e+00
 -5.9261035e-02
  2.9070485e+00
  1.7206010e+00
 -1.7874572e-01
  3.2422543e-01
 -3.4733161e-01
  1.9494565e+00
  8.3392400e-01
 -6.7492151e-01
 -3.4540462e-01
  1.3075143e+00
  7.2526836e-01
 -6.8792993e-01
  4.3271291e-01
 -5.6637146e-02
  9.8995602e-01
  1.0362825e+00
 -2.9563551e+00
 -1.1198119e+00
 -1.6951735e+00
  2.0092316e-01
 -4.6897504e-02
 -2.5722957e+00
 -1.2550066e+00
  5.6998873e-01
 -1.4844644e+00
  1.2499058e+00
  2.6912567e-01
 -7.8284335e-01
  1.1383537e+00
 -1.7643234e-01
 -1.8737842e+00
  4.3531200e-01
  1.9518507e+00
 -3.4661722e-01
 -1.4783818e-01
  1.5901424e+00
  7.2357380e-01
  7.2766006e-02
  1.1067601e-01
 -1.1063784e+00
  3.4972005e-02
 -6.4577198e-01
 -3.3328164e-01
 -1.2274514e+00
  3.4896624e-01
  3.0005312e-01
  1.4189236e-01
  2.8075082e+00
  2.8377230e+00
 -2.4769998e+00
  1.9623929e+00
  1.9636632e+00
 -1.3435374e+00
 -3.7366390e+00
  6.0844135e-01
 -2.8059325e+00
 -4.8654303e-01
  8.9719766e-01
  1.4873319e+00
  1.0525368e+00
  8.1401062e-01
  1.2413239e+00
 -2.2539537e-01
 -1.9868214e-01
 -1.0433552e-01
  8.7792099e-01
  3.3633940e+00
  6.3296878e-01
  1.0533953e-01
  8.8017195e-02
 -2.5273111e+00
  3.3707080e+00
 -3.1339100e-03
 -7.2126853e-01
  3.1165004e-01
  2.1759143e+00
  1.0195458e+00
 -2.7145436e-01
 -1.9965017e-02
 -3.4108889e-01
  1.7831358e+00
 -1.5274256e+00
 -1.9001237e+00
 -3.1017716e+00
  4.4507420e-01
  1.5316625e+00
  3.3918101e-02
 -4.3623585e-02
  1.9394237e+00
 -5.1616898e+00
 -3.2916952e-02
  4.0749010e-01
  1.2614937e+00
 -2.2985753e-01
  1.7192644e+00
 -3.4203228e-01
 -8.3851427e-01
 -9.9221927e-01
  4.5275626e+00
 -9.8998612e-01
  2.9840416e-01
  1.5909475e-01
 -8.3138734e-01
 -1.2205030e+00
 -8.2079250e-01
  9.7674650e-01
 -4.7543919e-01
 -3.0468965e+00
 -2.5151789e+00
  1.0318643e+00
 -2.1119430e+00
 -3.2969093e-01
  1.5790510e+00
 -2.6593561e+00
  1.8092307e-01
  3.8292533e-01
 -2.2139394e+00
 -2.5890086e-02
  1.4405088e+00
 -6.8605162e-02
 -2.9053065e-01
  1.4450896e+00
 -1.5350895e-01
  1.6126503e+00
 -2.1483974e+00
  2.8703550e-01
 -1.6212847e+00
 -3.3087605e-01
 -6.8317719e-02
 -1.7210759e-01
  1.2440670e-01
 -7.6691729e-01
  5.6409925e-01
 -9.4379401e-01
 -2.9922190e+00
 -4.4489512e+00
  2.2351861e+00
 -5.5014753e-01
 -1.5506658e-01
  2.7506506e-01
  3.6890233e+00
  5.8111542e-01
 -1.3337032e-01
 -4.9528718e-01
  7.9924470e-01
  7.8867817e-01
 -2.3669159e+00
  1.2783965e+00
  1.2512450e+00
  3.1311154e-01
  1.0775861e+00
 -8.7656111e-01
 -3.7769210e+00
  6.6843265e-01
 -1.8082635e-01
  8.7568057e-01
  4.3852820e+00
 -2.6207438e-01
  9.9404594e-03
  1.6383501e+00
 -6.8282717e-01
 -2.2796358e-01
  2.6008752e-01
  3.0182111e-01
  1.5391451e-02
 -4.6453583e-01
  9.3643278e-01
 -1.8917094e-01
  7.6965404e-01
  1.0166453e+00
  1.4365511e+00
 -6.4543563e-01
  1.4752631e+00
 -2.3172772e-02
 -6.8142146e-01
 -2.1683185e+00
  9.5797175e-01
  1.1636410e+00
 -5.8372074e-01
  6.5664810e-01
  1.4325322e+00
  4.0571235e-02
  5.4949942e+00
  2.0704477e+00
  8.0763988e-02
  1.9146389e+00
 -3.5022056e-01
 -2.6893771e+00
  3.4462307e-02
 -4.4918597e-01
  8.1788987e-02
  6.6656368e-03
 -1.1425296e+00
  5.3725880e-01
  1.6567734e+00
  6.2901519e-02
  3.0306668e+00
  7.6386327e-01
  2.1026015e+00
  9.9213803e-01
 -2.6424608e-01
 -4.3830104e+00
  3.0084920e+00
  1.7099746e-01
  5.3339833e-01
 -1.8086654e-01
 -1.7325513e-01
  6.4146793e-01
 -5.5243289e-01
 -3.0775466e+00
  1.1481726e+00
  2.0868473e-01
 -1.1272149e+00
 -3.9996853e-01
 -9.6881068e-01
  9.6253431e-01
  7.9243892e-01
 -3.3197695e-01
  1.9341686e+00
 -7.4649081e-02
 -7.1587789e-01
 -2.6547065e+00
  3.4254770e+00
 -2.2127259e+00
 -2.0166667e-01
 -3.5667024e+00
  4.1334182e-01
 -1.2644485e+00
  2.6078615e-01
 -4.2178354e-01
  3.8084528e-01
  2.2200902e+00
 -7.5606561e-01
  3.6718303e-01
  9.1686410e-01
 -2.8864627e+00
  7.2482520e-01
  5.1468872e-02
 -1.1663677e+00
 -6.2352622e-01
  1.2611954e-01
 -5.2777004e-01
 -8.3654964e-01
  1.6685864e-01
 -2.2755539e-01
  3.1769577e-01
 -4.3781391e-01
 -1.8075025e-01
 -2.5131175e-01
 -1.8769873e+00
 -1.9690028e-01
  2.1311994e-01
  2.0282086e-02
 -1.6432559e-02
  1.0594023e-01
  4.7020665e-01
 -1.1117632e+00
  1.2145004e-01
  1.2566539e+00
  1.7087089e-01
  1.6213401e-01
  1.3815436e+00
 -2.1196075e-01
 -5.8949394e+00
 -1.0523890e+00
 -2.4475148e+00
  3.7942249e-01
 -2.4618237e+00
  2.1480780e+00
  4.4490433e+00
 -1.0987344e+00
 -1.2887450e+00
  1.5937393e+00
 -6.5545189e-01
  4.1311078e+00
  1.6148530e+00
  1.0766041e+00
  1.9961528e+00
 -3.3972592e+00
 -1.0798392e+00
 -1.3114478e-01
 -6.8090540e-01
 -1.7903876e-01
  9.2043477e-01
  3.1560669e+00
 -6.4810348e-01
 -2.5529706e+00
 -1.4744816e+00
  1.5195575e+00
 -5.7615833e+00
 -7.0064324e-01
 -1.0065274e+00
 -4.0894550e-01
  6.0747600e+00
 -2.4441783e+00
  1.4084417e+00
 -1.7129691e+00
  3.9881146e-01
  1.3326053e-01
 -1.0416334e+00
  1.5946038e+00
  9.5394212e-01
 -6.0825479e-01
 -1.9138495e+00
 -1.0410370e+00
 -8.6010748e-01
  1.5968785e+00
 -5.3311211e-01
 -1.8335019e+00
 -8.0673230e-01
 -4.9833812e-02
  2.3725332e-01
  1.1489303e-01
  2.8772318e-01
  5.4483110e-01
  2.1361241e+00
  2.1267111e+00
 -3.1142980e-01
  1.2035367e+00
 -5.6197208e-01
 -2.7249134e-01
  1.4003156e+00
  6.2193865e-01
 -2.8495605e+00
 -3.0617161e+00
 -4.1485870e-01
 -3.3554018e+00
 -2.1069958e+00
  3.7670879e+00
  1.3657823e-01
 -8.3097599e-02
  6.3450301e-01
  4.1523266e-01
  1.9278756e+00
 -1.2699449e-01
  1.7928108e+00
 -4.4664559e-01
 -4.8125423e-02
  4.9380800e-01
 -1.0564668e+00
  3.9627991e+00
  2.6572566e+00
  3.8358073e+00
 -3.5873744e-01
  1.6512283e+00
 -5.1197493e-01
  1.5551010e+00
 -4.2810857e-01
 -2.8903613e+00
  1.1762122e+00
 -6.1461851e-02
  3.9997923e-01
 -1.9017301e+00
 -1.2033994e-01
 -3.6188371e-02
  9.2336249e-01
  8.4249872e-01
  2.9442589e+00
  2.0845578e+00
 -1.5494903e+00
 -2.4364512e+00
  3.3406994e+00
  5.8129728e-01
 -6.7024100e-01
  5.0069863e-01
 -8.9511698e-01
  1.3118374e+00
  5.6051809e-01
 -2.1633680e-01
 -1.7907491e+00
  4.1798782e-01
 -3.4130755e-01
  1.2157242e+00
 -1.7308096e+00
 -7.4430943e-02
 -2.7635208e-01
  9.8239648e-01
  7.6745820e-01
  1.4916379e+00
 -1.8550479e+00
  1.0155382e+00
  7.3481810e-01
 -1.0159038e+00
 -7.0880449e-01
  1.9223604e+00
 -3.7012127e-01
 -1.3346953e+00
 -2.7513704e+00
  1.9742984e+00
 -7.4484766e-02
 -1.4292746e+00
  3.7327020e+00
  1.1801960e-01
  2.4717772e+00
 -2.6133852e+00
 -8.1209135e+00
  1.8645771e+00
  2.6152067e+00
  3.5573483e-01
 -4.0294847e+00
  8.8968974e-01
 -4.5895848e+00
  5.1193947e-01
 -4.2347612e+00
  2.2569373e+00
  1.5197898e+00
  2.3254430e+00
  1.2180629e+00
 -1.5651654e+00
  1.9963460e+00
  6.8267399e-01
  1.7128691e-02
 -3.4941260e-02
 -5.6585729e-01
 -1.5208767e-02
 -2.2911849e+00
  6.8436527e-01
  1.2524167e-01
  1.7452797e+00
  1.5863929e+00
 -1.3541541e+00
 -1.0517728e+00
  1.9178872e+00
 -3.2907066e-01
  1.7451094e-01
  5.7041585e-01
 -1.0958902e+00
 -9.7486991e-01
  1.0699263e-01
 -2.1438017e+00
 -1.9085695e+00
 -1.2600989e+00
 -3.8973651e+00
 -2.5933748e-01
  2.4741175e+00
  1.2918994e+00
 -1.9401252e+00
  7.4062294e-01
  7.8402096e-01
  2.4230580e+00
 -1.2699966e+00
 -5.9296273e-02
 -1.1028013e-01
  4.2935187e-01
  1.6075310e-01
  1.3432333e-01
 -1.6874504e+00
 -2.1560879e+00
  8.7257594e-01
  2.3921753e-01
  1.2052940e+00
  2.8006699e+00
 -3.6794180e-01
 -3.1659284e-01
 -3.4930947e+00
 -2.9146683e+00
  8.5452223e-01
  2.7530890e+00
  1.1861106e+00
 -1.2567358e+00
  1.4112858e-01
 -6.8343353e-01
  1.5890272e-01
  4.8159027e+00
  2.4650757e+00
  3.1902368e+00
  8.4567946e-01
  7.2042221e-01
  6.9826227e-01
  1.1768370e+00
 -1.7678434e+00
 -1.2917575e+00
  3.4423009e-02
  3.5769048e-01
 -3.8145477e-01
 -1.4906554e+00
  1.6368815e+00
  2.5173247e-01
 -5.1292855e-01
 -3.7545945e-02
 -3.1474599e-01
 -2.5365400e+00
  3.3150139e-01
  3.2779055e+00
 -1.6314951e-01
  1.8672615e-01
  1.8863815e+00
 -9.9099988e-01
 -3.1926148e+00
 -8.5418153e-01
 -3.2353811e+00
 -1.7566023e+00
  3.9805841e+00
 -7.9016179e-02
 -6.4006681e+00
 -4.3778839e+00
 -4.0440454e+00
  7.5176442e-01
 -2.1953431e-01
  4.1363540e+00
 -5.3522158e-01
 -1.9412336e+00
  2.6227503e+00
 -1.7838037e+00
  2.7248068e+00
  2.7127445e+00
 -2.2857481e-01
 -5.6831350e+00
  5.0814877e+00
 -7.7688918e-02
  4.6053606e-01
 -6.6614813e-01
 -7.2620651e-03
  1.3565370e+00
  2.2060618e+00
 -1.7257744e-01
 -2.8351333e+00
  1.2967337e+00
 -2.9502451e-01
 -6.9965094e-01
 -3.3532166e-01
  3.0938068e-01
  1.9673434e+00
  1.7842526e+00
 -3.5476117e+00
  3.4394872e+00
  1.4399627e+00
  1.0320005e+00
  5.4727244e-01
  4.5095686e-02
  6.2875885e-01
  1.7773822e-03
  3.8986290e+00
 -1.2451870e+00
  6.7681098e-01
  1.9561378e+00
  6.6786194e-01
  2.6201832e+00
 -4.2533708e-01
 -5.9401089e-01
 -2.9800224e+00
  3.8243816e+00
  3.6707699e+00
  6.1325985e-01
  7.5919390e+00
 -7.3437649e-01
 -2.1961684e+00
 -7.6256835e-01
  6.8979740e-01
  1.7196728e+00
  8.0007845e-01
  1.5103626e-01
 -5.6377029e+00
 -3.1827183e+00
 -1.3102041e+00
 -1.0059391e-01
 -4.7864276e-01
  5.4657873e-02
 -6.4140670e-02
 -2.1149936e+00
 -1.1866878e+00
  4.4584246e+00
 -1.3238966e+00
 -1.0580468e+00
 -4.0231116e-02
  9.5766917e-02
  6.8395030e-01
 -1.0100336e+00
 -1.2822994e+00
 -4.4770589e+00
 -1.9198101e+00
 -7.4051686e-02
  7.4083321e-02
  3.3410528e-01
 -2.0988028e+00
  2.4203293e+00
  4.3525844e+00
 -4.1292901e+00
 -4.8957816e-01
  7.7211356e-01
 -7.3787284e-01
 -2.1541402e-01
 -5.7482630e-01
  1.8658811e-01
  3.2910759e+00
  3.3404961e+00
  3.7488136e-01
  2.0040424e+00
 -7.5406736e-01
 -6.9734499e-02
  6.6588259e-01
 -3.3947659e+00
 -6.8889771e+00
 -8.1156874e-01
  1.9523592e+00
 -6.2513781e-01
  4.1119629e-01
 -2.3867173e-01
 -1.9198496e+00
  4.9565542e-01
 -8.9021003e-01
  3.8941413e-02
  5.3382337e-01
 -1.5473670e-01
 -1.0101561e-02
 -2.7769754e+00
  1.1864710e+00
  5.3379959e-01
  4.0394548e-02
  1.7977849e-01
  4.1665408e-01
  1.4804646e-01
  2.4255805e-01
 -8.8233143e-02
  8.8204765e-01
 -1.2832136e-01
  5.7404298e-01
  8.0407304e-01
  1.4072545e-01
  1.3321673e+00
 -4.0337658e-01
  4.3913817e-01
  2.6249564e+00
  1.5586989e-01
  1.5998406e+00
 -8.0242920e-01
  1.4370407e+00
 -2.1804202e-01
 -1.3588578e+00
 -1.2683563e+00
 -1.7640421e-01
 -6.9223207e-01
 -6.5917432e-02
 -9.2998278e-01
  3.6320788e-01
  1.4441935e+00
 -5.5551589e-01
  3.9759737e-01
  4.2008093e-01
  2.6724282e-01
 -7.9999112e-02
 -3.4302366e-01
  4.9151145e-02
 -1.1306401e-01
 -2.4740627e+00
 -3.7078512e-01
  2.2349460e-01
 -4.7944072e-01
  3.1073457e-01
 -1.3172036e+00
 -1.6056006e+00
  8.3170310e-02
 -3.2856308e-02
 -1.3365823e-01
 -5.8885459e-02
  8.2654470e-01
  1.2290998e-02
  1.6530321e+00
  5.6213111e-01
  8.6898649e-01
  1.7405635e+00
 -1.5601192e-01
  4.4648576e-01
  1.0211717e+00
  6.7190820e-01
 -2.8000244e-01
  1.4820728e-01
 -8.0344552e-01
 -4.1405097e-01
  5.0996929e-01
  1.1424755e+00
  2.3874800e+00
  6.2774938e-01
 -1.0995021e+00
 -4.6076040e+00
 -5.3172577e-02
  2.2656024e-01
  4.2049718e-01
 -1.0712593e+00
  1.6361138e+00
 -1.2633065e+00
 -2.2090056e+00
 -2.8849545e+00
  4.2020545e+00
  2.1440952e-01
 -4.8677832e-01
 -2.0956283e+00
 -2.5574300e-01
  1.9477849e+00
 -3.9837310e-01
  3.0943108e-01
  4.1597831e-01
  3.1055352e-01
  6.8653077e-02
 -1.9196691e-02
 -1.7356458e-01
  7.6005852e-01
 -1.1046705e+00
 -2.6548524e+00
 -1.4279059e+00
 -7.2464935e-02
 -2.5697343e+00
 -2.3931015e+00
  2.1682062e+00
 -2.3980233e-01
 -1.0732363e+00
 -3.7886721e-01
 -1.3059967e+00
 -2.8176782e+00
  1.8096623e-01
  1.1910123e+00
 -7.4263359e-03
 -1.1171100e+00
 -9.1638839e-01
  3.2032392e+00
 -1.6219041e+00
  1.6172076e+00
 -2.1235926e+00
  7.4511582e-01
 -4.3765951e-02
 -1.4075879e+00
 -2.4003474e-01
 -1.0858073e+00
  6.0013542e+00
 -9.6555769e-01
  9.5411652e-01
  2.6906037e-01
  3.3212900e-01
 -7.4827158e-01
  7.9962003e-01
 -6.4597797e-01
 -1.4818742e+00
  1.6364288e+00
 -3.1409040e-01
 -1.2243062e+00
 -1.3692659e+00
  2.0790679e+00
 -1.0254315e-01
  2.1855217e-01
  1.9862750e+00
 -1.8230255e-01
 -1.5539542e+00
  1.3551899e+00
 -5.2027589e-01
 -9.7341865e-02
 -1.4070293e+00
  1.4304560e-01
  1.6354215e-01
  3.0521092e-01
  7.1341985e-01
 -3.8235977e+00
  1.6482131e+00
 -5.0424010e-01
 -6.4674821e+00
  2.3641679e+00
  2.5025156e+00
 -2.7891014e+00
 -1.4073050e-01
  3.4853284e+00
 -1.1387047e+00
 -2.4144087e+00
  3.5627110e+00
 -1.0961034e+00
  1.8159740e-01
 -3.9863932e+00
 -2.0295441e-01
 -2.7487364e+00
  2.3297004e-01
  5.5440933e-01
  1.8941475e+00
  1.6258906e+00
  5.1681328e-01
  5.2968991e-01
  2.5440559e-01
  1.6956888e+00
 -1.2843932e+00
  1.9679196e+00
 -6.9457120e-01
  1.9016861e+00
  6.8711652e-03
 -4.6730459e-01
  4.4059733e-01
  9.5688039e-01
  7.6328409e-01
  1.0697734e+00
 -1.2981693e+00
 -2.1630576e+00
  7.5048047e-01
  2.3432761e-01
 -2.4257052e-01
  1.4398578e+00
 -1.8526098e+00
  1.6823882e+00
 -1.1165453e-02
  1.2511858e+00
  5.2830864e-02
 -3.9726785e-01
  3.5282264e+00
 -1.4825133e+00
  4.9354458e+00
  1.7532028e-01
  3.8392478e-01
  4.1320017e-01
 -5.6842476e-01
 -9.1343582e-02
  1.6175041e+00
  1.3671272e+00
  2.3462970e+00
 -1.4650179e+00
  8.7392315e-02
 -1.0084703e+00
 -2.8095415e+00
  3.5494604e+00
 -6.9205132e+00
 -3.9549747e+00
 -3.8552478e-01
 -7.5648487e-01
 -1.1270384e+00
  6.3290507e-02
 -5.1511091e-01
  2.4102083e-01
  2.0649934e-01
  1.0131534e+00
  1.2255890e+00
 -2.1670837e+00
  3.5232639e-01
 -9.4782180e-01
  1.4713440e+00
 -2.6642265e+00
 -3.6253926e-01
 -1.1482590e+00
 -2.2137213e-01
  9.5005161e-01
 -5.2586832e+00
  2.2811499e+00
 -8.7300517e-02
  1.0847576e-01
  1.5320096e+00
  2.7778611e-01
 -1.4438609e+00
  1.6236104e-01
 -1.2012781e+00
 -9.4287109e-01
 -2.2919168e-01
 -3.5589418e-01
 -1.6686858e+00
 -3.0770150e-01
 -1.3403690e+00
 -1.4155446e-01
 -3.7894270e-01
  1.9486889e+00
 -1.3573572e-01
 -1.3079822e-01
 -7.9892564e-01
 -4.7569621e-02
  1.9822406e-02
 -2.2623202e-01
  1.4816028e-01
  8.7617910e-01
  2.3195629e+00
  3.2754540e+00
 -2.0122325e+00
  1.0774286e+00
  3.8206923e-01
  1.2066674e+00
  2.3555036e+00
  3.3068472e-01
  1.1434340e+00
 -7.4678230e-01
  1.5268804e-01
  9.0458769e-01
 -1.5044838e-01
  1.9717580e+00
  1.0612506e+00
  8.8985556e-01
 -1.4861718e+00
 -1.4148580e+00
 -4.3839124e-01
  1.6473823e+00
  1.0243626e+00
  3.2519552e-01
 -3.7901452e-01
  1.8799609e-01
  3.9758005e+00
 -1.6866088e-01
 -7.4673092e-01
 -6.3775891e-01
 -3.9755499e-01
  3.8965759e+00
 -3.9995614e-01
  1.0360362e-01
 -3.5653839e+00
 -3.3564615e-01
  1.9283621e+00
  1.8288678e+00
  1.1797009e-01
  6.3391274e-01
 -5.2578127e-01
 -1.9965955e+00
 -5.8694237e-01
  9.8092681e-01
 -3.9333370e+00
 -1.4428453e+00
 -1.1680079e-01
 -5.7574975e-01
 -1.7436950e+00
 -2.0756935e-01
  4.8239458e-01
  2.3528267e-01
  1.7061818e-02
 -1.4659594e+00
  2.9021546e-01
  1.2961807e+00
  2.6956815e-01
  2.7389159e+00
  2.1470919e+00
 -1.8458562e+00
 -1.7523965e+00
  8.3938575e-01
  3.5496104e+00
 -2.3300099e+00
 -1.9395307e-01
  9.5087814e+00
 -7.7409530e-01
  3.2176671e+00
 -1.6767220e-01
 -4.0605545e-01
 -6.3183689e-01
  7.7787595e+00
 -1.3540787e+00
  1.3635091e+00
 -9.9319524e-01
 -1.9166119e+00
  2.4828756e+00
 -1.5348538e+00
  4.2681212e+00
 -1.5985442e+00
 -2.0894628e+00
  6.6191339e-01
  6.8030849e+00
 -2.5463960e+00
  6.5860200e-01
  3.5998280e+00
  2.1811993e+00
 -2.4232404e+00
  4.9197111e-01
  4.8653612e-01
  8.3148330e-01
 -4.8027211e-01
 -5.4400516e-01
  7.8497255e-01
  4.6962193e-01
 -1.8319223e+00
  1.3625433e-01
  1.4775434e+00
 -3.0610618e-01
  1.0003420e+00
 -2.7234915e-01
  5.6632854e-02
 -1.6729555e+00
  1.0077494e-01
  4.1177277e-02
  1.4075042e+00
  1.6245230e+00
 -3.1115508e-02
 -4.1535583e+00
  1.8320173e+00
  2.4961300e+00
  6.0530657e-01
  1.0183657e+00
 -6.2287235e-01
  1.1862466e+00
  1.6295660e+00
  2.0023572e+00
 -7.0455760e-01
 -4.4858322e-01
 -4.0228158e-01
 -8.8969260e-02
  3.0203554e-01
 -3.6178279e-01
 -9.0977579e-01
 -3.3946044e+00
  9.9687479e-02
  3.3309820e+00
 -4.7151998e-01
 -1.3419457e-01
 -1.1312988e+00
  8.2809561e-01
  2.5388816e-01
 -2.1012838e+00
  4.9236443e-02
 -1.1389103e-02
  2.4419525e+00
  4.9347502e-01
  2.6429710e+00
  2.4347982e+00
  1.3799199e+00
  1.2696030e+00
 -9.2075968e-01
  2.8658669e+00
 -1.2337787e+00
 -1.7539635e+00
 -6.1016206e-02
 -2.7561688e-01
  5.9989600e+00
 -1.3350215e+00
  1.2558948e+00
 -3.9127541e-01
 -2.8267791e+00
 -3.0212858e-01
  1.4119889e+00
 -1.5633821e+00
 -1.1654330e+00
 -2.1369662e+00
 -1.0609844e+00
  1.6137170e+00
  6.4487302e-01
  1.7450613e+00
 -1.6618500e+00
 -1.0098720e-01
  2.7305157e+00
 -2.6181263e-01
  2.7731134e-02
  1.7113611e+00
  3.8820455e+00
 -3.2480207e-01
  1.8433878e+00
  2.7752897e-01
  6.4250702e-01
 -5.3127255e-02
 -3.2309216e-01
  2.9457524e+00
 -3.8158128e+00
  7.9600692e-01
 -1.3416084e-02
 -2.7140260e+00
  1.4319170e-01
 -7.6113123e-01
  1.3160856e+00
  2.7076886e+00
  3.8136831e-01
 -7.0008522e-01
  3.0077016e+00
  4.6228857e+00
  2.5015742e-01
  2.0415239e-01
  1.1404151e-01
  5.5621618e-01
  1.6045847e+00
  1.5191833e+00
 -6.5846688e-01
  2.6265321e+00
  1.2607981e+00
 -2.8382441e-01
  6.8204796e-01
 -1.2870237e-01
  2.9027483e+00
 -1.0995100e-01
 -4.2518220e+00
  3.2126317e+00
  1.4614410e+00
  1.1892591e+00
  1.1692774e+00
 -8.2542551e-01
  2.8310225e+00
 -2.2254841e+00
 -2.3750730e+00
 -1.2387040e-01
  3.6265126e-01
 -1.7881867e+00
  4.5687690e-01
 -1.7666274e-01
  1.8440156e+00
  1.5106934e-01
  6.8157566e-01
 -3.7294116e+00
 -2.2069447e+00
  9.2716163e-01
 -1.3014783e+00
  3.5655501e+00
 -2.5726318e+00
  1.6084741e+00
  8.5634820e-02
 -4.2227197e-01
  2.7629650e+00
  4.5348740e-01
 -5.0937810e+00
  2.6248302e+00
 -8.4257871e-01
  8.8295346e-01
  8.9022177e-01
  5.4123921e+00
 -3.6725745e+00
  2.4526737e+00
 -2.1354165e+00
  1.5928437e+00
  7.7489811e-01
 -3.6412013e-01
  1.7258369e+00
  3.7153465e-01
  1.3205905e+00
  3.5915637e+00
 -3.9599594e-01
  1.1914619e+00
 -1.8173448e+00
  2.2080112e+00
  1.8796290e+00
  2.4766202e+00
 -6.5939403e+00
  8.2314861e-01
  9.2341051e-02
  5.4431874e-01
  1.1760142e-01
  6.1089334e+00
  4.2056295e-01
  8.9253986e-01
 -5.1972890e-01
 -3.0532997e+00
 -2.4879761e+00
 -2.4132206e+00
  5.8504176e-01
  2.0780808e-01
 -1.1337710e-01
  9.1654885e-01
  1.3624716e-01
  6.3107699e-01
  7.9569286e-01
 -4.8012784e-01
  3.9513132e-01
  2.0898949e-02
 -4.4990816e+00
 -2.0764635e+00
  3.5592260e+00
  1.3479869e+00
 -4.2341580e+00
 -2.1377156e+00
  3.6766100e+00
  3.9028496e-01
  5.7051402e-01
  8.0203116e-01
 -2.8773659e-01
  3.0180070e-01
 -3.5049787e+00
 -9.6680737e-01
 -1.5637690e-01
 -8.7819405e-02
  3.7079585e-01
  3.9339914e+00
 -5.4969016e-02
 -1.5160873e+00
  1.5553817e-01
  1.1275483e+00
  6.7864245e-01
 -9.1527683e-01
 -1.0968966e+00
 -6.9854975e-01
  4.6498914e+00
 -1.4721607e-01
 -4.9171257e-01
  3.6577314e-01
 -1.1361698e+00
 -7.3369491e-01
 -6.5320641e-01
 -6.3184184e-01
 -3.4607162e+00
 -5.9965676e-01
  6.1622542e-01
 -3.3409891e-01
 -1.7891847e+00
 -1.4910641e+00
 -1.0192537e+00
 -5.7190949e-01
  1.7551720e+00
  4.6072298e-01
 -3.8209847e-01
 -3.6050680e-01
  2.5646138e-01
  8.8690734e-01
  3.2993979e+00
 -4.6830711e-01
  2.4002283e+00
 -2.2185196e-01
  2.4003854e-01
 -1.5585932e-01
  1.4431301e+00
 -3.8652804e-02
  1.0569839e-02
  1.4520086e+00
 -5.9860951e-01
  5.7834071e-01
  2.8643575e-01
  2.0569864e-01
  4.3928494e+00
 -5.7025957e-01
  7.9978144e-01
 -1.2444994e+00
  1.1608167e+00
  6.9383579e-01
  7.4329454e-01
 -4.2157762e-02
 -8.8221806e-01
  3.5988945e-01
  8.5446902e-02
 -1.3250742e+00
  1.3299611e+00
 -1.1321616e-01
  5.9776807e-01
 -5.6734937e-01
 -3.3100686e+00
  5.9512281e-01
 -6.8907395e-02
  1.0433474e+00
  8.7580639e-01
  1.1634102e+00
  1.4299494e-01
 -4.4169985e-02
  6.7096168e-01
  1.2848992e+00
 -2.5314564e-01
 -4.2236204e+00
 -6.2653935e-01
  7.9048568e-01
  3.2057777e-01
  5.7152871e-02
  6.9209832e-01
 -1.3720878e+00
 -1.3284383e+00
  3.2774627e+00
  1.4708337e+00
  4.1111442e-03
 -5.5899924e-01
  3.2085869e-01
 -7.0125788e-01
 -1.0726939e+00
  1.1304281e-01
 -2.5989893e-01
  1.0236090e+00
 -5.5459571e-01
 -9.3885385e-02
  2.1040909e-01
 -7.8729099e-01
 -2.3951477e-01
  1.6686795e+00
 -7.1920496e-01
 -3.6199230e-01
 -1.3149375e-01
 -4.9006886e+00
  5.2629578e-01
 -3.9096225e-02
  5.0513256e-01
 -2.6822946e+00
  1.2588147e+00
 -2.3977675e+00
 -1.5053472e-02
  2.0829108e+00
  1.8889441e+00
 -1.1705189e-01
  3.1646247e+00
  7.7705669e-01
 -1.1091127e-01
 -2.4862952e+00
  4.9160734e-01
 -4.0025681e-01
  6.6960585e-01
  8.3557069e-01
 -1.4436500e+00
 -1.0668496e+00
  1.9600267e+00
  1.5854801e+00
  1.7015843e+00
  1.7753729e+00
 -9.9999797e-01
 -9.6293077e-02
  8.4651625e-01
 -1.2295487e+00
 -1.2768371e+00
 -8.5655279e-02
 -1.7957660e+00
 -2.1510565e-01
 -9.2042193e-02
 -3.7876058e-01
 -2.3653095e+00
 -1.1811625e+00
  8.8284403e-01
  3.8806042e-01
  7.1316205e-02
 -2.6464255e+00
  2.6949462e-02
  9.1854417e-01
  2.0177145e+00
  8.5183668e-01
  5.5089836e+00
 -7.2123748e-01
 -2.3134434e+00
  4.8113236e+00
 -3.9225821e+00
  4.1392368e-01
 -4.1657400e+00
  5.1365838e+00
 -2.4464914e-01
 -1.3873050e+00
  6.1674386e-01
  6.9327068e-01
  5.6325036e-01
  1.9460517e+00
 -7.9186493e-01
  2.5615296e+00
  6.1286986e-01
 -1.0915900e-01
  1.7647614e-01
 -2.7290484e-01
 -4.2262638e-01
  1.0697299e+01
 -2.3332124e+00
  4.6213329e-01
 -1.5628882e-01
 -5.4733324e-01
  9.7377479e-01
  4.9273458e-01
 -2.3998039e+00
  6.6049325e-01
  3.4716314e-01
  6.4372164e-01
  6.3253444e-01
 -1.6949482e+00
  1.0433921e+00
  2.3773532e+00
  5.4425323e-01
 -1.8604978e+00
  2.2150097e+00
  3.3046246e-01
  2.0379747e-01
 -1.9250361e+00
  8.1639163e-02
  1.8493255e+00
 -2.4062772e-01
  7.3719889e-01
 -2.5280100e-01
 -3.3612642e-01
  1.1107939e+00
  5.4201949e-01
  4.9926859e-01
  1.9105085e+00
  6.3496298e-01
 -1.8222406e+00
 -4.4205391e-01
  5.1818383e-01
  2.4240632e+00
  6.0408749e-02
 -1.6501087e+00
  7.2038704e-01
 -1.1716570e+00
 -1.0142140e+00
 -1.1714556e+00
  1.3022358e+00
 -1.8251577e-01
  3.1184810e-01
 -2.8184648e+00
  1.0774516e+00
  4.3744860e+00
 -9.5369734e-02
  5.5374052e-02
 -9.5158696e-01
  1.9942297e+00
 -2.3761388e-02
  1.1272027e-01
  2.9260120e-01
 -2.9743499e-01
 -6.7245394e-01
  7.8324747e-01
  7.7668309e-01
 -2.1570514e-01
 -3.3578259e-01
 -1.6387593e+00
  8.6201020e-02
  2.5067291e-01
  3.4387660e-01
  2.1500556e+00
 -2.6963632e+00
  7.4628472e-01
 -1.1896315e+00
 -1.8239937e+00
  9.7454023e-01
  3.5501232e+00
  6.4691335e-01
 -1.2010456e+00
  2.2478008e-01
 -2.3265951e+00
 -3.5994530e-01
 -1.7054313e-01
 -6.5157075e+00
  7.3666792e+00
  1.8142517e-01
  3.2595479e-01
 -2.2229118e+00
  2.4555422e-01
  1.6610192e+00
 -1.3364665e-01
  1.4619739e+00
 -3.3606796e+00
 -7.3843306e-01
  2.0758312e+00
 -5.2076630e-02
  4.0084701e+00
 -2.1636353e-01
 -4.0060467e-01
 -9.1086078e-01
  3.5188100e-01
  6.4796209e-01
 -9.0418297e-01
  1.0032340e+00
 -7.8976643e-01
  5.9371716e-01
  5.7810611e-01
 -5.5632728e-01
 -2.1444011e+00
 -1.9309649e+00
  1.0617198e+00
  4.0250498e-01
  5.1416564e-01
 -4.4314757e-01
  3.0556816e-01
  6.6989380e-01
 -7.8495167e-02
 -1.0904460e+00
  5.1461520e+00
  5.5854839e-01
 -7.1621642e-02
 -3.2277775e+00
 -2.1764537e-02
  5.2389640e-01
 -3.5364851e-01
  1.2979480e+00
  1.1359097e+00
  4.9669018e+00
  1.2993842e+00
  1.3538951e+00
 -3.0714235e+00
 -2.7846804e+00
  1.9079103e-01
  2.9047897e+00
  4.1353485e-01
 -6.8828434e-01
 -2.6743296e-01
  6.2968028e-01
 -2.3046243e-01
  3.7894455e-01
 -1.8864000e+00
  4.4073629e-01
  9.2476368e-01
  9.6362394e-01
 -1.1262002e+00
  2.2349980e-01
 -1.3130808e+00
  2.7153778e+00
  5.2001399e-01
  2.0869260e+00
 -2.4263935e+00
 -2.8666508e-01
  2.1153812e+00
  6.7911428e-01
 -3.4519482e-01
  2.2507800e-01
 -1.1591944e-02
  3.4269450e+00
 -4.0731158e+00
  9.7100765e-01
 -3.6827669e-01
  1.8978713e-01
 -1.0879547e-03
  4.9109835e-02
 -9.1449441e-03
  9.7221859e-02
  1.5796837e-01
  5.9154338e-01
  5.7629138e-01
 -2.6358703e-01
 -1.3096920e-01
 -3.6430174e-01
 -2.8838699e+00
  3.0450371e-01
 -5.6694186e-01
  2.6595983e-01
 -1.2125820e+00
 -1.2292595e+00
 -1.5448971e+00
  4.7872100e+00
  5.9941512e-01
  1.7303717e+00
 -3.5748017e-01
  1.2173370e+00
  2.2883649e+00
 -4.0052572e-01
  5.7551646e-01
 -3.2417449e-01
  1.1188880e+00
  7.7363193e-01
  2.7629834e-01
 -2.4682021e+00
 -8.5166609e-01
 -1.2730792e+00
  3.2116778e+00
  2.4886306e-02
  3.8554198e-01
 -1.7798817e+00
  5.4739416e-01
 -4.9346166e+00
 -4.0046401e+00
 -1.6566732e+00
 -5.6165671e+00
  3.3026474e+00
  2.1019447e+00
 -3.4094420e-01
 -4.1126227e+00
  1.9195819e+00
 -2.7075641e+00
 -3.1638694e+00
 -1.0495298e-01
  3.0864687e+00
  7.0358020e-01
 -8.0018330e+00
 -1.4422405e+00
 -2.2538095e+00
  2.4895904e+00
 -9.9004817e-01
 -4.5215249e+00
  4.1622445e-02
 -2.9452160e-01
 -7.1459609e-01
 -1.4598958e+00
 -5.0642955e-01
 -3.0269485e+00
  1.2437456e+00
 -6.0535455e-01
 -5.2937543e-01
 -9.7989315e-01
 -4.6409318e-01
 -3.8212574e+00
 -1.1993857e-01
  4.2520194e+00
 -2.7662423e+00
 -4.5709834e-02
 -7.9421325e+00
 -1.5870491e-01
  3.1201732e+00
 -2.0241514e-01
 -1.5020103e+00
  1.8636340e+00
  2.0810573e+00
 -2.0823057e+00
  1.8822486e+00
 -2.8310844e-01
 -1.3976489e-01
 -1.6238579e+00
 -7.6526874e-01
  2.5196949e-01
  5.0807738e-01
 -1.5349271e+00
 -2.4572937e-02
 -4.1303053e-01
  1.0820643e-01
 -4.9767413e+00
  2.8072803e+00
  3.7459669e+00
 -8.6973166e-01
 -2.0336831e+00
  1.3484056e+00
  1.0957998e-01
  4.5004315e+00
 -1.0039806e+00
  3.1774342e+00
  5.4314744e-01
  3.7630708e+00
  9.9840832e-01
  1.0500109e+00
 -8.9073890e-01
 -1.1742243e+00
  1.7376387e-01
  7.0683104e-01
 -2.3835182e+00
 -1.5094332e+00
 -9.6292138e-01
  9.9766582e-01
 -7.4788040e-01
 -3.9917344e-01
  3.0325496e-01
 -8.8510461e-02
  2.8287976e+00
 -1.5683428e+00
 -4.3943131e-01
 -3.6511990e-01
 -4.4322224e+00
 -4.5362854e+00
 -3.1129487e+00
 -2.4782896e+00
  1.1330943e+00
  2.4049242e+00
 -1.0051363e+00
 -2.3558681e+00
  9.6422851e-01
  3.7935540e-01
 -8.5342163e-01
 -9.0843111e-01
  5.5939442e-01
 -3.8153189e-01
  3.3722535e-01
  3.1467323e+00
 -1.1387029e+00
  2.6086407e+00
 -3.3976209e-01
 -3.5210046e-01
 -1.7991966e-02
 -1.4953984e+00
 -7.6011151e-01
 -2.4734893e+00
  4.8285407e-01
  4.1702790e+00
 -4.7582021e-01
  4.0474709e-02
  3.9125438e+00
  4.0309384e-01
  2.8149612e+00
  1.4506508e+00
 -2.4815781e+00
 -3.4298316e-01
  8.0750412e-01
 -1.6253843e+00
 -7.7291024e-01
  4.6696858e+00
  2.0753868e+00
 -1.0830865e+00
  1.5993394e+00
 -1.8006299e-01
  9.4340140e-01
 -8.4443390e-01
  2.8526843e-01
 -2.1589773e+00
  2.0200398e+00
  1.4376909e+00
  5.4006511e-01
  6.6057795e-01
 -3.8697245e+00
 -7.1375287e-01
  1.8672468e-01
  1.0049680e+00
 -2.4413404e+00
 -1.7816060e+00
  6.2247336e-01
 -6.7263603e-01
  6.3343990e-01
  1.0002156e+00
 -2.5552242e+00
 -9.1421759e-01
  5.5626899e-01
 -1.0187013e-01
 -3.2268834e+00
 -2.3362370e+00
  9.8246366e-01
 -3.4555006e-01
 -1.2784378e-02
  1.8146817e-01
  2.7664420e-01
 -5.2847987e-01
  5.1717281e-01
  3.0736640e-02
  1.8622507e-01
  4.4802756e+00
 -4.8023823e-01
  9.5156890e-01
  1.9510046e+00
 -4.8145776e+00
 -2.0002754e+00
 -1.4043642e+00
 -5.6125373e-01
  1.7495689e+00
 -1.1809020e+00
 -3.8493228e-01
  1.2954266e-01
  6.9047481e-01
  2.3678955e-01
 -1.0937870e+00
  1.2139249e+00
  1.1532565e+00
  1.4481732e-01
 -3.5168169e+00
 -4.5687976e-01
 -4.7627077e+00
 -4.8111329e+00
 -7.8769512e-03
 -1.6858511e-01
  7.0556678e-02
 -6.8159014e-01
 -2.2625756e-01
  1.4924593e+00
  9.4133005e-02
  2.4145162e+00
 -3.8341013e-01
  7.3424810e-01
  4.0860689e-01
 -5.9233129e-01
 -2.7767930e+00
 -9.2906070e-01
  9.2546725e-01
 -5.0821745e-01
 -2.7852659e+00
  8.9296865e-01
 -8.8895845e-01
  7.7270746e-02
 -1.9401642e+00
 -4.2489586e+00
 -8.1973469e-01
 -8.6185616e-01
  1.8908486e-01
 -3.3239391e-01
 -7.2434241e-01
  1.0020881e+00
 -8.6450115e-02
  1.4237450e-02
  1.4665147e+00
  6.6255145e+00
  6.2839293e-01
  1.6044476e+00
  2.9191193e-01
  3.5802569e+00
  1.7807370e+00
 -1.0544778e+00
  4.6324763e-01
 -9.9299364e-02
  3.1781387e+00
  4.6592622e+00
 -4.7645082e+00
 -3.8514844e-01
 -2.4983512e-01
 -3.6597010e-02
  5.0220513e-01
  5.9931435e-02
 -3.3263952e-01
 -5.8477987e-02
  2.0845653e-01
 -8.8535494e-01
  8.9961618e-01
  3.0593988e-01
 -1.7122631e+00
 -1.5707862e+00
  7.4854600e-01
 -1.4617045e-01
 -3.8303571e+00
 -4.5772070e-01
  8.7162560e-01
 -4.9259896e+00
  1.8237759e+00
 -4.1836020e-01
  2.5130504e-01
  5.1961325e-02
 -5.7030123e-01
 -5.7183093e-01
  2.5055296e+00
  1.0453323e+00
 -1.5551035e-01
 -9.4492339e-02
  8.2221377e-01
  8.9110786e-01
 -3.0272331e+00
  1.3999013e+00
  6.3805497e-01
 -4.1060815e+00
 -1.9122427e-02
 -3.6203387e-01
 -4.3240767e+00
 -6.2334168e-01
  2.0180294e-01
  9.5095485e-01
  9.8255008e-01
 -1.6026570e-01
  2.4622759e-01
 -3.8322702e-02
 -2.5543110e+00
  3.9747362e+00
  9.2598897e-01
 -1.2630547e+00
 -1.3906122e+00
 -4.5867014e+00
  4.3058252e-01
  9.0075064e-01
 -7.0555967e-01
 -1.9793473e+00
  5.0373511e+00
  4.0251250e+00
 -2.5220084e+00
 -1.3825563e+00
  1.2981935e+00
  1.8842503e-01
 -1.0702870e+00
 -4.8007306e-01
  2.7879639e+00
 -1.6776285e+00
  2.6225421e+00
 -6.7692512e-01
  1.2391970e+00
  3.3452787e+00
  1.3866907e+00
  5.6395698e-01
  4.2644918e-01
  1.1510208e+00
  3.6791565e+00
  6.7909485e-01
  6.3326639e-01
 -1.8446393e+00
 -1.5645826e-01
 -5.4981744e-01
  7.2365028e-01
  2.3247017e-01
  9.3571633e-01
 -3.1971321e+00
  2.4343145e+00
 -3.6663079e-01
  3.0713809e+00
  4.9448299e+00
 -9.0562946e-01
  2.7866874e+00
  1.5913842e+00
 -1.3992089e-01
  1.3481507e+00
  1.7137145e-01
 -1.7896962e+00
  4.1079533e-01
  5.0410753e-01
  1.6975583e+00
 -3.7774125e-01
  6.9049537e-01
  2.2667549e+00
 -1.6977545e-02
 -3.0604148e-01
  2.4515414e+00
  3.2182741e+00
 -2.0970230e+00
 -3.4666040e+00
  7.1607161e-01
  2.3184532e-02
  2.2963753e-01
  2.0585889e-01
  7.4059939e-01
 -2.2080860e+00
  5.0835454e-01
 -7.0080584e-01
  3.5010538e-01
  1.0104384e+00
  1.6609584e+00
 -3.6536616e-01
 -3.0445126e-01
 -1.3792075e+00
 -4.4239256e-01
  8.3478355e-01
  3.0049887e+00
 -1.7966543e+00
 -2.1379980e-01
 -1.8695188e-01
 -8.7038040e-02
  6.0440892e-01
 -6.8676643e-02
 -1.8255997e+00
  3.2559547e+00
  5.2201140e-01
 -1.4856079e-01
 -7.7461720e-01
 -5.4633367e-01
  2.3678219e-02
 -2.0731331e-01
 -1.0804191e-01
 -4.3384469e-01
  2.8632274e+00
  3.8945800e-01
 -1.9042635e-01
  5.2706474e-01
  8.3180296e-01
  1.7501560e+00
  2.0592253e-01
 -2.8016526e-01
 -6.0418434e-02
 -9.6387833e-01
 -1.2034820e-01
  1.1129802e-01
  1.6782742e+00
  5.6326491e-01
  4.5961577e-01
  3.8535175e-01
 -2.9615784e-01
  1.0663006e-02
  3.0908352e-01
  3.6551446e-01
 -1.4311284e-01
 -3.0476671e-01
 -1.4913350e+00
 -4.7819775e-01
 -2.1012287e+00
 -1.1880199e-01
 -4.3550614e-01
 -1.6846479e+00
 -2.0671329e+00
 -1.6329081e-01
  1.9349413e-02
 -1.3898103e+00
  3.2145686e-02
  1.4975898e-01
  2.9170418e+00
 -3.6111277e-01
  1.9069465e+00
 -6.0097462e-01
 -1.2614380e+00
  4.8155886e-01
 -2.5528049e-01
 -3.2569021e-01
 -6.5230292e-01
 -2.4073992e+00
  1.7652771e-01
  9.1138828e-01
 -2.1831460e+00
 -8.1619430e-01
  8.0930424e-01
 -2.3598863e-01
 -1.6863154e+00
  1.8452954e-01
  2.2538997e-01
 -3.1250763e+00
  3.6514398e-02
 -3.9262098e-01
  3.7703720e-01
 -6.8616849e-01
 -1.8290085e+00
 -1.2827605e+00
  4.6176891e+00
 -2.3709095e-01
  1.3739815e+00
 -7.2086014e-02
  1.1030445e-01
 -1.1908265e+00
 -2.4550968e-01
  5.3409609e-04
 -2.3608789e+00
  6.8514234e-01
 -1.1129236e+00
  1.8183719e-01
  4.5391278e+00
 -1.1573509e+00
  1.8702149e+00
  2.6195818e-01
  1.8634126e-01
 -2.5598702e-01
 -1.4316341e+00
  1.2234597e+00
 -4.7118964e+00
  1.0401729e+00
 -2.5512171e+00
  7.1187967e-01
 -1.0854577e-01
  2.5456041e-01
 -1.7892164e-01
  2.1732008e+00
  1.8697983e-01
  3.8220053e+00
 -2.5651786e+00
 -1.6308197e+00
 -2.1651957e+00
  2.2466226e+00
  1.9328897e+00
  2.3640378e+00
  1.4525878e-01
  2.6134534e+00
  5.5237603e-01
  1.4840671e-01
 -1.9391020e-01
  8.6133182e-01
 -1.3387717e+00
 -3.4004396e-01
  4.5702276e-01
 -4.7552571e-01
  4.5586762e+00
  4.8541871e-01
 -3.2402091e+00
 -5.5409205e-01
 -6.4454406e-01
  4.4517720e-01
  9.5846468e-01
 -2.0812411e+00
  6.4343297e-01
 -6.6004209e-02
 -1.6395332e+00
  2.2854979e-01
 -4.5811710e-01
 -1.1085151e+00
 -1.1820650e+00
 -2.1064490e-02
  3.9427225e-02
  1.5076648e+00
  3.3220599e+00
  1.1204699e-01
  1.2311525e+00
  1.8797766e+00
 -1.9280794e+00
 -5.6482875e-01
 -2.7472907e-01
 -8.3812618e-01
 -1.5772649e+00
 -2.5968230e+00
  4.8831457e-01
 -5.5518144e-01
  2.6365869e+00
 -3.0878264e-01
 -3.2827060e+00
  3.2188097e-01
 -2.0517795e+00
 -1.5587044e+00
  1.9141802e+00
  2.2506583e+00
 -1.1582474e-01
 -9.3412018e-01
  1.3232645e+00
  1.6077693e+00
  3.3417130e+00
  7.6612329e-01
 -3.3183947e-01
 -9.1629408e-02
  1.5467641e+00
 -8.3976424e-01
  3.9138172e-02
  5.0940311e-01
 -1.4715648e+00
 -1.8079869e+00
  7.4140829e-01
  9.7458512e-01
  2.4328852e-01
  9.6082914e-01
  5.8358413e-01
 -1.7096730e+00
 -2.3895826e+00
  9.1023970e-01
  5.3080760e-02
  9.3558818e-01
  3.1663135e-02
  1.2756691e+00
  7.8959429e-01
  2.0527574e-01
 -9.2054896e-02
  8.9788151e-01
 -1.6025786e+00
  9.2326529e-02
 -3.7395251e+00
  2.0864689e+00
  3.3241799e-01
  1.1683297e+00
  2.8577044e+00
  2.8094776e+00
 -2.4262986e+00
 -1.4061834e+00
 -1.2589387e+00
 -2.2601566e+00
  1.1759461e+00
  2.2721508e+00
 -1.0410299e+00
 -2.5373763e-01
  4.2462739e-01
  4.2504468e+00
  3.3451688e+00
  5.7716119e-01
 -8.2321721e-01
  5.5495816e-01
 -1.6775050e+00
  1.6174728e+00
  9.2247540e-01
 -2.4800541e+00
 -1.5302205e+00
 -1.0661596e+00
  3.4392438e+00
  2.7437583e-01
  2.7052464e+00
 -2.3274722e+00
 -2.1784074e+00
  1.4847858e+00
  2.5923319e+00
  4.5698094e-01
 -1.2754008e+00
  2.6299758e+00
 -5.5280364e-01
  3.3948079e-01
  1.9797506e+00
 -3.0177171e+00
  2.2902997e+00
 -1.8886684e+00
  5.0768495e-01
  2.3664653e+00
  4.8413672e+00
 -3.5654917e-02
  8.8175839e-01
  1.0888874e-01
  1.2542267e+00
 -3.5496361e+00
 -4.6912757e-01
 -3.5175300e+00
 -6.1524135e-01
 -2.0325425e+00
 -4.1727533e+00
  3.3758285e+00
  9.1552228e-01
  7.3099416e-01
  5.1941001e-01
  3.0879090e+00
  1.5654707e+00
 -3.8470151e+00
  8.5559855e+00
 -3.3068052e-01
 -2.2180846e-01
 -2.9979721e-01
 -3.1006351e-01
 -1.6511360e+00
 -1.0141165e+00
  9.5481896e-01
  5.7954329e-01
  7.8892130e-01
  9.4862467e-01
 -2.8947493e-01
 -9.2604287e-02
 -1.4863641e+00
 -1.3847222e+00
 -2.3104602e-01
 -3.7512746e+00
  3.1380839e+00
 -9.5446634e-01
  1.7507690e-01
  1.6382238e+00
 -6.6581929e-01
  3.1938013e-02
  2.9023905e+00
  6.6466773e-01
  3.0188391e-01
 -1.0645652e+00
  3.0492814e+00
 -1.1742475e+00
 -9.9740273e-01
  8.2102984e-01
 -4.1999407e+00
  9.8479623e-01
 -1.4805731e+00
 -1.4940593e+00
  8.7350138e-02
 -2.9867694e+00
  3.4205031e+00
 -2.3232179e+00
 -3.0617070e+00
 -2.7787871e+00
 -2.4880002e+00
 -2.4370356e+00
  1.8203829e-01
 -3.1591213e+00
 -6.9749005e-02
 -4.7508426e+00
 -3.5594565e-01
  8.8595413e-02
  1.3803327e+00
 -1.4774850e-01
  1.0948844e+00
 -4.0368897e-01
 -2.0565604e-01
 -6.7913871e+00
 -1.8071260e-01
 -9.6444297e-01
  1.1401953e+00
  1.1452806e+00
 -1.0095316e+00
 -2.5509366e-01
  4.0816572e-01
 -9.6196927e-02
  1.5529765e+00
 -3.4290761e-01
 -7.1880798e+00
 -5.9742218e-01
  8.1639931e-02
 -1.6348475e+00
  9.6153682e-01
  3.0824757e+00
 -2.6448090e+00
  1.0196699e+00
  1.3750087e+00
  2.3155433e-01
 -3.7689142e+00
  3.4222057e-01
 -2.1732516e+00
 -8.8716310e-01
  9.2422076e-02
  1.4311512e+00
  4.7899032e-01
 -2.8729939e-01
  5.0295706e+00
 -2.9929575e-01
 -3.2177299e-01
 -2.1329656e-01
 -7.3359782e-01
 -2.6250461e-01
 -1.6322690e+00
 -3.1323653e-01
 -1.2049309e-02
  2.5775075e+00
  2.6560946e+00
 -6.8770549e-03
 -1.1013863e+00
  1.1489766e+00
 -7.1870404e-01
  1.5398284e+00
  3.2328804e+00
 -7.8058255e-01
 -5.6668288e-01
 -2.3844235e+00
  1.3239473e-01
  3.9671519e+00
  1.1187409e+00
 -2.0391200e+00
  2.7988083e+00
  1.1685017e+00
  1.2311113e+00
  4.8294947e-01
  1.7752110e+00
  6.5911883e-01
 -9.8000564e-02
 -8.7188855e-02
 -5.6170350e-01
  2.9942262e-01
  7.0551431e-01
  2.1018283e+00
  2.2329657e+00
 -5.5716556e-01
  5.0098306e-01
  2.3180257e-01
 -1.7944641e-01
 -1.6128728e+00
  3.7745288e-01
  3.8010812e+00
  9.8939109e-01
 -4.4541016e-01
  1.2585219e+00
  7.2114296e-02
 -7.1284608e-03
 -9.6723694e-01
  3.0869502e-01
  1.1541156e+00
  3.8486582e-01
 -4.4495451e-01
  2.0215831e+00
 -4.9916596e+00
 -4.9840724e-01
 -4.0572402e-01
  4.9728718e+00
  2.5819612e-01
 -1.9417450e+00
 -1.8376152e-01
  4.0569062e+00
 -1.2800347e+00
  5.6113660e-01
 -8.2012796e-01
  1.2326598e+00
 -1.5002701e+00
 -1.2099708e+00
 -5.4821610e-01
  1.5243413e+00
 -1.9161757e-02
 -6.4081684e-02
  1.2131408e+00
 -1.8888532e+00
  2.6521099e+00
 -2.5057906e-01
 -4.0699401e-01
 -1.1571025e+00
 -5.3061277e-01
 -3.8086164e+00
 -4.9684811e-01
  8.8475847e-01
  4.6779815e-02
  1.4724267e-01
 -8.7224758e-01
 -1.0331285e+00
  1.0177656e+00
 -3.5889053e+00
  7.4076837e-01
  3.1997985e-01
  6.6720638e+00
  3.1973775e-02
  3.1271455e-01
 -1.4641275e-01
 -1.7626736e+00
  1.3914296e-01
  9.3119079e-01
  4.2121004e-02
 -6.1754677e-02
 -3.5457548e-02
  1.3585610e-02
 -9.9173158e-01
  2.6369023e+00
 -3.7829266e+00
 -9.3070477e-01
 -1.9774929e+00
  1.4259801e+00
 -4.0004188e-01
  1.2663562e+00
 -4.1976994e-01
  9.3220241e-02
 -1.3675640e+00
  2.6189039e+00
 -3.9793968e-01
 -8.3744353e-01
  2.1191087e-01
  1.5356284e+00
  2.5268239e-01
 -1.6688713e+00
 -7.1412010e+00
 -1.3113413e+00
  3.4000015e+00
 -2.1422086e+00
 -1.4496492e+00
  2.7359879e+00
 -1.8094684e+00
  2.1416871e-01
  3.0364058e+00
  1.6544376e-01
 -1.0051386e+00
 -9.7924739e-01
  2.1793289e+00
 -1.3184406e-01
 -4.5555693e-01
  2.2229321e-02
  7.5452155e-01
  4.4138532e+00
 -4.2077679e-02
 -1.7416103e-01
 -7.2934735e-01
 -3.9641717e-01
  1.8797460e-01
  4.4123861e-01
 -7.3569989e-01
  2.6695623e+00
  2.1073073e-01
 -3.9697554e+00
  2.9915452e+00
 -1.1762033e-02
 -1.0315145e+00
  1.5718259e+00
 -9.7015578e-01
 -7.0104134e-01
 -1.2253354e+00
 -6.4619708e-01
  1.6082813e-01
  3.2775283e-01
 -2.4730384e+00
  3.0700552e+00
 -7.9477859e-01
  3.9898679e+00
 -4.1393685e+00
  6.1530274e-01
  5.1600266e-01
  3.4902864e+00
 -7.3305142e-01
 -1.3115320e+00
 -2.4695784e-02
 -1.0177588e+00
  3.3570030e+00
 -4.7233291e+00
 -3.5704117e+00
 -5.6083262e-01
  4.8641303e-01
 -9.9587381e-01
 -3.1956286e+00
  1.4027624e-01
  1.0055701e+00
  8.7964332e-01
  3.7470315e+00
  3.2676929e-01
  3.2117882e-01
 -5.4485064e+00
  2.0531006e+00
  1.2410042e+00
  1.3942211e+00
 -3.6991645e-05
  8.4942007e-01
 -1.4284161e+00
  2.7864728e+00
 -4.2490765e-01
 -1.6738370e-01
  3.1460464e+00
 -1.8097474e-01
  4.3790632e-01
 -4.1358253e-01
 -2.4631310e+00
  1.1781859e-01
  5.3705573e+00
 -5.2300458e+00
  1.8366859e-03
 -2.1609375e+00
  4.1493998e+00
 -6.0627717e-01
  6.0287887e-01
  8.0353773e-01
  7.0411026e-01
  6.1007843e+00
  4.7700298e-01
  2.7950680e+00
 -2.3485746e+00
 -4.3914661e-02
 -6.3315302e-02
  8.0101207e-02
 -7.1563923e-01
  2.8688350e-01
  3.1289308e+00
  9.3723215e-02
  8.7110603e-01
 -1.0121880e-02
  9.3185914e-01
  7.1269572e-02
  3.3141608e+00
  5.6363386e-01
 -1.7121136e-01
 -1.1776052e-04
  4.3200982e-01
 -4.1589231e+00
  3.9693074e+00
 -1.2059294e+00
  1.0909978e+00
  2.1206102e-01
 -1.8519998e+00
  8.3315516e-01
 -2.3495913e-01
 -2.4798245e+00
  8.5252321e-01
 -1.3941243e-01
  3.9503562e+00
  2.3250028e-01
 -1.1766301e+00
  9.4844580e-01
 -4.3884417e-01
 -8.1326234e-01
  1.8022996e-01
  3.9616811e+00
 -5.2853626e-01
  4.6634945e-01
  1.4637229e-01
  7.1598053e-01
 -2.3749836e-01
  5.7327980e-01
  2.1570592e-01
 -7.4167466e-01
 -5.4069960e-01
  1.6102169e-01
 -3.2317217e-02
 -8.5633558e-01
  2.8677112e-01
  2.7612677e-01
  2.2433913e+00
  7.2144812e-01
 -7.7901113e-01
 -1.7842597e+00
  2.5978705e-01
 -8.8998967e-01
 -1.4975588e+00
 -4.5675674e-01
 -8.9667451e-01
 -1.2431062e+00
  4.4401038e-01
 -8.5431498e-01
  7.1666223e-01
 -6.0419874e+00
  3.3902377e-01
  4.7477813e+00
 -1.2237304e+00
 -7.4702722e-01
  1.4557644e+00
 -2.7596829e+00
 -3.1337464e-01
 -5.2214354e-01
  1.2706105e+00
 -2.4301894e+00
  1.0964999e+00
  1.8903120e-01
 -1.4062771e+00
  1.0365193e-01
  1.3293801e-01
 -7.4109897e-02
  1.2136887e-01
  2.1704003e-01
  8.9503419e-01
 -4.1159965e-02
 -8.0632460e-01
  1.9244766e-01
 -3.7643310e-01
  8.0296868e-01
 -9.0115833e-01
  7.9486203e-01
 -3.4248817e-01
 -9.0995973e-01
  8.1107491e-01
  1.2721583e+00
  2.5780016e-01
  4.7518831e-01
  1.4582106e-01
  8.2338715e-01
  2.1961985e+00
  4.0197903e-01
 -1.4339595e-01
  2.9492016e+00
 -7.5482225e-01
  3.6270390e+00
 -9.4616032e-01
 -4.3558601e-01
  9.7167951e-01
 -6.3991064e-01
 -5.5887526e-01
  2.3384395e+00
 -1.0398943e+00
 -2.5363860e+00
 -1.1008983e+00
  1.2605266e-01
  3.3052791e-02
  4.5133579e-01
 -3.4927689e-02
  4.8738930e-02
  4.1609636e-01
 -2.2031026e+00
  2.0170029e-02
  4.6878925e-01
 -1.4487618e+00
  4.7503138e-01
 -1.5213332e-01
  2.2725880e-01
  2.0829114e-01
  6.0035861e-01
 -3.9098632e-01
 -1.7278904e-01
 -4.4241238e-01
 -1.9581075e+00
  4.1490696e-02
 -2.7900045e+00
  4.0698606e-01
 -2.1270756e-01
 -1.7312895e+00
 -3.2311542e+00
  1.1081598e+00
 -3.3513874e-01
  5.7274276e-01
 -2.7703528e+00
 -1.1105085e-01
 -3.9493041e-03
 -1.0618119e+00
  2.0960411e-01
  2.0448205e+00
 -1.0955330e+00
 -4.0402970e-01
  4.1068351e-01
  1.7042990e+00
 -1.5560690e+00
 -3.8666171e-01
  6.8822020e-01
  4.3562517e+00
  5.3866714e-02
 -1.3229248e-01
 -1.0334526e-01
 -3.5588479e-01
  2.3574534e-01
 -9.6283704e-01
  2.2532591e-01
  1.4378756e-01
 -9.8779923e-01
  1.0904749e-01
  9.1675082e-03
  2.1827142e-01
  7.1290588e-01
 -1.0346615e+00
 -5.9635288e-01
  5.5911165e-01
  9.7633600e-01
 -5.2038886e-02
  3.1286646e-02
  6.0073853e+00
 -3.2734275e-01
  4.5306764e+00
  1.9999878e+00
 -2.9575894e+00
  2.9329638e+00
  4.8746376e+00
  9.1355753e-01
  1.1895592e+00
 -2.3328290e+00
  2.0104644e+00
 -9.2916004e-02
 -5.3077000e-01
 -2.2889540e+00
  3.0362954e+00
  2.0175548e+00
 -5.7144397e-01
 -3.3586979e-01
  5.3412265e-01
 -1.4663225e+00
  2.9606211e+00
 -8.6379685e-02
  4.6947810e-01
 -1.1063384e+00
 -5.3180033e-01
  1.5440914e-01
 -1.3168050e-01
 -3.1020579e-01
 -4.9042754e+00
  1.5058869e+00
 -5.5755597e-01
  8.5325611e-01
  2.7289767e+00
  3.6204901e+00
 -6.4574414e-01
 -6.8180788e-01
 -8.3125377e-01
 -7.4659467e-01
  2.4243836e-01
  1.3291602e+00
  1.8182147e+00
  1.8958879e+00
  1.4287801e+00
  2.4923313e-01
  6.1661434e+00
  8.0804938e-01
 -1.5193360e+00
  1.6967928e+00
  4.0399790e-02
 -1.0000177e-01
  3.6979628e-01
  1.3705025e+00
 -1.1028978e+00
 -7.1557766e-01
  5.3026158e-01
  3.8300347e-01
  1.1070207e+00
 -3.0378313e+00
  8.1795253e-02
 -5.0436959e+00
 -2.0118401e+00
 -1.1029443e+00
  6.1434883e-01
  6.1276853e-01
  2.3357555e-01
  3.5664968e+00
  2.8222387e+00
 -1.0641756e+00
 -3.5005942e-01
  7.2353773e-02
 -2.3299475e+00
 -1.4540125e+00
 -2.6610258e-01
 -5.0531685e-01
  6.6989288e-02
 -7.3317003e-01
 -2.7555637e+00
 -4.9671483e-01
  6.3857806e-01
 -1.6365887e+00
 -6.6371727e-01
  3.1390628e-01
 -1.1505748e+00
  3.0645525e+00
 -2.0616136e-01
  6.9408860e+00
 -1.9633235e+00
  3.5230580e-01
 -1.2538137e+00
  4.5682826e+00
  3.8966963e-01
 -1.7301914e-01
  8.8349372e-01
  6.6408229e-01
 -2.1543647e-01
  2.6732984e-01
  6.0062051e-01
  1.1459927e-01
 -4.6570283e-01
  6.4149255e-01
  2.6199254e-01
  6.9069409e-01
  1.1619630e+00
  1.7292606e+00
  4.8155603e+00
  4.1949815e-01
 -1.1982528e-01
  1.1894498e+00
 -2.2699249e+00
 -2.0878248e+00
 -5.3089941e-01
 -4.0529460e-01
  2.2986388e+00
  1.6654102e+00
 -3.1930241e-01
 -4.7248313e-01
 -1.0897129e+00
  3.2329183e+00
  6.4793319e-01
  5.5459366e+00
 -4.9935469e-01
  4.0537912e-01
 -4.7574130e-01
 -6.3823737e-02
 -2.2294401e-01
 -1.1900428e-01
 -9.8005414e-01
  1.0351920e+00
 -2.6335096e+00
 -1.1103060e-01
  8.3056325e-01
  2.9306180e+00
  7.6623267e-01
  1.5544282e-01
 -1.3064957e+00
  3.7856469e-01
  1.0941408e-01
 -2.7244627e-01
 -1.3596390e+00
 -4.5016346e+00
 -2.6607985e+00
  1.6355817e+00
 -5.4355174e-01
 -6.5100694e-01
 -1.2081736e+00
  1.8762963e-01
 -3.9104618e-02
  3.5707433e+00
 -4.0554090e+00
 -1.5159742e+00
  1.3361897e+00
 -1.1480622e+00
 -3.0519658e-01
  1.1178416e+00
 -3.0629981e-01
 -6.7374128e-01
  3.2758229e+00
 -7.0926237e-01
  2.0448011e-01
 -8.8646185e-01
  8.8809395e-01
 -5.2315979e+00
  8.5457653e-01
 -1.4449891e-01
  1.6948112e+00
 -2.4658725e+00
  6.4774275e-01
 -1.8006979e+00
 -1.0700223e+00
 -1.8675575e+00
 -1.9521530e+00
 -1.7443318e+00
  2.1986477e+00
  7.2901118e-01
  1.5826403e+00
  1.4468458e+00
  2.0047736e-01
 -3.4527722e-01
 -4.2365766e+00
 -3.0296690e+00
  2.0365915e+00
 -1.2205895e-02
  1.8486491e-01
  2.0153436e-01
  4.1185179e+00
 -4.6411511e-01
 -1.1202519e+00
  3.2837472e+00
  5.4271944e-02
 -8.3811408e-01
 -1.5552561e-01
 -1.2269193e-01
  6.8315119e-01
  2.2162670e-01
 -3.1430519e-01
 -5.6744382e-02
  5.0272517e+00
  1.0572590e+00
 -5.3895009e-01
 -5.2054524e-02
  9.5580921e-02
 -1.5345103e+00
 -3.3885763e+00
  1.9949411e+00
 -1.7125577e-01
 -3.1455140e+00
  8.2990420e-01
  1.2105240e+00
 -3.8703113e+00
 -3.4644299e+00
 -2.8525994e+00
 -1.4098689e-01
 -8.5606658e-01
  1.3562970e+00
 -8.9227915e-01
  8.8898069e-01
  1.2943575e-01
 -9.6798426e-01
  6.0966408e-01
  9.7070388e-02
  1.3311844e+00
  3.2216887e+00
 -5.9240294e+00
 -7.4088323e-01
 -7.1424466e-01
 -1.9831928e+00
  3.8317907e-01
 -1.6662300e-01
 -3.2782033e-01
 -2.0512547e+00
  5.3909076e-03
 -9.0776449e-01
  4.5521359e+00
  1.0808513e+00
  3.7426577e+00
  1.1560547e+00
 -6.7601317e-01
  4.7608700e-02
 -1.0712012e+00
 -1.8069649e+00
 -1.7924750e-01
 -1.5366028e-01
 -3.8844368e+00
 -3.2567162e-02
  3.1972352e-01
 -1.9341019e+00
  1.0037239e+00
  2.1323397e+00
 -2.1560821e-01
 -7.2441661e-01
 -5.0292957e-01
 -2.0890564e-02
  9.6907467e-01
  2.2899697e+00
  1.1008339e-01
 -2.0764842e+00
 -6.6206151e-01
 -7.8897125e-01
  2.4767399e-02
  5.8913738e-01
  1.0628828e+00
 -1.8099420e-01
  7.1668470e-01
 -3.0975392e-01
  1.7793411e+00
  5.3253186e-01
 -4.9403337e-01
  1.0876971e-01
 -9.6680087e-01
 -4.6458510e-01
  9.4731128e-01
  7.9889238e-02
  1.3318342e+00
  8.4846914e-01
  1.2267002e-01
  7.6261598e-01
 -1.9070400e+00
  9.3048634e-03
  3.6058119e-01
  4.1144393e-02
  1.0024643e+00
 -6.6146177e-01
  3.1623969e+00
 -3.5918882e-01
  1.8144569e+00
  5.9701085e-01
  9.1909893e-02
 -1.1738881e+00
 -5.8073807e-01
 -4.4751731e-01
  5.0316244e-01
  9.7613513e-01
 -4.4264406e-01
  3.3051097e-01
 -6.9132388e-01
  2.5728142e-01
 -1.8182987e-01
 -6.4546365e-01
 -2.4789143e-01
 -9.7353888e-01
  2.1850979e+00
 -1.2888101e-01
  7.5668532e-01
  4.4789335e-01
  1.5193919e+00
 -3.3008733e-01
 -3.5333854e-01
  1.8421376e+00
  2.2295572e-01
  9.9182069e-01
  5.0680435e-01
 -4.2737875e+00
  2.7715597e+00
 -2.9009187e-01
 -6.9360685e-01
 -6.1853415e-01
  7.7490085e-03
  1.0716905e-01
 -4.7219679e-01
 -3.8397174e+00
 -1.0583279e+00
  7.4633515e-01
 -1.6509225e+00
 -3.7500617e-01
  5.8476422e-02
 -8.9691335e-01
  1.4053804e+00
  2.1293445e+00
  9.8417997e-01
  1.7752918e+00
 -1.6919068e+00
 -7.1252711e-02
  5.2601409e-01
  3.8048455e-01
 -1.0699812e-01
  7.8856248e-01
 -3.7295702e-01
 -1.6621132e+00
  8.0775821e-01
 -9.1936427e-01
  7.9313591e-02
  1.1157780e+00
 -3.4489253e-01
 -7.6379132e-01
 -3.8493652e+00
 -3.9127746e-01
  1.6862500e-01
 -1.0605401e+00
 -1.2491683e-01
 -2.6701820e-01
  3.1244645e-01
 -1.6940570e+00
 -1.0417517e+00
  4.6675440e-02
  1.8255761e-01
 -2.5808154e-02
 -1.0564507e+00
 -1.5898087e+00
 -1.3756610e-01
  5.3619742e-01
 -4.2234379e-01
 -1.6530715e+00
  1.3964378e+00
 -7.3864424e-01
  2.9650955e+00
 -4.6978915e-01
 -1.6752096e+00
 -1.3019059e+00
 -4.6520919e-01
 -1.0252590e-01
  1.7871460e+00
 -6.8830460e-01
  5.1550908e+00
  1.6351979e+00
 -9.5655158e-02
  5.7937632e+00
  8.0337185e-01
 -3.2917821e-01
  3.8438375e+00
 -9.5627081e-01
 -2.4023671e+00
  1.8185848e+00
  1.1636651e+00
  1.6598656e+00
 -7.7559143e-01
  6.8109179e-01
  3.8695472e-01
 -6.0790867e-01
  1.8262430e+00
 -7.8320271e-01
 -8.3426684e-03
 -1.4852117e+00
  6.7242199e-01
 -3.3789033e-01
  7.2527093e-01
 -2.6624939e+00
 -7.9973018e-01
 -7.3763758e-01
 -8.5006082e-01
 -2.5397986e-01
  3.3857044e-02
 -2.8065126e+00
 -3.1654218e-01
  2.5813520e-01
 -2.7104127e+00
 -1.3792194e+00
 -2.7915702e+00
  3.7182653e-01
  5.9807800e-02
 -4.0829080e-01
 -8.9366388e-01
 -1.0259765e+00
  1.2703533e+00
  1.1102335e-01
 -3.5836215e+00
 -1.5586486e+00
 -2.1410155e-01
 -2.1293342e-01
 -5.4848355e-01
 -7.6324302e-01
 -3.6940616e-01
  1.2272784e+00
  1.0278815e+00
 -1.1701183e+00
 -2.5587675e-01
 -4.7140770e-02
 -2.5641365e+00
  4.8136439e+00
 -1.6931145e+00
  3.5131347e+00
 -4.2294823e-02
  5.4895830e-01
 -6.5734166e-01
  3.9611369e-02
 -2.5767000e+00
 -2.1519673e+00
 -8.3799678e-01
  3.7066250e+00
  8.9461726e-01
  1.6677686e+00
  3.2204120e+00
 -2.5263212e+00
 -1.2119570e+00
 -2.7321464e-01
 -2.7565181e-01
  6.3978785e-01
  7.0844524e-02
 -3.8303926e+00
  4.5105258e-01
 -1.1177382e+00
 -7.0174974e-01
  3.9860725e-01
  5.3070772e-01
 -4.2019671e-01
  4.6687332e-01
  1.2469307e+00
 -2.5452788e+00
 -1.6983409e-01
  2.3024781e+00
  1.2967833e+00
 -4.7167045e-01
 -1.2857777e+00
 -3.9491752e-01
 -2.7260953e-01
  4.8554688e+00
 -2.5283315e+00
 -3.5813711e+00
 -7.9291201e-01
 -9.4443965e-01
 -4.1206861e+00
  7.0212567e-01
 -1.5511849e+00
  9.2068678e-01
 -4.8947045e-01
 -5.5633920e-01
  2.7328429e-01
 -6.8534404e-01
 -1.5452627e+00
  6.7050105e-01
 -2.0599751e-01
 -2.8723788e+00
  8.6248994e-01
  1.5952349e+00
 -6.7243522e-01
 -3.4646571e+00
 -2.0940652e-01
  7.3978812e-03
  4.4299501e-01
 -1.2709877e-01
 -4.4229668e-01
 -2.0686824e+00
  8.2053947e-01
 -3.8865798e+00
 -1.8776897e-01
 -1.2207266e+00
 -1.5055182e-02
 -1.1478139e-01
  2.9308968e+00
 -5.6071320e+00
 -2.8550538e-01
 -2.8333622e-01
 -9.5487302e-03
  2.0948680e-01
  9.1459429e-01
  4.7979152e-01
  3.5410974e+00
 -1.0259620e+00
  2.7836639e-02
 -1.8652679e-01
  4.6658859e-02
 -2.6399639e+00
 -5.1164764e-01
 -3.9923176e-01
 -2.1529542e-01
  6.4032197e-01
  6.2538907e-02
 -1.9702106e+00
  1.5607215e+00
 -2.3084408e-01
  3.1592441e-01
  8.8482982e-01
  1.8829173e+00
 -2.0963988e+00
  1.7052498e-01
  3.6901069e-01
  2.3615550e-01
 -6.8948871e-01
 -2.8258023e-01
  6.4660423e-04
 -6.8184733e-02
 -1.1703992e+00
 -3.2908332e-02
 -1.0391061e+00
 -5.9177643e-01
  2.9727767e+00
  1.3456612e+00
  3.2406597e+00
  1.4080985e+00
 -2.0542305e-02
 -2.5413942e-01
 -1.6905977e-01
  6.9434293e-02
 -5.8220160e-01
  5.7146865e-01
  2.3694989e-01
 -6.8419659e-01
  1.8449653e+00
 -1.0747067e+00
 -3.2216029e+00
  2.7932349e-01
 -6.8843073e-01
  4.8813599e-01
  2.9945819e+00
  6.7469037e-01
 -3.1000161e-01
  2.4280614e-01
  3.9296746e+00
 -7.3436952e-01
 -1.7907257e-01
 -6.3176072e-01
 -9.7467028e-02
 -3.5714364e-01
 -4.3036308e+00
 -3.9422104e-01
  3.7912929e+00
 -2.3186984e+00
  1.3081337e+00
 -9.8161966e-01
 -1.5068899e-01
 -7.6614839e-01
  1.0284431e-01
  4.8981810e-01
  3.4980440e-01
  6.1463952e-01
 -6.4413679e-01
  5.3307134e-01
  3.1513777e+00
  1.5683520e+00
  1.3678046e+00
 -9.8855808e-02
 -4.4526988e-01
 -3.1723705e-01
 -1.5214062e+00
  6.1463456e+00
  8.7763086e-02
 -2.6818640e+00
  1.9904231e-01
 -3.4325790e+00
  2.5563281e+00
  2.7961549e-01
 -2.1872861e+00
  1.2002013e-02
  1.0596665e-01
  7.7785820e-02
 -1.5787719e+00
 -3.8611629e+00
  1.7213005e+00
 -7.7680700e-02
 -3.6929661e-01
  2.8860042e+00
 -1.9450449e+00
  8.9205551e-01
 -8.0544525e-01
  1.9043779e+00
  1.1829338e+00
 -1.3492749e+00
  5.4718363e-01
 -2.2713910e-01
  3.4098506e-01
  1.0400659e+00
 -4.6669921e-01
 -3.3567375e-01
 -3.8247628e+00
  6.0739126e+00
 -4.4453111e-01
 -3.9547465e+00
 -8.8224316e-01
 -1.6919316e+00
  1.7114629e+00
 -2.2157025e+00
 -1.1515681e-01
 -1.9181643e-01
  1.1315200e-01
  5.9509754e-01
 -2.1563263e-01
  6.9169879e-01
  1.7404805e+00
 -3.5223272e-01
  1.6923538e+00
  2.7002886e-01
 -3.1320181e-01
 -1.6388493e+00
 -2.5955942e+00
  3.8901755e-01
  2.3733382e+00
 -7.0356572e-01
 -1.6940796e+00
  2.4070224e-01
  4.0071330e+00
 -2.4381910e-01
 -1.7295510e+00
  7.9671907e-01
  2.1926141e+00
 -8.7929660e-01
  3.1589973e-03
 -2.7028412e-01
  1.7428257e+00
 -2.4070024e+00
 -1.9005804e-01
  1.6329858e-01
 -1.9063389e+00
 -9.7348928e-01
  2.9148910e+00
  6.8087119e-01
  2.3367165e-01
  3.5436843e-02
 -7.7617422e-02
 -1.0614762e+00
  8.7914366e-01
  1.0767050e+00
 -2.1079819e+00
 -4.1134618e-02
  2.0926852e+00
 -7.5654358e-01
  1.1294600e+00
 -6.2845254e-01
  1.9790959e-01
 -4.4749719e-01
 -4.0294785e+00
  4.8076165e-01
 -5.6330758e-01
  4.6099429e+00
  1.1907661e+00
 -4.9049911e-01
 -3.1573439e+00
  1.8168005e+00
 -1.2962441e-01
  2.8183192e-01
 -4.0362430e+00
 -1.7406265e+00
 -2.0120963e-01
 -1.7326275e+00
 -3.4339303e-01
  2.4588349e+00
 -3.0671358e-01
 -2.3139134e-01
 -3.6392252e+00
  5.8324046e+00
 -2.2864078e-01
  1.7821950e-01
  2.7110654e-01
 -1.1242585e-01
  1.7657957e+00
  7.6186404e-02
  2.2013995e-01
  9.5119983e-01
  4.7251067e+00
  2.4727140e-02
 -1.2024067e-01
  1.2388495e-01
 -1.3914976e+00
  1.6772311e+00
 -1.3897909e+00
 -6.4947152e-01
 -2.2175190e+00
 -1.5725204e+00
  3.2442415e-01
 -1.4885209e-02
 -1.6840597e+00
  4.7342083e-01
 -1.4226682e+00
  1.5619775e+00
 -9.3604460e-02
  5.5227327e-01
  5.6746602e-01
 -4.1545120e-01
 -1.8474910e-01
  1.8383248e-01
  1.3947251e+00
  2.9038288e-02
 -1.1229331e+00
 -7.8357875e-01
  1.1424472e+00
  1.1068605e-03
 -7.1938896e-01
 -6.2407339e-01
 -7.5322157e-01
  5.6424475e-01
 -6.4814520e+00
  2.7307406e-01
 -3.6501428e-01
 -1.9155737e-02
  9.2077845e-01
 -3.0530241e+00
  3.4370297e-01
  9.2599148e-01
  1.4373536e+00
  2.5133720e-01
 -3.1325135e-01
  1.3115364e-01
  1.5292616e-01
 -1.5990170e+00
  1.5344982e+00
 -7.1680421e-01
  5.6712174e-01
 -4.9252772e-01
  1.5046465e-01
  1.1750339e+00
  1.1121749e+00
 -5.3159475e-01
  8.6865407e-01
 -1.8876081e+00
  3.5462487e-01
 -2.4646604e+00
 -6.6686578e-02
 -1.5157068e+00
  3.6151886e-01
  1.9075962e+00
 -3.3739979e+00
  1.0071727e-01
 -7.7777582e-01
 -6.7266971e-01
  2.6547041e+00
 -3.2543039e+00
  8.4772998e-01
  3.3691552e+00
  3.0977023e-01
 -3.0710135e+00
 -1.6117178e-01
  1.0511278e+00
 -4.0267739e-01
 -6.3992147e-03
  8.7768748e-02
 -4.0056035e-01
  6.8759061e-02
 -9.8252797e-01
 -8.2182926e-01
 -2.3422077e+00
  1.2671809e-01
  4.0551886e-02
 -7.2837162e-01
 -1.0697669e+00
 -5.4409420e-01
 -1.1554777e-01
  3.1821820e-01
  7.0522124e-01
  2.1294901e+00
  6.2784922e-01
  3.4520414e-01
  1.1039299e+00
  7.8326583e-01
  2.7516979e-01
 -1.8004576e-02
  9.8583788e-02
  1.2688678e-02
 -1.3924500e-01
  1.1330004e-01
  2.6508532e+00
  9.5648505e-02
 -4.7088346e-01
 -1.7316180e-01
  3.5179994e+00
  7.6963526e-01
 -1.0100890e+00
 -1.9748470e+00
  8.2399046e-01
  2.5147090e+00
  4.9664757e-01
  1.6059092e+00
  1.8093421e+00
  3.4681324e-02
  4.1400245e-01
 -4.0914789e-01
 -3.4235752e-01
 -8.3164001e-01
 -2.4909930e+00
  1.5772310e-01
  3.9196512e-01
  6.7321843e-01
  6.8054676e-01
  8.1407094e-01
  3.3237023e+00
 -1.8973510e+00
 -2.1833577e+00
  1.0781062e-01
  1.2760197e+00
  3.2949525e-01
  1.6485263e+00
  1.1180223e+00
 -7.7024676e-02
  4.1861472e-01
  1.3203448e+00
  3.0487039e+00
 -9.7466969e-01
  1.6957728e+00
 -2.1009248e-02
  2.1680585e-01
 -7.1676832e-01
  2.3172295e+00
  1.8264661e+00
  2.3568425e+00
  3.8545197e-01
 -5.6043172e-01
 -8.7673676e-01
 -1.4408578e+00
  3.5557904e+00
 -9.7610068e-01
  2.5725713e+00
  2.1673577e-02
 -9.9039561e-01
  1.4987335e+00
 -1.7475806e-01
 -9.2196560e-01
  6.5022385e-01
  1.7237934e+00
  1.4486418e-02
  3.1649001e+00
  4.6510857e-01
 -3.0164963e-01
  5.5939895e-01
 -9.3853569e-01
 -1.3556087e+00
 -5.0622678e+00
  2.7280819e+00
 -2.1012738e+00
 -3.0211031e-01
  1.4664948e+00
 -7.5966686e-01
  3.0977745e+00
  2.6258721e+00
  1.6379907e+00
 -1.9578706e+00
  8.1319124e-01
  6.5472227e-01
 -6.2597495e-01
  6.6933613e+00
  4.4898357e-02
  8.4617868e-02
  1.6685855e+00
  1.1108636e+00
 -2.2233061e-02
 -3.2407331e-01
 -7.6342694e-02
  4.7261395e-02
 -7.8509599e-01
  1.2984885e-01
 -2.2209816e+00
 -2.4445817e+00
 -1.9837040e-02
 -3.7797692e-01
 -5.1138278e-02
  9.3588692e-01
 -1.8672234e+00
 -3.7106964e-01
  2.2551777e+00
 -3.0703409e-02
  1.5325422e+00
  1.0190028e+00
  6.8819088e-01
  2.7839217e-01
  1.3992962e-01
 -5.1543277e-02
  1.4504009e+00
 -3.6126270e+00
  3.5202506e-01
  1.9625802e-02
  3.7567515e-02
  2.1056558e-01
  8.7424278e-02
 -9.8228604e-01
  4.8545179e-01
  3.0337927e+00
 -1.8162254e-02
  2.7160206e-01
  1.2959287e-01
 -1.0328789e+00
  4.7057560e-01
 -2.0573255e-01
  1.3185108e-01
  1.5139467e+00
  5.6431656e+00
  1.5743943e+00
  6.1600704e-02
 -8.5941344e-01
 -5.9777683e-01
  7.7115065e-01
  1.7697480e+00
  5.0033849e-02
  4.7731605e-01
 -1.9415029e+00
  7.3726431e-02
  1.1246728e+00
  1.4785217e+00
  7.5358838e-02
  2.6220744e+00
  5.4313630e-01
  9.2183053e-01
  1.2064457e-01
 -1.5202712e-01
 -4.3147808e-01
  3.8103032e+00
 -4.0941925e+00
  2.8103609e+00
  3.3202642e-01
  1.2531508e+00
  2.8803463e+00
  3.8991988e+00
 -2.1323432e-01
 -4.7802815e+00
  7.7470112e+00
 -1.4269685e+00
 -9.9620324e-01
  2.3203897e+00
 -5.0412965e-01
  1.0629070e-01
 -2.4471490e-01
 -1.1955686e-01
 -2.4272913e-01
 -4.1353822e-01
  3.5694909e+00
  1.6265057e+00
 -1.5728432e+00
 -1.2817224e+00
  2.9355785e-01
  9.6361548e-01
  5.1206863e-01
 -2.8826041e+00
 -8.4111756e-01
  1.9787885e+00
 -5.2664608e-01
 -1.1171386e-01
  4.6548848e+00
 -1.1801811e+00
  1.2494133e-01
 -2.4091792e+00
  2.4006194e-01
 -5.8906764e-01
 -7.6397943e-01
 -2.2862974e-01
  3.7522993e+00
  1.2174938e+00
  1.0801578e+00
  2.5451887e-01
  4.7984734e-01
  1.3866569e-01
 -1.6823593e-01
 -2.4389220e-02
 -6.9842410e-01
  4.4439530e-01
 -1.3262787e+00
 -7.6997542e-01
  1.0713871e-01
 -1.0392150e+00
 -1.1631070e-01
 -3.7899964e+00
 -3.2504293e-01
 -4.7990417e-01
  1.1928038e-01
  2.0055677e-01
 -1.8951995e+00
 -2.9252024e+00
 -5.0061870e+00
 -2.9190209e+00
 -2.6545944e+00
  2.7024379e+00
  6.0158992e+00
  4.7747979e-01
  4.9717298e-01
 -9.3664634e-01
  3.1423926e-01
  9.7059511e-02
 -2.6316279e-01
  4.4756180e-01
 -7.3387742e-01
 -5.6426424e-01
  2.3173849e-01
  8.4711313e-02
 -5.4226691e-01
 -1.2112831e+00
 -5.2701612e+00
 -1.0183632e+00
 -1.5190504e-01
  1.7604543e-02
  1.0513656e+00
 -1.8619249e+00
  9.0414710e-02
 -2.2128575e-01
  2.8403187e-01
 -2.1262929e+00
  6.9502577e-02
 -4.6757391e-01
 -1.4383072e+00
  2.2431922e+00
 -2.5010226e+00
 -5.8443981e-01
  1.5603586e+00
 -4.3497224e+00
 -7.1373734e+00
 -4.7886982e+00
  1.4862264e+00
  1.0389709e+00
 -9.7991318e-01
  7.8532964e-02
 -4.5531020e+00
  3.2303539e-01
  3.7502561e+00
  1.2021424e+00
 -7.5280672e-01
 -3.2593670e-01
 -2.5352028e-01
  1.7316976e-01
  6.9229716e-01
  2.5609824e-01
 -1.8625133e+00
 -5.3279631e-02
 -3.6448392e-01
  9.4274729e-01
 -2.7623487e-01
  2.4101636e-01
  5.8437963e+00
 -1.2568592e+00
  1.2530723e-01
 -6.0559052e-01
  2.4734061e+00
  4.4026372e-01
 -4.6154846e-02
  1.2678367e+00
  4.4207150e-01
  1.7290100e-01
 -2.4738955e+00
  1.4259752e+00
 -5.8951461e-01
 -5.3475595e-01
  3.0841601e-01
 -3.1188801e-01
 -1.2009495e-01
 -3.8915169e+00
  4.7890104e-02
  1.4749554e+00
  4.9239814e-02
  7.1789515e-01
  5.2746987e-01
  3.0039204e-02
  1.9005351e+00
  7.1870160e-01
  1.5545738e+00
 -4.7045422e-01
  1.8901084e-01
  5.5697620e-01
 -1.7292739e+00
 -1.9581190e+00
  3.7613219e-01
  1.7212300e+00
  3.0374517e+00
 -6.1795032e-01
  2.4318297e+00
 -7.3179644e-01
 -2.0792074e+00
 -4.7411378e-02
  1.8518625e-01
  4.1375348e-01
 -2.9411015e-01
  7.4902140e-03
  1.7685853e-01
 -6.5549511e-01
 -4.1380447e-01
  4.3593189e-01
 -4.4866180e+00
  3.3789101e+00
 -1.8727455e-02
 -5.6913269e-01
 -9.3872559e-01
  1.1144853e-01
 -3.4820968e-01
 -1.0391970e+00
  1.9043827e+00
 -6.5609562e-01
 -1.1221161e+00
  1.3360982e-02
  1.1862672e-01
  5.9675181e-01
  2.3788844e-01
  5.3845406e-01
  1.6521101e-01
 -8.2135278e-01
 -1.0044785e+00
 -3.3067763e-01
 -2.6282057e-01
 -1.8835576e-01
 -1.7643209e+00
  1.3559083e+00
  1.7225039e+00
  1.2828909e+00
  1.0709622e+00
  1.7575075e-01
  7.9488236e-01
 -2.1352067e+00
 -1.4679410e+00
 -1.4028841e+00
 -6.7332703e-01
 -2.1805692e+00
 -6.5577906e-01
 -7.4287599e-01
  1.2435324e+00
 -1.6608750e+00
  7.5546020e-01
 -2.0212878e-01
 -3.6616011e+00
 -1.9827900e+00
  3.3130741e+00
 -2.6171503e+00
 -1.2435974e+00
  1.9478917e+00
  1.9556555e-01
  1.0983341e+00
  2.3105191e-01
  2.1897628e+00
  1.4016689e-01
 -2.2450879e-01
 -2.7293005e+00
 -5.2165049e-01
  1.5441214e+00
 -7.7495974e-01
 -5.1286473e+00
  1.1317700e-01
  1.6400830e-01
 -2.0491500e+00
  6.0609482e-02
 -1.5851411e-01
  1.0581187e-01
  3.0711877e+00
 -2.9307455e-02
 -1.1231823e+00
 -7.7157348e-01
 -1.8274547e+00
  8.5880175e-02
 -4.7416711e-01
  5.1074451e-01
  1.5863938e+00
  4.2599734e-02
  5.8775413e-01
  1.9815555e+00
 -8.1853136e-02
 -6.3628078e-02
  2.2886038e-01
 -1.8734885e+00
  2.0798750e-01
 -9.4177705e-01
 -2.3718895e-01
  2.8725490e-01
 -7.5299561e-01
  7.7613497e+00
 -1.0719079e+00
 -4.9272403e-01
  1.1510341e+00
  2.7594717e+00
 -3.6888862e+00
 -3.8604102e-01
 -5.4025941e-02
  1.5157377e+00
 -5.0927330e-02
 -2.4078314e-01
 -4.4489186e-02
  4.3529847e-01
 -5.0176877e-01
  2.4973135e-02
 -2.0236523e-01
 -1.3583705e-01
 -7.1147311e-01
 -2.3172383e-01
  6.8149948e-01
  6.8721992e-01
 -2.5859089e+00
  1.7038172e-02
  6.9500887e-01
 -6.6616088e-02
 -1.0844851e+00
 -1.2777048e+00
  9.7405416e-01
  1.1077139e+00
  1.8394642e+00
  7.3827481e-01
 -1.4852434e+00
 -5.0128990e-01
 -1.1782219e-01
 -1.3637240e-01
  8.9920932e-01
  5.1333398e-01
 -5.4984504e-01
  8.4885126e-01
  5.5913576e-03
 -2.3362548e+00
 -4.4403428e-01
 -1.8556303e+00
  2.6038274e-01
  1.0099270e+00
 -8.0196686e-02
  9.9452865e-01
  1.7259383e-01
  2.7898338e-01
  4.1905892e-01
  3.9237939e-02
  1.8454370e-01
 -8.3875969e-02
 -1.9245703e+00
 -4.1624718e+00
 -1.0646071e+00
  1.5980749e+00
  1.6717076e-01
  2.9751703e-02
  1.2400219e-01
  1.5745550e+00
  3.2565775e+00
  1.8092607e-01
  2.0079190e-01
 -4.5859051e-01
  3.3337253e-01
  1.3743533e+00
 -2.1044090e+00
  5.9686553e-01
  8.8954037e-01
  1.4837413e+00
 -2.2536898e+00
 -2.1332102e-01
 -1.1709922e-01
 -5.8959889e-01
 -3.1372762e-01
  1.3724928e+00
  6.6425276e-01
  2.1047740e+00
  1.2502040e+00
 -5.3923428e-03
 -1.2882334e-01
  3.4921762e-01
 -5.1226236e-02
 -1.2641011e-01
  7.4388671e-01
  1.0861505e+00
 -1.0247640e-01
 -9.9760008e-01
 -2.8073728e-01
  8.4052628e-01
  1.4039273e+00
 -9.9603635e-01
  4.9869716e-01
  1.9921894e-01
 -3.7869021e-01
 -2.3343766e-01
  3.5730791e-01
  1.1817193e+00
 -2.2166231e-04
 -1.8901782e+00
 -3.2227685e+00
  3.5887560e-01
  5.4547000e-01
 -8.2097404e-02
  6.0970074e-01
  1.3012604e-01
 -7.1456184e+00
 -1.1414024e+00
 -2.7864246e+00
 -3.1823227e+00
  1.0880829e+00
  3.8245950e+00
 -1.9939970e+00
  3.4436359e+00
  1.4441811e+00
 -3.2845647e-03
 -5.6272954e-01
  2.9859290e+00
 -1.4978531e-01
  3.4444180e+00
  1.2160125e+00
  5.4067338e-01
 -2.0792353e+00
  9.9686217e-01
 -1.0860477e-01
 -2.8087680e+00
  3.7225666e+00
  1.2025303e-01
  1.8858713e+00
 -2.1133053e+00
 -2.2889292e-01
  7.9219198e-01
  2.7187786e+00
 -7.4421084e-01
 -7.8683186e-01
  8.2622772e-01
  1.9426478e+00
  3.4267793e+00
  8.4768873e-01
  3.9536064e-03
 -1.8961360e+00
  4.2181829e-01
 -1.5352509e+00
 -4.6594808e-01
  8.3546209e-01
  3.9544427e-01
  2.4821332e-01
 -5.0841051e-01
  1.8546888e+00
 -1.1689377e+00
 -1.8781151e-01
 -1.0827120e-01
 -5.5603182e-01
  1.2574871e-01
  7.1134299e-01
 -4.6032959e-01
  9.9870390e-01
 -7.6719183e-01
 -1.4461960e+00
  3.7425327e-01
 -1.1058258e-02
  2.7961931e-01
  1.8745953e+00
  5.3099661e+00
  2.2839575e+00
  3.0451241e+00
  6.3436264e-01
  2.6334912e-01
 -1.3768323e-01
  3.0379052e+00
 -3.5081322e+00
 -2.5323584e+00
 -2.4206184e-01
  1.3147935e+00
  8.9823961e-01
  2.5614853e+00
  4.1054010e-01
 -4.4419283e-01
 -3.5748293e+00
  1.4969871e+00
 -2.1175422e-01
 -2.5027302e-01
  1.0009003e+00
 -6.7716211e-01
 -3.8386147e+00
 -4.8194051e+00
  2.7968413e-01
 -3.7341470e-01
  1.0190204e+00
 -6.1991799e-01
 -2.4799099e+00
 -5.8195565e-02
 -5.5838221e-01
  3.1774056e+00
  1.6946249e+00
 -4.1495109e-01
 -1.9138768e-01
  1.9791728e-01
 -1.7588024e+00
  6.3289337e-02
 -1.0075456e+00
 -5.5818403e-01
 -1.4058084e+00
 -1.7783570e+00
  1.3204108e+00
  1.0961936e+00
  1.2059722e-01
 -5.9058207e-01
 -3.6976781e+00
  3.5762039e-01
 -3.0913279e+00
 -1.8587664e+00
  3.2534906e-01
  9.8864056e-02
  1.5906689e+00
  2.6761386e+00
  2.3801033e+00
  2.7039416e+00
  8.9723444e-01
 -1.0467004e+00
  4.9765515e+00
  2.8385615e+00
  1.7256914e+00
 -5.7700527e-01
  9.4531047e-01
  6.1481554e-02
  5.3413548e+00
  9.9100515e-02
  2.3082728e+00
  2.8541687e+00
 -1.2106209e-01
  1.9932680e+00
 -2.0695872e+00
 -1.2947859e+00
 -5.3019959e-02
 -4.5438045e-01
  6.6237622e-01
  1.4890616e-01
 -1.5203772e+00
 -4.0189924e+00
 -6.0893023e-01
 -5.1212029e+00
  4.6840495e-01
 -4.8447192e-01
  1.4761717e+00
  3.2399671e+00
  2.8819718e+00
 -2.6228762e+00
  2.4888833e+00
 -8.7141007e-01
  1.4555583e+00
 -3.3376631e-01
 -9.5269710e-01
  1.1368155e-01
 -4.5687678e-01
  5.2857667e-01
  1.7744688e-02
  4.7489986e-02
  1.3263065e+00
  7.9690206e-01
 -1.7671684e+00
 -2.8118217e-01
 -3.3136530e+00
 -1.1984231e-01
  7.6098579e-01
 -8.0035979e-01
  2.5878403e-01
 -1.6068530e+00
 -3.1659322e+00
 -5.0973029e+00
 -1.3727473e+00
 -4.0144038e+00
 -2.2415848e+00
 -1.4490530e+00
 -1.8628058e+00
  2.9630382e+00
  1.1018089e+00
 -7.1487063e-01
 -1.2601343e-01
 -4.1652018e-01
 -4.8883003e-01
  5.1731271e-01
  2.0242910e+00
 -7.9068041e-01
  4.1216331e+00
  7.3723149e-01
  3.9139490e+00
  2.5385901e-01
  3.4227760e+00
 -2.5741189e+00
  6.5742064e-01
  2.3240235e+00
  2.7374771e+00
 -5.6762707e-01
  5.2074337e-01
 -1.7936966e+00
  4.8201904e-01
  2.2978716e+00
 -2.7504671e+00
  3.4151444e+00
  7.0355086e+00
  1.0948184e+00
 -5.5003816e-01
 -6.7860830e-01
  7.2146702e-01
 -1.6164538e+00
  2.4009907e+00
 -2.2187366e+00
  4.2333555e+00
  6.8706489e-01
  1.1540823e+00
  2.5967574e-01
  4.8951760e-01
 -2.2219913e+00
  2.3005679e-02
  1.4080222e+00
  3.7630942e-01
 -2.9253407e+00
  1.3495500e+00
 -3.0597825e+00
  2.4898393e+00
  8.4345174e-01
  1.1554953e+00
  6.5285617e-01
 -3.1930113e+00
 -1.6722777e+00
  1.8410783e+00
  1.6315021e-01
  1.1625016e+00
  1.0047564e-01
  1.1311679e+00
 -5.6303704e-01
  3.6230481e+00
  1.0835763e+00
 -2.8356862e+00
  3.6606913e+00
 -4.9751362e-01
  1.0057297e+00
 -4.4151659e+00
  9.5143087e-02
 -8.7404406e-01
  3.5872030e-01
  1.9415714e+00
 -3.7084417e+00
  1.7496219e+00
  1.3914261e+00
 -1.0019539e-01
 -2.4448252e+00
 -1.0059540e+00
 -3.9388222e-01
 -6.7961478e+00
  7.4760801e-01
 -6.2523456e+00
 -2.7661090e+00
  3.8662009e-02
 -2.1695369e-01
  2.5750868e+00
  3.1179423e+00
  4.3021786e-01
 -1.5107436e+00
  6.8029755e-01
 -5.5635041e-01
 -2.9382706e+00
 -3.8350091e+00
 -4.3407845e-01
  9.8241156e-01
  3.9502928e+00
 -5.9829303e-03
 -1.0305560e+00
  7.5544286e-01
  1.4856275e+00
  5.4393811e+00
  3.3691916e-01
 -3.6420137e-01
  6.9781941e-01
  1.1381477e+00
 -2.8701475e+00
  3.4844181e-01
 -1.2425917e+00
 -1.7383891e+00
  1.1115668e+00
  5.9413524e+00
 -1.9463726e+00
 -1.5749525e+00
 -4.7416563e+00
 -7.2611821e-01
  1.1437569e-01
 -4.8476896e+00
  2.0747108e+00
  2.9335918e+00
  1.4060056e+00
  6.9361830e-01
  9.8907316e-01
 -6.9727683e+00
  3.0143395e-01
 -2.6428553e-01
 -1.3379296e+00
 -6.9434293e-02
 -2.1366361e-01
 -1.7364053e-02
  3.9180920e-01
 -8.8164307e-02
 -3.9894927e-01
  5.3685313e-01
 -6.2616205e-01
 -1.1631999e+00
 -4.4186029e-01
  2.7737720e+00
  8.9678302e-02
 -2.3384382e-01
 -7.5654209e-01
 -1.4264477e+00
  6.7360890e-01
 -1.9161291e+00
  1.6886824e-01
 -6.3525689e-01
 -4.9091607e-01
 -8.1486121e-02
 -5.8124202e-01
  1.6982971e+00
  2.7542951e-02
 -2.5128269e+00
 -2.2607287e-02
  1.1428986e-01
  2.4179174e-01
 -1.1419153e+00
  1.0001673e+00
 -1.2246158e-02
  4.2843699e+00
  2.3358659e-01
 -1.8471409e+00
  3.2019201e-01
  8.5500509e-02
  4.1495595e+00
 -5.5360407e-01
 -6.6440505e-01
 -1.0090437e+00
  3.3709967e-01
 -2.1196008e+00
  2.5625930e+00
  5.9787555e+00
  4.8543498e-01
 -1.2097044e+00
 -2.4710541e+00
 -1.7134690e-01
 -4.2956010e-01
 -9.3977708e-01
  6.8681359e-01
  4.3340135e-01
 -1.6578579e+00
  1.6314501e-01
 -1.4932745e+00
  7.7775449e-01
 -1.8668542e+00
  5.7257153e-02
  5.7870860e+00
 -8.7167293e-02
  9.2431009e-01
 -4.2426425e-01
  5.2573420e-02
  5.3128138e+00
 -1.2164906e+00
  2.7355621e+00
 -2.4578068e-01
 -2.0273207e-01
 -2.0004480e+00
  7.6128322e-01
 -2.5496583e+00
 -7.7823573e-01
  3.8583905e-01
  2.4409521e+00
 -6.1195504e-02
  1.3091089e-01
 -6.3534433e-01
  1.3480438e-01
  6.7601830e-01
  2.6375788e-01
  2.2274141e+00
 -5.8885479e-01
  1.8104456e-01
 -3.1061869e+00
  6.8078464e-01
 -2.3557377e+00
  6.9418454e-01
 -2.4989738e+00
 -1.2357180e+00
 -2.5367413e+00
 -4.5237291e-01
  6.4760846e-01
 -1.2418976e+00
 -3.8733444e-01
 -1.2038082e-01
  2.8042381e+00
  4.9520028e-03
  5.5478734e-01
 -9.8033595e-01
  6.8849903e-01
 -6.3375235e-01
 -8.2262963e-01
  5.0329107e-01
  1.1605436e+00
 -1.1123426e-01
  1.4817781e+00
 -1.5330446e+00
 -1.5876329e-01
 -3.3670619e-01
  2.6232833e-01
  1.7983533e+00
  2.6060803e+00
 -1.6201781e+00
 -3.7647296e-02
  4.3914189e+00
  1.4365214e+00
  8.8289976e-01
  1.1803439e+00
 -5.3775007e-01
 -2.3817363e-01
  3.0182374e+00
 -3.6893470e+00
 -5.0467503e-01
 -8.8209897e-01
  1.0050539e+00
 -1.5001210e+00
  2.7420479e-01
 -7.6257206e-02
  1.1553100e-01
  5.5176443e-01
 -2.8619438e-01
 -1.0059010e+00
 -3.3837721e-01
 -3.8781157e-01
  1.6616362e+00
 -3.1139524e+00
 -8.3058846e-01
  3.9525218e+00
 -1.1091619e+00
  3.9862862e-01
  7.0824581e-01
 -3.1430478e+00
 -6.6511267e-01
 -4.1392283e+00
 -1.9415636e+00
  6.2118375e-01
  9.2486638e-01
 -8.6913455e-01
 -4.2164434e-02
  3.1838885e-01
  2.4657698e-01
  2.1062593e-01
 -1.9747263e-01
  2.7076211e+00
 -2.9484558e+00
  1.5113892e-01
 -1.1672501e-01
 -4.3460661e-01
  3.7546074e+00
  1.4606076e+00
  2.9599824e+00
 -1.9926522e+00
  1.5209073e+00
 -2.7741200e-01
  4.9663415e+00
 -3.5113323e+00
 -2.6219568e-01
  3.2855725e-01
  9.2524663e-02
 -3.0032561e+00
 -5.8659024e+00
 -1.4051042e+00
  5.3726906e-01
 -2.7827811e-01
 -1.3901714e+00
  4.6892300e-01
 -2.6235940e+00
 -3.4028680e+00
  2.6598814e-01
 -4.0055907e-01
 -4.0439301e+00
  8.5707080e-01
 -6.7056835e-01
 -2.7119282e-01
  1.0615171e+00
 -1.3901461e+00
  4.5376298e-01
  4.1217297e-01
 -7.0988792e-01
  6.4856493e-01
 -8.0668753e-01
  9.3198138e-01
  2.0945780e+00
  4.5678788e-01
 -2.0140685e-01
  3.2886830e-01
 -1.3249446e+00
 -2.1695268e+00
  1.3080649e+00
 -2.4233985e+00
  1.7023950e+00
 -1.1026622e-01
 -6.4280838e-01
  6.0520673e-01
  1.9341293e-01
  1.2544206e+00
  2.1307045e-01
  2.0467670e-01
 -1.1439064e+00
 -6.8797736e+00
  8.3569199e-02
 -1.3489050e-01
 -2.6329088e+00
  4.6095201e-01
  1.2269430e+00
 -5.4288909e-02
  4.6089017e-01
  8.4094250e-01
 -4.6378360e+00
 -2.1698356e+00
 -6.9791865e-01
  2.7387020e-01
  6.0840768e-01
 -6.7389750e+00
 -1.6290948e+00
  2.3874972e+00
 -6.8718469e-01
  9.0381509e-01
 -6.9288146e-01
  8.6925346e-01
  1.4873374e+00
  6.7920399e-01
  3.4642289e+00
 -1.0097891e+00
  8.9383984e-01
 -8.7453514e-01
  9.7205736e-02
  1.0489682e+00
  6.2378798e-02
  1.9425994e-01
  1.2700807e+00
 -3.1289853e-02
  7.9761362e-01
 -3.5979936e-01
  1.8181814e-01
 -1.6787473e+00
  2.8241861e-01
 -3.2422606e-02
  4.4442579e-01
  5.5355555e-01
  1.7581946e+00
  1.2887686e-01
  2.3943086e-01
  1.9874046e+00
  2.3659267e+00
  4.5291467e+00
  1.0685643e+00
  4.3046322e+00
 -1.2409319e+00
 -7.8136630e-02
  9.8143779e-02
  1.4058256e+00
  4.0293309e-01
  9.6451861e-01
 -6.4032978e-01
  1.1680217e+00
  8.0199283e-01
  6.4221686e-01
 -2.2842513e-01
  8.6310607e-01
 -1.5475491e+00
  4.2451745e-01
 -9.6308434e-01
 -3.4786513e-01
 -1.1672615e+00
 -1.5968341e+00
 -4.1100442e-01
 -2.6698244e-01
 -2.0020218e-01
  5.6859607e-01
 -5.8350734e-02
 -5.2705598e-01
  8.4852660e-01
  1.0559123e+00
  2.5042984e-01
  1.2984148e-01
 -1.3001623e+00
 -1.6450967e+00
  9.3768770e-01
 -3.1488600e-01
  2.3782057e-01
  3.3696252e-01
  3.7431414e+00
 -2.9724389e-02
  1.6357321e-01
  3.3426496e-01
 -2.5641313e-01
  1.1464911e+00
  1.1490522e-01
 -6.3652039e-01
 -1.0362798e+00
 -4.0974861e-01
 -8.2649571e-01
  2.4823749e+00
 -1.1647798e+00
  1.3875027e+00
 -1.8369350e+00
 -1.3673547e-01
  1.4042639e+00
 -2.0411527e+00
 -2.6393905e+00
 -3.6508746e+00
  2.6368442e+00
 -2.3737977e+00
  8.4922659e-01
 -2.5474756e+00
 -9.9763763e-01
  2.8225255e-01
 -1.4912221e+00
  7.2428696e-02
  1.0535027e+00
 -1.4206864e+00
  2.5658333e+00
 -1.3678401e+00
 -5.9187078e-01
  2.7306610e-01
 -5.1047277e+00
  5.2206903e+00
  1.3014284e-01
 -3.5548672e-02
  8.2093507e-01
 -4.4854280e-01
 -1.2427239e+00
 -4.3365431e-01
  5.3165829e-01
 -3.4535246e+00
 -1.7931572e+00
 -1.2404623e+00
 -2.2969635e+00
  4.5121533e-01
  6.5547705e-01
 -2.3068490e+00
 -5.5835903e-01
 -2.6674056e+00
 -1.4731412e-01
 -2.5921195e+00
 -1.2331141e+00
  1.8684978e+00
 -3.8486657e-01
  2.2457449e-01
  3.0163884e-01
 -9.7944593e-01
 -2.5820008e-01
 -3.8091370e-01
 -1.2845225e+00
  1.7596618e+00
  5.1936495e-01
 -2.6950383e+00
 -1.2602322e-02
  1.2518908e-01
 -5.6937671e-01
 -3.1860110e-01
  1.7298036e+00
 -6.6704226e-01
  2.0327277e+00
 -7.4973410e-01
 -1.8436183e+00
  1.8727677e-01
 -6.0125351e-01
 -1.3270829e+00
  6.3967592e-01
 -3.2070912e-02
 -5.4196405e+00
  3.8836241e-01
 -3.3647721e+00
 -1.6661149e+00
  5.5839860e-01
  2.2505343e+00
  2.3559062e+00
  2.8785437e-01
 -9.4567105e-02
  6.0876989e-01
 -4.0196443e-01
 -2.2565393e+00
  1.1578935e-01
 -2.1707708e-01
 -1.5278636e-01
 -1.6207783e-01
 -1.5817896e-01
  5.4060564e+00
 -1.7372696e-02
 -2.8308179e+00
 -5.0434506e-01
  2.1687429e-01
 -1.6000905e+00
  4.1874671e+00
  1.0376815e-01
 -6.0722649e-01
  1.8192537e+00
 -2.2642906e+00
  3.0073586e-01
 -6.5198559e-01
 -1.4921787e+00
 -5.4094714e-01
 -2.2462847e+00
 -5.1879281e-01
 -9.9689233e-01
 -8.8273144e-01
 -3.5317633e-01
  3.9407083e-01
 -4.7769127e+00
 -2.4345517e+00
 -5.1956278e-01
  3.7345529e-02
  1.6773459e-01
  4.1942206e-01
 -3.8487222e+00
  2.2594755e+00
 -5.7391983e-01
  4.0118787e-01
 -3.0361307e+00
  6.8411791e-01
 -1.1347098e+00
 -1.1651772e-01
  2.4586762e-01
 -6.2647337e-01
  2.9886413e+00
 -1.5197195e-01
  2.4148332e-01
 -1.4445713e+00
 -2.8649604e-01
  4.8613018e-01
 -4.0110984e-01
  8.1751728e-01
 -3.8438696e-01
  3.4574566e+00
 -9.1372482e-02
 -3.6253970e-02
 -9.8273879e-01
  1.0220128e+00
 -3.5643670e-01
 -3.0975637e-01
  1.0667702e+00
  4.5640430e+00
  2.4592642e-01
  4.7199230e+00
 -7.0805371e-02
  3.2402804e-01
  1.7414680e+00
 -3.4771425e-01
  1.3757772e+00
 -9.6193129e-01
  3.9170453e-01
 -6.7295718e-01
 -1.7221400e+00
  5.4684782e-01
 -7.3991328e-01
  2.9817645e-02
 -1.2415351e+00
  3.4350160e-01
  1.8491333e+00
  1.6208978e+00
 -5.4747498e-01
 -4.8259804e-01
  8.0403864e-01
  2.7815747e+00
 -1.8801972e+00
  4.8035440e-01
 -3.8201502e-01
 -3.7435262e+00
  2.3286535e-01
  4.2474470e-01
 -7.3099542e-01
  3.0265911e+00
  1.1515304e+00
 -1.5981048e-01
  2.1483040e+00
 -2.2723169e+00
 -7.1245617e-01
 -9.1671824e-02
  1.6072007e+00
  3.5864048e+00
  1.0589513e+00
 -2.0411696e+00
  7.6740809e-02
  1.1783595e-01
  1.6785505e-01
  3.7723548e+00
 -2.6546147e-01
  8.9644349e-01
  1.1194679e+00
 -9.2740566e-01
  2.5676627e+00
  3.1354842e-01
 -4.1422516e-01
 -1.2688149e+00
  4.2478400e-01
 -8.6499387e-01
 -9.8033309e-01
 -8.4442687e-01
 -2.1881397e+00
  5.8093846e-01
  9.1675609e-02
 -1.8592601e+00
 -4.7881064e-01
 -8.0463886e-01
  2.7269271e-01
  1.9552766e-01
 -1.1652697e+00
 -1.4134901e+00
 -8.1739835e-02
 -9.9550140e-01
  9.3380976e-01
 -3.8997177e-02
 -2.3820992e+00
  1.0583396e-01
 -2.9385824e+00
  3.2388976e-01
  2.9012337e-01
  4.0682454e+00
 -9.2087269e-01
  1.5508935e-01
  2.1185153e+00
 -3.1872621e+00
 -4.7579899e+00
 -7.2544718e-01
  1.2780085e+00
  3.1735295e-01
 -2.5858099e+00
 -9.6417320e-01
  1.6893803e+00
 -7.2571468e-01
  8.9482099e-01
  4.1316101e-01
  2.6169217e+00
  9.2312598e-01
 -1.5206248e+00
  2.0632435e-01
 -2.6459208e+00
 -4.9696347e-01
 -4.3566182e-01
  3.3393998e+00
 -1.0519345e-01
  6.7690484e-02
 -3.2735803e+00
 -1.0296375e+00
 -3.7637195e-01
 -2.0789895e+00
 -9.9984443e-01
 -2.7394667e-01
  4.4947462e+00
  1.3733242e+00
  6.7558074e+00
 -4.9293962e-01
 -6.2892057e-02
 -2.0480468e+00
  7.5438076e-01
 -1.0009803e+00
 -3.0786261e-01
  1.8319470e+00
  3.7304040e-02
  1.4504899e+00
 -1.0815109e+00
  5.5349559e-01
  6.4909440e-01
 -9.6143550e-01
 -8.0721527e-01
  2.2182207e+00
 -4.4240746e-01
  2.8830272e-01
 -3.1414339e-01
  3.8632736e-01
 -3.7237626e-01
  1.3719391e+00
  3.1670697e+00
  1.4318950e-01
  3.1113532e+00
  3.6495190e+00
 -5.4044282e-01
  2.5791708e-01
 -1.7488550e-01
 -1.0642252e+00
 -8.5575676e-01
 -1.7242395e+00
  4.2832613e-01
  1.0830866e+00
  1.1723169e+00
  3.1272941e+00
 -8.7017930e-01
 -7.5245518e-03
 -7.6525941e-02
 -1.9305971e-01
 -1.0880522e+00
  3.0807704e-01
 -3.2836416e+00
 -6.6581661e-01
  2.1181300e+00
  1.1117913e+00
 -4.2626348e+00
  1.9493197e+00
 -3.3894014e-01
 -3.5062987e-01
 -2.3396842e-01
  3.4686464e-01
  1.4680806e-01
  3.6296433e-01
  1.0142879e-02
 -1.6721187e+00
  1.0688614e+00
 -1.9041483e-01
  9.6208006e-01
  1.7097503e-01
  7.3765522e-01
  8.4172688e-02
 -1.5731963e+00
  4.1662960e+00
 -1.4456506e+00
 -1.4659958e-01
 -3.8246694e-01
  2.8629560e-02
 -1.9866461e-01
  2.7012428e-02
 -9.4943687e-02
  2.9889429e+00
  9.1366047e-01
  1.8332732e+00
  8.5101098e-02
  1.2347823e+00
 -2.2338934e+00
  8.8074587e-02
 -4.1536251e-01
  6.1625986e+00
 -9.6911025e-01
 -1.4366018e+00
 -4.9105164e-01
 -1.7892101e+00
 -2.4444520e-01
 -1.1145495e+00
  2.1012521e-01
  9.2759967e-01
  1.2855182e+00
 -7.6146513e-01
 -7.5233096e-01
  1.7516305e+00
  4.3396822e-01
  3.8406935e+00
  5.0221145e-02
 -2.0463898e+00
 -8.2444638e-01
  1.7711815e+00
 -1.0576507e-01
 -2.7570745e-01
 -7.6965785e-01
 -5.2329671e-01
 -7.8768497e+00
 -2.4487090e+00
 -3.3258361e-01
  1.1207201e+00
 -2.3626283e-01
  1.0741673e+00
  3.9491507e-01
 -2.8166494e-01
 -1.6825666e+00
 -4.8995051e-01
 -2.3724088e-01
 -1.0062543e+00
  6.1846781e-01
  5.4367626e-01
 -4.8153356e-01
  2.4411995e-03
 -6.0263073e-01
 -2.6919040e-01
  2.2744696e+00
 -1.2506419e+00
 -1.2951350e-01
  7.0659053e-01
 -3.8587931e-01
  1.4905680e+00
 -8.6132908e-01
 -2.1753621e+00
 -1.7101638e+00
  1.1027105e+00
  3.7294080e+00
  1.1124785e-01
  4.3362174e+00
 -1.3265548e+00
  2.4584301e+00
 -1.2887729e+00
 -2.3789024e-01
  1.6764165e-01
 -2.5871780e+00
  2.2689767e+00
 -8.9286286e-01
  4.0714488e+00
  1.3555412e+00
  1.7149203e+00
 -2.4802639e+00
  1.0075413e+00
 -8.7148237e-01
 -4.8902801e-01
 -5.0897461e-01
  2.6143472e+00
  6.9073021e-01
 -1.6792594e+00
 -1.2674797e-01
 -1.5832760e+00
  6.3051763e+00
  7.6395494e-01
 -2.6726999e+00
  5.3223699e-01
  5.4764259e-01
  1.0642309e+00
 -2.1120040e+00
  9.8804392e-02
 -1.5936242e-01
  1.1420838e+00
  1.5215157e+00
 -2.2058272e+00
  1.1292955e+00
 -1.1249530e+00
 -1.8578141e+00
 -5.4031076e+00
  2.3715060e+00
  5.0924821e+00
  4.4915253e-01
  1.6865846e+00
 -1.2501258e+00
  1.0423334e+00
 -3.2903185e-01
 -5.7165182e-01
 -7.1596491e-01
  7.3845661e-01
  1.4763956e+00
 -4.8553517e-01
 -2.0920351e+00
  2.1819091e+00
  2.0231748e-01
  1.5140164e+00
 -2.4424450e-02
 -1.1347656e+00
  1.9210719e+00
 -8.0535424e-01
  2.0679929e+00
 -2.8650179e+00
 -1.0751818e+00
 -2.2435064e+00
 -1.4927082e+00
 -8.0047584e-01
 -3.7160810e-02
  9.5900172e-01
 -9.0346664e-02
  5.0071377e-01
 -1.6140927e+00
 -1.8230084e+00
  1.0005662e+00
  2.6281455e+00
 -2.9272695e+00
  2.0132854e+00
  3.2918544e+00
 -3.2673684e-01
 -2.3618615e+00
 -1.4251463e+00
  2.4464886e+00
  1.2814767e+00
 -3.4779319e-01
  8.8428661e-02
  5.7569551e-01
  3.1846585e+00
 -2.1006203e+00
 -2.5209886e-01
  2.1263213e+00
  2.0208428e+00
 -2.4197602e+00
 -6.9257975e-02
 -5.3073925e-01
 -2.4386199e+00
  1.4905102e+00
 -4.0162635e+00
  1.1343780e+00
  2.0627482e+00
 -9.7628570e-01
 -4.0290004e-01
  7.9165727e-01
 -2.3713307e-01
  3.5562572e-01
 -1.3285474e-02
  5.0829859e+00
 -1.1583453e-01
 -1.2386377e+00
  1.6227392e+00
 -7.7375424e-01
 -7.2995251e-01
  8.9283741e-01
  2.5828412e-01
  1.8172815e-01
  2.4037457e+00
  1.3317782e+00
  5.6878496e-02
  1.0721803e+00
 -1.4706890e-01
  1.1270089e-02
  1.5404232e-01
 -4.7166938e-01
  7.7372801e-01
 -5.6935936e-01
  3.2305223e-01
  2.0848827e+00
 -2.7340287e-01
 -9.8747426e-01
 -2.4822009e-01
  1.8171253e+00
  5.3860462e-01
 -1.3144451e+00
  6.7744088e-01
 -1.7859278e+00
  8.8581182e-02
 -2.1575336e+00
 -2.8830161e+00
 -8.9369375e-01
  4.7274226e-01
 -8.1675041e-01
  4.4409725e-01
  1.8429540e+00
  7.7401280e-01
 -2.5717523e+00
  1.2449154e+00
  2.5082178e+00
  1.4186993e-01
 -3.2467213e+00
 -8.9613765e-01
 -8.6484718e-01
 -1.9245565e-01
 -3.7472937e-01
  8.4096003e-01
  2.1709697e-02
 -1.5706180e+00
 -7.8934616e-01
 -5.6728441e-01
  7.5417435e-01
 -3.0699487e+00
 -7.6399773e-01
  1.9549357e+00
 -1.5178448e+00
  7.8351718e-01
 -3.3383999e+00
  3.4508202e+00
  1.0271541e-01
  1.6327292e+00
 -3.0823042e+00
  1.5400402e-01
 -2.7765447e-01
  4.6856874e-01
  2.1013772e+00
 -1.3975275e+00
  4.5403223e+00
  1.9566476e+00
  1.9725894e+00
 -6.4417710e+00
 -1.8985246e+00
  1.4580736e+00
  2.2843564e+00
  6.8766242e-01
 -1.1902809e-01
  3.4908917e+00
  2.2275796e+00
  2.2558842e+00
 -3.6434493e+00
 -1.3448247e+00
  9.2558527e-01
  1.3549761e-01
 -1.2294184e+00
 -4.5355806e-01
  2.5736341e+00
  2.8661132e+00
  2.5494964e+00
  6.0374576e-01
 -2.9965079e+00
  5.5321723e-01
 -4.0020101e-02
 -1.9184078e+00
 -1.5385329e+00
  4.8625234e-01
  4.8101211e-01
 -1.5657438e+00
 -1.1904465e+00
 -1.3348506e-01
 -3.8181970e+00
  5.4380625e-01
 -7.5170267e-01
  2.4948699e+00
 -3.0280235e+00
  2.4473634e+00
 -2.3014469e-01
  2.6423094e-01
 -3.8427898e-01
 -2.6904645e+00
  8.1929147e-01
 -2.4597111e+00
 -6.1344437e-02
 -3.3073294e+00
 -1.8306221e-01
 -5.7093196e+00
  8.5835063e-01
  2.4872234e+00
 -3.2782827e-02
 -1.0240856e+00
  1.1879812e+00
  2.2936153e+00
 -2.9192502e+00
 -2.6276715e+00
 -1.6022313e+00
  1.5656899e+00
 -1.1141460e-01
  2.8461024e-01
 -8.7440538e-01
 -2.0892045e+00
 -5.9387463e-01
 -5.4060035e+00
 -2.0685732e+00
 -1.6681011e+00
  2.5502825e+00
  2.7848101e-01
 -3.9446524e-01
 -4.7959116e-01
  1.8109472e-01
 -6.9428807e-01
 -1.6612183e+00
  6.7706352e-01
 -3.0008504e-01
 -8.2997811e-01
 -1.1372421e+00
 -9.8378837e-01
  2.4643488e+00
  1.9804721e+00
 -4.3775934e-01
  2.6013565e-01
  5.5040205e-01
  3.8763145e-01
  1.2427431e+00
 -9.7162122e-01
 -2.8558734e-01
 -5.7240146e-01
 -3.5908480e+00
  1.3109598e+00
  1.4314899e+00
 -6.1354518e-01
 -7.1167016e-01
  1.3893007e+00
  1.6059370e-01
 -3.1259176e-01
 -1.9102163e+00
 -5.0049651e-01
  4.6678696e+00
  1.3596497e+00
  8.1588817e-01
  2.1095078e+00
  2.3811982e+00
 -5.7073140e-01
 -1.8865688e+00
 -1.4136641e+00
 -2.2754180e+00
  4.9761147e+00
 -2.2603419e+00
 -2.7339556e+00
 -7.6598965e-02
  1.1586744e+00
  1.3666199e-01
 -6.8814147e-01
 -3.0341789e-01
 -6.0475459e+00
  3.8049653e-01
 -8.0690378e-01
 -4.2013798e+00
  9.3075371e-01
  1.0357449e+00
 -1.2836921e+00
 -1.8035641e+00
  1.0481845e+00
  3.5507417e-01
 -9.3115681e-01
  1.1418098e+00
 -3.0852301e+00
 -7.4979842e-01
  1.9390750e+00
 -2.2752588e+00
 -3.3627493e+00
  8.9690393e-01
 -1.2889640e-01
 -2.6767664e+00
  3.0185249e-01
  2.1915849e-01
  1.3862925e+00
  1.7307435e-01
  2.8062923e+00
 -7.7706105e-01
 -1.2685159e+00
 -5.0027990e+00
  8.1911647e-01
  1.0979176e+00
 -3.8569233e-01
  3.5432938e-01
  7.7697879e-01
  1.9303943e-01
  8.8893169e-01
 -3.8825858e+00
  1.0979780e+00
 -4.0859451e+00
  3.0455060e-02
  8.9268064e-01
  7.9975474e-01
 -3.4804210e-01
 -2.6129184e+00
 -1.8606704e+00
  3.6578169e-01
  6.5515268e-01
  1.6594291e-01
  2.1605623e-01
  8.7804341e-01
  3.8685656e-01
  1.8268337e+00
 -4.1895056e-01
  8.3981976e-02
 -1.3913953e+00
  5.8170027e-01
 -3.5291059e+00
 -3.2767742e+00
 -7.4979663e-01
 -8.7790316e-01
 -8.4279823e-01
  8.8785082e-01
 -4.9022380e-01
  1.2772715e+00
 -1.3632010e+00
 -2.1522365e+00
 -9.5707655e-01
 -4.5049798e-01
  1.5022629e-01
  2.8728992e-01
  8.9369839e-01
  9.8689236e-03
 -5.3309864e-01
  3.1510241e+00
  5.6590362e+00
  1.6452865e-01
 -5.6200076e-02
  2.4182002e-01
 -7.7293769e-02
 -3.5733628e-01
 -1.5159422e-01
 -1.6402534e+00
  9.8832771e-02
 -1.7159890e+00
  1.2872463e+00
 -2.3254982e-01
  3.0679550e+00
  6.0984588e-01
 -2.9805863e+00
  2.8115699e+00
 -2.6757390e+00
 -9.5593941e-01
  1.6512477e+00
 -1.9651619e+00
  8.2965213e-01
  2.2486470e+00
 -3.8845462e-01
 -2.0591983e-01
  1.0949756e+00
  9.8068798e-01
 -3.8435011e+00
 -7.9159123e-01
 -7.5994670e-01
  2.7811167e+00
  2.1792050e-01
  1.4077635e-01
  7.2360092e-01
  1.4595863e-01
 -5.4106444e-01
 -2.3978174e+00
  1.8140295e+00
 -8.4233677e-01
 -3.8970646e-02
  2.4323646e-02
  1.7654553e-01
  1.5787112e+00
  3.9453965e-02
 -2.0473716e-01
  5.4275405e-01
  2.7564433e+00
  2.5696647e-01
  1.9811823e+00
 -1.9412783e+00
 -3.6974976e+00
  2.8805116e-01
  5.2327752e-01
 -1.9251919e+00
 -3.4325501e-01
 -1.6842715e-01
  1.0590763e+00
 -7.0875770e-01
  1.3043754e-01
  1.2359893e+00
  2.1204510e-01
  8.2724029e-01
 -1.1912789e+00
  2.7818725e-01
 -3.4545789e+00
  3.2778988e+00
 -4.0838585e+00
  2.1632769e+00
  2.0492413e+00
 -1.1604058e+00
 -2.5719323e+00
  1.5386139e-01
  2.0816932e+00
 -4.1510577e+00
  3.4627479e-01
 -2.2664335e-01
 -7.0516504e-02
  2.5275047e+00
 -1.5696121e+00
 -5.3058648e-01
  6.6699043e-02
 -4.9377948e-02
 -1.4098235e+00
 -1.4780577e+00
  3.1220617e+00
 -1.9789710e+00
  4.9626660e-02
  7.4196324e-02
  1.6635025e+00
  2.0060353e+00
 -3.9026722e-01
  9.1065478e-01
 -2.7626503e-01
  1.0597500e-01
 -4.0309817e-01
 -2.4309213e+00
 -2.1548226e+00
  3.3277771e+00
  2.0942689e-01
 -4.3200555e+00
  2.4284527e-02
  1.0935093e+00
 -8.6974919e-01
 -1.5779116e+00
  2.2847602e-01
 -3.8864949e+00
  1.7092633e+00
 -4.7506973e-01
  7.4684583e-03
 -1.2549400e+00
  3.3058035e-01
 -1.0210633e+00
 -1.8740229e-01
 -3.8386042e+00
  1.4055356e-01
  7.4529596e-02
  1.8994832e+00
 -5.5900705e-01
  5.9312308e-01
  3.4024904e+00
  3.9034241e-01
  2.1981311e-01
 -1.1182483e+00
  6.9009483e-01
 -3.2871154e-01
 -8.1627315e-01
 -1.5383794e+00
 -9.2019224e-01
 -1.6055980e-01
  1.4893295e-02
  1.1277655e-01
 -3.9046831e-02
 -8.4733760e-01
  2.0468038e-02
 -4.2025551e-01
 -1.8871508e+00
  2.8815129e+00
  2.1044677e-02
  2.2088048e+00
  1.8560681e-01
 -1.6594636e+00
  1.0206660e-01
 -1.8501178e+00
 -7.7557725e-01
 -5.2887309e-01
 -1.8201366e-02
 -1.1274424e-02
 -4.4109061e-01
  3.1100345e+00
 -3.5410287e+00
 -3.9023403e-02
 -1.0193542e+00
 -9.6049771e-02
 -2.6413965e-01
  3.7661784e+00
 -3.1877163e-01
 -2.2679338e+00
  4.3772048e-01
 -4.4740561e-01
 -3.2291058e-01
  2.0176423e-01
 -2.2006731e+00
 -1.6126182e+00
  7.1620888e-01
 -1.2352497e-01
  8.1200129e-01
  2.7709477e+00
  1.0528649e-01
  4.7462910e-01
 -2.6823288e-01
  1.8171369e-01
 -7.8473806e-01
  4.1646886e-01
  1.3526473e+00
  9.4350368e-01
  1.1217126e+00
 -3.4258448e-02
  3.0610220e+00
 -1.6259784e+00
 -1.5119119e+00
 -9.4706041e-01
 -6.3142699e-01
  3.6689836e-01
  6.0603029e-01
 -2.3432014e+00
 -9.6687853e-01
  6.1271560e-01
 -5.0436181e-01
  6.9179392e-01
  2.9665670e+00
  5.2749521e-01
  2.9681890e+00
 -1.0350649e-03
  2.4962759e-01
 -2.9049954e+00
 -1.2027744e+00
 -1.1651807e+00
 -5.5924737e-01
 -9.8699979e-02
 -4.1077429e-01
 -3.3125821e-01
  5.4464591e-01
  2.7326792e-01
 -1.3101314e-01
 -8.0503786e-01
 -5.2046466e-01
 -1.1696554e-01
 -1.6627614e-01
  4.7818488e-01
 -2.9531896e-01
  1.6741379e+00
  8.6089814e-01
 -1.2005231e+00
 -1.0703200e+00
 -8.5921681e-01
 -7.0103663e-01
  1.9507258e-01
  5.2209860e-01
  8.3969277e-01
  2.6581508e-01
  5.0071245e-01
  1.2539300e+00
 -1.8121606e-01
 -1.8529576e+00
  9.3571389e-01
  1.5212601e+00
  1.4766309e+00
  4.8139751e-01
 -2.3403044e+00
  2.0287197e+00
 -6.1389947e-01
 -1.6043820e+00
  3.6596227e+00
  1.6445396e+00
  1.0847754e+00
 -2.3834692e-01
 -2.6809583e+00
 -2.6774590e+00
  8.3343469e-02
  1.6595433e+00
 -1.7632526e-01
  3.0408399e+00
  1.0835272e+00
 -3.1839985e-01
 -5.1695061e-01
 -3.4500215e+00
  2.2252445e+00
 -1.2354665e-01
 -6.5626013e-01
 -7.5537252e-01
 -9.8795348e-01
  1.5405670e+00
  2.7137523e+00
 -7.6922101e-01
 -2.3174661e-01
  1.6621050e+00
  1.2868360e+00
 -9.6269137e-01
  8.3223522e-01
 -1.4137512e-01
  6.5938044e-01
  2.9613808e-01
  1.4999270e-02
  6.3968313e-01
 -2.1588590e+00
 -1.1567202e+00
 -9.8427826e-01
 -7.9260963e-01
 -1.1278285e+00
 -4.0055406e-01
 -3.0717030e+00
  6.2515082e+00
  1.1669932e-02
  3.7009013e-01
  2.3837015e-02
  1.2691177e+00
 -1.4846818e+00
 -5.9354313e-02
 -1.4130118e+00
 -5.5515509e-02
  2.1812654e+00
  4.7555348e-01
 -1.8388110e+00
 -1.7379211e+00
  6.7517139e-02
  2.3008540e+00
 -1.8296611e-01
  1.6488744e+00
  2.0040309e-01
 -4.5117879e+00
 -6.6324741e-02
 -5.7064869e-02
 -5.7377476e-01
 -8.3834851e-01
 -3.1341530e-02
  6.0522839e-02
  1.4062074e-01
 -3.4750946e-02
 -1.8452101e+00
  2.3584688e-02
 -7.5299847e-01
 -1.0549989e+00
  7.8312421e-01
  1.9289950e+00
  3.5223255e+00
  4.5266252e+00
  3.6498263e+00
 -4.0446037e-01
 -1.1009150e+00
  8.7825334e-01
  1.2581253e-01
 -2.0585287e+00
  6.3062871e-01
  5.0374430e-01
 -1.5484604e+00
  4.1674919e+00
  6.7899264e-02
 -7.4009448e-01
  9.0023333e-01
 -2.5205234e-01
  1.1756818e-01
  2.5889537e+00
  5.0377145e+00
 -3.1672416e+00
  1.7160432e+00
  1.4566350e-01
  1.1885751e+00
 -1.0937796e-01
  8.2982320e-01
  4.7982731e+00
  3.3578823e+00
  1.5182558e+00
  3.8287764e+00
 -1.1609747e-01
 -1.4501815e-02
 -9.2297763e-01
  8.2187784e-01
 -2.7644718e+00
  8.9141846e-02
  4.7891051e-01
 -4.6500465e-01
 -2.0976922e-01
 -5.5334097e-01
  3.2436174e-01
  3.3470622e-01
  1.4193292e+00
 -1.2057749e+00
  5.7101917e-01
 -1.1055125e-01
  4.2946315e-01
 -4.0701303e+00
 -5.4252011e-01
 -3.8501164e-01
  9.2783219e-01
 -4.2251277e-01
 -1.1111029e+00
  1.0628408e-01
 -7.9330575e-01
  3.4371972e-01
 -6.0981989e-01
 -6.8990058e-01
 -1.3334563e+00
  3.8361102e-01
  1.9524455e-01
 -1.0242798e+00
 -5.8978591e-02
  4.5949182e-01
  3.9773393e-01
  6.0130185e-01
  2.1417002e-01
  2.5557470e-01
  3.4060042e+00
  6.6668019e-02
 -2.0540583e+00
  9.8612666e-01
 -1.1749591e-01
 -1.3170329e-01
  3.5032414e-02
  2.6454751e+00
 -2.4462803e-01
 -2.3930993e+00
  6.3006940e+00
  1.3483009e-01
